~o
<STREAMINFO> 1 39
<VECSIZE> 39<NULLD><MFCC_D_A_0><DIAGC>
~s "silst"
<MEAN> 39
 -8.515691e+000 -3.656929e+000 1.067981e+000 -4.567820e+000 -7.030402e-001 -2.204085e+000 -8.015725e-001 -1.419952e+000 2.448174e-001 -2.371585e+000 -3.968598e-001 -2.346051e+000 5.422749e+001 -1.376384e-001 5.755435e-003 3.201219e-002 1.943627e-001 1.426783e-001 8.327797e-002 2.003077e-001 1.646607e-001 1.710165e-001 1.391683e-001 1.119147e-001 8.458452e-002 -2.320304e-001 1.924957e-002 -3.890487e-002 -4.983470e-002 -1.666158e-002 -5.027097e-002 -1.539154e-002 -3.768575e-003 6.926402e-003 1.294216e-002 3.700036e-004 1.022282e-002 8.334878e-003 -4.089318e-002
<VARIANCE> 39
 3.308006e+001 4.012088e+001 4.893008e+001 5.979081e+001 5.195492e+001 4.441348e+001 5.219537e+001 5.223483e+001 4.597597e+001 4.089066e+001 3.891280e+001 3.065673e+001 7.146184e+001 1.645634e+000 2.269775e+000 2.322090e+000 3.050272e+000 2.780138e+000 2.808769e+000 3.081014e+000 3.069961e+000 3.110085e+000 2.784345e+000 2.526244e+000 2.133180e+000 2.349797e+000 2.865890e-001 3.697308e-001 3.951917e-001 5.189449e-001 4.873742e-001 5.152074e-001 5.609864e-001 5.691985e-001 5.711325e-001 5.187364e-001 4.716046e-001 4.016101e-001 2.969949e-001
<GCONST> 1.232243e+002
~h "a"
<BEGINHMM>
<NUMSTATES> 5
<STATE> 2
<MEAN> 39
 -5.166764e+000 -1.597269e+001 -4.166288e+000 -1.409470e+001 -4.093379e+000 -6.113874e+000 -1.556874e+000 -1.370130e+000 -6.379598e+000 -8.226615e+000 -6.171710e+000 -4.808248e+000 7.371239e+001 -5.537375e-001 -1.919119e+000 -4.157369e-001 2.459239e-001 7.952813e-001 4.427611e-001 5.460868e-001 -3.005786e-001 -1.326733e+000 -1.239949e+000 -1.045268e-001 7.521270e-003 1.446575e+000 6.264634e-004 5.238266e-001 2.626761e-001 3.731820e-001 -1.565184e-002 -1.181011e-002 -2.782236e-001 -4.178844e-001 6.133169e-002 2.803672e-001 3.083200e-001 7.200383e-002 -4.592347e-001
<VARIANCE> 39
 2.288518e+001 5.251621e+001 6.256870e+001 8.201994e+001 8.815654e+001 6.197988e+001 7.080990e+001 8.217908e+001 7.648154e+001 5.514127e+001 6.303608e+001 6.126834e+001 7.555059e+001 1.218448e+000 3.006264e+000 2.648306e+000 3.816524e+000 3.861334e+000 3.691573e+000 4.086430e+000 4.474072e+000 4.073662e+000 3.450741e+000 3.924517e+000 3.310495e+000 4.052865e+000 2.352955e-001 6.275994e-001 4.107938e-001 7.379707e-001 6.111156e-001 5.869180e-001 7.279012e-001 7.850058e-001 8.159229e-001 6.794322e-001 7.006415e-001 6.616439e-001 9.031693e-001
<GCONST> 1.351472e+002
<STATE> 3
<MEAN> 39
 -6.231586e+000 -2.005386e+001 -4.864528e+000 -1.426302e+001 -3.119411e+000 -5.642025e+000 -1.210962e+000 -3.618503e+000 -1.020897e+001 -1.045315e+001 -5.698851e+000 -4.685350e+000 7.799721e+001 -1.436712e-001 -3.589864e-001 -3.310756e-002 5.657405e-001 2.240663e-001 4.751502e-002 -5.133621e-002 -5.820892e-001 -4.460005e-001 -1.973081e-001 3.053979e-001 3.474426e-002 6.449641e-002 2.287300e-001 5.112520e-001 1.971262e-001 -8.008114e-002 -3.036103e-001 -2.209414e-001 -2.368921e-001 7.776825e-002 3.669405e-001 3.652871e-001 -1.286494e-002 -2.076029e-002 -3.717043e-001
<VARIANCE> 39
 2.055234e+001 3.417698e+001 5.475032e+001 6.205049e+001 7.513657e+001 5.693740e+001 6.330089e+001 9.082247e+001 6.668137e+001 4.689487e+001 5.572865e+001 5.443652e+001 1.572814e+001 4.767954e-001 1.111036e+000 1.264696e+000 1.750142e+000 2.411403e+000 1.813622e+000 1.970365e+000 2.104313e+000 1.957871e+000 1.903680e+000 2.140712e+000 1.806388e+000 4.407842e-001 8.020605e-002 1.949576e-001 2.101346e-001 3.179204e-001 3.098706e-001 3.263259e-001 3.550179e-001 4.220635e-001 4.090530e-001 3.678489e-001 3.843244e-001 3.445077e-001 1.151652e-001
<GCONST> 1.099762e+002
<STATE> 4
<MEAN> 39
 -5.088165e+000 -1.883437e+001 -4.074246e+000 -1.121857e+001 -3.363988e+000 -4.721995e+000 -2.586571e+000 -4.026350e+000 -9.437967e+000 -9.708828e+000 -5.433233e+000 -5.923427e+000 7.610149e+001 1.875807e-001 4.459457e-001 1.973387e-001 5.471312e-002 -1.963761e-001 -2.506389e-001 -1.365647e-001 -1.789439e-002 1.459231e-001 1.193604e-001 -7.952056e-002 -3.798315e-002 -4.717551e-001 9.432844e-002 2.295295e-001 6.907146e-002 -1.847075e-002 -7.323980e-002 -7.273539e-002 -6.310041e-002 9.304343e-003 8.794841e-002 9.441432e-002 -4.021809e-002 1.883752e-002 -1.867068e-001
<VARIANCE> 39
 2.273571e+001 4.701887e+001 5.825384e+001 6.899689e+001 7.299609e+001 5.699855e+001 6.803705e+001 9.322186e+001 6.951579e+001 5.055340e+001 5.005206e+001 5.631194e+001 4.338279e+001 3.538305e-001 9.765884e-001 7.976112e-001 1.130553e+000 1.266338e+000 1.282868e+000 1.247592e+000 1.404177e+000 1.278116e+000 1.382201e+000 1.242690e+000 1.076615e+000 5.036168e-001 5.040268e-002 1.381111e-001 1.321412e-001 1.978038e-001 1.808662e-001 2.016720e-001 2.185792e-001 2.643785e-001 2.200786e-001 2.262783e-001 2.077215e-001 1.782142e-001 8.458492e-002
<GCONST> 1.004317e+002
<TRANSP> 5
 0.000000e+000 1.000000e+000 0.000000e+000 0.000000e+000 0.000000e+000
 0.000000e+000 5.439789e-001 4.560211e-001 0.000000e+000 0.000000e+000
 0.000000e+000 0.000000e+000 5.726070e-001 4.273930e-001 0.000000e+000
 0.000000e+000 0.000000e+000 0.000000e+000 8.621075e-001 1.378925e-001
 0.000000e+000 0.000000e+000 0.000000e+000 0.000000e+000 0.000000e+000
<ENDHMM>
~h "b"
<BEGINHMM>
<NUMSTATES> 5
<STATE> 2
<MEAN> 39
 2.630600e-001 -1.916944e+000 1.809692e+000 -7.064445e+000 -4.541852e+000 -5.367583e+000 -7.168892e+000 -8.310989e+000 -6.121960e+000 -5.517719e+000 -5.435384e+000 -6.202474e+000 5.855312e+001 7.256573e-001 1.187873e+000 5.634710e-001 1.285875e+000 6.962858e-001 2.316597e-001 -2.668344e-001 -1.017787e+000 -7.538434e-001 -6.752514e-001 -3.713238e-001 -4.378729e-001 -1.314070e+000 -1.048186e-001 -3.469960e-001 -2.695665e-001 -4.500144e-001 -8.583091e-002 -8.326435e-003 9.777768e-003 2.088562e-001 1.021969e-001 1.100227e-001 9.581497e-002 2.939005e-002 6.588826e-001
<VARIANCE> 39
 2.491971e+001 5.044175e+001 5.091395e+001 7.356676e+001 4.809749e+001 6.268714e+001 5.586782e+001 6.078212e+001 5.394469e+001 5.224395e+001 5.905241e+001 4.343992e+001 6.982803e+001 1.745767e+000 2.063304e+000 2.545666e+000 4.687501e+000 3.402993e+000 3.380136e+000 4.300108e+000 4.049088e+000 4.093191e+000 3.710952e+000 3.641166e+000 2.954738e+000 4.915531e+000 2.962891e-001 5.896050e-001 5.881630e-001 1.071209e+000 6.625243e-001 6.632465e-001 7.713248e-001 8.760437e-001 8.782666e-001 8.795471e-001 7.907321e-001 6.022733e-001 9.098729e-001
<GCONST> 1.344572e+002
<STATE> 3
<MEAN> 39
 2.838529e+000 1.918224e-001 8.175351e-001 -7.201547e+000 -3.318568e+000 -4.272892e+000 -9.072830e+000 -1.171476e+001 -8.443510e+000 -6.428069e+000 -5.515694e+000 -7.452242e+000 6.001255e+001 -3.217713e-002 -2.575220e+000 -2.346441e+000 -2.771745e+000 -1.995285e-001 -2.799441e-001 -3.175157e-001 1.804572e+000 1.458638e+000 1.336805e+000 8.696836e-001 -1.834197e-001 4.262924e+000 -4.789229e-001 -1.091432e+000 -4.218631e-001 -7.697122e-001 -1.743464e-001 8.106130e-002 3.631618e-001 9.548404e-001 4.871919e-001 1.706906e-001 -1.023333e-002 1.110585e-001 1.055612e+000
<VARIANCE> 39
 1.300433e+001 3.435339e+001 4.277259e+001 5.576801e+001 3.019692e+001 5.567693e+001 4.845635e+001 5.126038e+001 4.679447e+001 5.182819e+001 6.228955e+001 3.597316e+001 4.262235e+001 1.828685e+000 5.062142e+000 4.181147e+000 5.925603e+000 4.412330e+000 4.855700e+000 6.201666e+000 6.929191e+000 6.699398e+000 6.016953e+000 6.310666e+000 5.189262e+000 4.258553e+000 2.829390e-001 6.493814e-001 8.967648e-001 1.315510e+000 9.181395e-001 8.727584e-001 1.280305e+000 1.087392e+000 1.227807e+000 1.345419e+000 1.274088e+000 1.000195e+000 1.006483e+000
<GCONST> 1.402878e+002
<STATE> 4
<MEAN> 39
 8.874374e-001 -1.093373e+001 -6.584613e+000 -1.624057e+001 -3.667356e+000 -5.179121e+000 -8.253958e+000 -2.700795e+000 -1.649834e+000 -3.057987e+000 -5.292054e+000 -8.133067e+000 7.383060e+001 -1.228797e+000 -3.471884e+000 -1.233486e+000 -2.115233e+000 -1.744090e-001 1.771859e-001 1.329136e+000 2.630147e+000 5.196770e-001 -3.626029e-001 -3.668788e-001 2.965169e-001 3.864672e+000 -2.288298e-001 5.868635e-001 8.510883e-001 7.568389e-001 -5.696764e-002 2.037143e-001 3.170223e-001 -6.542918e-001 -8.598158e-001 -5.975900e-001 -6.422045e-002 2.491549e-001 -1.050068e+000
<VARIANCE> 39
 1.593787e+001 6.206802e+001 5.852880e+001 7.712444e+001 5.209101e+001 8.944861e+001 6.713671e+001 6.500552e+001 6.098881e+001 7.442127e+001 7.369108e+001 6.590694e+001 3.812708e+001 1.551993e+000 4.870010e+000 5.410661e+000 8.917219e+000 7.377765e+000 6.989036e+000 7.949276e+000 6.665276e+000 6.754014e+000 7.490057e+000 7.134484e+000 6.219286e+000 4.263259e+000 2.698573e-001 6.230391e-001 4.964451e-001 1.340625e+000 8.993381e-001 9.663992e-001 9.657453e-001 1.087382e+000 1.058248e+000 1.147280e+000 1.118917e+000 9.170606e-001 6.700746e-001
<GCONST> 1.448825e+002
<TRANSP> 5
 0.000000e+000 1.000000e+000 0.000000e+000 0.000000e+000 0.000000e+000
 0.000000e+000 7.589487e-001 2.410512e-001 0.000000e+000 0.000000e+000
 0.000000e+000 0.000000e+000 5.908367e-001 4.091633e-001 0.000000e+000
 0.000000e+000 0.000000e+000 0.000000e+000 3.481611e-001 6.518389e-001
 0.000000e+000 0.000000e+000 0.000000e+000 0.000000e+000 0.000000e+000
<ENDHMM>
~h "c"
<BEGINHMM>
<NUMSTATES> 5
<STATE> 2
<MEAN> 39
 -4.489670e+000 -3.472766e+000 -9.313165e-001 -6.369360e+000 -3.263500e+000 -4.646909e+000 -2.841124e+000 -4.096832e+000 -1.609347e+000 -1.889319e+000 -2.390986e+000 -3.069724e+000 5.561114e+001 -8.162463e-001 -1.018216e-001 -1.317957e-001 1.288065e+000 7.484426e-001 6.129686e-001 9.187288e-001 7.622696e-001 9.755924e-001 3.246433e-001 5.596716e-001 2.173905e-001 -1.740742e+000 -7.929995e-002 -2.689073e-001 -2.628001e-001 -3.175769e-001 1.747134e-002 -6.659478e-002 -6.071576e-002 6.800430e-002 -1.605136e-002 5.001187e-002 5.929023e-003 5.996436e-002 5.977038e-001
<VARIANCE> 39
 2.338478e+001 3.758351e+001 5.157192e+001 5.491592e+001 5.250744e+001 5.516295e+001 5.462599e+001 5.706984e+001 5.173942e+001 4.476723e+001 5.072605e+001 4.049522e+001 5.346146e+001 1.518862e+000 2.575544e+000 3.064450e+000 4.198699e+000 3.627479e+000 3.804556e+000 3.891253e+000 3.925194e+000 3.930964e+000 3.537912e+000 3.556598e+000 2.929552e+000 3.974647e+000 2.799284e-001 4.957744e-001 5.301318e-001 7.299685e-001 7.218081e-001 8.384134e-001 7.449707e-001 7.929142e-001 7.939603e-001 7.091699e-001 6.666610e-001 5.710384e-001 7.198132e-001
<GCONST> 1.315786e+002
<STATE> 3
<MEAN> 39
 -8.277958e+000 -5.301280e+000 -3.462878e+000 -3.353846e+000 3.041309e-001 -3.911108e+000 -7.920449e-002 -1.473830e+000 2.030305e+000 6.717250e-002 -1.985920e-001 -1.128367e+000 5.517378e+001 -2.203615e-001 -5.319664e-001 -1.110825e+000 -4.428484e-001 6.898168e-001 -1.022435e+000 -1.124090e-001 2.730673e-001 -3.009051e-002 5.170230e-001 -1.282404e-001 5.006614e-001 2.599959e+000 6.639026e-001 7.778947e-002 7.775738e-002 -9.815922e-001 -5.284945e-001 -3.036186e-001 -5.694449e-001 -3.789182e-001 -6.864308e-001 -2.756909e-001 -4.383631e-001 -3.145910e-001 1.014204e+000
<VARIANCE> 39
 1.917360e+001 3.093457e+001 4.626199e+001 3.372477e+001 5.604485e+001 5.011769e+001 4.545462e+001 4.249884e+001 3.990728e+001 3.550325e+001 3.500617e+001 2.793533e+001 5.313744e+001 2.676074e+000 3.835869e+000 5.550253e+000 5.124576e+000 7.271433e+000 5.725542e+000 5.764027e+000 5.337571e+000 4.825192e+000 4.538899e+000 4.267151e+000 3.901609e+000 9.079755e+000 3.735237e-001 6.344056e-001 8.096550e-001 9.612019e-001 1.121492e+000 1.014818e+000 8.944707e-001 9.399320e-001 8.350100e-001 8.547100e-001 9.274927e-001 8.983905e-001 9.300981e-001
<GCONST> 1.376464e+002
<STATE> 4
<MEAN> 39
 -5.764007e+000 -5.442319e+000 -4.604107e+000 -7.690691e+000 -1.041070e+000 -7.111286e+000 -2.657004e+000 -2.169013e+000 -4.508780e-001 1.945153e-001 -1.849068e+000 -1.517383e+000 6.306610e+001 1.356193e+000 -2.767913e-001 -2.658944e-001 -2.701315e+000 -1.066617e+000 -6.230181e-001 -1.028087e+000 -5.211322e-001 -1.472641e+000 -6.122159e-001 -9.998247e-001 -8.609174e-001 2.935642e+000 2.098801e-001 -9.973167e-002 1.990545e-001 -3.746471e-001 -2.301500e-001 4.302421e-001 -9.478394e-002 -1.980945e-001 -2.878567e-001 -4.068043e-001 -1.067895e-001 -3.592013e-001 -2.037074e-001
<VARIANCE> 39
 2.572083e+001 3.997376e+001 6.326946e+001 6.665038e+001 8.983961e+001 6.982029e+001 6.443044e+001 5.904634e+001 5.114142e+001 4.617955e+001 4.599764e+001 4.570435e+001 8.971378e+001 2.834851e+000 4.867629e+000 5.406625e+000 8.370595e+000 6.946687e+000 5.784915e+000 6.677835e+000 6.523900e+000 5.422364e+000 5.292682e+000 6.477303e+000 5.798835e+000 6.859400e+000 4.592637e-001 6.777858e-001 7.948457e-001 1.162621e+000 1.465157e+000 1.131539e+000 1.048387e+000 9.246747e-001 9.146581e-001 8.653062e-001 9.065101e-001 8.198044e-001 1.075036e+000
<GCONST> 1.454453e+002
<TRANSP> 5
 0.000000e+000 1.000000e+000 0.000000e+000 0.000000e+000 0.000000e+000
 0.000000e+000 7.711289e-001 2.288712e-001 0.000000e+000 0.000000e+000
 0.000000e+000 0.000000e+000 5.328053e-001 4.671947e-001 0.000000e+000
 0.000000e+000 0.000000e+000 0.000000e+000 3.539992e-001 6.460008e-001
 0.000000e+000 0.000000e+000 0.000000e+000 0.000000e+000 0.000000e+000
<ENDHMM>
~h "d"
<BEGINHMM>
<NUMSTATES> 5
<STATE> 2
<MEAN> 39
 -1.966526e+000 -3.231459e+000 3.831607e+000 -7.971881e+000 -8.298778e+000 -8.082775e+000 -8.627653e+000 -6.996672e+000 -5.640202e+000 -5.205394e+000 -5.276038e+000 -4.651002e+000 6.197388e+001 4.552434e-001 1.195702e+000 9.997322e-001 1.533241e+000 2.861395e-001 -5.957961e-001 -7.780919e-001 -7.028902e-001 -4.390189e-001 -8.438187e-001 -3.827405e-001 -3.874846e-001 -1.055584e+000 -9.847324e-002 -2.146804e-001 -8.000971e-002 -1.592756e-001 9.986541e-002 2.952582e-002 6.004403e-002 1.878327e-001 5.169392e-002 -6.900965e-002 9.792532e-003 -1.130947e-002 3.462946e-001
<VARIANCE> 39
 3.561008e+001 7.697290e+001 7.840071e+001 9.781803e+001 6.996398e+001 6.210471e+001 6.707813e+001 8.317341e+001 6.244476e+001 5.810091e+001 6.185655e+001 5.166592e+001 8.333014e+001 1.941319e+000 2.948271e+000 3.321201e+000 5.314866e+000 5.709171e+000 4.416451e+000 4.899528e+000 4.969458e+000 4.362526e+000 4.400718e+000 4.020351e+000 3.400879e+000 4.348770e+000 2.969872e-001 7.169583e-001 5.792736e-001 1.073613e+000 1.178730e+000 7.560449e-001 8.473157e-001 1.111457e+000 8.306444e-001 8.958595e-001 7.404011e-001 6.475034e-001 7.431180e-001
<GCONST> 1.407815e+002
<STATE> 3
<MEAN> 39
 -1.162603e+000 5.329687e-002 7.175902e+000 -4.548031e+000 -7.169098e+000 -9.612751e+000 -1.129669e+001 -9.225751e+000 -6.820362e+000 -8.079910e+000 -6.626905e+000 -6.049512e+000 6.106537e+001 -3.706422e-001 -1.326762e+000 3.656783e-001 -1.009031e+000 -1.068216e+000 -4.260712e-001 -3.036506e-001 1.341038e+000 2.522310e-001 2.417296e-001 4.678151e-001 2.757320e-001 2.169856e+000 -1.913844e-001 -9.514784e-001 -5.447368e-001 -1.072987e+000 -5.221716e-001 2.015712e-001 4.329241e-001 8.008863e-001 2.521031e-001 5.415272e-001 1.975793e-001 1.712040e-001 1.059060e+000
<VARIANCE> 39
 3.344947e+001 5.081053e+001 6.040831e+001 8.685343e+001 5.936413e+001 5.011878e+001 5.694707e+001 6.472944e+001 5.462888e+001 5.989530e+001 5.710054e+001 4.026098e+001 3.867126e+001 2.276184e+000 5.553638e+000 4.720345e+000 8.793100e+000 8.043072e+000 4.662809e+000 5.657870e+000 7.679393e+000 5.400392e+000 6.079592e+000 4.990390e+000 3.817926e+000 6.939419e+000 4.735500e-001 7.623508e-001 8.090733e-001 1.383983e+000 1.561303e+000 9.940424e-001 1.180405e+000 1.272252e+000 1.020043e+000 1.120989e+000 1.040240e+000 7.816879e-001 9.692825e-001
<GCONST> 1.452507e+002
<STATE> 4
<MEAN> 39
 -2.451264e+000 -7.513490e+000 5.122922e+000 -1.202015e+001 -1.204603e+001 -9.990697e+000 -9.572119e+000 -3.107236e+000 -5.282362e+000 -5.116650e+000 -4.798985e+000 -4.599414e+000 7.024262e+001 -2.443089e-001 -2.306079e+000 -1.405879e+000 -1.894269e+000 -4.551238e-001 1.767954e-001 9.681613e-001 2.073385e+000 5.453268e-001 4.131640e-001 -1.430831e-001 -8.151993e-003 2.670563e+000 -5.313377e-002 1.287922e-001 -3.989542e-001 -2.070663e-002 6.233738e-001 2.872181e-001 2.342492e-001 -2.729654e-001 -5.213394e-002 -1.152231e-001 -1.872489e-001 -1.481467e-001 -1.936668e-001
<VARIANCE> 39
 2.669012e+001 6.308013e+001 7.793815e+001 1.187840e+002 7.343907e+001 5.775576e+001 7.702538e+001 9.778238e+001 6.549827e+001 6.441216e+001 6.428757e+001 4.023396e+001 5.732621e+001 1.854745e+000 4.779099e+000 5.262345e+000 8.747710e+000 9.079560e+000 5.238221e+000 6.956549e+000 8.324472e+000 6.049710e+000 6.406906e+000 5.423316e+000 4.303479e+000 6.024156e+000 2.413087e-001 8.482764e-001 6.392296e-001 1.556216e+000 1.514856e+000 8.480611e-001 1.269746e+000 1.645513e+000 1.001220e+000 1.131426e+000 9.524431e-001 7.435080e-001 1.064125e+000
<GCONST> 1.475461e+002
<TRANSP> 5
 0.000000e+000 1.000000e+000 0.000000e+000 0.000000e+000 0.000000e+000
 0.000000e+000 6.705763e-001 3.294237e-001 0.000000e+000 0.000000e+000
 0.000000e+000 0.000000e+000 5.362329e-001 4.637671e-001 0.000000e+000
 0.000000e+000 0.000000e+000 0.000000e+000 3.918664e-001 6.081336e-001
 0.000000e+000 0.000000e+000 0.000000e+000 0.000000e+000 0.000000e+000
<ENDHMM>
~h "e"
<BEGINHMM>
<NUMSTATES> 5
<STATE> 2
<MEAN> 39
 -7.111111e+000 -9.964211e+000 2.454222e+000 -1.570471e+001 -1.035076e+001 -6.791852e+000 1.445088e+000 -1.754465e+000 -3.282839e+000 -4.224486e+000 -4.253141e+000 -4.257588e+000 6.898769e+001 -5.088664e-001 -9.986666e-001 5.894414e-001 -1.448686e+000 -9.897627e-001 3.462878e-001 7.940140e-001 4.768036e-002 -6.517839e-001 -3.147111e-001 -4.541869e-001 -8.030493e-001 1.535145e+000 -5.922771e-002 2.578328e-001 -8.335941e-002 1.959355e-001 2.308078e-001 1.886049e-001 -2.119350e-001 -2.045721e-001 5.669327e-002 9.798618e-002 6.644364e-002 -1.937479e-003 -1.622406e-001
<VARIANCE> 39
 2.128499e+001 4.552244e+001 6.033407e+001 1.028089e+002 8.599300e+001 7.217357e+001 6.232936e+001 6.691840e+001 6.761037e+001 4.657055e+001 5.611555e+001 4.105600e+001 1.092756e+002 1.379843e+000 2.618193e+000 2.525326e+000 4.561754e+000 3.668767e+000 3.522958e+000 4.374788e+000 3.884090e+000 3.554089e+000 3.187187e+000 3.513030e+000 2.736920e+000 5.478122e+000 3.094252e-001 5.197791e-001 4.044570e-001 9.676525e-001 6.623005e-001 6.905065e-001 7.411778e-001 6.169825e-001 5.939095e-001 5.978683e-001 5.853912e-001 4.837359e-001 9.865594e-001
<GCONST> 1.337172e+002
<STATE> 3
<MEAN> 39
 -8.176162e+000 -1.254744e+001 4.210637e+000 -2.119091e+001 -1.411863e+001 -6.984549e+000 1.487743e+000 -2.881757e+000 -5.996726e+000 -5.157399e+000 -6.388766e+000 -7.376708e+000 7.636426e+001 -2.632388e-001 -2.638139e-001 1.988284e-001 -4.293914e-001 -2.668096e-001 4.136265e-001 -6.104428e-002 -2.214008e-001 -1.904074e-001 -3.647994e-002 -2.079322e-001 -4.294682e-001 3.972042e-001 1.841274e-001 2.698740e-001 -1.011045e-001 4.033818e-001 2.325412e-001 -8.777025e-002 -2.030792e-001 -3.624151e-002 1.014509e-001 2.580898e-002 1.344963e-001 2.909176e-001 -3.531004e-001
<VARIANCE> 39
 2.260112e+001 3.471557e+001 5.961692e+001 7.868839e+001 5.646436e+001 5.854827e+001 5.345938e+001 7.998833e+001 5.598074e+001 4.522645e+001 5.354993e+001 3.538694e+001 1.847804e+001 4.901013e-001 1.097941e+000 1.059755e+000 1.134273e+000 1.243651e+000 1.385346e+000 1.810433e+000 1.626700e+000 1.696434e+000 1.690398e+000 1.589130e+000 1.435291e+000 6.850405e-001 1.179300e-001 2.346465e-001 1.598582e-001 2.606736e-001 2.526974e-001 2.758256e-001 3.267511e-001 3.310661e-001 3.111567e-001 3.119470e-001 3.281820e-001 2.783521e-001 1.778346e-001
<GCONST> 1.061434e+002
<STATE> 4
<MEAN> 39
 -7.435246e+000 -1.226162e+001 4.624578e+000 -2.028850e+001 -1.470612e+001 -5.929305e+000 -6.953211e-002 -2.788733e+000 -7.019963e+000 -5.164888e+000 -6.484078e+000 -7.278106e+000 7.663610e+001 2.982166e-001 -4.003122e-002 -2.550089e-002 3.209546e-001 1.343780e-001 -2.161411e-001 -1.320485e-001 -3.395455e-002 -1.073754e-001 -1.118789e-001 1.319318e-002 1.237502e-001 -2.359538e-001 1.513367e-001 1.014767e-001 -4.369668e-002 2.196597e-001 1.390971e-001 -1.313603e-001 -1.489267e-001 -2.364410e-002 4.467131e-002 1.110805e-002 2.619765e-002 6.022274e-002 -2.051192e-001
<VARIANCE> 39
 2.209149e+001 3.293339e+001 5.641927e+001 9.113914e+001 5.172647e+001 5.934702e+001 5.303086e+001 8.579378e+001 5.342068e+001 4.942408e+001 6.006912e+001 3.578065e+001 1.494016e+001 3.730127e-001 7.074904e-001 6.728987e-001 9.739833e-001 9.858857e-001 1.145012e+000 1.258227e+000 1.039454e+000 1.006855e+000 1.068864e+000 9.334255e-001 8.396503e-001 3.438619e-001 6.231001e-002 1.205857e-001 1.117260e-001 1.845259e-001 1.811825e-001 1.848333e-001 2.528762e-001 2.281874e-001 1.776590e-001 1.826316e-001 1.579611e-001 1.429167e-001 7.992255e-002
<GCONST> 9.414957e+001
<TRANSP> 5
 0.000000e+000 1.000000e+000 0.000000e+000 0.000000e+000 0.000000e+000
 0.000000e+000 6.303181e-001 3.696819e-001 0.000000e+000 0.000000e+000
 0.000000e+000 0.000000e+000 5.183017e-001 4.816983e-001 0.000000e+000
 0.000000e+000 0.000000e+000 0.000000e+000 8.734785e-001 1.265215e-001
 0.000000e+000 0.000000e+000 0.000000e+000 0.000000e+000 0.000000e+000
<ENDHMM>
~h "f"
<BEGINHMM>
<NUMSTATES> 5
<STATE> 2
<MEAN> 39
 -9.089259e+000 -3.815657e-001 1.176163e+001 -1.973963e+001 -1.258639e+001 -1.035576e+001 -1.057293e+001 -9.791245e+000 -8.714879e+000 -4.516280e+000 -5.662232e+000 -5.369161e+000 7.152866e+001 6.393811e-002 -7.100926e-001 3.507347e-001 -6.834294e-001 -1.112644e+000 3.175835e-001 1.370351e-001 1.311553e-001 7.052482e-001 6.478254e-001 2.552861e-001 -1.337526e-001 6.927869e-001 3.687556e-002 2.680115e-001 -7.428837e-002 3.408832e-001 2.142483e-001 -6.990943e-002 -2.351035e-002 -1.907873e-001 6.198232e-002 3.753819e-003 7.598723e-002 1.157548e-001 -2.615202e-001
<VARIANCE> 39
 1.495114e+001 4.412642e+001 6.022067e+001 1.220682e+002 5.503275e+001 4.266768e+001 5.432615e+001 6.825861e+001 5.084232e+001 5.315659e+001 9.254604e+001 3.596213e+001 2.771964e+001 3.916836e-001 9.314155e-001 1.106232e+000 1.190655e+000 1.934982e+000 1.275126e+000 1.686536e+000 1.772787e+000 1.680354e+000 1.970960e+000 1.763084e+000 1.668180e+000 4.656846e-001 7.209826e-002 1.890721e-001 1.812579e-001 2.841565e-001 4.006263e-001 2.372579e-001 3.603500e-001 2.695562e-001 3.263406e-001 3.702742e-001 3.301741e-001 2.391808e-001 1.008955e-001
<GCONST> 1.062711e+002
<STATE> 3
<MEAN> 39
 -8.302122e+000 -1.598679e+000 1.522892e+001 -2.274637e+001 -1.532164e+001 -9.981950e+000 -1.187416e+001 -1.040835e+001 -6.925121e+000 1.615013e-001 -5.270500e+000 -3.456239e+000 7.272446e+001 1.119060e-001 2.340673e-001 5.024331e-001 2.175459e-001 -1.510483e-002 1.489811e-001 -2.435533e-001 -3.771542e-001 1.518458e-002 9.100019e-002 6.917780e-003 1.359842e-001 -3.241936e-001 4.535135e-002 8.016824e-002 -2.116705e-002 2.063464e-001 1.345740e-001 1.044259e-004 4.512648e-002 3.586535e-003 -8.292182e-002 -9.297700e-002 -1.657781e-002 -3.291293e-002 -1.618248e-001
<VARIANCE> 39
 1.321788e+001 3.207883e+001 5.669514e+001 8.329901e+001 3.502597e+001 3.844821e+001 5.760465e+001 5.098143e+001 5.302864e+001 4.073165e+001 6.807223e+001 2.753718e+001 1.765836e+001 2.242089e-001 5.957389e-001 4.789882e-001 6.461967e-001 8.518293e-001 6.941440e-001 1.017549e+000 9.400850e-001 9.333384e-001 1.110429e+000 8.445652e-001 8.209324e-001 2.646683e-001 4.005590e-002 7.697046e-002 8.681495e-002 1.377093e-001 1.393866e-001 1.214397e-001 1.920520e-001 1.651356e-001 1.577822e-001 1.838828e-001 1.526356e-001 1.387282e-001 3.839062e-002
<GCONST> 8.565418e+001
<STATE> 4
<MEAN> 39
 -5.727834e+000 2.474345e+000 1.718562e+001 -8.359534e+000 -1.443821e+001 -3.445861e+000 -9.940005e+000 -8.201288e+000 -6.618663e+000 -4.189425e+000 1.985414e+000 -5.622378e+000 6.623110e+001 2.503989e-001 1.812229e-003 -3.941255e-001 8.970748e-001 7.458788e-001 2.752270e-001 7.127495e-001 3.141617e-001 1.770549e-001 -3.430911e-002 -6.251047e-002 3.726600e-003 -9.905603e-001 1.149030e-002 -1.837772e-002 -2.157008e-001 1.301724e-001 2.241226e-001 -2.148688e-002 1.303967e-001 1.334442e-001 1.051773e-001 -2.036941e-002 -2.957341e-002 4.269607e-002 -1.578600e-001
<VARIANCE> 39
 1.259548e+001 3.728794e+001 6.590629e+001 9.111823e+001 7.034327e+001 4.731435e+001 5.130070e+001 5.721195e+001 5.411425e+001 4.358403e+001 7.420049e+001 3.183257e+001 6.837247e+001 5.490500e-001 9.709744e-001 1.605978e+000 2.213402e+000 1.940704e+000 1.613021e+000 2.169823e+000 1.808118e+000 2.014386e+000 1.821112e+000 1.553308e+000 1.306209e+000 8.756310e-001 8.470014e-002 1.464143e-001 2.172238e-001 3.430142e-001 3.635320e-001 2.509485e-001 3.404417e-001 3.034656e-001 3.206488e-001 3.330072e-001 2.561626e-001 2.439427e-001 1.541713e-001
<GCONST> 1.088735e+002
<TRANSP> 5
 0.000000e+000 1.000000e+000 0.000000e+000 0.000000e+000 0.000000e+000
 0.000000e+000 5.399879e-001 4.600121e-001 0.000000e+000 0.000000e+000
 0.000000e+000 0.000000e+000 8.671482e-001 1.328519e-001 0.000000e+000
 0.000000e+000 0.000000e+000 0.000000e+000 8.204229e-001 1.795771e-001
 0.000000e+000 0.000000e+000 0.000000e+000 0.000000e+000 0.000000e+000
<ENDHMM>
~h "g"
<BEGINHMM>
<NUMSTATES> 5
<STATE> 2
<MEAN> 39
 -2.285569e+000 -1.484167e+000 2.317714e+000 -8.270934e+000 -5.361698e+000 -1.165745e+001 -8.168587e+000 -8.519810e+000 -6.121605e+000 -2.867496e+000 -5.292723e+000 -3.503229e+000 6.275427e+001 -1.707719e-001 -4.553217e-001 9.376340e-002 -5.221983e-001 -3.141383e-001 -9.620911e-001 -1.730890e-001 7.705170e-001 2.344901e-001 5.012959e-001 9.133585e-002 3.365418e-003 1.075942e+000 -1.383807e-002 -4.776202e-001 -2.342972e-001 -6.064839e-001 -2.057003e-001 2.844797e-001 2.084108e-001 4.022126e-001 1.645522e-001 -3.321012e-002 -9.105251e-002 -1.487529e-001 5.320965e-001
<VARIANCE> 39
 2.329959e+001 3.822431e+001 7.886147e+001 8.904907e+001 7.329030e+001 7.637057e+001 6.510291e+001 8.236015e+001 5.846890e+001 7.042774e+001 7.142072e+001 5.539294e+001 4.539734e+001 1.878333e+000 3.506709e+000 3.765880e+000 7.308344e+000 5.982024e+000 4.922760e+000 5.537379e+000 6.261904e+000 4.803441e+000 4.953639e+000 5.012738e+000 3.808262e+000 5.800294e+000 2.803003e-001 4.215437e-001 5.728213e-001 8.267182e-001 9.356683e-001 9.179823e-001 9.241864e-001 8.880856e-001 8.793135e-001 9.380661e-001 8.653254e-001 7.098544e-001 5.260611e-001
<GCONST> 1.404149e+002
<STATE> 3
<MEAN> 39
 -3.041651e+000 -8.485992e+000 1.533283e+000 -1.801275e+001 -9.411202e+000 -1.350310e+001 -6.966080e+000 -5.127679e-001 -3.457124e+000 -2.103014e-001 -6.400377e+000 -5.397867e+000 7.315565e+001 -1.489147e-001 -2.452018e+000 -1.655339e+000 -2.106310e+000 3.041252e-001 1.459590e+000 1.678622e+000 1.828447e+000 4.734183e-001 -8.136455e-001 -1.106847e+000 -1.122891e+000 2.359544e+000 1.432394e-002 -1.537099e-004 -2.816007e-001 7.451389e-001 7.406484e-001 7.003406e-001 2.186208e-001 -6.206363e-001 -3.905159e-001 -5.883860e-001 1.217143e-002 -9.362783e-003 -4.931209e-001
<VARIANCE> 39
 1.847972e+001 3.326228e+001 7.864997e+001 8.172655e+001 8.415947e+001 7.619859e+001 8.970776e+001 8.816969e+001 5.403077e+001 8.282118e+001 1.009208e+002 6.338492e+001 2.518104e+001 6.101652e-001 1.552193e+000 1.949703e+000 3.437655e+000 4.108719e+000 3.511532e+000 4.176600e+000 3.865039e+000 4.208825e+000 4.078387e+000 3.849303e+000 2.940267e+000 1.384222e+000 1.207953e-001 2.382886e-001 3.322455e-001 6.093017e-001 5.674313e-001 5.275722e-001 7.669228e-001 6.916767e-001 5.751975e-001 7.014949e-001 9.059606e-001 5.626699e-001 2.540716e-001
<GCONST> 1.279607e+002
<STATE> 4
<MEAN> 39
 -2.762628e+000 -1.255818e+001 -4.031818e+000 -1.984375e+001 -4.490443e+000 -7.572991e+000 -3.409125e+000 -1.687931e+000 -4.337422e+000 -4.604559e+000 -8.955564e+000 -6.436441e+000 7.527955e+001 -4.220154e-002 -1.345158e+000 -1.039152e+000 2.529030e-001 1.095440e+000 1.627123e+000 6.336922e-001 -2.697378e-001 -5.796415e-001 -1.023456e+000 6.371395e-002 -3.398336e-001 6.171315e-001 7.213569e-002 3.447767e-001 2.326825e-001 4.626826e-001 4.998463e-002 -1.573446e-001 -3.699955e-001 -4.262651e-001 -1.214918e-001 1.822110e-001 3.510782e-001 2.174357e-001 -4.494033e-001
<VARIANCE> 39
 2.307375e+001 6.146196e+001 7.503676e+001 9.508868e+001 9.444064e+001 8.927443e+001 9.160832e+001 1.035895e+002 6.942194e+001 6.864812e+001 8.210265e+001 5.532295e+001 2.845897e+001 3.464581e-001 1.703433e+000 1.517830e+000 2.452482e+000 2.540521e+000 2.864852e+000 3.091102e+000 2.326658e+000 2.758440e+000 3.088339e+000 2.871512e+000 2.029205e+000 8.460934e-001 6.300785e-002 1.815282e-001 1.819145e-001 4.458907e-001 3.618777e-001 3.590564e-001 4.517595e-001 5.152545e-001 4.473601e-001 4.276607e-001 5.065514e-001 3.793256e-001 1.558128e-001
<GCONST> 1.190825e+002
<TRANSP> 5
 0.000000e+000 1.000000e+000 0.000000e+000 0.000000e+000 0.000000e+000
 0.000000e+000 8.089730e-001 1.910270e-001 0.000000e+000 0.000000e+000
 0.000000e+000 0.000000e+000 5.714615e-001 4.285384e-001 0.000000e+000
 0.000000e+000 0.000000e+000 0.000000e+000 5.164717e-001 4.835283e-001
 0.000000e+000 0.000000e+000 0.000000e+000 0.000000e+000 0.000000e+000
<ENDHMM>
~h "h"
<BEGINHMM>
<NUMSTATES> 5
<STATE> 2
<MEAN> 39
 -4.684432e+000 -5.002125e+000 -5.012712e-001 -7.180470e+000 6.430497e-001 -3.347600e+000 -3.751354e+000 -4.942417e+000 -4.716619e+000 -7.868821e+000 -3.015565e+000 -4.088229e+000 6.516180e+001 -1.597168e-001 -3.480838e-001 -1.468694e-001 3.988285e-001 7.440777e-001 1.501130e-001 -1.575688e-001 1.124438e-002 -2.581211e-001 -7.615048e-001 1.208537e-001 -2.384126e-001 3.948013e-001 9.129497e-002 -2.193844e-001 -1.269862e-001 -3.299902e-001 -2.663118e-001 -7.101475e-002 -1.475374e-001 -9.208834e-002 -6.117362e-003 6.649894e-002 -3.059084e-002 -9.103454e-002 2.148299e-001
<VARIANCE> 39
 3.141440e+001 4.914137e+001 6.445674e+001 8.191984e+001 1.005795e+002 9.038091e+001 8.144945e+001 8.125867e+001 7.548286e+001 6.776585e+001 6.959747e+001 5.198470e+001 4.959254e+001 1.636026e+000 2.663880e+000 3.263621e+000 4.501011e+000 5.996119e+000 4.441804e+000 4.995447e+000 4.865795e+000 4.215363e+000 4.194601e+000 3.932614e+000 3.210277e+000 2.246473e+000 2.350919e-001 3.935382e-001 4.317015e-001 5.790161e-001 8.332421e-001 7.270991e-001 7.980978e-001 8.192295e-001 7.278344e-001 7.604858e-001 6.870368e-001 5.445057e-001 1.963037e-001
<GCONST> 1.350949e+002
<STATE> 3
<MEAN> 39
 -3.489075e+000 -7.871264e+000 -3.436649e+000 -9.931255e+000 9.428805e-001 -5.050179e+000 -7.952553e+000 -7.887392e+000 -7.802695e+000 -1.245426e+001 -4.326384e+000 -6.862100e+000 6.892554e+001 3.702839e-001 -1.108647e+000 -8.295638e-001 -9.735442e-001 -4.068109e-001 1.286870e-001 -2.773988e-001 -3.532491e-002 4.491798e-002 1.193246e-001 -6.035555e-002 -3.949532e-001 1.015713e+000 -2.494112e-002 -2.118020e-001 2.430378e-002 -1.714908e-001 -7.949172e-002 1.485976e-001 1.678731e-001 1.654375e-001 1.282717e-001 3.307898e-001 2.378358e-002 6.891993e-002 1.021925e-001
<VARIANCE> 39
 2.666642e+001 4.929985e+001 6.972572e+001 7.611960e+001 9.580920e+001 8.386382e+001 9.154518e+001 7.383490e+001 6.777261e+001 7.134067e+001 6.012707e+001 5.144584e+001 2.994830e+001 9.986188e-001 1.974444e+000 2.338378e+000 2.934111e+000 3.393156e+000 3.031079e+000 3.098881e+000 2.978495e+000 2.860309e+000 3.047161e+000 2.901331e+000 2.483738e+000 1.142428e+000 2.119959e-001 2.942051e-001 4.096381e-001 4.469717e-001 5.297138e-001 5.017059e-001 5.238402e-001 5.569491e-001 4.935098e-001 5.384200e-001 5.007482e-001 4.259146e-001 1.469458e-001
<GCONST> 1.247792e+002
<STATE> 4
<MEAN> 39
 -3.576925e+000 -1.004657e+001 -4.121405e+000 -1.053819e+001 -3.089474e-001 -1.967082e+000 -5.029209e+000 -5.604579e+000 -5.228546e+000 -7.506073e+000 -2.949215e+000 -6.103161e+000 6.770058e+001 3.317469e-002 -4.796335e-001 -1.382742e-001 -4.302866e-001 -1.813282e-001 1.343931e-001 6.860376e-002 9.739771e-002 4.999417e-002 2.112401e-001 3.117431e-002 -6.295228e-002 4.000905e-001 1.404721e-003 5.183176e-002 5.566683e-002 4.642000e-003 -2.342828e-002 -3.181554e-002 1.270889e-002 2.757679e-002 -1.587775e-002 2.351329e-002 -2.143241e-002 7.834381e-003 -3.771188e-002
<VARIANCE> 39
 3.170792e+001 6.917329e+001 6.826395e+001 1.052734e+002 9.442029e+001 7.828297e+001 9.838503e+001 7.216747e+001 6.725159e+001 5.544088e+001 5.068477e+001 4.610668e+001 1.079998e+002 4.809878e-001 1.439697e+000 1.228717e+000 1.629637e+000 1.661891e+000 1.724628e+000 1.805578e+000 1.798195e+000 1.740349e+000 1.849190e+000 1.824271e+000 1.592245e+000 8.482600e-001 9.085677e-002 1.832292e-001 1.902235e-001 2.237327e-001 2.584904e-001 2.654823e-001 2.835217e-001 3.047994e-001 2.955786e-001 3.002144e-001 2.830669e-001 2.609128e-001 1.011775e-001
<GCONST> 1.116183e+002
<TRANSP> 5
 0.000000e+000 1.000000e+000 0.000000e+000 0.000000e+000 0.000000e+000
 0.000000e+000 7.364347e-001 2.635653e-001 0.000000e+000 0.000000e+000
 0.000000e+000 0.000000e+000 5.702262e-001 4.297738e-001 0.000000e+000
 0.000000e+000 0.000000e+000 0.000000e+000 7.493720e-001 2.506280e-001
 0.000000e+000 0.000000e+000 0.000000e+000 0.000000e+000 0.000000e+000
<ENDHMM>
~h "i"
<BEGINHMM>
<NUMSTATES> 5
<STATE> 2
<MEAN> 39
 -5.034155e+000 -5.009185e+000 3.310298e+000 -1.379601e+001 -1.242419e+001 -1.310533e+001 -7.864830e+000 -5.204406e+000 -5.291348e+000 -5.358478e+000 -3.336311e+000 -7.478222e-001 7.264715e+001 2.668048e-001 -1.389119e+000 8.222404e-001 -2.338037e+000 -2.527810e+000 -9.023902e-001 -1.001686e+000 -2.633407e-001 -1.447352e+000 -6.192598e-001 -8.171980e-001 -6.496714e-001 1.691154e+000 -4.893969e-001 6.612399e-002 -9.403983e-002 5.134792e-001 5.621201e-001 6.562768e-001 4.766831e-001 2.500836e-002 2.063671e-001 2.389095e-001 7.243969e-002 -2.326288e-001 -6.511204e-001
<VARIANCE> 39
 1.724370e+001 5.196974e+001 8.938336e+001 9.474472e+001 7.029390e+001 6.135782e+001 6.961137e+001 9.129057e+001 6.499565e+001 5.468994e+001 7.137359e+001 8.357519e+001 3.073854e+001 2.237489e+000 2.615307e+000 3.687747e+000 6.286689e+000 6.589771e+000 4.317604e+000 6.948042e+000 6.458388e+000 5.439887e+000 4.312498e+000 7.567188e+000 5.214016e+000 2.853983e+000 4.360505e-001 7.740158e-001 6.534951e-001 9.355366e-001 8.962702e-001 8.063797e-001 9.324536e-001 1.248096e+000 9.502674e-001 7.617618e-001 1.009369e+000 9.597604e-001 6.350279e-001
<GCONST> 1.423222e+002
<STATE> 3
<MEAN> 39
 -6.805538e+000 -8.014716e+000 4.524574e+000 -1.793301e+001 -1.503323e+001 -1.317749e+001 -7.062411e+000 -4.975524e+000 -7.601388e+000 -5.461943e+000 -5.409577e+000 -2.829736e+000 7.445154e+001 -1.603619e-001 -2.073980e-001 7.290163e-001 -4.435377e-001 -6.419654e-001 4.422942e-001 -2.239737e-001 -4.446796e-001 -4.558308e-001 8.682761e-002 -3.285590e-001 -7.479589e-001 -1.890794e-001 1.890527e-002 5.379039e-001 -3.975511e-002 7.183980e-001 6.202234e-001 2.761829e-001 1.292703e-001 -1.821135e-001 3.344971e-001 1.148284e-001 2.050916e-001 2.098365e-001 -6.710216e-001
<VARIANCE> 39
 1.595594e+001 3.932600e+001 8.563602e+001 9.569459e+001 6.453288e+001 5.208207e+001 7.175459e+001 9.597115e+001 5.979293e+001 5.659056e+001 7.638748e+001 7.268649e+001 2.277680e+001 1.002450e+000 2.066280e+000 1.755596e+000 3.293126e+000 2.883423e+000 2.312027e+000 2.697107e+000 3.272106e+000 2.200758e+000 2.753975e+000 4.265562e+000 3.009758e+000 2.129540e+000 2.488317e-001 3.322684e-001 4.209761e-001 6.359634e-001 6.782696e-001 5.248757e-001 7.840306e-001 8.752225e-001 5.802696e-001 5.349097e-001 8.046182e-001 6.091920e-001 2.992386e-001
<GCONST> 1.273203e+002
<STATE> 4
<MEAN> 39
 -7.592466e+000 -3.726282e+000 1.136258e+001 -1.606665e+001 -1.811670e+001 -8.569201e+000 -1.028223e+001 -9.964702e+000 -9.177135e+000 -4.221949e+000 -4.606663e+000 -6.241757e+000 7.246101e+001 2.357605e-001 3.619371e-001 2.560164e-001 4.176841e-001 4.343441e-001 1.836924e-001 -5.489847e-002 -2.722794e-001 -1.181396e-001 -8.442024e-002 -9.545647e-002 -2.222817e-002 -7.265602e-001 1.280971e-001 1.131431e-001 -1.507864e-001 2.957864e-001 2.529278e-001 -1.548441e-002 1.177681e-001 4.026087e-002 8.992577e-002 -2.048601e-002 2.672709e-002 9.760881e-002 -2.510780e-001
<VARIANCE> 39
 1.879722e+001 3.634805e+001 7.261031e+001 1.292100e+002 6.112877e+001 5.502495e+001 5.560603e+001 6.424117e+001 4.779414e+001 4.957210e+001 1.117464e+002 6.022728e+001 2.911501e+001 6.907191e-001 9.891158e-001 1.225164e+000 2.003701e+000 1.789560e+000 1.353122e+000 1.803226e+000 2.052164e+000 1.437951e+000 1.493175e+000 1.651992e+000 1.323556e+000 1.183751e+000 9.134284e-002 1.725361e-001 1.957997e-001 2.789774e-001 3.162563e-001 2.644541e-001 3.232348e-001 3.753249e-001 2.988117e-001 2.667565e-001 3.328677e-001 2.417005e-001 1.554262e-001
<GCONST> 1.094741e+002
<TRANSP> 5
 0.000000e+000 1.000000e+000 0.000000e+000 0.000000e+000 0.000000e+000
 0.000000e+000 4.821963e-001 5.178038e-001 0.000000e+000 0.000000e+000
 0.000000e+000 0.000000e+000 5.073297e-001 4.926703e-001 0.000000e+000
 0.000000e+000 0.000000e+000 0.000000e+000 8.423819e-001 1.576181e-001
 0.000000e+000 0.000000e+000 0.000000e+000 0.000000e+000 0.000000e+000
<ENDHMM>
~h "k"
<BEGINHMM>
<NUMSTATES> 5
<STATE> 2
<MEAN> 39
 -5.490993e+000 -2.892386e+000 2.490088e-001 -5.361219e+000 -3.822011e+000 -4.544806e+000 -2.635919e+000 -4.589058e+000 -9.982131e-001 -2.010176e+000 -2.639527e+000 -3.096785e+000 5.363146e+001 -9.692929e-001 -5.430202e-001 -3.436659e-001 8.353984e-001 4.719898e-001 2.195605e-001 8.808092e-001 6.686614e-001 8.038287e-001 3.304060e-001 6.169819e-001 3.665469e-001 -6.769213e-001 -7.240926e-002 -1.651009e-001 8.839050e-002 -2.983209e-001 -3.407643e-001 -2.527629e-001 -9.915762e-002 -1.656142e-001 -1.313911e-001 9.436774e-003 -5.422867e-002 6.838635e-002 9.068028e-001
<VARIANCE> 39
 2.141224e+001 3.011067e+001 4.787153e+001 4.362388e+001 4.559554e+001 4.365699e+001 4.481583e+001 5.437491e+001 4.890110e+001 4.000932e+001 4.683304e+001 3.283992e+001 4.805598e+001 1.712878e+000 2.647691e+000 2.819516e+000 3.723477e+000 3.482303e+000 3.974830e+000 3.587822e+000 4.420569e+000 3.969410e+000 3.458299e+000 3.428171e+000 2.721118e+000 7.957801e+000 2.840168e-001 5.110396e-001 6.153370e-001 6.994888e-001 7.416348e-001 7.791691e-001 7.153327e-001 9.422826e-001 8.266231e-001 6.727354e-001 6.414654e-001 5.369970e-001 8.941143e-001
<GCONST> 1.306751e+002
<STATE> 3
<MEAN> 39
 -1.191510e+001 -6.750615e+000 3.291648e-001 -3.352181e+000 -4.200302e+000 -7.090108e+000 1.573523e+000 -4.691582e+000 1.217316e+000 -6.258917e-001 -4.931467e-001 7.735070e-002 6.326260e+001 1.965265e-001 1.440172e-001 1.939278e+000 -1.953672e+000 -2.833664e+000 -2.125335e+000 -1.207202e+000 -1.306685e+000 -1.431737e+000 1.992876e-001 -5.517125e-001 6.576990e-002 5.113860e+000 8.043559e-001 2.400117e-001 5.441289e-001 -1.095270e+000 -8.395553e-001 -4.832787e-002 -8.214291e-001 8.052850e-003 -5.743406e-001 -1.279261e-001 -3.697217e-001 -5.686879e-001 -4.463840e-002
<VARIANCE> 39
 1.994957e+001 3.400712e+001 4.016972e+001 3.731865e+001 4.302708e+001 5.000130e+001 4.260537e+001 5.215901e+001 4.258572e+001 3.585580e+001 3.194500e+001 2.405606e+001 5.716807e+001 3.017287e+000 4.514847e+000 4.706211e+000 7.252826e+000 5.153029e+000 4.966586e+000 6.212357e+000 5.525111e+000 5.139028e+000 4.248110e+000 5.688498e+000 4.483518e+000 3.870185e+000 3.512363e-001 7.269673e-001 7.535024e-001 1.030798e+000 9.104168e-001 1.074459e+000 9.578806e-001 1.079421e+000 9.514907e-001 8.770723e-001 1.299404e+000 7.656955e-001 1.076313e+000
<GCONST> 1.377879e+002
<STATE> 4
<MEAN> 39
 -6.125902e+000 -4.286759e+000 6.896303e+000 -1.333356e+001 -1.526862e+001 -1.216769e+001 -5.895478e+000 -6.990454e+000 -4.638720e+000 -8.114730e-001 -3.349368e+000 -2.782109e+000 7.215166e+001 1.194942e+000 -4.226723e-001 1.540116e+000 -3.363121e+000 -2.849202e+000 -6.915838e-001 -1.594072e+000 1.154780e-001 -1.407833e+000 -2.194851e-001 -9.233981e-001 -1.298223e+000 2.447098e+000 -2.097866e-001 -3.566658e-001 -5.516959e-001 3.855433e-001 7.940177e-001 6.639611e-001 4.280661e-001 4.786359e-001 2.881638e-001 -1.781367e-001 6.005653e-002 -1.061685e-001 -1.065928e+000
<VARIANCE> 39
 1.727376e+001 4.397108e+001 7.249401e+001 9.607793e+001 5.556984e+001 4.549957e+001 4.711270e+001 8.372979e+001 4.847140e+001 4.951601e+001 6.565923e+001 5.241679e+001 3.231752e+001 1.669886e+000 3.172374e+000 5.562884e+000 7.639395e+000 6.559286e+000 4.517997e+000 6.041337e+000 6.340797e+000 5.313777e+000 5.022736e+000 9.282067e+000 4.460208e+000 3.171030e+000 2.585250e-001 4.437442e-001 4.725324e-001 9.130377e-001 8.051671e-001 6.364241e-001 6.447778e-001 7.258537e-001 6.974934e-001 6.199486e-001 8.487924e-001 6.764948e-001 5.008246e-001
<GCONST> 1.367711e+002
<TRANSP> 5
 0.000000e+000 1.000000e+000 0.000000e+000 0.000000e+000 0.000000e+000
 0.000000e+000 8.425218e-001 1.574782e-001 0.000000e+000 0.000000e+000
 0.000000e+000 0.000000e+000 6.001347e-001 3.998652e-001 0.000000e+000
 0.000000e+000 0.000000e+000 0.000000e+000 4.298174e-001 5.701826e-001
 0.000000e+000 0.000000e+000 0.000000e+000 0.000000e+000 0.000000e+000
<ENDHMM>
~h "l"
<BEGINHMM>
<NUMSTATES> 5
<STATE> 2
<MEAN> 39
 -7.716275e-001 -6.743982e+000 1.847161e+000 -1.117649e+001 -7.827031e+000 -1.065531e+001 -1.264817e+001 -6.831541e+000 -3.000661e+000 -5.685561e+000 -3.635872e+000 -3.069343e+000 6.739177e+001 1.127861e-001 1.630917e-002 5.223175e-001 -3.367537e-001 2.430957e-001 -1.376955e+000 -1.352890e+000 3.360799e-001 3.371478e-001 -1.868080e-001 1.399377e-002 1.688855e-001 4.300198e-001 -1.425085e-001 -1.480011e-001 -1.792466e-001 -2.461998e-001 1.094466e-001 1.905134e-001 2.421471e-001 4.002651e-001 -5.186277e-003 -3.346920e-003 -1.543428e-001 -8.813533e-002 1.863329e-001
<VARIANCE> 39
 2.745636e+001 4.981075e+001 8.169517e+001 8.677833e+001 6.576024e+001 1.066846e+002 9.497044e+001 8.966903e+001 7.423112e+001 8.075661e+001 7.011204e+001 6.511086e+001 4.680388e+001 1.242628e+000 2.575243e+000 2.759503e+000 4.941391e+000 4.570291e+000 6.051594e+000 5.797251e+000 6.230023e+000 4.934688e+000 5.082388e+000 4.384816e+000 3.596768e+000 2.596406e+000 2.085616e-001 3.784865e-001 4.879028e-001 7.389941e-001 8.000298e-001 1.185728e+000 1.158091e+000 1.080081e+000 8.869112e-001 8.913179e-001 8.166332e-001 6.341376e-001 2.500928e-001
<GCONST> 1.385905e+002
<STATE> 3
<MEAN> 39
 -2.254910e+000 -8.550611e+000 2.673048e+000 -1.733670e+001 -5.814312e+000 -1.559671e+001 -1.541180e+001 -5.869979e-001 -2.531288e+000 -6.541103e+000 -5.184535e+000 -2.436410e+000 7.101233e+001 -2.897685e-001 -1.356325e+000 -1.353767e+000 -8.309855e-001 8.757382e-002 1.066575e+000 1.625443e+000 1.647752e+000 -1.901187e-002 -9.746993e-002 -1.108757e+000 -5.060617e-001 1.393403e+000 -9.383127e-002 -3.815845e-001 -4.425215e-001 2.819402e-001 1.244899e-002 8.097466e-001 8.416092e-001 -2.363147e-001 -3.234857e-001 -1.775191e-001 -1.018376e-001 -1.170388e-001 2.120729e-001
<VARIANCE> 39
 1.769492e+001 3.581130e+001 6.116458e+001 5.803889e+001 5.109032e+001 8.294169e+001 9.525613e+001 6.779630e+001 7.202748e+001 1.035133e+002 6.055219e+001 6.905022e+001 1.711028e+001 5.612437e-001 2.186885e+000 2.775354e+000 2.917561e+000 3.185634e+000 5.664070e+000 6.257277e+000 4.719841e+000 4.633057e+000 4.238711e+000 3.739472e+000 3.067128e+000 9.784399e-001 8.397294e-002 3.365358e-001 3.210818e-001 5.056910e-001 6.128178e-001 7.724989e-001 8.876452e-001 8.788599e-001 7.384671e-001 9.041079e-001 7.059140e-001 5.666981e-001 1.605880e-001
<GCONST> 1.279637e+002
<STATE> 4
<MEAN> 39
 -2.886964e+000 -1.432125e+001 -3.588426e+000 -1.818506e+001 -4.711558e+000 -7.952822e+000 -7.043813e+000 1.344751e+000 -3.569651e+000 -8.254520e+000 -8.781866e+000 -5.144813e+000 7.576594e+001 -4.646624e-001 -1.271027e+000 -1.370533e+000 1.867665e-001 6.764970e-001 1.870870e+000 1.832541e+000 -1.982526e-002 -6.912048e-001 -6.457402e-001 -3.479213e-001 -3.003513e-001 1.142639e+000 2.032703e-002 3.050778e-001 2.573752e-001 2.775025e-001 1.431919e-001 -1.386559e-001 -4.012522e-001 -6.395687e-001 -4.829795e-002 8.215072e-002 4.804559e-001 8.453813e-002 -3.038547e-001
<VARIANCE> 39
 1.793267e+001 4.171405e+001 6.319443e+001 6.234510e+001 6.894418e+001 8.842285e+001 9.715270e+001 7.711958e+001 7.881995e+001 8.115531e+001 5.220477e+001 5.832131e+001 2.095568e+001 5.832334e-001 2.653776e+000 2.604080e+000 3.134381e+000 4.075138e+000 5.919454e+000 5.710898e+000 4.869599e+000 4.404615e+000 4.766835e+000 3.473511e+000 2.870985e+000 1.137658e+000 7.402351e-002 2.318649e-001 2.643428e-001 3.805479e-001 4.738418e-001 6.092177e-001 7.763948e-001 7.245125e-001 5.858200e-001 5.575628e-001 5.651117e-001 4.285939e-001 1.313052e-001
<GCONST> 1.258091e+002
<TRANSP> 5
 0.000000e+000 1.000000e+000 0.000000e+000 0.000000e+000 0.000000e+000
 0.000000e+000 7.617111e-001 2.382889e-001 0.000000e+000 0.000000e+000
 0.000000e+000 0.000000e+000 6.699477e-001 3.300523e-001 0.000000e+000
 0.000000e+000 0.000000e+000 0.000000e+000 4.547961e-001 5.452039e-001
 0.000000e+000 0.000000e+000 0.000000e+000 0.000000e+000 0.000000e+000
<ENDHMM>
~h "m"
<BEGINHMM>
<NUMSTATES> 5
<STATE> 2
<MEAN> 39
 2.716171e-002 -8.575247e+000 -7.244661e-001 -1.086554e+001 -4.945931e+000 -6.207575e+000 -7.634030e+000 -6.621104e+000 -4.891168e+000 -4.908329e+000 -4.258132e+000 -6.550627e+000 6.700993e+001 9.231318e-001 1.708879e+000 9.249634e-001 1.671584e+000 4.193096e-001 -1.868496e-001 -1.237253e+000 -2.285652e+000 -9.661984e-001 3.278945e-001 -4.141281e-001 1.874601e-001 -1.788545e+000 -2.672335e-001 5.281882e-002 2.138455e-001 4.699640e-002 1.989330e-002 1.001956e-001 -1.107583e-002 -4.141277e-001 -3.903953e-001 -1.649555e-001 -1.862285e-001 1.172835e-001 9.654222e-002
<VARIANCE> 39
 2.443172e+001 6.395953e+001 6.916390e+001 8.085722e+001 7.196516e+001 8.927234e+001 7.188977e+001 7.798042e+001 5.960292e+001 6.470024e+001 7.256174e+001 6.637905e+001 6.618370e+001 1.533131e+000 2.601884e+000 4.251580e+000 4.596780e+000 4.500398e+000 4.835425e+000 5.096025e+000 5.922582e+000 5.859535e+000 5.359425e+000 4.904541e+000 4.133627e+000 3.409362e+000 2.368070e-001 4.278221e-001 4.672110e-001 7.555365e-001 5.960758e-001 6.304862e-001 7.651317e-001 9.395977e-001 7.657674e-001 7.362010e-001 7.263674e-001 6.447971e-001 3.493353e-001
<GCONST> 1.374932e+002
<STATE> 3
<MEAN> 39
 7.874459e-001 -4.274889e+000 2.140261e+000 -7.053586e+000 -3.813907e+000 -5.871478e+000 -1.175593e+001 -1.573199e+001 -1.079086e+001 -5.471509e+000 -7.097821e+000 -5.242122e+000 6.345543e+001 -6.196111e-002 1.604984e-001 2.099409e-001 1.000969e-001 1.678799e-001 1.968511e-001 -3.619944e-001 -9.269731e-001 -7.710595e-001 -4.904031e-001 -5.683112e-001 6.107832e-002 5.090863e-002 -1.839433e-001 -4.534125e-001 -4.466752e-001 -6.424817e-001 -1.311824e-001 8.112221e-002 4.111632e-001 9.905634e-001 5.228993e-001 -1.378737e-001 1.579463e-001 -9.938297e-002 5.163046e-001
<VARIANCE> 39
 1.366539e+001 3.689831e+001 5.381418e+001 6.210773e+001 5.347931e+001 1.017074e+002 7.361648e+001 6.878940e+001 6.338728e+001 8.261709e+001 9.091373e+001 7.775339e+001 2.113362e+001 9.152595e-001 2.707883e+000 3.697789e+000 4.586293e+000 2.937843e+000 3.679665e+000 4.121192e+000 7.156067e+000 5.584644e+000 4.815124e+000 5.225960e+000 4.587600e+000 3.371238e+000 1.733406e-001 2.563090e-001 5.415806e-001 6.237912e-001 5.768933e-001 6.736088e-001 7.908447e-001 8.814858e-001 9.257908e-001 1.023661e+000 9.717563e-001 8.380250e-001 2.608638e-001
<GCONST> 1.337029e+002
<STATE> 4
<MEAN> 39
 5.142058e-001 -2.965599e+000 3.154083e+000 -7.421911e+000 -4.087002e+000 -4.262974e+000 -9.851227e+000 -1.398238e+001 -9.773232e+000 -6.910205e+000 -7.496451e+000 -5.192012e+000 6.221890e+001 -6.655569e-002 1.120633e-001 -3.659106e-001 -3.562050e-001 -9.821577e-002 1.660370e-001 3.007500e-001 6.224054e-001 3.414879e-001 -2.466376e-001 4.311452e-002 1.925666e-002 6.136357e-002 -3.724011e-002 -1.513482e-001 -2.266695e-001 -1.838823e-001 1.515084e-002 -9.181096e-003 1.182359e-001 4.211885e-001 2.260548e-001 1.095448e-001 2.226661e-001 -6.577666e-002 1.784739e-001
<VARIANCE> 39
 1.680226e+001 3.943368e+001 5.018071e+001 6.356319e+001 5.703082e+001 9.372987e+001 6.961949e+001 8.690856e+001 6.551564e+001 6.892262e+001 7.502409e+001 5.729930e+001 3.345384e+001 5.377411e-001 1.648729e+000 1.902031e+000 2.592714e+000 2.128498e+000 2.230639e+000 2.379665e+000 3.588693e+000 3.060541e+000 2.852795e+000 2.997750e+000 2.573060e+000 1.582011e+000 1.235141e-001 1.898253e-001 3.611730e-001 4.685940e-001 4.105861e-001 4.084648e-001 4.403104e-001 6.190652e-001 5.826968e-001 5.385590e-001 5.830225e-001 4.812291e-001 1.594837e-001
<GCONST> 1.207902e+002
<TRANSP> 5
 0.000000e+000 1.000000e+000 0.000000e+000 0.000000e+000 0.000000e+000
 0.000000e+000 5.805256e-001 4.194745e-001 0.000000e+000 0.000000e+000
 0.000000e+000 0.000000e+000 5.256236e-001 4.743764e-001 0.000000e+000
 0.000000e+000 0.000000e+000 0.000000e+000 7.753951e-001 2.246049e-001
 0.000000e+000 0.000000e+000 0.000000e+000 0.000000e+000 0.000000e+000
<ENDHMM>
~h "n"
<BEGINHMM>
<NUMSTATES> 5
<STATE> 2
<MEAN> 39
 -1.174720e+000 -6.482827e+000 1.550969e+000 -1.324309e+001 -8.168831e+000 -7.439256e+000 -6.866017e+000 -7.207021e+000 -6.810963e+000 -4.246693e+000 -7.273628e+000 -4.949562e+000 6.748302e+001 8.050267e-001 1.330325e+000 4.939879e-001 1.413021e+000 -4.091114e-001 -3.192965e-001 -4.734192e-001 -1.755242e+000 1.965727e-001 -2.414572e-001 -5.775918e-001 5.743425e-001 -1.656301e+000 -6.734222e-002 -2.491160e-002 -5.997839e-002 1.525007e-002 3.027838e-002 1.069626e-001 -1.031357e-002 -1.136635e-001 5.807348e-002 -2.084326e-001 6.065520e-002 -2.505385e-002 7.535124e-002
<VARIANCE> 39
 2.143845e+001 4.869643e+001 8.530755e+001 8.256142e+001 7.620257e+001 8.184072e+001 8.632204e+001 9.851441e+001 7.698706e+001 7.575795e+001 8.846234e+001 7.084686e+001 3.628219e+001 1.042907e+000 2.168167e+000 4.103033e+000 3.972963e+000 4.485706e+000 4.964873e+000 4.503876e+000 5.362603e+000 4.400712e+000 4.890876e+000 4.350173e+000 3.868303e+000 1.752142e+000 1.474490e-001 3.164853e-001 4.540434e-001 5.808991e-001 6.289662e-001 7.132069e-001 6.949553e-001 9.423272e-001 7.086667e-001 7.025444e-001 6.646947e-001 5.983946e-001 2.198497e-001
<GCONST> 1.338710e+002
<STATE> 3
<MEAN> 39
 6.955947e-001 -2.688977e+000 2.569201e+000 -9.664322e+000 -1.007900e+001 -8.590330e+000 -8.663688e+000 -1.281883e+001 -6.276427e+000 -7.023020e+000 -9.211584e+000 -2.942538e+000 6.354043e+001 1.228898e-001 3.131402e-001 1.329781e-001 5.348237e-001 -7.055211e-002 -6.659731e-002 -1.807176e-001 -4.784685e-001 -6.035173e-002 -5.010806e-001 -1.573662e-001 7.789113e-002 -4.753633e-001 -2.985941e-001 -4.051416e-001 -1.567371e-001 -3.026490e-001 2.319566e-001 1.180694e-001 1.456325e-001 7.164899e-001 -6.719749e-002 8.728017e-002 2.457907e-001 -1.863945e-001 3.937346e-001
<VARIANCE> 39
 1.452563e+001 3.507540e+001 5.823775e+001 5.832655e+001 5.217340e+001 8.411136e+001 6.325560e+001 6.773722e+001 6.971333e+001 8.276531e+001 8.367869e+001 7.296590e+001 2.084567e+001 9.090101e-001 3.081199e+000 2.616586e+000 3.564091e+000 3.165597e+000 3.898058e+000 3.737342e+000 6.812106e+000 3.783308e+000 3.927003e+000 3.679569e+000 3.484853e+000 2.830885e+000 1.536202e-001 4.064349e-001 4.957083e-001 6.052555e-001 5.805444e-001 7.439157e-001 6.872987e-001 9.518362e-001 7.412508e-001 7.829997e-001 6.722608e-001 6.534389e-001 2.949851e-001
<GCONST> 1.306792e+002
<STATE> 4
<MEAN> 39
 -1.826103e-001 -1.219737e+000 2.800881e+000 -7.678817e+000 -7.745097e+000 -5.865496e+000 -7.264967e+000 -1.083051e+001 -5.372861e+000 -6.225921e+000 -6.677005e+000 -3.937208e+000 6.009494e+001 -2.275268e-001 1.112834e-001 -5.327841e-002 4.391084e-001 3.532564e-001 5.775004e-002 1.391873e-001 3.646778e-001 4.090765e-002 -3.688132e-002 1.826937e-001 -3.910809e-002 -4.159898e-001 -1.295084e-001 -1.416736e-001 -8.548500e-002 -5.770155e-002 1.409257e-001 2.497526e-002 7.795194e-002 2.638693e-001 3.205716e-002 7.807601e-002 7.824697e-002 -3.361828e-002 1.246731e-001
<VARIANCE> 39
 2.401903e+001 3.486007e+001 4.883328e+001 5.935441e+001 5.467162e+001 6.430479e+001 6.046002e+001 7.239840e+001 6.007627e+001 6.688768e+001 6.378947e+001 4.958749e+001 4.816880e+001 6.456496e-001 1.558929e+000 1.291225e+000 1.851557e+000 2.020813e+000 2.041697e+000 2.387270e+000 3.206574e+000 2.614871e+000 2.491589e+000 2.338816e+000 2.082058e+000 1.343913e+000 1.390114e-001 2.427081e-001 2.537951e-001 3.364201e-001 3.682691e-001 3.922013e-001 4.291386e-001 5.817941e-001 4.766489e-001 4.608157e-001 4.347606e-001 3.901985e-001 1.667893e-001
<GCONST> 1.169915e+002
<TRANSP> 5
 0.000000e+000 1.000000e+000 0.000000e+000 0.000000e+000 0.000000e+000
 0.000000e+000 5.653611e-001 4.346389e-001 0.000000e+000 0.000000e+000
 0.000000e+000 0.000000e+000 5.159990e-001 4.840010e-001 0.000000e+000
 0.000000e+000 0.000000e+000 0.000000e+000 7.762818e-001 2.237181e-001
 0.000000e+000 0.000000e+000 0.000000e+000 0.000000e+000 0.000000e+000
<ENDHMM>
~h "o"
<BEGINHMM>
<NUMSTATES> 5
<STATE> 2
<MEAN> 39
 -3.160355e+000 -1.399289e+001 -3.978672e+000 -1.865686e+001 -7.984821e+000 -8.764729e+000 -4.848104e+000 5.211629e-001 -3.925437e+000 -5.513812e+000 -6.744760e+000 -6.860624e+000 7.656512e+001 6.854646e-001 -2.816406e+000 -2.828323e+000 -5.013627e-001 1.978244e+000 1.551192e+000 -5.023199e-002 1.006898e-001 -7.509547e-001 -1.740261e+000 -1.440561e+000 -1.448613e+000 1.141486e+000 -5.262274e-001 8.080765e-001 7.872816e-003 8.260643e-001 1.061040e+000 7.512077e-001 -8.700771e-002 -6.486725e-001 6.499571e-002 2.047957e-001 6.138012e-001 2.676424e-001 -8.635696e-001
<VARIANCE> 39
 2.325896e+001 3.913501e+001 6.786633e+001 6.990894e+001 8.715318e+001 6.796954e+001 7.561285e+001 7.210987e+001 7.184724e+001 6.845903e+001 7.377194e+001 6.600542e+001 1.837198e+001 1.169135e+000 2.871795e+000 3.586473e+000 6.659232e+000 6.566334e+000 3.600249e+000 4.680974e+000 4.974060e+000 5.448950e+000 6.700870e+000 5.871897e+000 5.580046e+000 1.406520e+000 3.051160e-001 5.976604e-001 5.659266e-001 9.670172e-001 1.170920e+000 9.432800e-001 1.105215e+000 8.966501e-001 1.067771e+000 1.075875e+000 1.036568e+000 9.438189e-001 2.599283e-001
<GCONST> 1.388269e+002
<STATE> 3
<MEAN> 39
 -2.325397e+000 -1.749611e+001 -9.604793e+000 -1.655219e+001 -9.266453e-001 -4.377397e+000 -7.175605e+000 -2.316541e+000 -4.928730e+000 -7.663033e+000 -6.969963e+000 -8.646729e+000 7.720779e+001 5.972503e-001 -2.039672e-001 -1.522364e+000 2.648881e-002 1.706135e+000 1.948702e+000 -6.464291e-001 -1.560617e+000 -4.568693e-001 8.605540e-002 7.616013e-001 -6.591775e-001 -3.671025e-001 -3.691081e-002 8.694506e-001 7.214629e-001 8.172010e-002 -6.111016e-001 -1.429537e-001 1.357146e-001 -1.503559e-001 4.196099e-002 3.548144e-001 4.690761e-001 4.235556e-001 -5.111030e-001
<VARIANCE> 39
 2.183345e+001 4.062731e+001 5.479012e+001 6.113358e+001 6.641960e+001 6.800642e+001 6.132342e+001 6.813573e+001 7.324983e+001 8.291409e+001 7.616126e+001 8.110184e+001 1.664905e+001 6.382800e-001 2.493255e+000 1.705430e+000 3.465558e+000 3.655555e+000 2.971102e+000 4.270298e+000 3.185546e+000 3.612124e+000 3.820374e+000 3.495512e+000 3.594419e+000 9.221918e-001 1.410060e-001 2.867688e-001 3.917297e-001 7.726495e-001 7.047930e-001 5.242484e-001 6.742909e-001 6.862687e-001 8.555356e-001 9.311685e-001 9.290684e-001 8.632225e-001 1.131098e-001
<GCONST> 1.271021e+002
<STATE> 4
<MEAN> 39
 -4.053435e-001 -1.569441e+001 -1.131037e+001 -1.775330e+001 1.073184e+000 1.585607e+000 -8.460418e+000 -6.287451e+000 -6.314512e+000 -7.055015e+000 -3.661693e+000 -9.447468e+000 7.516536e+001 3.123321e-001 8.581970e-001 3.622392e-001 6.205935e-002 -4.324312e-001 -1.033291e-001 -1.634616e-002 -2.364387e-001 -1.715891e-001 3.955718e-002 9.063039e-002 3.014823e-001 -8.276564e-001 -6.153797e-002 2.578442e-001 3.666226e-001 2.076159e-001 -2.358924e-001 -3.478937e-001 2.908798e-002 5.326666e-002 7.356519e-002 3.956046e-002 -1.847448e-001 1.561295e-001 -2.187430e-001
<VARIANCE> 39
 2.092748e+001 4.700833e+001 5.111131e+001 6.803843e+001 7.146978e+001 8.819164e+001 8.109998e+001 7.266893e+001 5.604844e+001 6.857497e+001 7.389986e+001 7.241962e+001 1.976383e+001 4.379973e-001 1.739265e+000 1.586311e+000 2.160506e+000 2.561914e+000 2.925477e+000 2.423862e+000 2.425604e+000 2.346512e+000 2.405234e+000 2.714124e+000 2.209091e+000 9.618615e-001 8.770715e-002 1.725542e-001 2.551407e-001 4.717727e-001 4.093101e-001 4.369872e-001 4.411181e-001 4.473556e-001 4.177611e-001 4.498377e-001 5.072597e-001 3.886878e-001 1.060671e-001
<GCONST> 1.170132e+002
<TRANSP> 5
 0.000000e+000 1.000000e+000 0.000000e+000 0.000000e+000 0.000000e+000
 0.000000e+000 4.578910e-001 5.421091e-001 0.000000e+000 0.000000e+000
 0.000000e+000 0.000000e+000 5.636045e-001 4.363956e-001 0.000000e+000
 0.000000e+000 0.000000e+000 0.000000e+000 8.421937e-001 1.578063e-001
 0.000000e+000 0.000000e+000 0.000000e+000 0.000000e+000 0.000000e+000
<ENDHMM>
~h "p"
<BEGINHMM>
<NUMSTATES> 5
<STATE> 2
<MEAN> 39
 4.588494e-001 -8.940595e+000 -3.054405e+000 -1.029354e+001 -3.540680e+000 -4.350565e+000 -4.180526e+000 -3.250837e+000 -1.734615e+000 -2.103059e+000 -8.063238e-001 -4.123153e+000 6.769283e+001 1.922795e-001 2.414913e+000 1.258747e+000 3.068373e+000 1.650171e+000 1.506515e+000 1.399504e+000 8.008144e-001 1.273467e+000 8.223442e-001 5.948843e-001 4.970912e-001 -3.934312e+000 -7.674477e-001 -2.316791e-001 1.416433e-001 1.833957e-001 8.908386e-002 2.191736e-001 2.874602e-001 1.630527e-001 -3.484489e-002 -1.511455e-001 -2.467921e-001 -3.402621e-002 -3.257466e-001
<VARIANCE> 39
 2.568568e+001 5.320332e+001 8.141299e+001 7.263743e+001 7.066650e+001 6.940892e+001 5.187687e+001 5.048342e+001 5.059389e+001 5.125682e+001 6.086415e+001 8.514705e+001 5.456260e+001 2.762569e+000 2.751735e+000 3.774618e+000 4.213213e+000 4.232407e+000 3.791314e+000 4.334221e+000 4.404272e+000 4.282658e+000 3.838051e+000 4.485472e+000 4.184659e+000 3.763534e+000 3.404550e-001 7.549405e-001 5.731497e-001 1.012060e+000 7.304479e-001 7.465553e-001 6.345224e-001 7.011566e-001 7.572600e-001 6.590585e-001 7.752258e-001 7.730565e-001 6.757494e-001
<GCONST> 1.370221e+002
<STATE> 3
<MEAN> 39
 -3.246348e+000 -5.371486e+000 7.770929e-001 -2.009373e+000 1.143431e+000 6.838759e-001 9.916358e-001 -1.679462e-001 9.330536e-001 -1.066159e+000 -1.184648e+000 -3.534636e+000 5.693196e+001 -1.638770e+000 -1.062381e-001 -1.080247e-001 1.014078e+000 3.460154e-001 6.241101e-001 1.036323e+000 7.937278e-001 8.960349e-001 3.923050e-001 1.922873e-001 3.986243e-001 -2.616082e+000 -1.193474e-001 -6.110605e-001 -5.404305e-001 -9.575149e-001 -6.257685e-001 -6.136996e-001 -5.568709e-001 -2.999865e-001 -2.950701e-001 -1.352053e-001 -5.215314e-002 -3.321566e-002 9.267337e-001
<VARIANCE> 39
 2.064257e+001 4.108011e+001 5.521561e+001 5.064484e+001 6.077126e+001 4.926131e+001 4.340491e+001 4.502769e+001 4.539859e+001 4.091844e+001 4.622403e+001 5.201571e+001 1.643396e+001 1.641456e+000 2.947412e+000 2.939774e+000 3.791166e+000 3.258560e+000 3.541932e+000 3.165469e+000 3.092609e+000 3.498669e+000 3.118161e+000 3.396355e+000 3.176437e+000 4.194737e+000 4.131637e-001 5.439771e-001 5.328277e-001 5.448840e-001 6.366467e-001 6.237395e-001 6.247466e-001 6.832368e-001 7.131126e-001 6.558082e-001 6.911691e-001 5.752930e-001 4.036028e-001
<GCONST> 1.278725e+002
<STATE> 4
<MEAN> 39
 -7.480438e+000 -6.346822e+000 -2.414294e+000 -3.069748e+000 -7.786396e-001 -1.357820e+000 1.651266e-001 -5.541941e-001 1.639543e+000 -7.785511e-001 -3.820738e-001 -1.985761e+000 5.163527e+001 -2.280449e-001 3.597380e-001 2.631572e-002 9.807327e-002 -9.475929e-002 -2.638242e-001 -2.477849e-001 -3.079234e-001 -1.834767e-001 -1.632750e-001 -6.466097e-002 5.319419e-002 -1.540719e-001 2.109732e-001 1.257281e-001 1.107642e-001 -7.061608e-002 -9.536473e-003 -1.158513e-001 -1.765304e-001 -1.564239e-001 -1.815473e-001 -1.038240e-001 -7.137877e-002 -4.542977e-002 3.956412e-001
<VARIANCE> 39
 1.314355e+001 3.016557e+001 3.425185e+001 2.934468e+001 4.015493e+001 3.070740e+001 3.107027e+001 3.238778e+001 3.207660e+001 2.868104e+001 3.006174e+001 2.869586e+001 1.948770e+001 1.219706e+000 1.624736e+000 1.697177e+000 1.635201e+000 2.029177e+000 2.224749e+000 2.482055e+000 2.509022e+000 2.533217e+000 2.222777e+000 2.063792e+000 1.893322e+000 1.489210e+000 2.238588e-001 3.005949e-001 2.986940e-001 3.576546e-001 3.995933e-001 4.396364e-001 4.939017e-001 4.943366e-001 5.038739e-001 4.465898e-001 4.269992e-001 3.811560e-001 3.333139e-001
<GCONST> 1.111984e+002
<TRANSP> 5
 0.000000e+000 1.000000e+000 0.000000e+000 0.000000e+000 0.000000e+000
 0.000000e+000 5.358178e-001 4.641823e-001 0.000000e+000 0.000000e+000
 0.000000e+000 0.000000e+000 5.334342e-001 4.665659e-001 0.000000e+000
 0.000000e+000 0.000000e+000 0.000000e+000 8.638566e-001 1.361434e-001
 0.000000e+000 0.000000e+000 0.000000e+000 0.000000e+000 0.000000e+000
<ENDHMM>
~h "r"
<BEGINHMM>
<NUMSTATES> 5
<STATE> 2
<MEAN> 39
 -3.133134e+000 -6.175016e+000 2.441382e+000 -3.733991e+000 -7.246083e+000 -9.006846e+000 -8.247611e+000 -5.029337e+000 -3.248309e+000 -5.958546e+000 -2.969200e+000 -3.418742e+000 6.445155e+001 9.105698e-002 -4.506803e-001 5.128057e-002 5.383181e-001 -3.246835e-001 -9.438159e-001 -8.935575e-002 5.866371e-001 3.884038e-001 -6.668754e-002 3.198913e-001 1.757963e-001 5.996898e-001 1.622822e-001 -4.395861e-001 -1.964583e-001 -5.964023e-001 -2.705180e-001 1.349814e-001 9.890843e-003 2.874729e-001 -5.548539e-002 6.465516e-002 -1.804829e-001 -4.718951e-002 4.239357e-001
<VARIANCE> 39
 6.762392e+001 6.076377e+001 7.579999e+001 7.855399e+001 7.186589e+001 6.115487e+001 7.093546e+001 6.477666e+001 5.120209e+001 5.538039e+001 4.843172e+001 3.816886e+001 4.672623e+001 4.583401e+000 5.510258e+000 3.678956e+000 6.721907e+000 6.745079e+000 5.217175e+000 5.747404e+000 5.883290e+000 4.148948e+000 4.483249e+000 4.231303e+000 3.404036e+000 5.020113e+000 7.546447e-001 7.714931e-001 6.098763e-001 8.926230e-001 1.239228e+000 1.044868e+000 9.655047e-001 9.328392e-001 8.029815e-001 8.532772e-001 8.334193e-001 6.378855e-001 5.467469e-001
<GCONST> 1.429413e+002
<STATE> 3
<MEAN> 39
 1.746491e+000 -1.482770e+001 1.476300e-002 -7.524555e+000 -1.434461e+001 -1.196898e+001 -9.929481e+000 1.274056e+000 -2.080021e+000 -5.237009e+000 -4.267405e+000 -3.249284e+000 7.155876e+001 5.765750e-001 -2.499618e+000 -1.119878e+000 -2.439619e+000 -9.119877e-001 1.342013e+000 2.371541e-001 1.866451e+000 -5.938976e-001 1.314715e-001 -1.356178e+000 -7.048744e-001 1.972178e+000 -5.710212e-001 4.095758e-001 -1.002678e-001 -1.285452e-001 9.677138e-001 7.157524e-001 2.958677e-001 -4.575553e-001 -4.054537e-001 -1.213928e-001 -1.443929e-001 -2.000788e-001 -2.457629e-001
<VARIANCE> 39
 2.213874e+001 3.414840e+001 6.712704e+001 9.301745e+001 5.895978e+001 6.354684e+001 9.032320e+001 6.725260e+001 4.941013e+001 6.658266e+001 5.299761e+001 4.631715e+001 1.957373e+001 2.397464e+000 2.744536e+000 3.431588e+000 4.010569e+000 5.899820e+000 5.616995e+000 5.803248e+000 5.096439e+000 5.075312e+000 4.864653e+000 4.516734e+000 4.016054e+000 1.150512e+000 3.393364e-001 4.211316e-001 4.018389e-001 7.635041e-001 7.753531e-001 7.967783e-001 8.123221e-001 9.176180e-001 6.858296e-001 8.156009e-001 7.679132e-001 6.759565e-001 2.424716e-001
<GCONST> 1.339460e+002
<STATE> 4
<MEAN> 39
 1.061416e-001 -1.846540e+001 -2.933545e+000 -1.280694e+001 -1.145285e+001 -6.008698e+000 -7.956537e+000 3.679225e+000 -5.373588e+000 -5.594457e+000 -7.996941e+000 -6.144107e+000 7.532316e+001 -8.113668e-001 -4.634768e-001 -8.987153e-001 -1.626403e+000 1.903586e+000 1.486667e+000 7.635930e-001 -3.293704e-001 -1.035059e+000 -2.492388e-001 -5.620229e-001 -4.219200e-001 9.571250e-001 -1.489958e-001 5.844086e-001 9.116525e-002 4.080736e-001 4.680019e-001 -2.838537e-001 -1.241549e-002 -6.807953e-001 7.385824e-002 -2.204479e-002 4.549293e-001 2.101662e-001 -4.033996e-001
<VARIANCE> 39
 1.976325e+001 4.064358e+001 6.715198e+001 8.952402e+001 7.770822e+001 8.075680e+001 1.004542e+002 8.977012e+001 7.064366e+001 7.252422e+001 5.449411e+001 5.391765e+001 2.053580e+001 6.423003e-001 1.638462e+000 2.153306e+000 3.284451e+000 3.970087e+000 3.835001e+000 3.846210e+000 3.828237e+000 3.600726e+000 4.157726e+000 3.371866e+000 3.488707e+000 6.348579e-001 1.801717e-001 2.645820e-001 2.355243e-001 4.645486e-001 6.578996e-001 6.337903e-001 6.212536e-001 6.950210e-001 6.169990e-001 6.200904e-001 5.738763e-001 5.169821e-001 1.199792e-001
<GCONST> 1.253375e+002
<TRANSP> 5
 0.000000e+000 1.000000e+000 0.000000e+000 0.000000e+000 0.000000e+000
 0.000000e+000 8.161256e-001 1.838744e-001 0.000000e+000 0.000000e+000
 0.000000e+000 0.000000e+000 6.050035e-001 3.949965e-001 0.000000e+000
 0.000000e+000 0.000000e+000 0.000000e+000 5.177791e-001 4.822209e-001
 0.000000e+000 0.000000e+000 0.000000e+000 0.000000e+000 0.000000e+000
<ENDHMM>
~h "s"
<BEGINHMM>
<NUMSTATES> 5
<STATE> 2
<MEAN> 39
 -8.025603e+000 1.717595e+000 1.407722e+000 -6.555054e+000 -6.016051e+000 -9.481982e+000 -5.618383e+000 -5.648089e+000 -5.223585e+000 -5.468907e+000 -3.268702e+000 -3.107229e+000 6.662354e+001 -3.388286e+000 2.749553e+000 -1.410752e-001 2.205502e+000 1.735186e+000 9.913658e-001 1.356748e+000 1.100931e+000 8.974555e-001 2.946023e-001 9.664800e-001 3.384161e-001 -4.562409e-001 -6.436874e-001 -1.816433e-001 -3.114629e-001 -1.410978e-001 3.627651e-001 4.887152e-001 3.484381e-001 3.687068e-001 2.993656e-001 3.087061e-001 1.422899e-001 3.825668e-003 7.086990e-002
<VARIANCE> 39
 5.992448e+001 7.160335e+001 7.717957e+001 8.497784e+001 7.519962e+001 6.372375e+001 6.555202e+001 6.832803e+001 5.608081e+001 5.529799e+001 5.549837e+001 4.157433e+001 4.893963e+001 4.952587e+000 4.573379e+000 4.993702e+000 6.284632e+000 6.127426e+000 6.583344e+000 5.687437e+000 5.933733e+000 4.819009e+000 5.187551e+000 4.610174e+000 4.086011e+000 2.161183e+000 8.716615e-001 1.086017e+000 6.106299e-001 1.069349e+000 9.983129e-001 8.935339e-001 8.801353e-001 8.766503e-001 7.778463e-001 8.037207e-001 7.387758e-001 6.515471e-001 2.109852e-001
<GCONST> 1.424823e+002
<STATE> 3
<MEAN> 39
 -2.366184e+001 6.686477e+000 -1.752945e+000 -1.799736e+000 1.476569e+000 -2.814949e+000 1.251574e+000 9.255841e-001 4.215328e-001 -1.245033e+000 1.608253e+000 -1.045451e+000 6.521088e+001 7.639243e-002 -3.602556e-001 -1.407307e-001 -2.979777e-001 -1.089519e-001 -6.411444e-002 7.775687e-002 2.524719e-001 1.551449e-001 3.798954e-002 1.226134e-001 2.467363e-001 2.818084e-001 1.114233e+000 -4.977719e-001 1.195320e-001 -4.188138e-001 -4.642467e-001 -4.736627e-001 -4.101942e-001 -2.351546e-001 -2.479582e-001 -2.821865e-001 -2.943069e-001 -5.508441e-002 2.433596e-001
<VARIANCE> 39
 3.002284e+001 3.429454e+001 6.100304e+001 5.545085e+001 4.064353e+001 3.612025e+001 3.951469e+001 3.996157e+001 3.007143e+001 2.722640e+001 2.364618e+001 1.877256e+001 2.613166e+001 7.916412e+000 1.869119e+000 2.306298e+000 2.361491e+000 2.763828e+000 3.246236e+000 2.745868e+000 2.564727e+000 2.557635e+000 2.570399e+000 2.345304e+000 1.926088e+000 1.169099e+000 5.514248e-001 4.414825e-001 4.852106e-001 6.564257e-001 5.579302e-001 5.960147e-001 5.813517e-001 5.523546e-001 5.447900e-001 5.338554e-001 5.237229e-001 4.621885e-001 2.163948e-001
<GCONST> 1.205679e+002
<STATE> 4
<MEAN> 39
 -7.861146e+000 -1.450180e+000 -1.351447e+000 -8.953032e+000 -4.673222e+000 -9.873333e+000 -4.056245e+000 2.895680e-001 -1.554508e+000 -5.499251e+000 -2.387966e+000 -3.587004e-001 7.075495e+001 4.573183e+000 -4.170134e+000 -7.406821e-001 -3.295463e+000 -1.741861e+000 -1.790377e+000 -1.942881e+000 -9.039308e-002 -8.830804e-001 -1.373012e+000 -2.009991e+000 -6.423748e-001 2.419740e+000 -9.138684e-001 -3.352215e-001 -2.889194e-001 -2.493940e-002 4.880596e-001 6.750854e-001 2.012012e-001 -1.123111e-002 -7.635349e-002 1.862931e-001 -2.070910e-002 -3.976644e-001 3.417080e-002
<VARIANCE> 39
 6.286721e+001 6.629073e+001 5.623605e+001 7.644949e+001 5.747206e+001 5.437617e+001 6.627531e+001 4.156074e+001 4.160559e+001 3.901514e+001 5.101215e+001 3.849977e+001 3.138825e+001 5.724164e+000 3.577909e+000 5.354380e+000 6.631736e+000 7.258581e+000 7.067086e+000 6.029677e+000 5.007375e+000 5.316895e+000 5.301009e+000 5.402491e+000 5.720618e+000 1.530350e+000 1.116666e+000 9.470374e-001 4.649173e-001 1.141392e+000 8.940746e-001 8.787217e-001 8.656328e-001 6.462807e-001 6.336188e-001 7.263647e-001 9.859121e-001 6.771392e-001 3.911437e-001
<GCONST> 1.403792e+002
<TRANSP> 5
 0.000000e+000 1.000000e+000 0.000000e+000 0.000000e+000 0.000000e+000
 0.000000e+000 7.390663e-001 2.609337e-001 0.000000e+000 0.000000e+000
 0.000000e+000 0.000000e+000 8.674874e-001 1.325126e-001 0.000000e+000
 0.000000e+000 0.000000e+000 0.000000e+000 6.350082e-001 3.649918e-001
 0.000000e+000 0.000000e+000 0.000000e+000 0.000000e+000 0.000000e+000
<ENDHMM>
~h "t"
<BEGINHMM>
<NUMSTATES> 5
<STATE> 2
<MEAN> 39
 -4.894081e+000 -3.261410e+000 3.559715e-002 -5.929838e+000 -3.052659e+000 -4.460874e+000 -2.507185e+000 -2.872555e+000 -6.309321e-001 -2.238687e+000 -1.883886e+000 -3.036902e+000 5.616546e+001 -8.736019e-001 -2.905292e-002 -1.073646e-001 1.244783e+000 8.387886e-001 8.093424e-001 1.140077e+000 7.598050e-001 9.878184e-001 4.742701e-001 6.202461e-001 1.672846e-001 -1.858760e+000 -2.223101e-002 -2.308837e-001 -2.026233e-001 -4.795555e-001 -1.645700e-001 -1.274678e-001 -1.463993e-001 7.974894e-004 -7.796712e-002 -3.067310e-002 -3.305405e-002 4.755667e-002 6.745130e-001
<VARIANCE> 39
 2.173241e+001 3.850610e+001 4.858615e+001 5.048405e+001 5.539876e+001 5.400974e+001 5.388743e+001 5.180530e+001 4.615512e+001 4.121025e+001 4.680579e+001 4.024013e+001 5.363548e+001 1.642529e+000 2.615558e+000 2.720360e+000 4.185684e+000 3.408092e+000 3.570287e+000 3.595584e+000 3.500565e+000 3.362263e+000 3.199728e+000 3.283136e+000 2.897540e+000 4.663613e+000 3.206443e-001 5.393123e-001 4.710528e-001 7.127146e-001 6.903493e-001 7.843580e-001 7.448454e-001 6.599463e-001 6.903523e-001 6.251190e-001 6.075316e-001 5.566976e-001 9.275589e-001
<GCONST> 1.301438e+002
<STATE> 3
<MEAN> 39
 -8.271392e+000 -3.759742e+000 -1.790982e+000 -4.917739e+000 -1.107777e+000 -3.865851e+000 -8.782214e-002 -8.740466e-001 2.154921e+000 -6.545545e-001 5.470059e-001 -1.268103e+000 5.650650e+001 3.392393e-001 -5.517231e-001 -6.763661e-001 -1.485318e+000 -2.785989e-001 -1.043905e+000 -8.480636e-001 5.038610e-001 -1.209951e-001 -2.599010e-001 -3.356973e-001 2.280895e-001 3.376027e+000 5.336648e-001 -3.106644e-001 -7.043771e-002 -7.721843e-001 -3.171536e-001 -2.499954e-001 -7.156817e-001 -1.896435e-001 -5.164417e-001 -3.982282e-001 -5.591962e-001 -2.888150e-001 9.417893e-001
<VARIANCE> 39
 2.182884e+001 2.694181e+001 3.783873e+001 3.810349e+001 4.016945e+001 4.481231e+001 4.287252e+001 3.969902e+001 3.347498e+001 3.110314e+001 3.387995e+001 2.847549e+001 6.994977e+001 2.926836e+000 3.925877e+000 4.033454e+000 6.316628e+000 4.436829e+000 5.043606e+000 6.134701e+000 4.990087e+000 4.922029e+000 4.188745e+000 4.495618e+000 3.811423e+000 1.328769e+001 4.276964e-001 6.678493e-001 6.364413e-001 8.347535e-001 8.565366e-001 1.066951e+000 9.067067e-001 9.098534e-001 8.194166e-001 7.510488e-001 7.911379e-001 7.086034e-001 1.492605e+000
<GCONST> 1.361619e+002
<STATE> 4
<MEAN> 39
 -6.656051e+000 -5.724987e+000 -3.583540e+000 -6.443850e+000 -2.247721e+000 -4.472293e+000 -2.351372e+000 -3.161514e-001 9.737282e-001 -2.226058e+000 -1.588878e+000 -1.739059e+000 5.694454e+001 4.177251e-001 -3.307268e-001 -8.055115e-002 -8.210400e-001 -3.301189e-001 -3.857875e-001 -8.485553e-001 -2.685660e-001 -6.446571e-001 -5.330643e-001 -6.463171e-001 -3.122284e-001 1.434175e+000 2.944739e-002 5.309552e-002 1.580041e-001 4.036650e-002 -1.148375e-002 8.219402e-002 -4.671966e-002 -2.238501e-001 -1.729349e-001 -4.242457e-002 -2.687901e-002 -1.103873e-001 -2.143378e-002
<VARIANCE> 39
 1.772405e+001 3.077305e+001 3.699598e+001 5.786507e+001 3.767608e+001 4.481273e+001 5.004377e+001 3.904617e+001 3.565588e+001 3.374892e+001 3.628571e+001 3.266061e+001 1.284106e+002 1.925606e+000 3.675677e+000 3.048119e+000 5.306546e+000 3.794790e+000 3.964841e+000 4.672742e+000 4.142445e+000 3.883476e+000 3.485793e+000 3.823735e+000 2.983534e+000 8.383899e+000 2.860408e-001 3.973680e-001 3.725879e-001 5.938897e-001 5.501708e-001 6.313501e-001 6.845532e-001 6.265917e-001 5.835463e-001 5.271941e-001 5.707213e-001 5.138427e-001 1.240535e+000
<GCONST> 1.294865e+002
<TRANSP> 5
 0.000000e+000 1.000000e+000 0.000000e+000 0.000000e+000 0.000000e+000
 0.000000e+000 7.590349e-001 2.409651e-001 0.000000e+000 0.000000e+000
 0.000000e+000 0.000000e+000 5.349663e-001 4.650337e-001 0.000000e+000
 0.000000e+000 0.000000e+000 0.000000e+000 6.209669e-001 3.790331e-001
 0.000000e+000 0.000000e+000 0.000000e+000 0.000000e+000 0.000000e+000
<ENDHMM>
~h "u"
<BEGINHMM>
<NUMSTATES> 5
<STATE> 2
<MEAN> 39
 -1.307228e+000 -5.307181e+000 -2.600746e+000 -1.435612e+001 -7.541778e+000 -1.012938e+001 -1.249209e+001 -5.738957e+000 -3.455508e+000 -3.023566e+000 -4.958579e+000 -4.186759e+000 7.168479e+001 1.762460e+000 -3.868465e-001 -2.646394e+000 -3.048795e+000 5.843720e-001 1.134220e+000 -2.510072e+000 -9.623629e-001 -1.109473e-001 5.399763e-001 -4.004830e-001 -1.179561e+000 8.633729e-001 -3.729104e-001 5.355190e-001 7.066377e-003 -2.812444e-001 2.992178e-001 1.062581e+000 5.783081e-001 -1.590361e-001 -3.573167e-001 -4.885031e-002 4.562950e-001 1.163623e-001 -6.005696e-001
<VARIANCE> 39
 2.468007e+001 5.875688e+001 8.043520e+001 1.002104e+002 9.153373e+001 1.004521e+002 8.818966e+001 5.942475e+001 6.111470e+001 5.976081e+001 8.440359e+001 6.191261e+001 3.754895e+001 1.915884e+000 2.870366e+000 5.554214e+000 6.971308e+000 1.301658e+001 7.279213e+000 6.119274e+000 5.791707e+000 7.838605e+000 5.945604e+000 6.228037e+000 4.482243e+000 2.373107e+000 5.335175e-001 7.245304e-001 7.841915e-001 1.000781e+000 1.459237e+000 1.319565e+000 1.587833e+000 1.147833e+000 1.150908e+000 1.054818e+000 1.250732e+000 9.035996e-001 4.474978e-001
<GCONST> 1.471220e+002
<STATE> 3
<MEAN> 39
 1.495373e+000 -4.401809e+000 -9.272390e+000 -2.316729e+001 -4.192697e+000 -1.802086e+000 -1.555442e+001 -9.266769e+000 -7.268777e+000 -1.259957e+000 -1.911278e+000 -5.168283e+000 7.179956e+001 8.489849e-001 1.117508e+000 -8.912454e-001 -2.500925e+000 -5.701594e-001 2.090409e+000 7.273019e-001 -1.439918e-001 -1.932987e+000 -1.262357e+000 5.579640e-001 2.906365e-001 -6.516843e-001 -3.452617e-001 2.197550e-001 8.076760e-001 9.507270e-001 -4.421016e-001 -5.068534e-001 8.638946e-001 6.303010e-001 2.448500e-001 -5.787664e-001 -3.265948e-001 2.206326e-001 -4.286093e-001
<VARIANCE> 39
 1.333236e+001 4.403414e+001 6.342937e+001 8.282300e+001 7.100475e+001 7.900576e+001 6.849870e+001 6.097701e+001 6.607436e+001 5.840376e+001 8.962045e+001 6.602212e+001 2.284034e+001 5.916268e-001 2.001004e+000 2.507142e+000 4.223834e+000 5.037402e+000 4.147373e+000 4.874256e+000 4.425724e+000 3.660467e+000 5.083188e+000 4.958236e+000 3.718010e+000 1.779341e+000 1.860202e-001 3.891199e-001 4.353116e-001 7.986073e-001 1.089763e+000 9.133334e-001 9.317476e-001 6.987353e-001 1.336533e+000 9.997032e-001 1.238615e+000 9.205136e-001 1.939850e-001
<GCONST> 1.333790e+002
<STATE> 4
<MEAN> 39
 3.402409e+000 2.355985e+000 -6.798135e+000 -2.597276e+001 -9.738794e+000 8.242874e-002 -1.145315e+001 -4.127497e+000 -9.916816e+000 -8.643727e+000 -4.378112e+000 -4.716753e+000 6.751612e+001 -3.657609e-003 2.848692e-001 7.441286e-001 1.147050e+000 -2.375918e-001 -3.567944e-001 4.178636e-001 5.981273e-002 3.381796e-001 -2.819761e-001 -4.776519e-001 -1.963509e-001 -7.264357e-001 -1.691362e-001 -1.697918e-001 2.125627e-001 5.853056e-001 2.421073e-001 -1.845025e-001 -7.299148e-002 -2.389119e-001 2.431047e-001 2.640203e-001 4.792097e-003 1.652417e-002 -5.841334e-002
<VARIANCE> 39
 1.141223e+001 4.162899e+001 7.977074e+001 7.966330e+001 8.081277e+001 6.791242e+001 7.431865e+001 7.435273e+001 5.662819e+001 4.461306e+001 5.586690e+001 4.572440e+001 2.043577e+001 4.828146e-001 1.280634e+000 1.780482e+000 4.383078e+000 3.211551e+000 2.441007e+000 3.225429e+000 3.333357e+000 3.087059e+000 3.309721e+000 3.129991e+000 2.337712e+000 8.756677e-001 1.026057e-001 2.098865e-001 2.892023e-001 5.606453e-001 4.694357e-001 5.278508e-001 5.926427e-001 5.579707e-001 5.616813e-001 5.422136e-001 4.945579e-001 4.299949e-001 1.269419e-001
<GCONST> 1.197521e+002
<TRANSP> 5
 0.000000e+000 1.000000e+000 0.000000e+000 0.000000e+000 0.000000e+000
 0.000000e+000 4.467331e-001 5.532669e-001 0.000000e+000 0.000000e+000
 0.000000e+000 0.000000e+000 6.288635e-001 3.711365e-001 0.000000e+000
 0.000000e+000 0.000000e+000 0.000000e+000 8.413572e-001 1.586429e-001
 0.000000e+000 0.000000e+000 0.000000e+000 0.000000e+000 0.000000e+000
<ENDHMM>
~h "v"
<BEGINHMM>
<NUMSTATES> 5
<STATE> 2
<MEAN> 39
 -3.031043e+000 -1.544076e+000 -6.007459e-001 -5.168919e+000 -2.798123e+000 -4.386932e+000 -5.663176e+000 -7.137323e+000 -4.963695e+000 -4.711350e+000 -3.263513e+000 -4.177823e+000 5.871188e+001 -1.759675e-001 6.689789e-001 7.438751e-002 8.375871e-001 5.476284e-001 2.737072e-001 -1.096363e-001 -4.603712e-001 -3.411869e-001 -2.251182e-001 2.233681e-001 -6.780613e-003 -4.184394e-001 9.170295e-002 -2.761564e-001 -1.470958e-001 -4.934015e-001 -1.819668e-001 -7.682070e-002 -1.323702e-001 5.491817e-002 6.729733e-002 1.366577e-001 1.624501e-002 -1.715627e-002 5.034873e-001
<VARIANCE> 39
 3.512803e+001 3.689977e+001 4.305634e+001 5.908411e+001 3.793313e+001 4.847798e+001 4.776735e+001 5.320076e+001 4.729099e+001 4.076324e+001 4.445844e+001 3.587017e+001 5.431630e+001 2.214165e+000 1.897866e+000 2.422057e+000 4.231098e+000 2.993834e+000 2.914800e+000 3.741535e+000 3.759995e+000 3.540138e+000 3.116217e+000 2.999950e+000 2.544165e+000 3.123575e+000 4.033899e-001 3.577189e-001 4.230674e-001 7.839314e-001 5.267379e-001 5.812209e-001 6.905850e-001 6.663196e-001 6.797072e-001 6.582269e-001 5.871308e-001 4.934393e-001 3.699056e-001
<GCONST> 1.270847e+002
<STATE> 3
<MEAN> 39
 -1.427349e+000 -2.466814e-001 -2.020380e+000 -6.945148e+000 -2.511712e+000 -3.943215e+000 -8.413271e+000 -1.016217e+001 -7.116135e+000 -4.602144e+000 -2.122618e+000 -4.692271e+000 6.223999e+001 1.192344e+000 -1.768002e+000 -1.481817e+000 -2.822532e+000 -4.608870e-001 -4.405035e-001 -1.144610e+000 5.412254e-001 7.702218e-001 1.258150e+000 2.167810e-001 -5.327559e-001 2.938897e+000 5.958202e-002 -8.084582e-001 -1.449180e-001 -6.902619e-001 -2.168753e-001 -9.522209e-002 1.381761e-001 7.139726e-001 4.196846e-001 1.470113e-001 -3.936597e-001 -2.390710e-001 6.531950e-001
<VARIANCE> 39
 3.336599e+001 2.730043e+001 4.025747e+001 5.596834e+001 2.709927e+001 4.224598e+001 4.697885e+001 4.303626e+001 3.999738e+001 3.921185e+001 4.450303e+001 3.016651e+001 2.842321e+001 3.069267e+000 2.917074e+000 3.451211e+000 5.551417e+000 3.514428e+000 4.014312e+000 4.880431e+000 5.072267e+000 5.070724e+000 4.867568e+000 5.900589e+000 4.142885e+000 2.459459e+000 6.216218e-001 3.861019e-001 6.118255e-001 1.113266e+000 7.342085e-001 6.940445e-001 9.942826e-001 8.163936e-001 8.357822e-001 1.029233e+000 8.921964e-001 7.445543e-001 4.587407e-001
<GCONST> 1.330441e+002
<STATE> 4
<MEAN> 39
 1.412649e+000 -7.498904e+000 -5.732281e+000 -1.523887e+001 -3.669478e+000 -4.878953e+000 -1.027982e+001 -5.922111e+000 -3.027244e+000 -1.075914e+000 -3.688601e+000 -7.546367e+000 7.065916e+001 6.062102e-002 -2.646407e+000 -7.022987e-001 -2.139942e+000 -4.320056e-001 -5.441194e-001 2.851315e-001 1.983203e+000 9.222951e-001 6.361641e-002 -1.158270e+000 -7.352962e-001 2.945373e+000 -4.990363e-001 1.413936e-001 4.754421e-001 5.929238e-001 -2.702317e-003 6.536848e-002 5.704601e-001 5.333374e-002 -4.003352e-001 -5.695723e-001 -1.354217e-001 2.476680e-001 -3.639114e-001
<VARIANCE> 39
 2.264748e+001 4.644474e+001 6.206112e+001 8.337325e+001 4.099092e+001 7.618778e+001 5.953793e+001 5.752271e+001 5.585477e+001 6.312256e+001 8.337073e+001 5.271686e+001 3.274332e+001 1.748371e+000 2.857044e+000 3.681978e+000 6.590691e+000 5.340731e+000 4.985505e+000 5.912210e+000 5.130826e+000 4.905663e+000 6.430471e+000 5.650510e+000 5.246338e+000 2.243878e+000 3.156046e-001 3.513474e-001 3.802105e-001 1.068573e+000 6.425856e-001 5.948135e-001 7.408533e-001 7.826907e-001 8.713016e-001 9.034190e-001 1.053375e+000 7.642372e-001 3.880564e-001
<GCONST> 1.365483e+002
<TRANSP> 5
 0.000000e+000 1.000000e+000 0.000000e+000 0.000000e+000 0.000000e+000
 0.000000e+000 7.705426e-001 2.294574e-001 0.000000e+000 0.000000e+000
 0.000000e+000 0.000000e+000 5.636547e-001 4.363453e-001 0.000000e+000
 0.000000e+000 0.000000e+000 0.000000e+000 3.794995e-001 6.205006e-001
 0.000000e+000 0.000000e+000 0.000000e+000 0.000000e+000 0.000000e+000
<ENDHMM>
~h "x"
<BEGINHMM>
<NUMSTATES> 5
<STATE> 2
<MEAN> 39
 -8.018442e+000 2.958779e+000 6.835743e-001 -5.603904e+000 -6.220848e+000 -9.702474e+000 -5.807395e+000 -5.878891e+000 -6.137328e+000 -5.393276e+000 -3.868315e+000 -3.252698e+000 6.665524e+001 -3.342747e+000 2.770454e+000 -6.537306e-001 2.492466e+000 1.741965e+000 9.640702e-001 1.502797e+000 1.200241e+000 9.437279e-001 4.089123e-001 1.029376e+000 3.502021e-001 -6.844715e-001 -5.720010e-001 -2.947994e-001 -3.204178e-001 -1.795569e-001 2.806527e-001 4.933879e-001 3.528288e-001 3.630673e-001 3.218151e-001 3.606574e-001 1.761884e-001 1.338959e-002 5.050215e-002
<VARIANCE> 39
 5.882815e+001 7.101455e+001 7.928667e+001 8.328782e+001 7.755351e+001 6.565993e+001 6.361047e+001 7.199298e+001 5.359782e+001 5.508592e+001 5.916410e+001 4.186565e+001 3.663398e+001 4.461457e+000 4.696531e+000 4.545057e+000 6.157459e+000 5.625009e+000 7.131255e+000 6.034682e+000 6.029909e+000 4.701617e+000 5.550827e+000 4.721682e+000 4.095476e+000 1.781645e+000 8.973626e-001 1.123230e+000 5.979940e-001 1.107951e+000 9.927685e-001 9.611439e-001 9.140588e-001 8.914767e-001 7.918351e-001 8.328447e-001 7.525247e-001 6.788661e-001 1.943693e-001
<GCONST> 1.422611e+002
<STATE> 3
<MEAN> 39
 -2.246622e+001 6.845533e+000 -3.975766e+000 -4.782902e-002 4.728197e-001 -3.036812e+000 1.664883e+000 9.735937e-001 -2.050272e-001 -4.822040e-001 1.399853e+000 -8.393265e-001 6.408934e+001 2.008312e-001 -4.822361e-001 -6.036988e-002 -3.546272e-001 -1.524410e-001 -1.034968e-001 3.718840e-002 2.773059e-001 1.565483e-001 7.908837e-002 1.550704e-001 3.179106e-001 2.966253e-001 1.052674e+000 -4.608991e-001 2.311358e-001 -4.981409e-001 -4.496560e-001 -4.914113e-001 -4.641085e-001 -2.648293e-001 -2.709605e-001 -3.083457e-001 -2.958422e-001 -4.764007e-002 3.048080e-001
<VARIANCE> 39
 2.616061e+001 3.449695e+001 5.002951e+001 5.182025e+001 4.231268e+001 3.695999e+001 3.632554e+001 4.154400e+001 2.795581e+001 2.477699e+001 2.272218e+001 1.893181e+001 2.473722e+001 7.218287e+000 1.842489e+000 2.576085e+000 2.723878e+000 2.685965e+000 3.538021e+000 2.963865e+000 2.696669e+000 2.561707e+000 2.647196e+000 2.433854e+000 2.046801e+000 1.306148e+000 5.121967e-001 4.368645e-001 4.555463e-001 6.778326e-001 5.429255e-001 6.301946e-001 6.363088e-001 5.843007e-001 5.326436e-001 5.446915e-001 5.379434e-001 4.833412e-001 2.249895e-001
<GCONST> 1.206727e+002
<STATE> 4
<MEAN> 39
 -7.434441e+000 -1.445889e+000 -1.427370e+000 -8.702806e+000 -6.072367e+000 -1.059772e+001 -3.706242e+000 3.793817e-001 -2.698368e+000 -4.339201e+000 -2.136813e+000 1.429664e-001 7.038015e+001 3.931833e+000 -3.903512e+000 -1.378484e-001 -3.654129e+000 -1.959689e+000 -1.845786e+000 -1.889477e+000 -2.781843e-001 -1.108300e+000 -1.376216e+000 -1.807926e+000 -6.176410e-001 2.613093e+000 -9.444636e-001 -2.421833e-001 -3.058172e-001 -7.368700e-003 4.190724e-001 7.328439e-001 2.092129e-001 -6.579898e-002 -1.122263e-001 1.534736e-001 1.733348e-003 -4.329751e-001 -4.448580e-002
<VARIANCE> 39
 5.528032e+001 6.009861e+001 6.105417e+001 7.605913e+001 6.956355e+001 5.202827e+001 6.081079e+001 4.456961e+001 3.682270e+001 3.861483e+001 5.059475e+001 4.211602e+001 3.305268e+001 6.181182e+000 3.842253e+000 4.648739e+000 6.496972e+000 6.418461e+000 7.349430e+000 7.766660e+000 5.732622e+000 4.818722e+000 4.950446e+000 5.356662e+000 5.511198e+000 1.764796e+000 1.009027e+000 8.148475e-001 4.726408e-001 1.136405e+000 8.611621e-001 9.149542e-001 9.160781e-001 7.212833e-001 6.313356e-001 7.081360e-001 9.490298e-001 7.228566e-001 4.238871e-001
<GCONST> 1.405901e+002
<TRANSP> 5
 0.000000e+000 1.000000e+000 0.000000e+000 0.000000e+000 0.000000e+000
 0.000000e+000 7.420402e-001 2.579598e-001 0.000000e+000 0.000000e+000
 0.000000e+000 0.000000e+000 8.645793e-001 1.354207e-001 0.000000e+000
 0.000000e+000 0.000000e+000 0.000000e+000 6.287639e-001 3.712361e-001
 0.000000e+000 0.000000e+000 0.000000e+000 0.000000e+000 0.000000e+000
<ENDHMM>
~h "y"
<BEGINHMM>
<NUMSTATES> 5
<STATE> 2
<MEAN> 39
 -3.543254e+000 -7.110147e+000 -1.334426e+000 -1.416545e+001 -9.110844e+000 -1.273311e+001 -7.610983e+000 1.803435e-001 2.066502e-001 -3.443378e+000 -6.662715e+000 -2.473683e+000 7.110313e+001 -6.961200e-001 -8.283976e-001 1.470386e+000 -7.217412e-001 -2.898532e+000 -1.182704e+000 8.184911e-001 8.123176e-001 -1.067938e+000 -8.226735e-001 -1.665162e-001 -2.610953e-001 1.766026e+000 -1.606526e-001 3.461701e-001 3.715886e-001 -6.908707e-002 -1.171336e-001 6.820485e-001 2.903956e-001 -8.364087e-001 -6.662421e-001 1.988116e-001 3.951378e-001 -1.707500e-001 -5.107563e-001
<VARIANCE> 39
 2.183131e+001 3.677224e+001 7.325377e+001 8.463266e+001 7.644148e+001 6.542776e+001 1.048096e+002 8.441148e+001 7.399767e+001 6.979305e+001 7.646992e+001 6.746622e+001 6.621010e+001 1.505708e+000 2.012765e+000 4.133889e+000 6.181319e+000 6.050683e+000 5.059738e+000 6.978951e+000 6.640895e+000 6.580085e+000 5.497489e+000 5.691474e+000 4.081772e+000 4.924380e+000 2.449880e-001 3.530927e-001 4.409376e-001 9.372375e-001 8.625323e-001 9.504037e-001 1.227412e+000 9.990126e-001 1.149590e+000 1.024166e+000 9.474123e-001 8.091886e-001 1.177278e+000
<GCONST> 1.426636e+002
<STATE> 3
<MEAN> 39
 -6.664538e+000 -8.765568e+000 3.929559e+000 -1.871583e+001 -1.678566e+001 -1.339790e+001 -4.614376e+000 -2.607421e+000 -6.944618e+000 -2.205405e+000 -5.589068e+000 -3.715410e+000 7.531764e+001 -6.971309e-001 6.051717e-001 1.704542e+000 -7.334535e-001 -1.595012e+000 6.943994e-001 -9.307912e-002 -1.811015e+000 -8.769913e-001 7.854213e-001 2.610406e-001 -7.081802e-001 -2.905439e-002 9.986769e-002 3.118474e-001 -7.624773e-002 1.886020e-001 6.169127e-001 2.696960e-001 -4.387160e-001 -2.552760e-001 2.861898e-001 -2.879817e-002 -1.277397e-001 7.963206e-002 -3.866183e-001
<VARIANCE> 39
 1.509978e+001 3.050031e+001 6.831825e+001 9.639883e+001 5.470812e+001 2.845148e+001 6.688750e+001 9.022483e+001 5.494535e+001 6.788057e+001 6.924768e+001 4.794106e+001 2.136969e+001 4.914322e-001 8.781942e-001 1.635435e+000 1.470202e+000 2.185508e+000 1.891076e+000 3.369288e+000 2.498600e+000 2.973235e+000 2.836858e+000 4.071129e+000 2.220143e+000 6.435664e-001 1.035978e-001 1.760477e-001 3.263915e-001 3.755045e-001 4.677386e-001 4.130272e-001 5.268574e-001 6.696919e-001 5.035905e-001 7.126449e-001 5.226158e-001 4.182509e-001 1.890400e-001
<GCONST> 1.165307e+002
<STATE> 4
<MEAN> 39
 -7.972317e+000 -1.981237e+000 1.189918e+001 -1.618410e+001 -1.907720e+001 -8.313721e+000 -1.074100e+001 -1.106949e+001 -9.068069e+000 -3.927930e+000 -4.970511e+000 -6.878920e+000 7.159615e+001 1.611910e-001 4.969663e-001 3.625968e-001 6.454952e-001 6.886507e-001 3.219739e-001 -2.021411e-001 -3.343250e-001 -2.499259e-001 -3.002347e-001 -1.147167e-001 3.545391e-002 -8.188401e-001 1.262449e-001 -4.755782e-002 -2.499454e-001 2.717133e-001 2.708003e-001 -4.985352e-002 1.702440e-001 2.516070e-001 1.469968e-001 -2.206170e-002 6.648818e-002 5.767694e-002 -1.928335e-001
<VARIANCE> 39
 1.522414e+001 3.594464e+001 6.445383e+001 1.353215e+002 6.477187e+001 3.986592e+001 5.190922e+001 5.421997e+001 4.280794e+001 4.938033e+001 1.099956e+002 6.091802e+001 2.959995e+001 6.115418e-001 7.836986e-001 1.555208e+000 1.881904e+000 1.924755e+000 1.410549e+000 2.302981e+000 2.177338e+000 1.769284e+000 1.596443e+000 1.936893e+000 1.388030e+000 9.020460e-001 8.673542e-002 1.434959e-001 1.915268e-001 2.997709e-001 3.239754e-001 2.721444e-001 3.519884e-001 3.151090e-001 3.385843e-001 2.860512e-001 3.442041e-001 2.257334e-001 1.437739e-001
<GCONST> 1.088820e+002
<TRANSP> 5
 0.000000e+000 1.000000e+000 0.000000e+000 0.000000e+000 0.000000e+000
 0.000000e+000 5.744964e-001 4.255036e-001 0.000000e+000 0.000000e+000
 0.000000e+000 0.000000e+000 7.109319e-001 2.890681e-001 0.000000e+000
 0.000000e+000 0.000000e+000 0.000000e+000 8.874329e-001 1.125671e-001
 0.000000e+000 0.000000e+000 0.000000e+000 0.000000e+000 0.000000e+000
<ENDHMM>
~h "doafi"
<BEGINHMM>
<NUMSTATES> 5
<STATE> 2
<MEAN> 39
 -4.901095e+000 -5.842618e+000 -5.097519e-001 -9.923710e+000 -4.122406e+000 -4.544213e+000 -4.531428e+000 -3.756145e+000 -3.134470e+000 -3.843007e+000 -3.141330e+000 -3.863289e+000 6.290533e+001 3.156596e-003 4.426242e-003 -3.008057e-004 -9.815464e-004 -7.398279e-004 -3.059326e-004 6.043092e-004 -2.233922e-003 1.730658e-004 -2.990019e-004 -3.013898e-003 -8.223696e-004 -5.428240e-004 -1.672899e-004 -1.806980e-004 4.561614e-005 -7.206317e-005 6.492341e-005 1.899766e-004 7.487284e-005 1.468558e-005 -2.101225e-005 1.112924e-004 1.261849e-004 6.155111e-006 1.118417e-005
<VARIANCE> 39
 3.977646e+001 6.976524e+001 7.436712e+001 1.058175e+002 8.034691e+001 6.925978e+001 7.782265e+001 7.860110e+001 6.821010e+001 5.800883e+001 6.279465e+001 4.830898e+001 1.459772e+002 1.544968e+000 2.667576e+000 2.529959e+000 4.061153e+000 3.472722e+000 3.155723e+000 3.471568e+000 3.756795e+000 3.266600e+000 3.146162e+000 3.154106e+000 2.635824e+000 3.396390e+000 2.536712e-001 3.905498e-001 3.963176e-001 6.350257e-001 5.963098e-001 5.526317e-001 6.014287e-001 6.646528e-001 5.859886e-001 5.718929e-001 5.669279e-001 4.794365e-001 4.314951e-001
<GCONST> 1.326273e+002
<STATE> 3
<MEAN> 39
 -4.901095e+000 -5.842618e+000 -5.097519e-001 -9.923710e+000 -4.122406e+000 -4.544213e+000 -4.531428e+000 -3.756145e+000 -3.134470e+000 -3.843007e+000 -3.141330e+000 -3.863289e+000 6.290533e+001 3.156596e-003 4.426242e-003 -3.008057e-004 -9.815464e-004 -7.398279e-004 -3.059326e-004 6.043092e-004 -2.233922e-003 1.730658e-004 -2.990019e-004 -3.013898e-003 -8.223696e-004 -5.428240e-004 -1.672899e-004 -1.806980e-004 4.561614e-005 -7.206317e-005 6.492341e-005 1.899766e-004 7.487284e-005 1.468558e-005 -2.101225e-005 1.112924e-004 1.261849e-004 6.155111e-006 1.118417e-005
<VARIANCE> 39
 3.977646e+001 6.976524e+001 7.436712e+001 1.058175e+002 8.034691e+001 6.925978e+001 7.782265e+001 7.860110e+001 6.821010e+001 5.800883e+001 6.279465e+001 4.830898e+001 1.459772e+002 1.544968e+000 2.667576e+000 2.529959e+000 4.061153e+000 3.472722e+000 3.155723e+000 3.471568e+000 3.756795e+000 3.266600e+000 3.146162e+000 3.154106e+000 2.635824e+000 3.396390e+000 2.536712e-001 3.905498e-001 3.963176e-001 6.350257e-001 5.963098e-001 5.526317e-001 6.014287e-001 6.646528e-001 5.859886e-001 5.718929e-001 5.669279e-001 4.794365e-001 4.314951e-001
<GCONST> 1.326273e+002
<STATE> 4
<MEAN> 39
 -4.901095e+000 -5.842618e+000 -5.097519e-001 -9.923710e+000 -4.122406e+000 -4.544213e+000 -4.531428e+000 -3.756145e+000 -3.134470e+000 -3.843007e+000 -3.141330e+000 -3.863289e+000 6.290533e+001 3.156596e-003 4.426242e-003 -3.008057e-004 -9.815464e-004 -7.398279e-004 -3.059326e-004 6.043092e-004 -2.233922e-003 1.730658e-004 -2.990019e-004 -3.013898e-003 -8.223696e-004 -5.428240e-004 -1.672899e-004 -1.806980e-004 4.561614e-005 -7.206317e-005 6.492341e-005 1.899766e-004 7.487284e-005 1.468558e-005 -2.101225e-005 1.112924e-004 1.261849e-004 6.155111e-006 1.118417e-005
<VARIANCE> 39
 3.977646e+001 6.976524e+001 7.436712e+001 1.058175e+002 8.034691e+001 6.925978e+001 7.782265e+001 7.860110e+001 6.821010e+001 5.800883e+001 6.279465e+001 4.830898e+001 1.459772e+002 1.544968e+000 2.667576e+000 2.529959e+000 4.061153e+000 3.472722e+000 3.155723e+000 3.471568e+000 3.756795e+000 3.266600e+000 3.146162e+000 3.154106e+000 2.635824e+000 3.396390e+000 2.536712e-001 3.905498e-001 3.963176e-001 6.350257e-001 5.963098e-001 5.526317e-001 6.014287e-001 6.646528e-001 5.859886e-001 5.718929e-001 5.669279e-001 4.794365e-001 4.314951e-001
<GCONST> 1.326273e+002
<TRANSP> 5
 0.000000e+000 1.000000e+000 0.000000e+000 0.000000e+000 0.000000e+000
 0.000000e+000 6.000000e-001 4.000000e-001 0.000000e+000 0.000000e+000
 0.000000e+000 0.000000e+000 6.000000e-001 4.000000e-001 0.000000e+000
 0.000000e+000 0.000000e+000 0.000000e+000 7.000000e-001 3.000000e-001
 0.000000e+000 0.000000e+000 0.000000e+000 0.000000e+000 0.000000e+000
<ENDHMM>
~h "aa"
<BEGINHMM>
<NUMSTATES> 5
<STATE> 2
<MEAN> 39
 -5.692744e+000 -7.117909e+000 1.024159e+000 -1.877237e+001 -9.264898e+000 -8.182776e+000 -7.032977e+000 -3.939700e+000 -6.664437e+000 -4.872537e+000 -6.228438e+000 -6.197129e+000 7.357963e+001 -2.181488e-001 -2.928763e+000 -1.036482e+000 -1.138052e+000 -1.750220e-001 3.901480e-001 6.474324e-001 1.583744e+000 3.331105e-003 -7.070433e-001 -5.179656e-001 -6.813710e-001 2.058906e+000 1.073626e-001 1.033550e-001 -2.805965e-001 9.378102e-001 6.063850e-001 5.375106e-002 2.746490e-002 -9.267373e-002 3.293210e-002 -1.957584e-001 3.369075e-002 8.729559e-002 -6.343881e-001
<VARIANCE> 39
 2.429142e+001 6.650902e+001 1.130901e+002 9.511688e+001 9.886098e+001 6.746365e+001 7.494986e+001 8.678669e+001 6.148643e+001 5.804818e+001 8.697456e+001 6.827470e+001 3.425599e+001 1.828034e+000 3.183412e+000 4.640891e+000 6.166437e+000 6.262139e+000 4.204471e+000 6.269746e+000 5.621120e+000 5.268068e+000 4.596391e+000 5.297653e+000 3.900292e+000 2.122749e+000 4.720859e-001 9.161434e-001 8.557699e-001 9.418064e-001 1.345480e+000 8.488649e-001 1.012100e+000 9.514445e-001 8.456829e-001 8.863328e-001 1.038848e+000 7.760628e-001 6.602373e-001
<GCONST> 1.433752e+002
<STATE> 3
<MEAN> 39
 -5.414974e+000 -1.518643e+001 -4.232798e+000 -1.701692e+001 -5.029679e+000 -8.417888e+000 -5.979138e+000 2.846265e-001 -6.199475e+000 -9.184657e+000 -7.032793e+000 -5.706308e+000 7.717023e+001 4.178992e-001 -7.723001e-001 -1.362178e+000 6.162704e-001 1.874580e+000 -7.585114e-002 -1.021643e+000 2.301530e-001 3.654345e-001 -6.790004e-001 -5.200570e-001 -1.498847e-001 -1.099676e-001 1.056320e-001 9.399276e-001 4.157999e-001 1.503186e-001 -3.652140e-003 -2.675530e-002 -3.699239e-001 -5.643808e-001 5.866842e-002 4.233270e-001 1.592400e-001 1.194571e-002 -7.025825e-001
<VARIANCE> 39
 1.603016e+001 4.244522e+001 6.739640e+001 6.682046e+001 1.036235e+002 6.336099e+001 7.525125e+001 8.155909e+001 6.767046e+001 6.492117e+001 7.303370e+001 6.829938e+001 1.648574e+001 5.476583e-001 2.562087e+000 2.481503e+000 2.637850e+000 3.637545e+000 2.736323e+000 3.741835e+000 3.578776e+000 3.155778e+000 4.069948e+000 3.837113e+000 3.756041e+000 1.004570e+000 1.101187e-001 2.129384e-001 3.258067e-001 5.960740e-001 9.389303e-001 5.578023e-001 8.256585e-001 7.030478e-001 7.412066e-001 6.930670e-001 6.964179e-001 6.900550e-001 1.501195e-001
<GCONST> 1.262873e+002
<STATE> 4
<MEAN> 39
 -3.026781e+000 -1.331327e+001 -7.999324e+000 -1.581604e+001 3.567230e-001 -8.144225e+000 -1.151381e+001 -3.025211e+000 -5.891881e+000 -7.830251e+000 -8.085500e+000 -7.338737e+000 7.368684e+001 6.804612e-001 1.380142e+000 4.099358e-001 3.175623e-001 -2.633048e-001 -2.410568e-002 -4.439270e-001 -1.283181e+000 -2.139377e-001 5.925252e-001 2.990908e-002 -1.877542e-001 -1.477205e+000 5.251895e-002 3.028421e-001 4.688810e-001 1.707008e-001 -5.189273e-001 9.792684e-002 2.788208e-001 -3.619957e-001 -1.851587e-001 -1.180682e-002 2.057809e-002 2.783777e-001 -2.802369e-001
<VARIANCE> 39
 1.446132e+001 5.426595e+001 6.376919e+001 7.421180e+001 8.090894e+001 8.343923e+001 6.983366e+001 8.055004e+001 6.817139e+001 6.352014e+001 8.006947e+001 8.236271e+001 2.607814e+001 5.052686e-001 1.466590e+000 1.863414e+000 2.107649e+000 3.132073e+000 2.787452e+000 2.480620e+000 3.218178e+000 2.750425e+000 2.860833e+000 2.534231e+000 2.722510e+000 1.103119e+000 7.939059e-002 2.438001e-001 2.973044e-001 4.210804e-001 4.825500e-001 6.050646e-001 5.408487e-001 5.778236e-001 5.419390e-001 5.661501e-001 4.632970e-001 5.589318e-001 1.205796e-001
<GCONST> 1.210256e+002
<TRANSP> 5
 0.000000e+000 1.000000e+000 0.000000e+000 0.000000e+000 0.000000e+000
 0.000000e+000 5.049735e-001 4.950265e-001 0.000000e+000 0.000000e+000
 0.000000e+000 0.000000e+000 6.645167e-001 3.354832e-001 0.000000e+000
 0.000000e+000 0.000000e+000 0.000000e+000 7.457319e-001 2.542681e-001
 0.000000e+000 0.000000e+000 0.000000e+000 0.000000e+000 0.000000e+000
<ENDHMM>
~h "af"
<BEGINHMM>
<NUMSTATES> 5
<STATE> 2
<MEAN> 39
 -3.495930e+000 -1.585829e+001 -4.487445e+000 -1.597595e+001 -4.275052e+000 -4.845373e+000 -2.312512e+000 -1.611490e+000 -6.936615e+000 -8.947395e+000 -7.901859e+000 -7.145344e+000 7.677884e+001 -7.399722e-001 -1.951324e+000 -5.519729e-001 6.947734e-001 8.941395e-001 1.062533e+000 1.359046e+000 6.883483e-002 -8.878465e-001 -1.310841e+000 2.178387e-002 6.162683e-002 1.377609e+000 2.523483e-002 6.832725e-001 4.566491e-001 4.961454e-001 6.739707e-002 -2.919232e-001 -4.960182e-001 -5.011085e-001 1.054744e-002 3.121307e-001 4.411003e-001 2.342132e-001 -6.403384e-001
<VARIANCE> 39
 2.595900e+001 4.206985e+001 7.550701e+001 7.256296e+001 7.373360e+001 6.259354e+001 6.972056e+001 8.427544e+001 7.302507e+001 6.847258e+001 6.240316e+001 5.865226e+001 1.872649e+001 7.310945e-001 1.630857e+000 2.046742e+000 3.045664e+000 2.543910e+000 4.007191e+000 3.130838e+000 5.023144e+000 3.716476e+000 3.343571e+000 3.755215e+000 3.050467e+000 9.044633e-001 1.547966e-001 2.470733e-001 3.689457e-001 4.859403e-001 4.624163e-001 6.300022e-001 7.365077e-001 6.900215e-001 7.456739e-001 6.131422e-001 6.482524e-001 5.626023e-001 1.541604e-001
<GCONST> 1.254370e+002
<STATE> 3
<MEAN> 39
 -5.064591e+000 -1.819140e+001 -5.641414e+000 -1.324033e+001 -2.186497e+000 -4.288827e+000 -1.032048e+000 -4.087984e+000 -8.400747e+000 -1.074029e+001 -5.811807e+000 -6.198725e+000 7.824918e+001 -1.344001e-001 -4.108485e-001 1.555370e-001 6.739590e-001 3.107694e-001 8.269769e-002 1.384643e-001 -2.571208e-001 -1.925974e-001 -7.271176e-002 3.414942e-001 1.633079e-002 1.570661e-001 2.594550e-001 5.048133e-001 2.603590e-001 -1.654081e-001 -2.855860e-001 -3.524649e-001 -3.376515e-001 1.017740e-001 2.930811e-001 3.847001e-001 -5.761275e-002 -3.360220e-002 -4.152603e-001
<VARIANCE> 39
 2.425852e+001 3.566435e+001 5.938752e+001 6.450495e+001 6.443508e+001 5.327659e+001 6.161707e+001 8.243512e+001 7.085889e+001 5.180122e+001 5.189591e+001 4.920352e+001 1.710184e+001 4.473810e-001 8.779995e-001 1.107144e+000 1.541451e+000 1.880490e+000 1.702672e+000 1.922398e+000 2.221312e+000 1.948060e+000 1.898260e+000 2.333031e+000 1.927257e+000 2.548249e-001 7.069162e-002 1.840974e-001 1.930334e-001 2.895427e-001 2.627495e-001 3.934893e-001 3.895576e-001 4.663184e-001 4.084224e-001 3.805367e-001 4.423409e-001 3.593116e-001 9.997188e-002
<GCONST> 1.087122e+002
<STATE> 4
<MEAN> 39
 -3.768708e+000 -1.844802e+001 -2.348850e+000 -1.176147e+001 -2.338620e+000 -2.806567e+000 -1.494625e+000 -2.124606e+000 -8.144785e+000 -8.346988e+000 -6.143041e+000 -6.987315e+000 7.731467e+001 2.900853e-001 4.629388e-001 3.078264e-001 5.740123e-006 -2.314015e-001 -3.114786e-001 -5.769708e-002 1.713674e-001 2.369857e-001 2.932278e-001 -1.086462e-001 -8.702198e-002 -4.642339e-001 9.333701e-002 2.971581e-001 9.363065e-002 1.166051e-002 -1.036633e-001 -9.822595e-002 -1.032121e-001 -4.216291e-002 6.918893e-002 1.065166e-001 -1.791506e-002 2.241100e-002 -2.382432e-001
<VARIANCE> 39
 2.040827e+001 4.419898e+001 6.541588e+001 7.327959e+001 7.886164e+001 6.086129e+001 6.394726e+001 8.761339e+001 7.161390e+001 4.848800e+001 4.591570e+001 4.263594e+001 1.634262e+001 3.573413e-001 1.108517e+000 8.462516e-001 1.094869e+000 1.417259e+000 1.400104e+000 1.335037e+000 1.480824e+000 1.333888e+000 1.468229e+000 1.428892e+000 1.245996e+000 4.329345e-001 4.840596e-002 1.381363e-001 1.260411e-001 2.301772e-001 1.884219e-001 2.045455e-001 2.346862e-001 2.978040e-001 2.227513e-001 2.348224e-001 2.267967e-001 1.947342e-001 1.021928e-001
<GCONST> 1.005505e+002
<TRANSP> 5
 0.000000e+000 1.000000e+000 0.000000e+000 0.000000e+000 0.000000e+000
 0.000000e+000 4.525452e-001 5.474548e-001 0.000000e+000 0.000000e+000
 0.000000e+000 0.000000e+000 5.474821e-001 4.525179e-001 0.000000e+000
 0.000000e+000 0.000000e+000 0.000000e+000 8.520290e-001 1.479710e-001
 0.000000e+000 0.000000e+000 0.000000e+000 0.000000e+000 0.000000e+000
<ENDHMM>
~h "ai"
<BEGINHMM>
<NUMSTATES> 5
<STATE> 2
<MEAN> 39
