~o
<STREAMINFO> 1 39
<VECSIZE> 39<NULLD><MFCC_D_A_0><DIAGC>
~h "a"
<BEGINHMM>
<NUMSTATES> 5
<STATE> 2
<MEAN> 39
 -5.019286e+000 -1.645827e+001 -3.686890e+000 -1.301953e+001 -4.058913e+000 -6.101241e+000 -1.845215e+000 -2.998079e+000 -7.857258e+000 -8.931899e+000 -5.693422e+000 -5.218115e+000 7.457783e+001 -1.887397e-001 -8.317739e-001 -1.526704e-001 3.331014e-001 3.331909e-001 1.590162e-001 2.011339e-001 -3.270652e-001 -5.435672e-001 -5.127565e-001 1.988340e-002 -2.559705e-002 4.411025e-001 6.380218e-002 3.288282e-001 1.295986e-001 6.229399e-002 -8.695208e-002 -5.316358e-002 -1.535973e-001 -9.544583e-002 1.186020e-001 1.926663e-001 8.886575e-002 3.186447e-002 -2.402010e-001
<VARIANCE> 39
 2.518171e+001 6.391965e+001 6.328376e+001 7.843009e+001 8.326903e+001 6.055835e+001 6.659151e+001 9.192697e+001 7.414343e+001 5.694811e+001 5.802348e+001 5.440765e+001 6.566867e+001 9.246557e-001 3.153332e+000 1.902466e+000 2.626912e+000 2.775800e+000 2.530575e+000 2.812152e+000 3.044963e+000 2.960095e+000 2.829774e+000 2.707956e+000 2.216803e+000 2.693075e+000 1.596967e-001 4.468217e-001 2.805792e-001 4.828637e-001 4.293769e-001 4.219117e-001 4.625582e-001 5.749984e-001 5.561139e-001 5.043330e-001 4.859323e-001 4.081996e-001 4.166716e-001
<GCONST> 1.256542e+002
<STATE> 3
<MEAN> 39
 -5.023328e+000 -1.744213e+001 -3.661796e+000 -1.229641e+001 -3.838648e+000 -6.137651e+000 -1.875909e+000 -3.950336e+000 -8.706604e+000 -9.577035e+000 -5.611123e+000 -5.308612e+000 7.512444e+001 5.183538e-002 -2.624296e-002 1.113437e-001 2.720846e-001 -2.010464e-002 -6.353398e-002 -8.597783e-002 -3.343067e-001 -1.809257e-001 -9.320785e-002 9.448694e-004 -1.075535e-002 -1.134236e-001 8.906554e-002 3.009195e-001 9.669718e-002 -2.164928e-002 -1.195380e-001 -7.916998e-002 -1.060957e-001 -5.830961e-003 1.330031e-001 1.516517e-001 -5.209974e-003 1.089189e-002 -2.171134e-001
<VARIANCE> 39
 2.480289e+001 5.992448e+001 6.020287e+001 7.260366e+001 7.851994e+001 6.064844e+001 6.566330e+001 9.238818e+001 7.007938e+001 5.438310e+001 5.599624e+001 5.229984e+001 5.341442e+001 7.658492e-001 2.716542e+000 1.525829e+000 2.064745e+000 2.293244e+000 2.124935e+000 2.137221e+000 2.467331e+000 2.377873e+000 2.266124e+000 2.094076e+000 1.752521e+000 2.480559e+000 1.193025e-001 3.369825e-001 2.345335e-001 3.529218e-001 3.372934e-001 3.484149e-001 3.639919e-001 4.698384e-001 4.193770e-001 4.001977e-001 3.598909e-001 3.132343e-001 2.935068e-001
<GCONST> 1.189624e+002
<STATE> 4
<MEAN> 39
 -4.989788e+000 -1.652320e+001 -3.109030e+000 -1.006420e+001 -3.471578e+000 -5.333106e+000 -2.419783e+000 -4.204800e+000 -8.736120e+000 -9.012178e+000 -5.509293e+000 -5.073401e+000 7.255363e+001 1.911402e-001 6.025742e-001 2.161319e-001 1.447567e-001 -1.743461e-001 -2.042508e-001 -1.492082e-001 -9.908931e-002 1.875329e-001 1.571034e-001 -7.130221e-002 3.087571e-002 -6.603382e-001 4.971371e-002 1.733947e-001 4.876397e-002 2.442793e-003 -4.019046e-002 -4.383195e-002 -4.916645e-002 -1.776250e-002 6.999631e-002 7.522770e-002 -4.823496e-003 1.899424e-002 -1.371613e-001
<VARIANCE> 39
 2.428314e+001 6.652117e+001 5.525950e+001 7.630581e+001 6.874094e+001 5.744065e+001 6.380304e+001 8.558986e+001 7.344683e+001 5.342306e+001 5.265351e+001 5.237643e+001 9.041493e+001 6.333690e-001 1.845331e+000 1.254294e+000 1.759837e+000 1.804174e+000 1.871280e+000 1.819510e+000 2.176331e+000 1.973812e+000 1.997049e+000 1.782712e+000 1.505485e+000 1.455248e+000 9.692120e-002 2.454072e-001 2.013269e-001 3.022103e-001 2.771058e-001 3.062876e-001 3.091009e-001 3.839430e-001 3.402622e-001 3.337230e-001 3.012320e-001 2.574328e-001 1.829143e-001
<GCONST> 1.137067e+002
<TRANSP> 5
 0.000000e+000 1.000000e+000 0.000000e+000 0.000000e+000 0.000000e+000
 0.000000e+000 6.097775e-001 3.902225e-001 0.000000e+000 0.000000e+000
 0.000000e+000 0.000000e+000 6.129127e-001 3.870873e-001 0.000000e+000
 0.000000e+000 0.000000e+000 0.000000e+000 8.471929e-001 1.528071e-001
 0.000000e+000 0.000000e+000 0.000000e+000 0.000000e+000 0.000000e+000
<ENDHMM>
~h "b"
<BEGINHMM>
<NUMSTATES> 5
<STATE> 2
<MEAN> 39
 -4.767027e-001 -4.822889e+000 -1.968962e-001 -1.025098e+001 -4.460066e+000 -4.562288e+000 -6.884767e+000 -7.282480e+000 -5.633336e+000 -5.275137e+000 -5.376617e+000 -6.379015e+000 6.328174e+001 4.015066e-001 2.642972e-001 1.133819e-002 3.120442e-001 3.022441e-001 6.134738e-002 -1.513503e-001 -3.233496e-001 -2.496215e-001 -1.939732e-001 -8.901670e-002 -2.693111e-001 -1.861904e-001 -5.945975e-002 -1.790432e-001 -9.594072e-002 -1.458418e-001 -1.203662e-002 5.086144e-004 3.874241e-002 1.273663e-001 3.269165e-002 6.201152e-003 8.901929e-003 8.999391e-003 2.950142e-001
<VARIANCE> 39
 2.762514e+001 7.445446e+001 6.755959e+001 9.897633e+001 5.981450e+001 7.126402e+001 6.701971e+001 7.824141e+001 6.336126e+001 6.053734e+001 6.626302e+001 4.909644e+001 1.054742e+002 1.604561e+000 4.634964e+000 3.555157e+000 6.070806e+000 3.465710e+000 3.533215e+000 4.427738e+000 5.675175e+000 4.904373e+000 4.306245e+000 4.039535e+000 3.232687e+000 7.453663e+000 2.700315e-001 7.491111e-001 5.901192e-001 1.083927e+000 6.033849e-001 6.135812e-001 7.900835e-001 1.033586e+000 9.398783e-001 8.577903e-001 7.661410e-001 6.285890e-001 1.052961e+000
<GCONST> 1.403347e+002
<STATE> 3
<MEAN> 39
 2.083905e-001 -5.415359e+000 -9.566398e-001 -1.053310e+001 -3.802060e+000 -4.294371e+000 -7.133476e+000 -7.283326e+000 -5.802593e+000 -5.566313e+000 -5.582338e+000 -7.119996e+000 6.467292e+001 -3.853901e-003 -6.328781e-001 -3.979304e-001 -3.328587e-001 1.407172e-001 7.931387e-002 1.273294e-001 3.432254e-001 2.911185e-002 -1.259482e-001 -8.287979e-002 -1.901720e-001 9.176996e-001 -1.362878e-001 -2.234194e-001 -5.619377e-002 -1.516396e-001 -6.578287e-002 -7.355989e-003 1.053004e-001 1.684841e-001 3.469583e-002 2.664918e-003 2.112794e-002 8.006012e-002 2.578413e-001
<VARIANCE> 39
 2.392400e+001 8.299841e+001 6.770031e+001 9.751492e+001 5.489440e+001 6.915879e+001 6.397292e+001 7.880505e+001 6.317119e+001 6.148582e+001 6.451975e+001 4.993255e+001 1.035944e+002 1.749985e+000 6.903558e+000 4.411519e+000 7.648226e+000 3.587635e+000 3.689747e+000 4.948416e+000 7.095885e+000 5.892872e+000 5.109711e+000 4.581267e+000 3.905711e+000 9.743813e+000 2.665791e-001 9.457320e-001 7.263423e-001 1.313046e+000 6.216721e-001 6.447498e-001 8.690663e-001 1.219015e+000 1.100185e+000 1.011101e+000 8.766718e-001 7.270576e-001 1.344222e+000
<GCONST> 1.442041e+002
<STATE> 4
<MEAN> 39
 -7.115793e-001 -7.010923e+000 -1.753143e+000 -1.103159e+001 -3.738913e+000 -3.480708e+000 -6.043631e+000 -6.011310e+000 -5.554443e+000 -6.063661e+000 -5.601575e+000 -6.978339e+000 6.619651e+001 -1.450502e-001 -5.097058e-001 -1.709634e-001 -2.611730e-001 -3.476812e-002 -3.489880e-002 2.317211e-001 2.961797e-001 -7.000187e-002 -1.184362e-001 2.798955e-002 6.615268e-002 7.364982e-001 -3.572642e-002 -3.742852e-002 2.342315e-002 -1.059490e-001 -8.016675e-002 -4.303731e-002 2.332964e-003 3.103674e-002 9.940441e-003 7.298271e-002 9.377130e-002 8.780252e-002 9.030436e-002
<VARIANCE> 39
 2.630536e+001 1.013171e+002 7.005785e+001 1.010760e+002 6.065774e+001 6.714742e+001 6.686218e+001 8.349731e+001 6.612656e+001 5.922974e+001 6.027509e+001 5.208639e+001 1.218641e+002 1.335677e+000 4.893643e+000 3.333788e+000 5.725015e+000 3.143870e+000 3.228526e+000 4.013350e+000 5.265281e+000 4.443030e+000 4.257801e+000 3.780893e+000 3.224381e+000 6.235858e+000 2.142745e-001 7.971793e-001 5.725692e-001 1.077556e+000 5.462275e-001 5.597590e-001 7.214192e-001 1.000366e+000 8.681910e-001 8.204636e-001 7.192068e-001 6.150945e-001 1.068115e+000
<GCONST> 1.391133e+002
<TRANSP> 5
 0.000000e+000 1.000000e+000 0.000000e+000 0.000000e+000 0.000000e+000
 0.000000e+000 5.584797e-001 4.415203e-001 0.000000e+000 0.000000e+000
 0.000000e+000 0.000000e+000 5.765879e-001 4.234121e-001 0.000000e+000
 0.000000e+000 0.000000e+000 0.000000e+000 5.978900e-001 4.021100e-001
 0.000000e+000 0.000000e+000 0.000000e+000 0.000000e+000 0.000000e+000
<ENDHMM>
~h "c"
<BEGINHMM>
<NUMSTATES> 5
<STATE> 2
<MEAN> 39
 -4.387277e+000 -4.658552e+000 -1.930204e+000 -8.429590e+000 -3.295837e+000 -5.574400e+000 -3.654633e+000 -4.408330e+000 -1.974138e+000 -1.996083e+000 -2.707152e+000 -3.031873e+000 5.988933e+001 -2.701163e-001 8.927383e-003 -2.418917e-001 5.354360e-001 5.103761e-001 -3.264423e-002 3.354204e-001 3.166737e-001 3.617392e-001 2.853561e-001 1.974683e-001 1.852113e-001 -3.956165e-001 2.918087e-002 -1.892519e-001 -1.041434e-001 -2.244214e-001 -1.135959e-002 4.750883e-003 -6.272004e-002 3.103997e-002 -7.488786e-002 -3.442513e-002 -5.357637e-002 -4.769905e-002 4.095087e-001
<VARIANCE> 39
 3.012645e+001 4.882022e+001 6.393803e+001 8.715049e+001 6.929165e+001 6.631065e+001 6.953823e+001 6.784254e+001 6.153133e+001 5.393954e+001 6.041313e+001 5.045035e+001 9.634290e+001 2.246662e+000 3.880952e+000 3.977109e+000 6.670329e+000 5.195883e+000 5.176293e+000 5.338404e+000 5.115994e+000 5.139549e+000 4.383533e+000 4.523737e+000 3.796032e+000 9.706410e+000 4.007803e-001 5.977211e-001 6.606544e-001 1.143662e+000 9.756296e-001 1.010399e+000 9.482944e-001 9.484516e-001 9.610541e-001 8.452084e-001 8.568677e-001 7.451625e-001 1.163784e+000
<GCONST> 1.431250e+002
<STATE> 3
<MEAN> 39
 -4.892213e+000 -5.421846e+000 -3.033673e+000 -8.103090e+000 -2.221327e+000 -5.783822e+000 -3.189259e+000 -3.546725e+000 -1.384736e+000 -1.437995e+000 -2.456212e+000 -2.801482e+000 6.076687e+001 -2.889121e-002 -4.371420e-001 -4.232985e-001 -4.070387e-001 1.931044e-001 -7.563326e-002 6.289379e-002 2.807834e-001 -1.669378e-002 8.727218e-002 -6.683688e-002 -7.619099e-002 8.646346e-001 1.025212e-001 -1.266891e-001 -2.775129e-002 -3.361209e-001 -1.261814e-001 4.613721e-002 -9.382065e-002 -5.772925e-002 -1.726720e-001 -1.199390e-001 -9.764085e-002 -1.146517e-001 3.337475e-001
<VARIANCE> 39
 3.003624e+001 4.741884e+001 6.292690e+001 8.508925e+001 7.226138e+001 6.577440e+001 6.787465e+001 6.459650e+001 5.999330e+001 5.230589e+001 5.717470e+001 5.049658e+001 9.716222e+001 2.755460e+000 4.005511e+000 4.504904e+000 8.992249e+000 6.359845e+000 5.978762e+000 6.027822e+000 5.558408e+000 5.919456e+000 4.896729e+000 5.453934e+000 4.674737e+000 1.175344e+001 4.717537e-001 6.405219e-001 7.414632e-001 1.333527e+000 1.148482e+000 1.123627e+000 1.028288e+000 1.017050e+000 1.035889e+000 9.199559e-001 9.735593e-001 8.776870e-001 1.330501e+000
<GCONST> 1.464664e+002
<STATE> 4
<MEAN> 39
 -4.918435e+000 -6.395498e+000 -3.813460e+000 -9.494488e+000 -2.230255e+000 -5.122021e+000 -3.096809e+000 -3.008482e+000 -1.637158e+000 -1.566397e+000 -2.581970e+000 -3.151835e+000 6.199081e+001 1.556777e-001 -4.497392e-001 -3.383140e-001 -8.039035e-001 -1.253907e-002 5.975565e-002 -8.671146e-002 1.473727e-002 -3.708033e-001 -2.161480e-001 -2.346378e-001 -2.439908e-001 1.099247e+000 6.572400e-002 9.030728e-004 7.831474e-003 -1.101280e-001 -2.713046e-002 4.320901e-002 -6.563210e-002 -8.839755e-002 -1.174461e-001 -9.417691e-002 -2.665612e-002 -3.603088e-002 1.103229e-001
<VARIANCE> 39
 2.885233e+001 5.399409e+001 6.288934e+001 9.661012e+001 7.171513e+001 6.508853e+001 7.031763e+001 6.322862e+001 6.144784e+001 5.081667e+001 5.836922e+001 5.119522e+001 1.221588e+002 2.322093e+000 3.632436e+000 3.808027e+000 7.563394e+000 5.576281e+000 5.041775e+000 5.188807e+000 4.873255e+000 5.229772e+000 4.416399e+000 4.829975e+000 4.252332e+000 7.831459e+000 4.038375e-001 5.645196e-001 6.253617e-001 1.276987e+000 1.018617e+000 9.491016e-001 9.035956e-001 8.723195e-001 9.125654e-001 8.041196e-001 8.865131e-001 7.836524e-001 1.166362e+000
<GCONST> 1.432272e+002
<TRANSP> 5
 0.000000e+000 1.000000e+000 0.000000e+000 0.000000e+000 0.000000e+000
 0.000000e+000 5.801374e-001 4.198625e-001 0.000000e+000 0.000000e+000
 0.000000e+000 0.000000e+000 5.901565e-001 4.098436e-001 0.000000e+000
 0.000000e+000 0.000000e+000 0.000000e+000 6.059100e-001 3.940901e-001
 0.000000e+000 0.000000e+000 0.000000e+000 0.000000e+000 0.000000e+000
<ENDHMM>
~h "d"
<BEGINHMM>
<NUMSTATES> 5
<STATE> 2
<MEAN> 39
 -2.339890e+000 -5.473946e+000 2.637445e+000 -1.091960e+001 -8.240257e+000 -7.791326e+000 -7.951914e+000 -6.110736e+000 -5.220002e+000 -5.234446e+000 -5.511846e+000 -4.860510e+000 6.558794e+001 1.674352e-001 1.794212e-001 5.188911e-001 2.784441e-001 -4.020043e-001 -4.459991e-001 -3.754828e-001 4.117959e-002 -1.507355e-001 -2.072060e-001 -1.169204e-001 -3.796137e-002 3.096691e-002 -1.433695e-002 -1.202473e-001 -7.281433e-002 -6.944708e-002 5.223623e-002 4.649099e-002 4.838236e-002 8.489799e-002 -3.939124e-003 -1.640805e-002 1.181585e-002 -1.345773e-002 1.588438e-001
<VARIANCE> 39
 3.121588e+001 7.861877e+001 8.753028e+001 1.123178e+002 7.793253e+001 7.012780e+001 7.864297e+001 9.399348e+001 6.593871e+001 6.585607e+001 6.820209e+001 5.067185e+001 9.434324e+001 1.549266e+000 4.419075e+000 3.832705e+000 6.391342e+000 5.727765e+000 4.068881e+000 5.063540e+000 6.205140e+000 4.387949e+000 4.611351e+000 3.983516e+000 3.304789e+000 5.246945e+000 2.540612e-001 6.925888e-001 5.773176e-001 1.139271e+000 1.108154e+000 7.251204e-001 9.008215e-001 1.128361e+000 7.903304e-001 8.864174e-001 7.460483e-001 6.176594e-001 7.578790e-001
<GCONST> 1.424555e+002
<STATE> 3
<MEAN> 39
 -2.137932e+000 -5.820891e+000 3.356161e+000 -1.088826e+001 -9.005349e+000 -8.523909e+000 -8.439455e+000 -5.463603e+000 -5.546759e+000 -5.768661e+000 -5.781063e+000 -5.006512e+000 6.667004e+001 1.879763e-002 -3.293882e-001 3.743425e-002 -1.856677e-001 -2.095371e-001 -1.408311e-001 -1.787411e-002 3.708280e-001 -6.372257e-002 -8.782240e-002 -9.818684e-002 -3.759118e-002 5.891873e-001 -4.260333e-002 -1.220709e-001 -1.600231e-001 -1.102631e-001 1.066374e-001 1.100967e-001 9.839560e-002 4.057100e-002 2.320327e-002 3.936896e-002 1.240932e-002 -1.549322e-002 1.276822e-001
<VARIANCE> 39
 2.931053e+001 7.925778e+001 8.742232e+001 1.164680e+002 7.912006e+001 6.563753e+001 7.699508e+001 9.655300e+001 6.471336e+001 6.608662e+001 6.482590e+001 4.768859e+001 8.548109e+001 1.633485e+000 5.470873e+000 4.595532e+000 7.979599e+000 6.933138e+000 4.371057e+000 5.741446e+000 7.332661e+000 4.670025e+000 5.180724e+000 4.368868e+000 3.535635e+000 6.887774e+000 2.555104e-001 8.060290e-001 6.247334e-001 1.342087e+000 1.331864e+000 7.578366e-001 9.927559e-001 1.334996e+000 8.414034e-001 9.932977e-001 8.169823e-001 6.690772e-001 9.599875e-001
<GCONST> 1.454779e+002
<STATE> 4
<MEAN> 39
 -2.543489e+000 -6.637847e+000 2.738477e+000 -1.200605e+001 -8.902583e+000 -7.871117e+000 -7.929611e+000 -4.588592e+000 -5.720005e+000 -5.417290e+000 -5.921700e+000 -5.111827e+000 6.810101e+001 2.838524e-002 -3.033944e-001 -2.004700e-001 -1.248364e-001 8.233240e-002 4.502875e-002 6.219396e-002 1.521186e-001 1.948478e-002 -1.826922e-002 -4.536917e-002 -7.377119e-002 4.251374e-001 -8.742042e-003 -2.470233e-002 -5.559824e-002 -9.477573e-003 6.721243e-002 4.637100e-002 3.634887e-003 -3.128101e-002 2.758591e-002 1.834493e-002 4.460255e-002 -1.262001e-002 1.273342e-002
<VARIANCE> 39
 2.810019e+001 8.407321e+001 9.385154e+001 1.179882e+002 8.377053e+001 6.652908e+001 7.909220e+001 9.705505e+001 6.654493e+001 6.383678e+001 6.517812e+001 4.801472e+001 9.062116e+001 1.338585e+000 4.243910e+000 3.828123e+000 6.451710e+000 6.206425e+000 3.793898e+000 5.133700e+000 6.080751e+000 4.146439e+000 4.606105e+000 3.982439e+000 3.237828e+000 5.179980e+000 2.058628e-001 6.682620e-001 5.238363e-001 1.081394e+000 1.084123e+000 6.423286e-001 8.687972e-001 1.141067e+000 7.566035e-001 8.451642e-001 7.197720e-001 5.975945e-001 7.893081e-001
<GCONST> 1.414832e+002
<TRANSP> 5
 0.000000e+000 1.000000e+000 0.000000e+000 0.000000e+000 0.000000e+000
 0.000000e+000 5.457492e-001 4.542507e-001 0.000000e+000 0.000000e+000
 0.000000e+000 0.000000e+000 5.607414e-001 4.392585e-001 0.000000e+000
 0.000000e+000 0.000000e+000 0.000000e+000 5.806767e-001 4.193234e-001
 0.000000e+000 0.000000e+000 0.000000e+000 0.000000e+000 0.000000e+000
<ENDHMM>
~h "e"
<BEGINHMM>
<NUMSTATES> 5
<STATE> 2
<MEAN> 39
 -7.238214e+000 -1.063240e+001 3.310365e+000 -1.737563e+001 -1.181982e+001 -6.969924e+000 3.856688e-001 -2.319278e+000 -5.170187e+000 -4.459020e+000 -5.161796e+000 -5.655369e+000 7.301101e+001 -2.470872e-001 -4.303293e-001 3.009541e-001 -6.863042e-001 -4.540687e-001 2.860442e-001 3.853503e-001 -4.198152e-002 -2.172287e-001 -6.909851e-002 -2.000624e-001 -4.009001e-001 5.752794e-001 4.293013e-002 1.881176e-001 -5.669877e-002 1.808311e-001 1.456054e-001 5.464068e-003 -1.475774e-001 -7.355708e-002 5.108043e-002 3.536751e-002 5.324397e-002 8.915371e-002 -1.471013e-001
<VARIANCE> 39
 2.612964e+001 4.825583e+001 5.820023e+001 1.060374e+002 7.817552e+001 6.600951e+001 5.996225e+001 7.540058e+001 6.153954e+001 4.826982e+001 5.783011e+001 3.908154e+001 7.905750e+001 9.825143e-001 1.853391e+000 1.559378e+000 2.694699e+000 2.361754e+000 2.216199e+000 2.615690e+000 2.351672e+000 2.206823e+000 1.965537e+000 2.117624e+000 1.838283e+000 2.580839e+000 2.088198e-001 3.290538e-001 2.476554e-001 4.805820e-001 4.169028e-001 4.313834e-001 4.599248e-001 4.113607e-001 3.747652e-001 3.527775e-001 3.724068e-001 3.190725e-001 4.275457e-001
<GCONST> 1.206909e+002
<STATE> 3
<MEAN> 39
 -7.358982e+000 -1.127609e+001 3.993499e+000 -1.877719e+001 -1.297161e+001 -6.626249e+000 6.950884e-001 -2.715689e+000 -5.731985e+000 -4.693832e+000 -5.668678e+000 -6.473360e+000 7.438927e+001 2.784025e-002 -1.926586e-001 1.547129e-001 -2.757366e-001 -2.309252e-001 6.858153e-002 -4.280195e-003 -1.378371e-001 -1.655175e-001 -9.089091e-002 -1.416555e-001 -1.893173e-001 2.986524e-001 1.057004e-001 1.215979e-001 -6.117820e-002 2.124869e-001 1.278623e-001 -7.558518e-002 -1.388985e-001 -4.020995e-002 3.966715e-002 5.511930e-003 3.947004e-002 9.368605e-002 -1.825029e-001
<VARIANCE> 39
 2.511517e+001 4.255893e+001 5.564063e+001 1.011166e+002 6.996175e+001 6.384063e+001 5.918739e+001 7.831971e+001 5.732044e+001 4.756008e+001 5.735675e+001 3.541089e+001 5.337432e+001 8.464793e-001 1.506241e+000 1.274041e+000 2.480947e+000 1.983543e+000 1.814243e+000 2.115970e+000 1.843663e+000 1.916213e+000 1.638441e+000 1.639117e+000 1.449291e+000 2.792549e+000 1.415904e-001 2.309611e-001 1.928208e-001 3.450199e-001 3.026158e-001 3.133944e-001 3.658598e-001 3.326619e-001 3.007851e-001 2.759033e-001 2.794442e-001 2.443648e-001 3.149067e-001
<GCONST> 1.137880e+002
<STATE> 4
<MEAN> 39
 -6.903795e+000 -1.100961e+001 4.704098e+000 -1.775563e+001 -1.278285e+001 -5.985288e+000 -5.723691e-002 -2.737258e+000 -6.057655e+000 -4.513450e+000 -5.643121e+000 -6.502717e+000 7.363746e+001 3.050711e-001 8.719806e-002 -4.410671e-002 3.965613e-001 2.071772e-001 -1.853564e-001 -2.597612e-001 -1.253191e-001 -3.974472e-002 -7.093265e-002 -1.158039e-002 7.562937e-002 -3.682358e-001 9.936316e-002 9.389544e-002 -4.368867e-002 1.703414e-001 1.172886e-001 -5.319788e-002 -1.217678e-001 -5.963560e-002 2.839085e-002 1.145497e-002 2.091170e-002 3.629275e-002 -1.692378e-001
<VARIANCE> 39
 2.546597e+001 4.459528e+001 5.665030e+001 1.194088e+002 7.017532e+001 5.849345e+001 5.744592e+001 7.839312e+001 5.676897e+001 4.669423e+001 5.801641e+001 3.497337e+001 6.397099e+001 7.746812e-001 1.252384e+000 1.066817e+000 1.977220e+000 1.726533e+000 1.672007e+000 2.048756e+000 1.738943e+000 1.607070e+000 1.499952e+000 1.376904e+000 1.222092e+000 1.480951e+000 1.076811e-001 1.995757e-001 1.650988e-001 2.808824e-001 2.577416e-001 2.838869e-001 3.551469e-001 3.393358e-001 2.768967e-001 2.539372e-001 2.398414e-001 2.126591e-001 1.821742e-001
<GCONST> 1.097846e+002
<TRANSP> 5
 0.000000e+000 1.000000e+000 0.000000e+000 0.000000e+000 0.000000e+000
 0.000000e+000 6.184298e-001 3.815701e-001 0.000000e+000 0.000000e+000
 0.000000e+000 0.000000e+000 6.274408e-001 3.725592e-001 0.000000e+000
 0.000000e+000 0.000000e+000 0.000000e+000 8.699811e-001 1.300189e-001
 0.000000e+000 0.000000e+000 0.000000e+000 0.000000e+000 0.000000e+000
<ENDHMM>
~h "f"
<BEGINHMM>
<NUMSTATES> 5
<STATE> 2
<MEAN> 39
 -7.458845e+000 4.990215e-001 1.262133e+001 -1.786369e+001 -1.210923e+001 -1.015570e+001 -1.032590e+001 -1.094887e+001 -8.556200e+000 -2.329741e+000 -4.892667e+000 -4.844607e+000 6.965946e+001 -2.608129e-002 -6.733024e-002 4.369447e-001 -2.959776e-001 -3.712789e-001 2.233404e-001 -1.041068e-001 -1.066574e-001 1.172563e-001 2.009291e-001 8.501344e-002 4.749337e-003 1.694678e-001 3.302100e-002 3.202030e-002 -8.765946e-002 1.412035e-001 8.893503e-002 1.908259e-003 5.804984e-002 1.027202e-002 4.543754e-002 -4.528727e-002 -7.746547e-003 1.200002e-002 -8.895370e-002
<VARIANCE> 39
 2.107856e+001 4.391166e+001 6.744415e+001 1.178839e+002 6.831096e+001 5.054075e+001 5.726313e+001 7.047283e+001 5.110441e+001 5.839309e+001 7.395796e+001 3.835609e+001 4.062516e+001 6.797075e-001 1.802148e+000 1.677291e+000 2.690094e+000 3.237873e+000 1.465312e+000 2.123207e+000 2.183323e+000 1.954841e+000 2.128567e+000 1.923019e+000 1.653010e+000 1.513236e+000 1.158779e-001 2.520294e-001 2.819310e-001 4.068096e-001 5.133317e-001 2.605393e-001 3.772476e-001 3.550270e-001 3.390398e-001 3.587005e-001 3.221087e-001 2.664233e-001 1.866307e-001
<GCONST> 1.154289e+002
<STATE> 3
<MEAN> 39
 -7.479205e+000 4.951256e-001 1.384951e+001 -1.804057e+001 -1.289916e+001 -9.363570e+000 -1.047964e+001 -1.089971e+001 -7.514248e+000 -2.086425e+000 -4.202703e+000 -4.707306e+000 6.975113e+001 9.708451e-002 -4.073947e-002 2.191676e-001 1.584972e-001 -9.045258e-002 2.005811e-001 6.758275e-002 3.450726e-002 2.030322e-001 5.589901e-002 1.238438e-001 4.465577e-002 -1.197096e-001 2.889891e-002 1.319206e-002 -7.528419e-002 1.301368e-001 9.412005e-002 -1.939357e-003 4.140600e-002 3.237174e-002 1.216182e-002 -3.746363e-002 -1.566082e-003 1.635278e-003 -9.900469e-002
<VARIANCE> 39
 1.897550e+001 4.188448e+001 6.466504e+001 1.269993e+002 6.387051e+001 4.870877e+001 5.268335e+001 6.348946e+001 5.590638e+001 5.349605e+001 7.385785e+001 3.485173e+001 4.136692e+001 6.690835e-001 1.450724e+000 1.566653e+000 2.641224e+000 2.889474e+000 1.402459e+000 1.963083e+000 1.994816e+000 1.931506e+000 1.948019e+000 1.658867e+000 1.496228e+000 1.529532e+000 1.056834e-001 1.985112e-001 2.276494e-001 3.542059e-001 4.314501e-001 2.326645e-001 3.149391e-001 3.198565e-001 3.110963e-001 3.257159e-001 2.772264e-001 2.474205e-001 1.535027e-001
<GCONST> 1.121004e+002
<STATE> 4
<MEAN> 39
 -6.730749e+000 7.553334e-001 1.418292e+001 -1.218409e+001 -1.208560e+001 -6.050129e+000 -9.092527e+000 -8.253045e+000 -5.820594e+000 -2.883826e+000 -9.826383e-001 -4.123552e+000 6.646143e+001 1.315470e-001 -4.854648e-002 -1.991012e-001 4.836205e-001 3.702445e-001 1.659717e-001 2.951124e-001 1.413664e-001 1.996135e-001 9.359167e-003 2.650099e-003 5.691438e-002 -5.578604e-001 1.223822e-002 -2.132312e-002 -9.536172e-002 6.130096e-002 8.342144e-002 -8.715477e-003 4.516217e-002 5.146485e-002 1.462174e-002 -1.130654e-002 -7.926761e-003 1.243325e-003 -5.342029e-002
<VARIANCE> 39
 1.707933e+001 4.384383e+001 7.695906e+001 1.350620e+002 6.983555e+001 5.176270e+001 6.222481e+001 5.866774e+001 5.455435e+001 4.269985e+001 7.047633e+001 2.893661e+001 7.601965e+001 6.427715e-001 1.223176e+000 1.813375e+000 2.326534e+000 2.288149e+000 1.479664e+000 2.147682e+000 1.906968e+000 1.891091e+000 1.831376e+000 1.539673e+000 1.295969e+000 1.347641e+000 1.062087e-001 1.777002e-001 2.283653e-001 3.457936e-001 3.351137e-001 2.484715e-001 3.375398e-001 3.092075e-001 3.064334e-001 3.244808e-001 2.492502e-001 2.404533e-001 1.660741e-001
<GCONST> 1.115325e+002
<TRANSP> 5
 0.000000e+000 1.000000e+000 0.000000e+000 0.000000e+000 0.000000e+000
 0.000000e+000 8.273845e-001 1.726155e-001 0.000000e+000 0.000000e+000
 0.000000e+000 0.000000e+000 7.890388e-001 2.109612e-001 0.000000e+000
 0.000000e+000 0.000000e+000 0.000000e+000 9.167275e-001 8.327246e-002
 0.000000e+000 0.000000e+000 0.000000e+000 0.000000e+000 0.000000e+000
<ENDHMM>
~h "g"
<BEGINHMM>
<NUMSTATES> 5
<STATE> 2
<MEAN> 39
 -2.512865e+000 -6.969371e+000 -6.510903e-003 -1.543605e+001 -5.841862e+000 -9.438901e+000 -6.497806e+000 -5.090751e+000 -5.488072e+000 -3.184652e+000 -6.279293e+000 -4.861698e+000 6.897954e+001 -1.161013e-002 -3.432865e-001 -6.141516e-002 -4.142442e-001 -5.114628e-002 -2.592135e-001 1.121937e-001 3.480816e-001 -2.672015e-003 2.699057e-002 -2.013592e-001 -1.085053e-001 4.941593e-001 1.109332e-002 -7.467523e-002 -7.650867e-002 5.974719e-002 8.134798e-002 1.488614e-001 4.879123e-002 -2.300780e-002 -3.536855e-002 -9.069415e-002 1.573228e-002 -6.639894e-003 6.501390e-003
<VARIANCE> 39
 2.448484e+001 6.269737e+001 8.570674e+001 1.187311e+002 9.111005e+001 1.083971e+002 8.689797e+001 9.843206e+001 6.329816e+001 7.564055e+001 8.724767e+001 6.201786e+001 7.116883e+001 8.502536e-001 3.362275e+000 2.824185e+000 4.725437e+000 3.781544e+000 4.750641e+000 4.537853e+000 4.893897e+000 3.762766e+000 4.151898e+000 3.566070e+000 2.968258e+000 3.457248e+000 1.312857e-001 3.330057e-001 3.813644e-001 7.666730e-001 6.434657e-001 7.295314e-001 7.019677e-001 7.614813e-001 6.289784e-001 7.247402e-001 6.624402e-001 5.234088e-001 3.884082e-001
<GCONST> 1.352747e+002
<STATE> 3
<MEAN> 39
 -2.563392e+000 -8.323079e+000 -4.675845e-001 -1.632767e+001 -5.638015e+000 -9.696064e+000 -5.993547e+000 -4.219530e+000 -5.498759e+000 -3.467170e+000 -6.814677e+000 -5.124538e+000 7.041365e+001 -2.574266e-002 -5.761124e-001 -2.865984e-001 -2.561665e-001 1.644938e-001 2.588862e-001 2.913209e-001 2.762437e-001 -5.552421e-002 -2.050247e-001 -1.427489e-001 -1.449978e-001 4.983336e-001 9.318495e-003 -4.802576e-003 -4.354279e-002 1.201395e-001 8.170151e-002 1.375982e-001 3.383731e-003 -8.476972e-002 -3.338606e-002 -4.542013e-002 5.222622e-002 1.220327e-002 -6.882348e-002
<VARIANCE> 39
 2.305466e+001 6.647220e+001 8.582211e+001 1.119222e+002 9.175373e+001 1.099784e+002 9.229720e+001 1.018912e+002 6.231130e+001 7.806850e+001 9.159588e+001 6.350798e+001 6.321611e+001 6.914269e-001 3.210506e+000 2.703169e+000 4.520155e+000 3.718394e+000 4.645854e+000 4.224553e+000 4.511770e+000 3.521591e+000 4.012612e+000 3.494638e+000 2.784883e+000 3.225529e+000 1.065379e-001 3.386680e-001 3.569869e-001 7.187855e-001 6.042124e-001 6.882561e-001 6.659126e-001 7.468868e-001 5.987960e-001 7.141511e-001 6.393098e-001 5.025961e-001 3.773380e-001
<GCONST> 1.338298e+002
<STATE> 4
<MEAN> 39
 -2.619821e+000 -9.791566e+000 -1.429448e+000 -1.715757e+001 -4.925131e+000 -7.043752e+000 -5.199836e+000 -3.465042e+000 -5.966923e+000 -3.988554e+000 -6.669314e+000 -5.618245e+000 7.165226e+001 9.998498e-003 -2.847348e-001 -2.190179e-001 1.228954e-001 2.073645e-001 3.282226e-001 1.357316e-001 -4.515654e-002 -7.509955e-002 -1.687864e-001 4.254883e-002 -7.779298e-002 7.852536e-002 1.568571e-002 8.351769e-002 3.040320e-002 8.434581e-002 6.441319e-005 -4.087744e-002 -5.932006e-002 -5.519552e-002 9.616466e-003 4.428472e-002 5.026234e-002 2.376000e-002 -9.375717e-002
<VARIANCE> 39
 2.447503e+001 8.774323e+001 8.557445e+001 1.203104e+002 9.601003e+001 1.047135e+002 9.108649e+001 9.931575e+001 6.503027e+001 6.828608e+001 8.300341e+001 5.717979e+001 6.451804e+001 5.216305e-001 2.515983e+000 2.035276e+000 3.232850e+000 2.962703e+000 3.524747e+000 3.191466e+000 3.287870e+000 2.873343e+000 3.135192e+000 2.778379e+000 2.222194e+000 2.235641e+000 8.495878e-002 2.819326e-001 2.685412e-001 5.054890e-001 4.455951e-001 4.974544e-001 5.047671e-001 5.646395e-001 4.974749e-001 5.366945e-001 4.836869e-001 3.947108e-001 2.824667e-001
<GCONST> 1.268896e+002
<TRANSP> 5
 0.000000e+000 1.000000e+000 0.000000e+000 0.000000e+000 0.000000e+000
 0.000000e+000 6.120459e-001 3.879541e-001 0.000000e+000 0.000000e+000
 0.000000e+000 0.000000e+000 6.162577e-001 3.837423e-001 0.000000e+000
 0.000000e+000 0.000000e+000 0.000000e+000 7.379531e-001 2.620470e-001
 0.000000e+000 0.000000e+000 0.000000e+000 0.000000e+000 0.000000e+000
<ENDHMM>
~h "h"
<BEGINHMM>
<NUMSTATES> 5
<STATE> 2
<MEAN> 39
 -3.742584e+000 -8.425910e+000 -2.661279e+000 -1.138347e+001 -1.234687e+000 -4.230590e+000 -5.143865e+000 -5.774144e+000 -5.842590e+000 -8.494170e+000 -4.151076e+000 -5.723899e+000 6.871178e+001 -2.879708e-002 -3.528552e-001 -1.512312e-001 -1.831651e-002 2.542729e-001 1.892827e-001 -7.088871e-002 -5.583691e-002 -1.143135e-001 -3.664654e-001 8.521443e-002 -1.829124e-001 2.797610e-001 2.267960e-002 -2.285969e-002 7.992679e-003 -6.333450e-002 -6.693899e-002 -1.215931e-002 -1.790495e-002 9.474659e-003 2.602017e-002 9.306663e-002 3.542308e-003 7.547507e-003 3.745712e-002
<VARIANCE> 39
 3.052495e+001 6.357364e+001 7.622102e+001 1.011867e+002 1.047416e+002 8.374397e+001 8.730532e+001 8.133924e+001 7.275722e+001 7.508092e+001 6.509370e+001 5.220274e+001 6.939407e+001 8.865211e-001 2.316197e+000 2.178089e+000 3.031313e+000 3.590722e+000 2.873251e+000 3.213126e+000 3.097031e+000 2.803333e+000 3.228071e+000 2.842216e+000 2.400504e+000 1.483713e+000 1.503959e-001 3.099383e-001 3.193533e-001 4.323283e-001 5.219285e-001 4.719691e-001 5.145477e-001 5.384597e-001 4.828585e-001 5.478114e-001 4.741643e-001 4.045525e-001 1.779476e-001
<GCONST> 1.264404e+002
<STATE> 3
<MEAN> 39
 -3.635402e+000 -9.299611e+000 -3.029164e+000 -1.168534e+001 -8.506829e-001 -3.882804e+000 -5.438189e+000 -6.002225e+000 -6.083269e+000 -9.154064e+000 -4.026194e+000 -6.198867e+000 6.954659e+001 2.774631e-002 -3.613077e-001 -1.124685e-001 -1.637474e-001 7.069392e-002 1.637023e-001 -6.312408e-002 -7.987275e-003 -5.774239e-002 -9.631626e-002 4.537220e-002 -1.435832e-001 3.378773e-001 2.320381e-002 7.306885e-003 1.978831e-002 -5.076687e-002 -7.052689e-002 -1.810857e-002 -5.108768e-004 1.584292e-002 1.720173e-002 1.052844e-001 -9.582463e-003 1.681927e-002 1.216200e-002
<VARIANCE> 39
 3.064535e+001 6.502837e+001 7.730531e+001 1.021431e+002 1.094357e+002 8.399970e+001 8.953336e+001 8.142787e+001 7.172588e+001 7.552415e+001 6.312763e+001 5.108064e+001 6.106348e+001 8.703551e-001 2.235338e+000 2.049492e+000 2.841031e+000 3.167434e+000 2.654016e+000 2.921659e+000 2.853754e+000 2.592514e+000 3.017694e+000 2.641154e+000 2.236833e+000 1.470780e+000 1.442948e-001 2.939936e-001 2.976938e-001 3.960608e-001 4.620927e-001 4.241248e-001 4.580627e-001 4.832186e-001 4.352284e-001 4.957267e-001 4.308472e-001 3.713613e-001 1.593951e-001
<GCONST> 1.243149e+002
<STATE> 4
<MEAN> 39
 -3.769728e+000 -1.056751e+001 -3.068324e+000 -1.152992e+001 -1.369051e+000 -2.658458e+000 -5.328405e+000 -5.415709e+000 -6.199214e+000 -8.161874e+000 -3.877977e+000 -6.167699e+000 6.943330e+001 5.231505e-002 -1.182718e-001 -6.167789e-003 -1.545978e-001 -9.304398e-002 5.120622e-002 2.839971e-002 2.231291e-002 1.727782e-002 1.110066e-001 5.783589e-004 -3.743568e-002 1.214964e-001 2.762885e-002 4.888039e-002 1.642019e-002 -7.585288e-003 -4.345334e-002 -3.720223e-002 -7.758168e-004 -4.008094e-003 6.581258e-003 3.874217e-002 -1.129178e-002 1.347228e-002 -2.999100e-002
<VARIANCE> 39
 2.997047e+001 7.200156e+001 7.789318e+001 1.088836e+002 1.053929e+002 7.561235e+001 9.308474e+001 7.800216e+001 7.220244e+001 6.419521e+001 5.693896e+001 4.716581e+001 8.274461e+001 6.627346e-001 1.731566e+000 1.555652e+000 2.146999e+000 2.272310e+000 2.081920e+000 2.281527e+000 2.251966e+000 2.083431e+000 2.295532e+000 2.091249e+000 1.801211e+000 1.163525e+000 1.082793e-001 2.267278e-001 2.254947e-001 3.056591e-001 3.350936e-001 3.212423e-001 3.518716e-001 3.754252e-001 3.494653e-001 3.692552e-001 3.405172e-001 2.965642e-001 1.291853e-001
<GCONST> 1.175813e+002
<TRANSP> 5
 0.000000e+000 1.000000e+000 0.000000e+000 0.000000e+000 0.000000e+000
 0.000000e+000 5.823007e-001 4.176993e-001 0.000000e+000 0.000000e+000
 0.000000e+000 0.000000e+000 5.917251e-001 4.082750e-001 0.000000e+000
 0.000000e+000 0.000000e+000 0.000000e+000 8.144891e-001 1.855109e-001
 0.000000e+000 0.000000e+000 0.000000e+000 0.000000e+000 0.000000e+000
<ENDHMM>
~h "i"
<BEGINHMM>
<NUMSTATES> 5
<STATE> 2
<MEAN> 39
 -6.793730e+000 -4.076179e+000 5.020084e+000 -1.153216e+001 -1.161262e+001 -1.053332e+001 -6.075410e+000 -6.158214e+000 -4.837226e+000 -4.361614e+000 -3.744934e+000 -2.727340e+000 6.973148e+001 1.895632e-001 1.356704e-002 7.599846e-001 -5.409822e-001 -1.048653e+000 -1.873671e-001 -5.045171e-001 -6.616369e-001 -5.576558e-001 -2.104518e-001 -2.922000e-001 -3.318061e-001 3.663328e-001 -1.383390e-002 9.282422e-002 -8.309091e-002 1.302566e-001 1.690735e-001 1.667948e-001 3.473920e-002 -7.017998e-002 3.300629e-002 2.686328e-002 5.928981e-003 -1.274438e-002 -2.321992e-001
<VARIANCE> 39
 3.362158e+001 4.473732e+001 7.305457e+001 1.206017e+002 8.198455e+001 6.662372e+001 7.961584e+001 8.400778e+001 6.545650e+001 5.105462e+001 6.984348e+001 5.572353e+001 5.707545e+001 2.318847e+000 2.875448e+000 3.001780e+000 5.704621e+000 6.023015e+000 3.886124e+000 4.759243e+000 5.072783e+000 4.091995e+000 3.209537e+000 4.634069e+000 3.401250e+000 4.588250e+000 4.564439e-001 5.764204e-001 4.958171e-001 8.789577e-001 9.455933e-001 7.404879e-001 8.916708e-001 9.287175e-001 7.294517e-001 5.814140e-001 7.640137e-001 6.174806e-001 6.547002e-001
<GCONST> 1.391035e+002
<STATE> 3
<MEAN> 39
 -6.187215e+000 -3.868656e+000 6.778518e+000 -1.278320e+001 -1.394015e+001 -1.060994e+001 -7.479671e+000 -8.020693e+000 -6.281734e+000 -4.815466e+000 -4.406587e+000 -3.612080e+000 7.028127e+001 2.760150e-001 1.381874e-001 4.810176e-001 -1.770276e-001 -5.158911e-001 1.214101e-001 -3.878213e-001 -6.906009e-001 -4.129259e-001 -1.629037e-001 -2.736096e-001 -2.871064e-001 -1.841367e-001 -7.193261e-003 5.183350e-002 -1.320233e-001 1.568698e-001 2.416111e-001 1.217013e-001 8.632259e-002 8.554462e-003 9.170907e-002 2.457774e-002 2.931691e-002 2.904835e-002 -1.924031e-001
<VARIANCE> 39
 3.022630e+001 4.129573e+001 7.476954e+001 1.218869e+002 7.905712e+001 6.534962e+001 6.956731e+001 8.243729e+001 6.134583e+001 5.281181e+001 8.163132e+001 6.005169e+001 4.755168e+001 1.837449e+000 2.529434e+000 2.624556e+000 5.303437e+000 5.149803e+000 3.410161e+000 4.087337e+000 4.852814e+000 3.425639e+000 2.870462e+000 4.108543e+000 2.943665e+000 4.072236e+000 3.361713e-001 4.699698e-001 4.142662e-001 7.618071e-001 7.746639e-001 6.133240e-001 7.144977e-001 8.620565e-001 6.029197e-001 5.023438e-001 6.703330e-001 5.208488e-001 5.330889e-001
<GCONST> 1.346733e+002
<STATE> 4
<MEAN> 39
 -6.356601e+000 -2.394470e+000 1.004515e+001 -1.212794e+001 -1.575451e+001 -8.368355e+000 -9.279841e+000 -9.869299e+000 -8.115899e+000 -4.384591e+000 -4.015975e+000 -5.226490e+000 6.937393e+001 2.546294e-001 2.100863e-001 -5.372142e-002 4.044630e-001 4.674437e-001 2.539994e-001 5.093865e-002 -2.376901e-001 -7.060093e-003 -7.432774e-002 -1.217123e-001 -5.512647e-002 -7.275101e-001 3.929070e-003 -3.337912e-003 -1.400904e-001 9.228094e-002 1.627391e-001 1.993055e-002 8.123205e-002 9.225053e-002 8.268812e-002 9.192895e-003 2.971531e-002 3.551963e-002 -6.300996e-002
<VARIANCE> 39
 2.731490e+001 3.824920e+001 7.515311e+001 1.240845e+002 7.559988e+001 6.136287e+001 6.095948e+001 6.837893e+001 5.344219e+001 4.959657e+001 9.874532e+001 6.240121e+001 5.599577e+001 1.150639e+000 1.714650e+000 2.079597e+000 3.184965e+000 3.258571e+000 2.318736e+000 2.890251e+000 3.599183e+000 2.439258e+000 2.143753e+000 2.663607e+000 2.020058e+000 2.456067e+000 1.967111e-001 2.980733e-001 2.892395e-001 5.066808e-001 5.046615e-001 4.144467e-001 4.845224e-001 5.784218e-001 4.256231e-001 3.736317e-001 4.456172e-001 3.450211e-001 3.808744e-001
<GCONST> 1.240809e+002
<TRANSP> 5
 0.000000e+000 1.000000e+000 0.000000e+000 0.000000e+000 0.000000e+000
 0.000000e+000 6.036566e-001 3.963433e-001 0.000000e+000 0.000000e+000
 0.000000e+000 0.000000e+000 6.223050e-001 3.776949e-001 0.000000e+000
 0.000000e+000 0.000000e+000 0.000000e+000 8.085197e-001 1.914803e-001
 0.000000e+000 0.000000e+000 0.000000e+000 0.000000e+000 0.000000e+000
<ENDHMM>
~h "k"
<BEGINHMM>
<NUMSTATES> 5
<STATE> 2
<MEAN> 39
 -5.709245e+000 -3.856421e+000 1.547232e+000 -7.090305e+000 -6.616011e+000 -6.779921e+000 -3.151660e+000 -5.645045e+000 -1.974966e+000 -2.025093e+000 -3.060774e+000 -2.850283e+000 5.964879e+001 -4.974020e-001 -1.802729e-001 2.862742e-001 3.227197e-001 -1.927187e-001 -2.903850e-001 3.322259e-001 2.104303e-001 1.902847e-001 3.317463e-001 2.706634e-001 2.284527e-001 8.560948e-002 2.684595e-002 -1.240993e-001 5.038442e-002 -2.522510e-001 -1.912583e-001 -5.436752e-002 -8.884089e-002 -1.503144e-003 -1.006596e-001 -9.157166e-003 -5.422955e-002 -6.320897e-002 4.183159e-001
<VARIANCE> 39
 2.913192e+001 3.770948e+001 5.969009e+001 7.503088e+001 7.268807e+001 5.867348e+001 5.865823e+001 7.220698e+001 5.639379e+001 4.655861e+001 5.638344e+001 4.050917e+001 1.053525e+002 2.128591e+000 3.293212e+000 3.916702e+000 6.249008e+000 6.310468e+000 5.027208e+000 4.972086e+000 5.582855e+000 5.219284e+000 3.745637e+000 4.309642e+000 3.457468e+000 1.191154e+001 3.623964e-001 5.271600e-001 6.851917e-001 1.020184e+000 1.075526e+000 8.923345e-001 8.936629e-001 1.045426e+000 9.336004e-001 7.067211e-001 7.918793e-001 6.836984e-001 1.362230e+000
<GCONST> 1.412943e+002
<STATE> 3
<MEAN> 39
 -6.978722e+000 -5.004353e+000 2.662666e+000 -7.706905e+000 -8.567162e+000 -8.025131e+000 -2.786775e+000 -5.026993e+000 -2.009358e+000 -1.218560e+000 -2.556748e+000 -2.565770e+000 6.244119e+001 -1.944820e-001 -3.749979e-001 5.176882e-001 -7.392189e-001 -9.419205e-001 -4.525763e-001 -1.444126e-001 1.385401e-001 -2.532379e-001 1.998612e-001 -1.224563e-002 -9.663514e-002 1.332286e+000 9.710368e-002 -2.865551e-002 2.443604e-002 -2.438095e-001 -1.002261e-001 4.242709e-002 -1.097990e-001 -9.909556e-003 -9.761096e-002 -7.109243e-002 -8.329824e-002 -1.118032e-001 1.443245e-001
<VARIANCE> 39
 2.638065e+001 3.704438e+001 6.249390e+001 8.454990e+001 7.980747e+001 5.619283e+001 5.657145e+001 7.006569e+001 5.596665e+001 4.427247e+001 5.634132e+001 4.162428e+001 1.133181e+002 2.458357e+000 3.140914e+000 4.621327e+000 8.338004e+000 7.594298e+000 5.160715e+000 5.635293e+000 5.727809e+000 5.498728e+000 3.895017e+000 5.477324e+000 3.922522e+000 1.252423e+001 4.289111e-001 5.621123e-001 7.642505e-001 1.277566e+000 1.255048e+000 9.154619e-001 9.823334e-001 1.047928e+000 9.425131e-001 7.240263e-001 9.249138e-001 7.316937e-001 1.593706e+000
<GCONST> 1.440456e+002
<STATE> 4
<MEAN> 39
 -7.240214e+000 -5.693358e+000 3.975024e+000 -9.655136e+000 -1.120439e+001 -7.972066e+000 -3.355028e+000 -4.493211e+000 -2.787187e+000 -6.648401e-001 -2.485926e+000 -3.256945e+000 6.451313e+001 -4.847640e-002 -2.469245e-001 3.393193e-001 -6.509560e-001 -5.520478e-001 -1.842458e-001 -1.534970e-001 -3.017438e-002 -2.409717e-001 -3.928418e-002 -9.983621e-002 -1.445825e-001 9.528078e-001 3.608844e-002 3.742089e-002 -9.763510e-004 3.407755e-002 7.353210e-002 2.498049e-002 -2.481409e-002 -7.950558e-002 -2.406012e-002 -6.374808e-002 -2.633435e-002 3.853264e-003 -2.121115e-002
<VARIANCE> 39
 2.148287e+001 3.661584e+001 7.106142e+001 9.917467e+001 8.838602e+001 5.179935e+001 5.530359e+001 7.138100e+001 5.903270e+001 4.564365e+001 6.136811e+001 4.098301e+001 1.391204e+002 1.731704e+000 2.445012e+000 3.503957e+000 5.634419e+000 5.327985e+000 3.385398e+000 4.094005e+000 4.264721e+000 3.855613e+000 3.101519e+000 4.153788e+000 2.898429e+000 7.677958e+000 3.069878e-001 4.229162e-001 5.821474e-001 9.862523e-001 9.395809e-001 6.268235e-001 7.581353e-001 7.547814e-001 6.954291e-001 5.635688e-001 7.431470e-001 5.474567e-001 1.164396e+000
<GCONST> 1.363981e+002
<TRANSP> 5
 0.000000e+000 1.000000e+000 0.000000e+000 0.000000e+000 0.000000e+000
 0.000000e+000 6.729953e-001 3.270048e-001 0.000000e+000 0.000000e+000
 0.000000e+000 0.000000e+000 6.802309e-001 3.197691e-001 0.000000e+000
 0.000000e+000 0.000000e+000 0.000000e+000 7.137100e-001 2.862900e-001
 0.000000e+000 0.000000e+000 0.000000e+000 0.000000e+000 0.000000e+000
<ENDHMM>
~h "l"
<BEGINHMM>
<NUMSTATES> 5
<STATE> 2
<MEAN> 39
 -2.309243e+000 -1.001215e+001 -1.558906e-001 -1.491307e+001 -5.648429e+000 -9.735195e+000 -9.924321e+000 -3.857567e+000 -3.525969e+000 -6.868827e+000 -5.308928e+000 -3.956782e+000 7.051139e+001 4.302469e-002 -2.090943e-001 5.735567e-002 -2.281355e-001 1.184264e-002 -6.040229e-001 -3.545633e-001 4.945641e-001 9.637359e-002 -2.109134e-001 -1.779483e-001 6.487687e-002 3.483491e-001 -3.455633e-002 -3.114385e-002 -6.513929e-002 1.902839e-002 2.338041e-002 1.221814e-001 1.506913e-001 1.426013e-002 -7.161683e-002 6.107985e-003 4.101044e-003 -2.316050e-002 4.050395e-002
<VARIANCE> 39
 2.398860e+001 6.139771e+001 7.883052e+001 8.488589e+001 7.402441e+001 1.118483e+002 1.118053e+002 9.041898e+001 7.275196e+001 8.644471e+001 6.693733e+001 6.132661e+001 5.547723e+001 8.754203e-001 2.483069e+000 2.924468e+000 3.530158e+000 3.837039e+000 6.097478e+000 6.299911e+000 5.349504e+000 4.238286e+000 4.270561e+000 3.838685e+000 3.060739e+000 1.894807e+000 1.372154e-001 3.489926e-001 3.897732e-001 5.669615e-001 6.085492e-001 1.008199e+000 1.089377e+000 9.275500e-001 7.349903e-001 7.584476e-001 6.890883e-001 5.300371e-001 2.148932e-001
<GCONST> 1.347300e+002
<STATE> 3
<MEAN> 39
 -2.391083e+000 -1.091324e+001 -4.267542e-001 -1.562625e+001 -5.502734e+000 -1.079719e+001 -1.004059e+001 -2.484391e+000 -3.697149e+000 -7.537199e+000 -5.846109e+000 -3.894762e+000 7.188920e+001 -1.050893e-001 -4.091481e-001 -2.839535e-001 -1.310396e-001 1.493383e-001 1.365718e-001 2.758833e-001 3.523861e-001 -1.386918e-001 -1.739991e-001 -1.844601e-001 -6.227021e-002 4.947175e-001 -3.360520e-002 -3.171898e-002 -8.231070e-002 6.166177e-002 3.107995e-002 2.212061e-001 1.570419e-001 -1.024459e-001 -6.417554e-002 1.681046e-002 2.790069e-002 -3.378851e-002 9.734335e-003
<VARIANCE> 39
 2.146198e+001 5.955605e+001 7.544162e+001 7.804379e+001 7.007870e+001 1.130467e+002 1.150056e+002 8.749325e+001 7.432747e+001 8.959888e+001 6.387557e+001 6.175135e+001 4.323120e+001 7.498713e-001 2.756053e+000 3.106937e+000 3.333566e+000 3.595043e+000 6.813699e+000 6.954593e+000 5.274071e+000 4.183912e+000 4.176443e+000 3.760590e+000 2.921246e+000 1.866632e+000 1.120295e-001 3.765933e-001 3.979825e-001 5.147903e-001 5.740012e-001 1.030039e+000 1.120317e+000 9.202377e-001 7.167522e-001 7.508646e-001 6.828828e-001 5.014129e-001 2.133392e-001
<GCONST> 1.338190e+002
<STATE> 4
<MEAN> 39
 -3.078553e+000 -1.264930e+001 -1.678528e+000 -1.581317e+001 -4.532418e+000 -8.084825e+000 -8.626831e+000 -1.756123e+000 -4.745884e+000 -7.605119e+000 -6.337510e+000 -4.445714e+000 7.348289e+001 -9.167190e-002 -2.710436e-001 -3.154136e-001 6.331643e-002 1.442958e-001 4.450867e-001 4.362049e-001 -2.544065e-002 -1.399137e-001 -4.416567e-002 -2.190147e-002 -1.280981e-001 2.555570e-001 1.631451e-002 5.549440e-002 2.417580e-002 4.002495e-002 -2.273002e-002 1.721718e-002 9.110571e-003 -7.975610e-002 1.813123e-003 3.581202e-002 5.022065e-002 -6.250741e-003 -6.583902e-002
<VARIANCE> 39
 2.147228e+001 6.498738e+001 7.678036e+001 7.901160e+001 7.363200e+001 1.084376e+002 1.137964e+002 8.777030e+001 7.755891e+001 7.876427e+001 5.932237e+001 6.127701e+001 4.311515e+001 5.570281e-001 2.295070e+000 2.420282e+000 2.515445e+000 2.874873e+000 4.878101e+000 5.159063e+000 3.911983e+000 3.230541e+000 3.318073e+000 3.037684e+000 2.363879e+000 1.462365e+000 8.492197e-002 3.104629e-001 3.184507e-001 3.846898e-001 4.352300e-001 7.500983e-001 8.489749e-001 6.837577e-001 5.555428e-001 5.695391e-001 5.421946e-001 4.006585e-001 1.833837e-001
<GCONST> 1.271516e+002
<TRANSP> 5
 0.000000e+000 1.000000e+000 0.000000e+000 0.000000e+000 0.000000e+000
 0.000000e+000 6.730055e-001 3.269945e-001 0.000000e+000 0.000000e+000
 0.000000e+000 0.000000e+000 6.841823e-001 3.158177e-001 0.000000e+000
 0.000000e+000 0.000000e+000 0.000000e+000 8.011147e-001 1.988854e-001
 0.000000e+000 0.000000e+000 0.000000e+000 0.000000e+000 0.000000e+000
<ENDHMM>
~h "m"
<BEGINHMM>
<NUMSTATES> 5
<STATE> 2
<MEAN> 39
 -6.974933e-001 -7.447182e+000 -1.743575e-001 -1.049612e+001 -4.016355e+000 -5.294606e+000 -8.432288e+000 -9.467834e+000 -7.055608e+000 -6.232145e+000 -5.887128e+000 -6.212786e+000 6.656451e+001 3.210604e-001 4.898704e-001 2.139076e-001 3.690563e-001 1.476600e-001 9.745740e-003 -5.195107e-001 -8.529574e-001 -4.342404e-001 -1.229420e-001 -1.896341e-001 -2.797567e-002 -4.432929e-001 -6.954932e-002 -3.701628e-002 -2.007103e-002 -9.149565e-002 -3.483506e-002 3.224966e-002 7.378564e-002 8.895661e-002 -3.297253e-003 -2.122683e-002 1.881330e-002 2.814291e-002 9.917324e-002
<VARIANCE> 39
 2.341413e+001 7.168760e+001 7.142368e+001 8.676063e+001 7.369319e+001 9.106919e+001 7.895805e+001 1.062563e+002 7.141718e+001 7.198663e+001 7.559015e+001 6.137561e+001 6.820939e+001 1.201218e+000 2.831812e+000 3.207372e+000 4.159878e+000 3.175979e+000 3.482160e+000 4.007126e+000 6.554472e+000 4.520093e+000 4.012148e+000 3.923947e+000 3.304579e+000 3.085282e+000 1.974277e-001 3.634075e-001 4.910041e-001 6.589034e-001 5.074669e-001 5.424764e-001 6.635842e-001 1.103478e+000 8.018262e-001 6.939317e-001 6.807450e-001 5.832522e-001 3.216650e-001
<GCONST> 1.349556e+002
<STATE> 3
<MEAN> 39
 -1.535504e-001 -6.636539e+000 1.015718e-001 -1.012466e+001 -3.792773e+000 -5.091562e+000 -9.390765e+000 -1.094113e+001 -8.032407e+000 -6.648721e+000 -6.254668e+000 -6.291888e+000 6.613790e+001 6.868628e-002 2.216345e-001 4.678695e-002 3.648717e-002 4.082191e-002 1.077041e-001 -1.603494e-001 -2.244119e-001 -2.173410e-001 -1.826173e-001 -8.747149e-002 1.378435e-002 -1.023860e-001 -9.044810e-002 -9.172758e-002 -6.974817e-002 -1.238264e-001 -4.059416e-002 2.683989e-002 1.490726e-001 2.645328e-001 1.017634e-001 -3.405352e-003 5.430596e-002 1.800031e-002 1.152858e-001
<VARIANCE> 39
 2.107036e+001 6.740668e+001 7.018816e+001 8.701774e+001 6.976041e+001 9.387354e+001 7.699530e+001 1.049869e+002 7.100930e+001 7.474332e+001 7.738856e+001 6.140308e+001 5.624246e+001 1.083422e+000 2.922578e+000 3.295349e+000 4.283638e+000 3.063656e+000 3.350394e+000 3.945997e+000 7.222256e+000 4.714013e+000 4.008060e+000 4.058776e+000 3.450162e+000 3.075622e+000 1.747108e-001 3.419686e-001 5.196451e-001 6.696445e-001 5.114264e-001 5.322420e-001 6.406075e-001 1.109973e+000 8.069320e-001 7.186829e-001 7.090030e-001 6.004378e-001 3.070612e-001
<GCONST> 1.345956e+002
<STATE> 4
<MEAN> 39
 -2.725252e-001 -5.701646e+000 1.925436e-001 -9.903620e+000 -3.974713e+000 -3.339150e+000 -9.252216e+000 -1.066632e+001 -8.180809e+000 -6.889168e+000 -5.980993e+000 -6.015005e+000 6.559386e+001 -1.019892e-001 1.041872e-001 -1.152549e-001 -1.075859e-001 -4.742069e-002 7.431362e-002 2.110310e-001 3.917333e-001 1.600356e-001 -7.719188e-002 5.335193e-002 4.091841e-002 -4.904220e-002 -4.193746e-002 -5.331789e-002 -7.441860e-002 -8.344394e-002 -8.678208e-003 -1.277029e-002 9.606301e-002 1.907396e-001 1.005706e-001 5.273421e-002 7.018286e-002 -6.535416e-004 6.461242e-002
<VARIANCE> 39
 2.259380e+001 7.403602e+001 7.092516e+001 9.349579e+001 7.023973e+001 9.119872e+001 8.075465e+001 1.116736e+002 7.361452e+001 6.854158e+001 7.403965e+001 5.956253e+001 6.668629e+001 8.650917e-001 2.088499e+000 2.527334e+000 3.292299e+000 2.619891e+000 2.734064e+000 3.049198e+000 4.951384e+000 3.693365e+000 3.162602e+000 3.327041e+000 2.784759e+000 2.027442e+000 1.443298e-001 2.777137e-001 4.170926e-001 5.414930e-001 4.428147e-001 4.415658e-001 5.119658e-001 8.377746e-001 6.532843e-001 5.619104e-001 5.902629e-001 4.928657e-001 2.425001e-001
<GCONST> 1.288367e+002
<TRANSP> 5
 0.000000e+000 1.000000e+000 0.000000e+000 0.000000e+000 0.000000e+000
 0.000000e+000 5.790290e-001 4.209710e-001 0.000000e+000 0.000000e+000
 0.000000e+000 0.000000e+000 5.849097e-001 4.150903e-001 0.000000e+000
 0.000000e+000 0.000000e+000 0.000000e+000 7.277454e-001 2.722546e-001
 0.000000e+000 0.000000e+000 0.000000e+000 0.000000e+000 0.000000e+000
<ENDHMM>
~h "n"
<BEGINHMM>
<NUMSTATES> 5
<STATE> 2
<MEAN> 39
 -1.164546e+000 -5.964656e+000 1.256939e+000 -1.252968e+001 -7.622575e+000 -6.811077e+000 -6.966579e+000 -8.204588e+000 -6.215150e+000 -6.017139e+000 -7.061277e+000 -5.262530e+000 6.707255e+001 2.218936e-001 4.535794e-001 1.967133e-001 4.790634e-001 -6.438967e-002 -1.199874e-001 -1.677489e-001 -5.529354e-001 -2.739686e-002 -1.817020e-001 -2.012975e-001 1.172726e-001 -5.991535e-001 -5.984101e-002 -5.216296e-002 -4.495387e-002 -1.438440e-002 4.801958e-002 3.324643e-002 1.171296e-002 9.875648e-002 1.466571e-002 6.792573e-003 6.858421e-002 -2.927418e-003 5.478900e-002
<VARIANCE> 39
 2.519603e+001 6.318344e+001 7.924150e+001 9.046642e+001 7.887737e+001 8.085306e+001 7.712342e+001 9.819673e+001 6.966275e+001 7.541972e+001 7.873974e+001 6.121751e+001 5.683199e+001 1.037577e+000 2.590849e+000 2.694280e+000 3.370026e+000 3.398897e+000 3.452242e+000 3.449033e+000 5.316226e+000 3.461378e+000 3.626185e+000 3.368078e+000 3.039487e+000 2.369876e+000 1.600314e-001 3.560837e-001 3.850362e-001 5.246490e-001 5.364290e-001 5.777602e-001 5.862290e-001 9.156214e-001 6.041240e-001 6.188631e-001 5.713020e-001 5.192143e-001 2.750816e-001
<GCONST> 1.312449e+002
<STATE> 3
<MEAN> 39
 -8.072470e-001 -5.146578e+000 1.543930e+000 -1.160376e+001 -7.660661e+000 -6.983072e+000 -7.338768e+000 -9.124734e+000 -6.291046e+000 -6.385454e+000 -7.328530e+000 -5.001373e+000 6.598037e+001 2.210986e-002 2.454254e-001 4.409648e-002 4.000440e-001 9.873036e-002 1.904165e-002 -5.923954e-002 -1.653798e-001 7.676488e-003 -1.101114e-001 -1.230782e-002 7.710295e-002 -4.357148e-001 -9.682388e-002 -8.979972e-002 -6.550204e-002 -3.484224e-002 8.193203e-002 5.068030e-002 5.770922e-002 1.779840e-001 2.633972e-002 3.917370e-002 9.045734e-002 -1.785810e-002 7.153381e-002
<VARIANCE> 39
 2.361021e+001 6.132809e+001 7.300138e+001 8.517173e+001 7.313982e+001 7.892145e+001 7.162948e+001 9.303309e+001 6.821561e+001 7.524319e+001 7.589635e+001 5.947275e+001 5.438658e+001 1.053854e+000 2.736376e+000 2.434958e+000 3.298461e+000 3.239861e+000 3.283167e+000 3.401013e+000 5.499053e+000 3.428540e+000 3.481019e+000 3.263552e+000 2.956017e+000 2.513227e+000 1.594513e-001 3.663148e-001 3.748626e-001 5.050160e-001 5.225468e-001 5.620211e-001 5.714415e-001 9.147689e-001 6.015329e-001 6.152763e-001 5.592273e-001 5.109801e-001 2.701476e-001
<GCONST> 1.302792e+002
<STATE> 4
<MEAN> 39
 -1.137293e+000 -4.223682e+000 1.394607e+000 -1.021202e+001 -6.878553e+000 -5.845428e+000 -7.190519e+000 -9.039257e+000 -5.951355e+000 -6.134424e+000 -6.789300e+000 -4.619524e+000 6.390916e+001 -1.791546e-001 1.198479e-001 -7.817742e-002 3.820833e-001 2.604172e-001 7.649470e-002 1.157879e-001 2.004693e-001 1.330920e-001 2.613469e-002 1.806474e-001 4.696758e-002 -4.147192e-001 -8.246908e-002 -7.848119e-002 -5.755373e-002 -3.716140e-002 7.049929e-002 7.765006e-003 5.373269e-002 1.483513e-001 4.624383e-002 4.428089e-002 7.015257e-002 -8.849608e-003 7.934047e-002
<VARIANCE> 39
 2.573350e+001 6.219226e+001 6.720188e+001 8.461071e+001 7.064690e+001 7.257372e+001 6.964723e+001 8.734099e+001 6.753441e+001 6.708031e+001 7.036369e+001 5.559095e+001 7.275334e+001 9.694496e-001 2.170259e+000 1.938594e+000 2.648993e+000 2.734899e+000 2.699986e+000 3.032776e+000 4.333738e+000 3.090554e+000 3.040778e+000 2.937716e+000 2.577517e+000 1.951394e+000 1.601433e-001 3.189248e-001 3.162936e-001 4.334007e-001 4.574203e-001 4.702371e-001 5.031672e-001 7.514621e-001 5.407752e-001 5.361015e-001 5.052502e-001 4.513289e-001 2.523508e-001
<GCONST> 1.262583e+002
<TRANSP> 5
 0.000000e+000 1.000000e+000 0.000000e+000 0.000000e+000 0.000000e+000
 0.000000e+000 5.407427e-001 4.592574e-001 0.000000e+000 0.000000e+000
 0.000000e+000 0.000000e+000 5.408476e-001 4.591524e-001 0.000000e+000
 0.000000e+000 0.000000e+000 0.000000e+000 6.805097e-001 3.194903e-001
 0.000000e+000 0.000000e+000 0.000000e+000 0.000000e+000 0.000000e+000
<ENDHMM>
~h "o"
<BEGINHMM>
<NUMSTATES> 5
<STATE> 2
<MEAN> 39
 -3.090620e+000 -1.206263e+001 -5.689181e+000 -1.473655e+001 -3.717967e+000 -5.809371e+000 -5.944751e+000 -2.813684e+000 -4.232345e+000 -5.555509e+000 -4.921811e+000 -6.747561e+000 7.312894e+001 6.964878e-001 -1.078388e+000 -1.430277e+000 -5.455684e-001 7.466832e-001 6.978703e-001 -3.691480e-001 -3.839907e-001 -4.319811e-001 -5.011271e-001 -3.286323e-001 -7.127072e-001 7.259734e-001 -1.155496e-001 3.863928e-001 1.456538e-001 1.854014e-001 9.946662e-002 2.122806e-001 2.951229e-002 -1.780827e-001 3.640734e-002 8.553094e-002 2.040133e-001 1.041313e-001 -3.986569e-001
<VARIANCE> 39
 2.972522e+001 8.064372e+001 8.913831e+001 8.313626e+001 9.942207e+001 8.037379e+001 6.585561e+001 7.611790e+001 6.738405e+001 7.688890e+001 7.314487e+001 7.270135e+001 6.430778e+001 2.032603e+000 5.816756e+000 5.077208e+000 5.958464e+000 7.900447e+000 5.406743e+000 4.531236e+000 4.950546e+000 4.663097e+000 5.978228e+000 6.047791e+000 4.949069e+000 4.837726e+000 4.235697e-001 8.812066e-001 8.803653e-001 1.128698e+000 1.759642e+000 1.036404e+000 8.466111e-001 9.073042e-001 9.157035e-001 1.111608e+000 1.125702e+000 9.378531e-001 6.453030e-001
<GCONST> 1.471980e+002
<STATE> 3
<MEAN> 39
 -1.641855e+000 -1.286197e+001 -8.115124e+000 -1.544305e+001 -2.269655e+000 -3.835225e+000 -6.802094e+000 -4.285972e+000 -4.987156e+000 -6.259761e+000 -4.813938e+000 -7.892228e+000 7.342574e+001 4.950874e-001 -7.764803e-002 -5.780451e-001 -2.157947e-001 3.484562e-001 7.541078e-001 -2.299617e-001 -5.525205e-001 -2.926556e-001 -2.207817e-001 6.192837e-002 -2.916715e-001 -1.063245e-001 -1.162962e-001 3.405047e-001 3.459550e-001 1.826994e-001 -1.424403e-001 -5.542918e-002 5.998727e-002 -4.712303e-002 4.337741e-002 6.580207e-002 7.711909e-002 1.789224e-001 -3.025726e-001
<VARIANCE> 39
 2.837831e+001 7.279745e+001 8.084866e+001 7.802461e+001 9.035937e+001 8.819843e+001 6.559042e+001 7.482986e+001 6.346503e+001 7.975974e+001 8.264789e+001 7.563418e+001 4.944822e+001 1.540612e+000 4.925016e+000 4.970564e+000 5.459705e+000 6.766572e+000 4.962467e+000 4.244565e+000 4.598920e+000 4.356855e+000 5.176717e+000 5.336920e+000 4.533303e+000 4.308548e+000 2.896543e-001 6.718901e-001 7.347438e-001 9.646614e-001 1.282657e+000 9.259583e-001 7.828313e-001 8.295005e-001 8.253252e-001 1.007845e+000 1.083418e+000 8.464037e-001 4.853759e-001
<GCONST> 1.430541e+002
<STATE> 4
<MEAN> 39
 -8.129573e-001 -1.289000e+001 -8.923120e+000 -1.549549e+001 -1.353854e+000 -1.113294e+000 -8.097218e+000 -5.785689e+000 -5.895364e+000 -6.718507e+000 -4.684443e+000 -8.260574e+000 7.246819e+001 1.580744e-001 6.648751e-001 4.014996e-001 2.568655e-001 -1.388770e-001 4.922578e-002 -7.125602e-002 -4.016195e-001 -1.284564e-001 -5.087885e-002 -1.492261e-002 1.937747e-001 -7.560921e-001 -1.060111e-001 1.509768e-001 2.394027e-001 1.536468e-001 -1.051793e-001 -2.002460e-001 3.069250e-002 1.623307e-002 4.507128e-002 3.169702e-002 -4.484429e-002 1.073822e-001 -1.251332e-001
<VARIANCE> 39
 2.541533e+001 6.777812e+001 7.213190e+001 7.861217e+001 8.203968e+001 9.221894e+001 6.926599e+001 7.525167e+001 5.959164e+001 6.919646e+001 7.972047e+001 7.407066e+001 5.030786e+001 1.129883e+000 3.269865e+000 3.635951e+000 4.270240e+000 4.373142e+000 4.358591e+000 3.572639e+000 3.832257e+000 3.531837e+000 3.799105e+000 4.100928e+000 3.368105e+000 2.776078e+000 1.994161e-001 4.484490e-001 5.214578e-001 7.539408e-001 7.979233e-001 6.970199e-001 6.415544e-001 6.714198e-001 6.359243e-001 6.952875e-001 7.875143e-001 6.170569e-001 3.700911e-001
<GCONST> 1.347366e+002
<TRANSP> 5
 0.000000e+000 1.000000e+000 0.000000e+000 0.000000e+000 0.000000e+000
 0.000000e+000 6.123047e-001 3.876953e-001 0.000000e+000 0.000000e+000
 0.000000e+000 0.000000e+000 6.364793e-001 3.635207e-001 0.000000e+000
 0.000000e+000 0.000000e+000 0.000000e+000 7.313461e-001 2.686540e-001
 0.000000e+000 0.000000e+000 0.000000e+000 0.000000e+000 0.000000e+000
<ENDHMM>
~h "p"
<BEGINHMM>
<NUMSTATES> 5
<STATE> 2
<MEAN> 39
 -3.455800e+000 -7.843830e+000 -1.928661e+000 -6.947967e+000 -1.869115e+000 -3.164195e+000 -1.990878e+000 -1.651649e+000 -7.130650e-001 -2.085185e+000 -1.692416e+000 -3.696851e+000 6.230901e+001 -6.221002e-002 8.360098e-001 3.253114e-001 1.098443e+000 6.253651e-001 4.658290e-001 4.643935e-001 3.119212e-001 5.369868e-001 3.212903e-001 2.291852e-001 1.884805e-001 -1.430269e+000 -1.495710e-001 -1.023134e-001 1.644942e-002 -1.174027e-001 -8.713289e-002 -4.358430e-002 -5.590769e-002 -3.846585e-002 -1.134662e-001 -7.847255e-002 -8.534280e-002 -1.926432e-002 1.293608e-001
<VARIANCE> 39
 3.217217e+001 5.899255e+001 6.487611e+001 7.985738e+001 6.857780e+001 6.209976e+001 5.458759e+001 5.212174e+001 5.040676e+001 4.770489e+001 5.270607e+001 6.147775e+001 1.046993e+002 3.209611e+000 4.849058e+000 3.841637e+000 6.253593e+000 4.494734e+000 4.708584e+000 4.848834e+000 4.352469e+000 4.494863e+000 3.859927e+000 3.943632e+000 3.733672e+000 9.366979e+000 6.150334e-001 8.980662e-001 6.853973e-001 1.101255e+000 8.045667e-001 8.481889e-001 8.526688e-001 7.904007e-001 7.705020e-001 7.091492e-001 7.536441e-001 6.932540e-001 1.116695e+000
<GCONST> 1.416194e+002
<STATE> 3
<MEAN> 39
 -4.258693e+000 -6.400879e+000 -1.293310e+000 -4.858084e+000 -7.633598e-001 -2.219969e+000 -1.111743e+000 -1.224472e+000 1.753553e-001 -1.650203e+000 -1.360888e+000 -3.252755e+000 5.912815e+001 -3.219910e-001 3.301392e-001 1.264774e-001 3.803335e-001 1.387727e-001 8.991472e-002 8.499010e-002 8.932413e-002 1.312496e-001 4.145910e-002 2.057277e-002 1.237340e-001 -6.329352e-001 -3.588244e-002 -1.986573e-001 -8.690882e-002 -3.171043e-001 -1.913605e-001 -1.572916e-001 -1.726460e-001 -9.144893e-002 -1.643875e-001 -1.120763e-001 -9.115232e-002 -4.632864e-002 3.828527e-001
<VARIANCE> 39
 3.034324e+001 5.130315e+001 5.410498e+001 6.650383e+001 6.007889e+001 5.771384e+001 5.605490e+001 4.921281e+001 4.912859e+001 4.291682e+001 4.713665e+001 4.955775e+001 7.480446e+001 3.151508e+000 4.577164e+000 3.693240e+000 6.051105e+000 4.452644e+000 4.877682e+000 5.200596e+000 4.359085e+000 4.483592e+000 3.736141e+000 3.817791e+000 3.506961e+000 9.426292e+000 5.743566e-001 8.042467e-001 6.564053e-001 9.377427e-001 7.836838e-001 8.412212e-001 8.654741e-001 8.171540e-001 7.837566e-001 6.951481e-001 7.208173e-001 6.345367e-001 8.970644e-001
<GCONST> 1.391266e+002
<STATE> 4
<MEAN> 39
 -6.160482e+000 -5.661598e+000 -1.544871e+000 -3.734424e+000 -6.386850e-001 -1.804361e+000 -7.697636e-001 -9.744864e-001 7.875587e-001 -1.329952e+000 -1.065572e+000 -2.668492e+000 5.587205e+001 -1.225635e-001 1.956079e-001 5.908618e-002 -1.795052e-001 -1.853823e-001 -3.040458e-001 -3.548187e-001 -2.452996e-001 -2.635894e-001 -1.977289e-001 -1.256924e-001 -1.136357e-003 3.106101e-001 8.520163e-002 -4.110688e-002 -2.395675e-003 -1.941937e-001 -9.107045e-002 -1.148481e-001 -1.352139e-001 -8.758413e-002 -1.309332e-001 -6.995039e-002 -6.428237e-002 -4.784953e-002 3.453343e-001
<VARIANCE> 39
 2.660504e+001 4.360522e+001 4.569505e+001 5.271835e+001 5.131130e+001 4.657367e+001 5.340937e+001 4.472442e+001 4.509137e+001 3.691984e+001 3.986199e+001 3.711478e+001 6.850397e+001 2.300155e+000 3.169881e+000 2.770455e+000 3.807195e+000 3.358014e+000 3.611337e+000 4.177783e+000 3.700151e+000 3.696126e+000 3.103104e+000 3.090909e+000 2.688073e+000 5.155174e+000 3.933307e-001 5.582723e-001 4.896275e-001 6.531683e-001 6.104708e-001 6.547524e-001 7.191480e-001 6.833605e-001 6.703789e-001 5.751251e-001 5.840107e-001 5.013033e-001 6.573380e-001
<GCONST> 1.299103e+002
<TRANSP> 5
 0.000000e+000 1.000000e+000 0.000000e+000 0.000000e+000 0.000000e+000
 0.000000e+000 6.177401e-001 3.822599e-001 0.000000e+000 0.000000e+000
 0.000000e+000 0.000000e+000 5.966685e-001 4.033315e-001 0.000000e+000
 0.000000e+000 0.000000e+000 0.000000e+000 7.279789e-001 2.720211e-001
 0.000000e+000 0.000000e+000 0.000000e+000 0.000000e+000 0.000000e+000
<ENDHMM>
~h "r"
<BEGINHMM>
<NUMSTATES> 5
<STATE> 2
<MEAN> 39
 -1.497724e+000 -1.155284e+001 -4.192275e-002 -8.636377e+000 -8.730811e+000 -8.197586e+000 -7.595914e+000 -2.429417e+000 -4.239439e+000 -6.095587e+000 -4.970739e+000 -4.096445e+000 6.870041e+001 1.827141e-001 -6.190602e-001 -8.950218e-002 1.128409e-001 -3.421197e-001 -3.269549e-001 -1.598530e-002 5.263452e-001 3.270242e-002 -1.759137e-001 -1.551525e-001 1.610860e-002 4.298508e-001 -4.468301e-002 1.875467e-003 -6.243746e-002 -1.303969e-001 1.094937e-001 1.322192e-001 5.019407e-002 -4.173774e-002 -5.673542e-002 1.160398e-002 -2.094500e-002 -3.177655e-002 5.167658e-002
<VARIANCE> 39
 4.127782e+001 7.638724e+001 8.122236e+001 1.090031e+002 8.388211e+001 7.718401e+001 8.783273e+001 8.558412e+001 6.250997e+001 6.361339e+001 5.791104e+001 4.523040e+001 6.588007e+001 2.370012e+000 4.145530e+000 3.124022e+000 6.111770e+000 6.093074e+000 5.411128e+000 4.659585e+000 5.358596e+000 3.947225e+000 3.913028e+000 4.030309e+000 3.141513e+000 3.275446e+000 4.348296e-001 5.763937e-001 4.221415e-001 8.561178e-001 1.100461e+000 9.135154e-001 7.507063e-001 8.719135e-001 6.856573e-001 7.029423e-001 7.102280e-001 5.452706e-001 3.809614e-001
<GCONST> 1.398153e+002
<STATE> 3
<MEAN> 39
 -1.104716e+000 -1.338690e+001 -6.093914e-001 -9.061124e+000 -9.360436e+000 -8.515361e+000 -7.413408e+000 -1.040013e+000 -4.393672e+000 -6.469940e+000 -5.537856e+000 -4.176612e+000 7.028354e+001 3.866128e-002 -6.355110e-001 -3.373365e-001 -4.407215e-001 8.816739e-002 2.524516e-001 1.175736e-001 3.429434e-001 -2.026024e-001 -6.465251e-002 -2.632550e-001 -1.055803e-001 5.932803e-001 -8.292470e-002 9.235036e-002 -4.450470e-002 -8.497982e-002 1.895910e-001 1.519427e-001 4.368680e-002 -1.435405e-001 -6.285558e-002 3.485988e-002 2.556069e-002 -3.538688e-002 -2.829860e-002
<VARIANCE> 39
 3.870895e+001 7.581024e+001 7.680582e+001 1.072127e+002 8.628647e+001 7.802306e+001 8.987979e+001 8.801583e+001 6.401548e+001 6.452876e+001 5.692443e+001 4.449290e+001 5.593002e+001 2.286662e+000 3.861320e+000 2.890672e+000 5.777231e+000 6.254338e+000 5.435330e+000 4.513697e+000 5.116420e+000 3.921351e+000 3.809080e+000 3.896552e+000 3.058870e+000 2.819966e+000 4.114975e-001 5.622261e-001 3.725776e-001 7.979046e-001 1.066609e+000 8.817097e-001 7.220113e-001 8.611206e-001 6.670844e-001 6.726998e-001 6.964293e-001 5.366241e-001 3.364881e-001
<GCONST> 1.384454e+002
<STATE> 4
<MEAN> 39
 -1.483928e+000 -1.510479e+001 -2.021906e+000 -1.070519e+001 -7.842486e+000 -6.264379e+000 -6.819169e+000 -3.730123e-001 -5.537622e+000 -6.184808e+000 -6.103354e+000 -4.589285e+000 7.165378e+001 -1.476210e-001 -1.238664e-001 -2.835845e-001 -4.041180e-001 4.951751e-001 3.837273e-001 1.554964e-001 -1.631718e-001 -2.155867e-001 2.455396e-002 -4.840568e-002 -1.573929e-001 2.438444e-001 -1.775052e-002 1.442567e-001 3.004191e-002 3.823967e-002 3.959452e-002 -3.030387e-002 -1.736698e-003 -1.120010e-001 3.262960e-002 1.982987e-002 8.833960e-002 3.451715e-003 -1.017231e-001
<VARIANCE> 39
 3.253853e+001 7.606411e+001 7.367513e+001 1.070652e+002 8.937750e+001 8.075954e+001 9.180173e+001 9.071223e+001 7.056487e+001 6.207096e+001 5.596826e+001 4.579877e+001 6.682909e+001 1.285574e+000 2.468588e+000 2.068770e+000 3.992612e+000 4.520973e+000 3.969872e+000 3.479120e+000 3.861040e+000 3.150228e+000 3.062390e+000 3.002497e+000 2.558301e+000 1.862937e+000 2.310471e-001 3.604839e-001 2.565400e-001 5.392021e-001 7.280547e-001 6.180138e-001 5.560246e-001 6.641199e-001 5.379139e-001 5.157540e-001 5.292327e-001 4.245367e-001 2.320737e-001
<GCONST> 1.299967e+002
<TRANSP> 5
 0.000000e+000 1.000000e+000 0.000000e+000 0.000000e+000 0.000000e+000
 0.000000e+000 6.459188e-001 3.540812e-001 0.000000e+000 0.000000e+000
 0.000000e+000 0.000000e+000 6.382330e-001 3.617670e-001 0.000000e+000
 0.000000e+000 0.000000e+000 0.000000e+000 7.051687e-001 2.948312e-001
 0.000000e+000 0.000000e+000 0.000000e+000 0.000000e+000 0.000000e+000
<ENDHMM>
~h "s"
<BEGINHMM>
<NUMSTATES> 5
<STATE> 2
<MEAN> 39
 -1.179946e+001 1.707535e+000 2.164954e-001 -6.030844e+000 -3.310219e+000 -7.186739e+000 -3.212704e+000 -3.265292e+000 -3.159121e+000 -3.830304e+000 -1.695900e+000 -2.459298e+000 6.617107e+001 -2.141653e+000 1.502040e+000 -1.377430e-001 1.153625e+000 8.976118e-001 4.100001e-001 7.470680e-001 6.867146e-001 5.715200e-001 1.531063e-001 6.219806e-001 2.848306e-001 -1.423239e-001 -1.427372e-001 -1.546909e-001 -1.237695e-001 -1.440261e-001 8.237915e-002 1.540225e-001 6.481874e-002 1.070744e-001 5.097372e-002 5.331700e-002 9.234536e-003 -2.847198e-002 1.135823e-001
<VARIANCE> 39
 1.112117e+002 7.398157e+001 7.186372e+001 8.693061e+001 7.710995e+001 6.791792e+001 6.976665e+001 7.103496e+001 5.616645e+001 5.129557e+001 5.527729e+001 3.839392e+001 4.740051e+001 7.313709e+000 5.961298e+000 4.059482e+000 6.657146e+000 5.682621e+000 5.478680e+000 5.089730e+000 4.928443e+000 4.285628e+000 4.270380e+000 4.145786e+000 3.425342e+000 2.376113e+000 1.438963e+000 8.846180e-001 6.009758e-001 9.697084e-001 9.952708e-001 9.887107e-001 9.026871e-001 8.884945e-001 7.787908e-001 7.825179e-001 7.269778e-001 5.974402e-001 2.827801e-001
<GCONST> 1.430194e+002
<STATE> 3
<MEAN> 39
 -1.753824e+001 3.709145e+000 -1.152911e+000 -4.746231e+000 -9.134874e-001 -5.718728e+000 -1.136566e+000 -5.279237e-001 -1.265965e+000 -3.376218e+000 -1.833886e-001 -1.481110e+000 6.711642e+001 5.426004e-002 -5.367962e-001 -3.597762e-001 -3.471012e-001 3.245899e-002 -2.231568e-002 2.012075e-002 4.051671e-001 1.378212e-001 -1.080623e-001 -9.075055e-002 1.051977e-001 5.042055e-001 4.895413e-001 -4.505377e-001 -3.370681e-002 -3.041377e-001 -1.826542e-001 -8.334438e-002 -1.914826e-001 -1.047750e-001 -1.228335e-001 -7.495444e-002 -1.800635e-001 -1.028526e-001 1.512204e-001
<VARIANCE> 39
 1.048930e+002 7.160636e+001 6.611112e+001 7.806535e+001 6.169511e+001 5.779981e+001 5.802214e+001 5.222213e+001 4.340490e+001 4.180822e+001 4.242285e+001 3.049014e+001 3.486172e+001 1.455112e+001 7.763774e+000 3.561443e+000 7.087684e+000 5.891013e+000 5.932706e+000 5.316734e+000 4.080438e+000 4.085795e+000 4.223293e+000 4.677703e+000 3.331048e+000 2.447933e+000 1.634960e+000 8.091384e-001 5.921545e-001 9.434958e-001 9.430817e-001 1.028714e+000 8.365133e-001 7.150840e-001 6.861547e-001 7.508376e-001 7.517537e-001 6.095096e-001 2.912200e-001
<GCONST> 1.411182e+002
<STATE> 4
<MEAN> 39
 -1.389056e+001 -2.688688e-001 -2.541309e+000 -6.566701e+000 -1.997861e+000 -6.086993e+000 -2.098375e+000 6.476325e-002 -1.390061e+000 -3.879514e+000 -1.359243e+000 -1.521351e+000 6.893410e+001 1.617597e+000 -1.663350e+000 -2.266470e-001 -1.131010e+000 -4.873528e-001 -3.644858e-001 -6.074959e-001 -7.180345e-002 -2.816206e-001 -3.615324e-001 -6.007884e-001 -3.300504e-001 9.531852e-001 2.996901e-002 -7.860912e-002 9.483550e-003 -7.981535e-002 1.971409e-002 5.280392e-002 -2.196297e-002 -9.461028e-002 -5.264632e-002 2.118105e-002 3.312882e-003 -9.731375e-002 1.071446e-002
<VARIANCE> 39
 1.212620e+002 1.106473e+002 6.311393e+001 9.625378e+001 6.253798e+001 6.047656e+001 6.557489e+001 4.706258e+001 4.598034e+001 4.404519e+001 4.926072e+001 3.453440e+001 4.982628e+001 8.497397e+000 5.580102e+000 3.196002e+000 5.680665e+000 4.931141e+000 5.054466e+000 4.463354e+000 3.496602e+000 3.603038e+000 3.719527e+000 4.175279e+000 3.455093e+000 2.327720e+000 1.560227e+000 8.800425e-001 4.598640e-001 9.137729e-001 8.411700e-001 9.176881e-001 7.608284e-001 5.901818e-001 6.003574e-001 6.560843e-001 7.564230e-001 5.786216e-001 3.778225e-001
<GCONST> 1.396172e+002
<TRANSP> 5
 0.000000e+000 1.000000e+000 0.000000e+000 0.000000e+000 0.000000e+000
 0.000000e+000 7.866068e-001 2.133932e-001 0.000000e+000 0.000000e+000
 0.000000e+000 0.000000e+000 8.199561e-001 1.800439e-001 0.000000e+000
 0.000000e+000 0.000000e+000 0.000000e+000 8.176382e-001 1.823619e-001
 0.000000e+000 0.000000e+000 0.000000e+000 0.000000e+000 0.000000e+000
<ENDHMM>
~h "t"
<BEGINHMM>
<NUMSTATES> 5
<STATE> 2
<MEAN> 39
 -5.061434e+000 -4.524119e+000 -1.148146e+000 -7.819806e+000 -3.084073e+000 -5.084294e+000 -3.321074e+000 -2.864995e+000 -9.296548e-001 -2.650786e+000 -2.182678e+000 -2.949144e+000 5.916768e+001 -3.322017e-001 -1.660049e-002 -1.250737e-001 4.602212e-001 3.933108e-001 8.140232e-002 3.655604e-001 4.585057e-001 4.484925e-001 2.067470e-001 2.447969e-001 1.328650e-001 -4.981837e-001 6.816518e-002 -1.668565e-001 -1.052978e-001 -3.066024e-001 -7.852559e-002 -4.607329e-002 -1.371395e-001 -1.167385e-002 -9.613451e-002 -7.312879e-002 -8.886355e-002 -3.255151e-002 4.834338e-001
<VARIANCE> 39
 2.605264e+001 4.607107e+001 5.530723e+001 7.826653e+001 5.899771e+001 6.069588e+001 6.393058e+001 5.954418e+001 5.244550e+001 4.675354e+001 5.362610e+001 4.497531e+001 1.003848e+002 2.129516e+000 3.373795e+000 3.046520e+000 6.239673e+000 3.877565e+000 4.640699e+000 5.065312e+000 4.250374e+000 4.175618e+000 3.674338e+000 4.003765e+000 3.210646e+000 1.083504e+001 3.849556e-001 5.783581e-001 5.094008e-001 9.718561e-001 7.359983e-001 8.925239e-001 9.214255e-001 7.649080e-001 7.795449e-001 7.021841e-001 7.437033e-001 6.269637e-001 1.421744e+000
<GCONST> 1.383247e+002
<STATE> 3
<MEAN> 39
 -5.524413e+000 -5.310243e+000 -2.035893e+000 -8.222586e+000 -2.495769e+000 -5.254637e+000 -3.129241e+000 -1.717740e+000 -2.125397e-001 -2.499313e+000 -2.056372e+000 -2.756287e+000 6.034814e+001 -2.232738e-002 -4.710362e-001 -3.536028e-001 -5.274667e-001 7.944780e-002 -1.228529e-001 -1.849444e-001 3.384649e-001 3.027923e-002 -8.740342e-002 -1.602211e-001 -4.748571e-002 1.049881e+000 9.236970e-002 -1.165625e-001 -1.832725e-002 -2.532104e-001 -1.086272e-001 -2.116199e-002 -1.726627e-001 -1.053156e-001 -1.776599e-001 -1.008566e-001 -1.239462e-001 -8.584365e-002 3.584077e-001
<VARIANCE> 39
 2.455125e+001 4.352224e+001 5.298196e+001 7.781460e+001 5.331772e+001 5.989616e+001 6.465267e+001 5.623651e+001 5.019055e+001 4.527831e+001 5.175156e+001 4.358783e+001 1.143350e+002 2.381360e+000 3.842199e+000 3.402947e+000 7.288201e+000 4.285322e+000 5.200604e+000 5.944590e+000 4.664517e+000 4.839097e+000 4.086405e+000 4.659235e+000 3.614327e+000 1.422832e+001 4.156507e-001 6.225429e-001 5.323330e-001 1.039084e+000 7.354813e-001 9.338273e-001 9.818618e-001 8.181382e-001 8.115681e-001 7.362414e-001 8.273983e-001 6.773063e-001 1.811812e+000
<GCONST> 1.407079e+002
<STATE> 4
<MEAN> 39
 -5.787486e+000 -6.257053e+000 -2.846472e+000 -8.847770e+000 -2.377545e+000 -4.772586e+000 -3.408407e+000 -1.176983e+000 -2.793269e-001 -2.728735e+000 -2.455075e+000 -2.921876e+000 6.105227e+001 8.724497e-002 -3.367308e-001 -1.123628e-001 -5.415558e-001 -1.108706e-001 -1.215271e-001 -3.658361e-001 -8.365759e-002 -3.160777e-001 -2.154898e-001 -2.488249e-001 -1.661298e-001 1.107293e+000 4.379538e-002 2.810007e-002 7.755885e-002 -3.924542e-002 -7.278503e-002 -2.612406e-002 -7.130142e-002 -1.395283e-001 -1.156317e-001 -3.110374e-002 -1.787315e-002 -3.437111e-002 8.909493e-002
<VARIANCE> 39
 2.292566e+001 4.667190e+001 5.288366e+001 8.560045e+001 5.442957e+001 5.990121e+001 6.833069e+001 5.581950e+001 5.278007e+001 4.571710e+001 5.162650e+001 4.219020e+001 1.476589e+002 1.816783e+000 3.226021e+000 2.861278e+000 5.161092e+000 3.757769e+000 4.168144e+000 4.743211e+000 4.084018e+000 4.141660e+000 3.559102e+000 3.953171e+000 3.156937e+000 9.076035e+000 3.245234e-001 5.227579e-001 4.433980e-001 8.599583e-001 6.317152e-001 7.418981e-001 8.354987e-001 7.357056e-001 7.221461e-001 6.410957e-001 7.275769e-001 5.933799e-001 1.526762e+000
<GCONST> 1.363027e+002
<TRANSP> 5
 0.000000e+000 1.000000e+000 0.000000e+000 0.000000e+000 0.000000e+000
 0.000000e+000 5.888902e-001 4.111098e-001 0.000000e+000 0.000000e+000
 0.000000e+000 0.000000e+000 5.926142e-001 4.073858e-001 0.000000e+000
 0.000000e+000 0.000000e+000 0.000000e+000 6.510556e-001 3.489444e-001
 0.000000e+000 0.000000e+000 0.000000e+000 0.000000e+000 0.000000e+000
<ENDHMM>
~h "u"
<BEGINHMM>
<NUMSTATES> 5
<STATE> 2
<MEAN> 39
 -1.561426e+000 -2.139345e+000 -2.911567e+000 -1.400879e+001 -5.980425e+000 -5.619472e+000 -9.685363e+000 -6.949220e+000 -5.985176e+000 -3.882702e+000 -4.193244e+000 -3.994588e+000 6.732013e+001 6.992504e-001 9.615267e-002 -6.315596e-001 -1.104302e+000 -5.355160e-002 2.992319e-001 -7.099153e-001 -2.251990e-001 -4.085962e-001 -1.092748e-001 -1.229724e-001 -2.547823e-001 4.402889e-001 -3.688673e-002 4.691920e-002 -2.510814e-002 -4.817246e-002 2.964371e-003 1.382795e-001 1.265360e-001 4.465182e-002 6.019446e-004 -6.113335e-002 1.186845e-002 -1.315983e-002 -1.606356e-001
<VARIANCE> 39
 3.974825e+001 5.187242e+001 1.134125e+002 1.291073e+002 9.466252e+001 9.369769e+001 8.681112e+001 7.194550e+001 7.046935e+001 6.695592e+001 8.013015e+001 5.774548e+001 5.574827e+001 3.861450e+000 3.702573e+000 6.668396e+000 9.369527e+000 8.684380e+000 7.551905e+000 8.193767e+000 5.908648e+000 6.348621e+000 5.740823e+000 6.260766e+000 4.450309e+000 4.915523e+000 6.366048e-001 6.742300e-001 1.082625e+000 1.423734e+000 1.692939e+000 1.481970e+000 1.539787e+000 1.139100e+000 1.193923e+000 1.093924e+000 1.175404e+000 8.774374e-001 7.794865e-001
<GCONST> 1.521409e+002
<STATE> 3
<MEAN> 39
 4.880458e-001 -1.617081e+000 -5.249110e+000 -1.741240e+001 -6.266509e+000 -3.967837e+000 -1.114462e+001 -7.292578e+000 -6.968467e+000 -4.722363e+000 -4.487071e+000 -4.628410e+000 6.780664e+001 4.267558e-001 2.098234e-001 -3.005543e-001 -6.477534e-001 -1.585016e-001 3.708586e-001 -1.197761e-001 -6.262607e-002 -2.682450e-001 -3.312521e-001 -1.462957e-001 -1.309197e-001 -7.740485e-002 -1.318514e-001 1.326357e-002 1.859429e-001 2.346494e-001 -3.675596e-002 -5.775118e-002 1.576284e-001 4.741266e-002 6.440581e-002 -5.540915e-002 -3.649718e-002 3.840814e-002 -1.325023e-001
<VARIANCE> 39
 2.953788e+001 5.218348e+001 9.875908e+001 1.344718e+002 8.819252e+001 9.403132e+001 8.400180e+001 7.239065e+001 7.102222e+001 6.926093e+001 7.917054e+001 5.404238e+001 4.493827e+001 2.375039e+000 3.172914e+000 5.993614e+000 9.505624e+000 7.319307e+000 6.673153e+000 7.149961e+000 5.602734e+000 6.273758e+000 5.953157e+000 5.560296e+000 4.095807e+000 3.689965e+000 4.168425e-001 5.507728e-001 9.388769e-001 1.449000e+000 1.366693e+000 1.299707e+000 1.383551e+000 1.105448e+000 1.219212e+000 1.140290e+000 1.088108e+000 8.140290e-001 5.420650e-001
<GCONST> 1.480396e+002
<STATE> 4
<MEAN> 39
 1.572545e+000 3.512417e-001 -5.581028e+000 -1.920917e+001 -6.960600e+000 -1.913158e+000 -1.151441e+001 -5.985229e+000 -8.532726e+000 -6.084090e+000 -5.104018e+000 -4.535611e+000 6.611873e+001 -1.362512e-001 -3.349157e-003 4.599231e-001 5.768204e-001 -2.107098e-002 -1.222381e-001 2.174884e-001 -6.278323e-002 1.276331e-001 -1.600748e-001 -1.837853e-001 -2.129851e-002 -4.065388e-001 -1.137044e-001 -8.891823e-002 7.287920e-002 1.648517e-001 4.755229e-002 -9.269544e-002 1.961529e-002 1.292209e-003 8.438905e-002 5.696396e-002 1.320669e-002 2.452376e-002 1.761388e-002
<VARIANCE> 39
 2.179762e+001 5.012175e+001 9.199049e+001 1.366405e+002 8.138426e+001 7.683098e+001 7.975939e+001 7.282944e+001 6.669862e+001 5.807598e+001 6.550817e+001 4.731308e+001 4.147399e+001 1.461134e+000 2.307025e+000 3.883311e+000 7.415658e+000 4.611681e+000 4.274509e+000 4.924184e+000 4.452668e+000 4.724543e+000 4.509345e+000 4.026457e+000 3.083157e+000 2.667361e+000 2.398745e-001 3.489144e-001 6.283736e-001 1.091695e+000 7.993982e-001 7.814585e-001 9.044302e-001 7.995167e-001 8.614404e-001 8.046499e-001 7.379250e-001 5.694624e-001 3.536412e-001
<GCONST> 1.368245e+002
<TRANSP> 5
 0.000000e+000 1.000000e+000 0.000000e+000 0.000000e+000 0.000000e+000
 0.000000e+000 7.992144e-001 2.007856e-001 0.000000e+000 0.000000e+000
 0.000000e+000 0.000000e+000 7.923394e-001 2.076605e-001 0.000000e+000
 0.000000e+000 0.000000e+000 0.000000e+000 8.460747e-001 1.539253e-001
 0.000000e+000 0.000000e+000 0.000000e+000 0.000000e+000 0.000000e+000
<ENDHMM>
~h "v"
<BEGINHMM>
<NUMSTATES> 5
<STATE> 2
<MEAN> 39
 -1.499669e+000 -4.558780e+000 -1.975225e+000 -1.103098e+001 -4.388602e+000 -4.900282e+000 -6.849724e+000 -6.875663e+000 -5.029017e+000 -4.361911e+000 -4.285663e+000 -5.439329e+000 6.481736e+001 1.421763e-001 8.475075e-002 -8.935237e-002 4.451080e-002 1.194283e-001 -2.288762e-002 -1.572173e-001 -1.293136e-001 -1.445718e-001 1.505328e-002 4.023835e-002 -1.290477e-001 1.606778e-001 -1.611551e-002 -1.058329e-001 -1.094059e-002 -9.016460e-002 -1.677882e-002 -1.602094e-002 2.262990e-003 5.007672e-002 5.303774e-003 5.030468e-003 -1.515665e-002 3.531881e-003 1.539794e-001
<VARIANCE> 39
 3.252055e+001 6.025632e+001 7.069398e+001 1.057505e+002 6.302171e+001 6.718209e+001 6.455058e+001 7.023347e+001 5.633679e+001 5.704367e+001 6.212228e+001 4.659143e+001 8.401003e+001 1.779068e+000 3.136908e+000 2.737185e+000 5.664886e+000 3.321355e+000 3.171616e+000 3.995799e+000 4.285270e+000 3.960743e+000 3.856404e+000 3.687202e+000 3.005668e+000 4.070395e+000 3.275328e-001 4.153813e-001 4.084656e-001 9.070243e-001 5.465966e-001 5.542946e-001 6.900241e-001 7.158425e-001 6.985357e-001 7.155969e-001 6.726999e-001 5.451047e-001 4.638938e-001
<GCONST> 1.342629e+002
<STATE> 3
<MEAN> 39
 -1.114775e+000 -4.813320e+000 -2.396719e+000 -1.144854e+001 -4.174146e+000 -4.944145e+000 -7.254451e+000 -6.980871e+000 -5.278442e+000 -4.259169e+000 -4.292108e+000 -5.780297e+000 6.584283e+001 5.942899e-002 -3.213149e-001 -1.700058e-001 -2.989674e-001 2.097763e-002 -5.278964e-002 -7.792155e-002 1.369340e-001 -1.971417e-002 5.205683e-002 -5.830942e-002 -1.371452e-001 5.909292e-001 -5.453655e-002 -1.328766e-001 9.999258e-003 -9.780508e-002 -4.935350e-002 -1.866970e-002 4.874906e-002 9.663793e-002 3.752661e-002 -3.525586e-003 -3.208642e-002 1.590259e-002 1.318070e-001
<VARIANCE> 39
 3.088238e+001 6.315591e+001 7.074097e+001 1.065580e+002 6.051177e+001 6.623386e+001 6.153728e+001 6.720550e+001 5.334756e+001 5.708977e+001 6.314383e+001 4.576972e+001 7.517960e+001 1.871446e+000 3.637476e+000 2.889965e+000 6.501766e+000 3.391335e+000 3.218893e+000 4.158134e+000 4.472816e+000 3.983070e+000 4.121567e+000 3.950950e+000 3.205167e+000 4.664053e+000 3.347012e-001 4.643991e-001 4.272965e-001 9.964443e-001 5.474539e-001 5.472499e-001 7.072412e-001 7.332447e-001 7.101623e-001 7.671978e-001 7.158985e-001 5.759026e-001 5.113319e-001
<GCONST> 1.354147e+002
<STATE> 4
<MEAN> 39
 -1.286002e+000 -5.644712e+000 -2.863747e+000 -1.220503e+001 -4.453449e+000 -4.579692e+000 -7.021821e+000 -6.232587e+000 -5.082655e+000 -4.041660e+000 -4.433244e+000 -5.774142e+000 6.692796e+001 -8.507189e-002 -3.932971e-001 -4.146951e-002 -3.043044e-001 -8.859104e-002 -1.245482e-001 3.885895e-002 2.386013e-001 8.045648e-002 3.020084e-002 -7.260693e-002 -6.540614e-002 5.954192e-001 -2.449590e-002 -5.344875e-002 3.793630e-002 -4.377882e-002 -5.312731e-002 -3.480945e-002 2.970768e-002 3.777652e-002 1.885554e-002 4.719959e-003 4.694303e-004 2.202442e-002 5.619767e-002
<VARIANCE> 39
 3.075648e+001 7.191492e+001 7.382954e+001 1.158464e+002 6.639283e+001 6.700720e+001 6.477802e+001 7.067604e+001 5.665252e+001 5.616108e+001 6.426418e+001 4.745987e+001 8.380654e+001 1.389136e+000 3.038897e+000 2.418453e+000 5.138601e+000 3.089539e+000 2.795573e+000 3.602310e+000 3.831843e+000 3.428732e+000 3.663645e+000 3.455916e+000 2.862350e+000 3.649454e+000 2.557623e-001 4.022068e-001 3.476384e-001 8.198965e-001 4.838652e-001 4.679962e-001 6.152665e-001 6.519783e-001 6.236200e-001 6.644077e-001 6.277044e-001 5.164567e-001 4.402041e-001
<GCONST> 1.318806e+002
<TRANSP> 5
 0.000000e+000 1.000000e+000 0.000000e+000 0.000000e+000 0.000000e+000
 0.000000e+000 5.458950e-001 4.541049e-001 0.000000e+000 0.000000e+000
 0.000000e+000 0.000000e+000 5.504432e-001 4.495567e-001 0.000000e+000
 0.000000e+000 0.000000e+000 0.000000e+000 6.634431e-001 3.365569e-001
 0.000000e+000 0.000000e+000 0.000000e+000 0.000000e+000 0.000000e+000
<ENDHMM>
~h "x"
<BEGINHMM>
<NUMSTATES> 5
<STATE> 2
<MEAN> 39
 -1.175066e+001 2.578822e+000 -9.551644e-001 -4.927578e+000 -4.045080e+000 -7.318028e+000 -3.340865e+000 -3.319935e+000 -3.952855e+000 -3.439618e+000 -2.228246e+000 -2.551841e+000 6.595927e+001 -1.918670e+000 1.411857e+000 -4.348081e-001 1.256011e+000 8.175101e-001 3.757855e-001 8.125435e-001 7.395727e-001 5.184680e-001 2.296486e-001 6.334792e-001 3.215077e-001 -2.600637e-001 -7.335684e-002 -2.220439e-001 -9.237234e-002 -1.844551e-001 5.408414e-002 1.405218e-001 5.592029e-002 9.343170e-002 5.175208e-002 6.147023e-002 7.794216e-003 -2.561631e-002 1.162013e-001
<VARIANCE> 39
 1.018438e+002 7.487354e+001 7.466348e+001 9.271050e+001 7.678455e+001 6.736792e+001 7.108591e+001 7.448970e+001 5.412392e+001 5.250353e+001 5.723244e+001 3.821561e+001 4.032700e+001 7.598045e+000 6.502397e+000 3.835700e+000 7.272600e+000 5.484548e+000 5.982208e+000 5.520034e+000 4.996975e+000 4.243651e+000 4.491507e+000 4.260931e+000 3.486792e+000 2.259862e+000 1.402329e+000 9.135731e-001 6.189885e-001 1.029220e+000 9.521495e-001 1.049184e+000 9.619759e-001 8.890070e-001 7.952898e-001 8.350825e-001 7.559806e-001 6.243266e-001 2.606821e-001
<GCONST> 1.435569e+002
<STATE> 3
<MEAN> 39
 -1.652122e+001 3.918365e+000 -2.712204e+000 -3.482460e+000 -1.933473e+000 -5.988587e+000 -8.794996e-001 -3.593414e-001 -2.106480e+000 -2.452847e+000 -5.151392e-001 -1.270876e+000 6.640047e+001 2.303610e-001 -7.344934e-001 -2.254671e-001 -5.443274e-001 -8.863071e-002 -9.381397e-002 -1.063965e-002 3.991072e-001 5.000754e-002 -8.945195e-002 -9.968165e-002 1.222287e-001 5.831167e-001 4.132237e-001 -4.311426e-001 4.122689e-002 -3.493392e-001 -1.810249e-001 -6.889264e-002 -1.918482e-001 -1.242957e-001 -1.440214e-001 -9.017224e-002 -1.659778e-001 -1.116870e-001 1.720691e-001
<VARIANCE> 39
 9.279720e+001 7.215250e+001 6.118219e+001 8.375697e+001 6.411608e+001 5.686861e+001 5.733389e+001 5.476389e+001 4.061049e+001 3.942634e+001 4.148624e+001 3.074363e+001 3.533862e+001 1.295903e+001 7.420310e+000 3.447925e+000 7.937617e+000 5.682913e+000 6.193102e+000 5.798115e+000 4.379584e+000 4.066013e+000 4.272367e+000 4.619684e+000 3.369988e+000 2.772512e+000 1.521197e+000 7.731034e-001 5.715929e-001 9.818231e-001 8.728912e-001 1.079334e+000 8.912966e-001 7.531780e-001 6.687287e-001 7.426859e-001 7.386845e-001 6.251791e-001 3.170828e-001
<GCONST> 1.411719e+002
<STATE> 4
<MEAN> 39
 -1.363112e+001 1.304364e-001 -2.797392e+000 -5.993742e+000 -2.985609e+000 -6.549471e+000 -1.723070e+000 1.149683e-001 -2.445934e+000 -2.934105e+000 -1.221333e+000 -1.025051e+000 6.798185e+001 1.328455e+000 -1.542354e+000 3.956836e-002 -1.321957e+000 -6.108497e-001 -3.883237e-001 -5.937294e-001 -1.661874e-001 -3.924932e-001 -3.904291e-001 -4.857891e-001 -2.866143e-001 9.823238e-001 2.797820e-003 -4.564700e-002 9.067440e-003 -7.388716e-002 9.936342e-003 6.651770e-002 -2.993837e-002 -1.175767e-001 -6.013062e-002 -9.301083e-003 1.056765e-002 -9.195188e-002 -4.616949e-003
<VARIANCE> 39
 1.012692e+002 9.853001e+001 6.016594e+001 1.063434e+002 6.819893e+001 6.033541e+001 6.762862e+001 5.045332e+001 4.409093e+001 4.002032e+001 4.745051e+001 3.443155e+001 5.481092e+001 7.435868e+000 4.951134e+000 2.916625e+000 5.870521e+000 4.774599e+000 5.232944e+000 5.060077e+000 3.873513e+000 3.566614e+000 3.516484e+000 4.046524e+000 3.319950e+000 2.516637e+000 1.353652e+000 7.438682e-001 4.527209e-001 9.458874e-001 7.707400e-001 9.596618e-001 8.351172e-001 6.283379e-001 5.908158e-001 6.396568e-001 7.177599e-001 5.807610e-001 4.010069e-001
<GCONST> 1.391252e+002
<TRANSP> 5
 0.000000e+000 1.000000e+000 0.000000e+000 0.000000e+000 0.000000e+000
 0.000000e+000 8.025807e-001 1.974193e-001 0.000000e+000 0.000000e+000
 0.000000e+000 0.000000e+000 8.080776e-001 1.919224e-001 0.000000e+000
 0.000000e+000 0.000000e+000 0.000000e+000 8.004082e-001 1.995918e-001
 0.000000e+000 0.000000e+000 0.000000e+000 0.000000e+000 0.000000e+000
<ENDHMM>
~h "y"
<BEGINHMM>
<NUMSTATES> 5
<STATE> 2
<MEAN> 39
 -3.391052e+000 -4.492376e+000 1.509782e+000 -1.397066e+001 -1.157989e+001 -9.791371e+000 -8.249651e+000 -6.473440e+000 -5.914018e+000 -3.454993e+000 -6.457792e+000 -3.430627e+000 6.936072e+001 -2.411209e-001 -1.572299e-001 7.012397e-001 -2.613029e-001 -1.097211e+000 -4.131989e-001 -1.633809e-001 -5.048519e-002 -3.115970e-001 6.321997e-003 3.775505e-003 -2.305663e-001 6.342780e-001 -4.727991e-002 6.852037e-002 7.082954e-002 3.207520e-002 2.182265e-002 1.909761e-001 5.831352e-002 -1.011285e-001 -8.699385e-002 6.393585e-003 5.210245e-002 -6.357952e-002 -1.613472e-001
<VARIANCE> 39
 3.013025e+001 3.911974e+001 1.075052e+002 1.047400e+002 9.234771e+001 7.637135e+001 8.970604e+001 9.652426e+001 7.334555e+001 6.355865e+001 9.248888e+001 7.026669e+001 6.282168e+001 1.729503e+000 2.487258e+000 5.103909e+000 5.429253e+000 7.495067e+000 5.726692e+000 6.862487e+000 6.931746e+000 6.577174e+000 5.606936e+000 5.580869e+000 4.198696e+000 5.686984e+000 2.729481e-001 3.997329e-001 6.979982e-001 8.206391e-001 1.187533e+000 1.021346e+000 1.260956e+000 1.252255e+000 1.220412e+000 1.081234e+000 1.010191e+000 7.930915e-001 7.896822e-001
<GCONST> 1.459716e+002
<STATE> 3
<MEAN> 39
 -4.841743e+000 -4.532667e+000 5.305252e+000 -1.464595e+001 -1.506380e+001 -1.029983e+001 -8.186401e+000 -6.819783e+000 -7.018813e+000 -3.229243e+000 -5.723250e+000 -4.885777e+000 7.071814e+001 -2.805702e-001 1.492007e-001 6.723391e-001 -6.702751e-002 -6.008470e-001 2.265310e-001 -4.605748e-002 -3.300785e-001 -3.437184e-001 6.246846e-002 1.017882e-001 -3.060812e-001 8.936239e-002 1.980820e-002 6.683762e-002 -8.292869e-002 9.925757e-002 2.307024e-001 1.428335e-001 7.793656e-003 -3.814968e-002 7.539626e-002 -6.697647e-003 2.185617e-002 1.916271e-003 -1.727442e-001
<VARIANCE> 39
 2.765740e+001 3.909290e+001 9.653954e+001 1.119382e+002 8.940454e+001 5.569195e+001 7.538840e+001 9.216205e+001 6.191150e+001 6.155713e+001 9.311893e+001 6.133766e+001 5.218718e+001 1.362842e+000 2.065377e+000 4.351208e+000 4.481296e+000 6.016462e+000 4.146529e+000 5.146760e+000 5.878426e+000 4.692658e+000 4.204275e+000 4.747694e+000 3.206059e+000 4.067571e+000 2.124674e-001 3.511046e-001 5.428278e-001 7.186370e-001 8.669401e-001 7.734875e-001 9.327403e-001 1.022336e+000 8.605200e-001 8.036903e-001 8.057910e-001 5.690348e-001 6.362792e-001
<GCONST> 1.383157e+002
<STATE> 4
<MEAN> 39
 -6.482049e+000 -2.001863e+000 1.016883e+001 -1.376553e+001 -1.628891e+001 -7.449428e+000 -1.025407e+001 -8.704907e+000 -9.020081e+000 -3.799987e+000 -5.102808e+000 -6.696574e+000 6.919551e+001 6.240181e-002 1.399855e-001 -1.346151e-001 5.156329e-001 6.562127e-001 3.430376e-001 1.700731e-001 1.389047e-002 1.849167e-001 -5.216802e-002 6.307413e-002 3.613898e-002 -6.254915e-001 1.801949e-002 -6.985414e-002 -1.818571e-001 4.667700e-002 1.565423e-001 1.045697e-002 6.277389e-002 1.253660e-001 1.161233e-001 5.124307e-003 3.422054e-002 3.981170e-002 -2.972164e-002
<VARIANCE> 39
 2.287825e+001 3.941165e+001 8.445747e+001 1.289386e+002 8.092780e+001 4.609892e+001 6.247172e+001 6.929580e+001 5.050571e+001 5.241066e+001 1.033804e+002 5.937880e+001 5.508384e+001 1.001287e+000 1.861943e+000 3.277547e+000 3.622640e+000 4.060302e+000 2.438151e+000 3.435596e+000 3.798343e+000 3.200297e+000 2.734945e+000 3.158325e+000 2.224657e+000 3.022085e+000 1.698304e-001 2.687578e-001 3.646372e-001 5.671791e-001 5.960674e-001 4.446756e-001 5.682487e-001 5.947079e-001 5.168489e-001 4.922996e-001 4.981168e-001 3.697299e-001 4.491385e-001
<GCONST> 1.272338e+002
<TRANSP> 5
 0.000000e+000 1.000000e+000 0.000000e+000 0.000000e+000 0.000000e+000
 0.000000e+000 7.945231e-001 2.054769e-001 0.000000e+000 0.000000e+000
 0.000000e+000 0.000000e+000 7.496455e-001 2.503545e-001 0.000000e+000
 0.000000e+000 0.000000e+000 0.000000e+000 8.972805e-001 1.027196e-001
 0.000000e+000 0.000000e+000 0.000000e+000 0.000000e+000 0.000000e+000
<ENDHMM>
~h "doafi"
<BEGINHMM>
<NUMSTATES> 5
<STATE> 2
<MEAN> 39
 -4.901095e+000 -5.842618e+000 -5.097519e-001 -9.923710e+000 -4.122406e+000 -4.544213e+000 -4.531428e+000 -3.756145e+000 -3.134470e+000 -3.843007e+000 -3.141330e+000 -3.863289e+000 6.290533e+001 3.156596e-003 4.426242e-003 -3.008057e-004 -9.815464e-004 -7.398279e-004 -3.059326e-004 6.043092e-004 -2.233922e-003 1.730658e-004 -2.990019e-004 -3.013898e-003 -8.223696e-004 -5.428240e-004 -1.672899e-004 -1.806980e-004 4.561614e-005 -7.206317e-005 6.492341e-005 1.899766e-004 7.487284e-005 1.468558e-005 -2.101225e-005 1.112924e-004 1.261849e-004 6.155111e-006 1.118417e-005
<VARIANCE> 39
 3.977646e+001 6.976524e+001 7.436712e+001 1.058175e+002 8.034691e+001 6.925978e+001 7.782265e+001 7.860110e+001 6.821010e+001 5.800883e+001 6.279465e+001 4.830898e+001 1.459772e+002 1.544968e+000 2.667576e+000 2.529959e+000 4.061153e+000 3.472722e+000 3.155723e+000 3.471568e+000 3.756795e+000 3.266600e+000 3.146162e+000 3.154106e+000 2.635824e+000 3.396390e+000 2.536712e-001 3.905498e-001 3.963176e-001 6.350257e-001 5.963098e-001 5.526317e-001 6.014287e-001 6.646528e-001 5.859886e-001 5.718929e-001 5.669279e-001 4.794365e-001 4.314951e-001
<GCONST> 1.326273e+002
<STATE> 3
<MEAN> 39
 -4.901095e+000 -5.842618e+000 -5.097519e-001 -9.923710e+000 -4.122406e+000 -4.544213e+000 -4.531428e+000 -3.756145e+000 -3.134470e+000 -3.843007e+000 -3.141330e+000 -3.863289e+000 6.290533e+001 3.156596e-003 4.426242e-003 -3.008057e-004 -9.815464e-004 -7.398279e-004 -3.059326e-004 6.043092e-004 -2.233922e-003 1.730658e-004 -2.990019e-004 -3.013898e-003 -8.223696e-004 -5.428240e-004 -1.672899e-004 -1.806980e-004 4.561614e-005 -7.206317e-005 6.492341e-005 1.899766e-004 7.487284e-005 1.468558e-005 -2.101225e-005 1.112924e-004 1.261849e-004 6.155111e-006 1.118417e-005
<VARIANCE> 39
 3.977646e+001 6.976524e+001 7.436712e+001 1.058175e+002 8.034691e+001 6.925978e+001 7.782265e+001 7.860110e+001 6.821010e+001 5.800883e+001 6.279465e+001 4.830898e+001 1.459772e+002 1.544968e+000 2.667576e+000 2.529959e+000 4.061153e+000 3.472722e+000 3.155723e+000 3.471568e+000 3.756795e+000 3.266600e+000 3.146162e+000 3.154106e+000 2.635824e+000 3.396390e+000 2.536712e-001 3.905498e-001 3.963176e-001 6.350257e-001 5.963098e-001 5.526317e-001 6.014287e-001 6.646528e-001 5.859886e-001 5.718929e-001 5.669279e-001 4.794365e-001 4.314951e-001
<GCONST> 1.326273e+002
<STATE> 4
<MEAN> 39
 -4.901095e+000 -5.842618e+000 -5.097519e-001 -9.923710e+000 -4.122406e+000 -4.544213e+000 -4.531428e+000 -3.756145e+000 -3.134470e+000 -3.843007e+000 -3.141330e+000 -3.863289e+000 6.290533e+001 3.156596e-003 4.426242e-003 -3.008057e-004 -9.815464e-004 -7.398279e-004 -3.059326e-004 6.043092e-004 -2.233922e-003 1.730658e-004 -2.990019e-004 -3.013898e-003 -8.223696e-004 -5.428240e-004 -1.672899e-004 -1.806980e-004 4.561614e-005 -7.206317e-005 6.492341e-005 1.899766e-004 7.487284e-005 1.468558e-005 -2.101225e-005 1.112924e-004 1.261849e-004 6.155111e-006 1.118417e-005
<VARIANCE> 39
 3.977646e+001 6.976524e+001 7.436712e+001 1.058175e+002 8.034691e+001 6.925978e+001 7.782265e+001 7.860110e+001 6.821010e+001 5.800883e+001 6.279465e+001 4.830898e+001 1.459772e+002 1.544968e+000 2.667576e+000 2.529959e+000 4.061153e+000 3.472722e+000 3.155723e+000 3.471568e+000 3.756795e+000 3.266600e+000 3.146162e+000 3.154106e+000 2.635824e+000 3.396390e+000 2.536712e-001 3.905498e-001 3.963176e-001 6.350257e-001 5.963098e-001 5.526317e-001 6.014287e-001 6.646528e-001 5.859886e-001 5.718929e-001 5.669279e-001 4.794365e-001 4.314951e-001
<GCONST> 1.326273e+002
<TRANSP> 5
 0.000000e+000 1.000000e+000 0.000000e+000 0.000000e+000 0.000000e+000
 0.000000e+000 6.000000e-001 4.000000e-001 0.000000e+000 0.000000e+000
 0.000000e+000 0.000000e+000 6.000000e-001 4.000000e-001 0.000000e+000
 0.000000e+000 0.000000e+000 0.000000e+000 7.000000e-001 3.000000e-001
 0.000000e+000 0.000000e+000 0.000000e+000 0.000000e+000 0.000000e+000
<ENDHMM>
~h "aa"
<BEGINHMM>
<NUMSTATES> 5
<STATE> 2
<MEAN> 39
 -3.303720e+000 -6.391762e+000 -1.162625e+000 -1.401501e+001 -5.843531e+000 -8.404198e+000 -8.497777e+000 -6.072189e+000 -7.309221e+000 -6.686097e+000 -7.980198e+000 -6.476802e+000 7.029567e+001 9.174654e-002 -3.546848e-001 -2.235171e-001 -3.137828e-001 8.287495e-002 -4.080695e-002 -3.339595e-001 2.005874e-002 -1.158470e-001 -2.201315e-001 -2.074205e-001 -2.427057e-001 3.122611e-001 -7.062649e-003 8.299186e-002 6.547658e-002 1.230424e-001 -1.781119e-002 6.607275e-002 5.322170e-002 -4.058706e-002 5.687944e-002 5.575571e-002 7.248871e-002 8.966557e-002 -1.518785e-001
<VARIANCE> 39
 2.689923e+001 9.096828e+001 9.601856e+001 9.489492e+001 9.026517e+001 7.614217e+001 7.663618e+001 9.512235e+001 7.162657e+001 7.019360e+001 9.130844e+001 7.102659e+001 5.824696e+001 2.158142e+000 5.485540e+000 4.680570e+000 5.719820e+000 6.046013e+000 4.045366e+000 5.056410e+000 6.265477e+000 4.631981e+000 4.790043e+000 4.759705e+000 4.138035e+000 4.722903e+000 3.637086e-001 8.472550e-001 7.402929e-001 1.015400e+000 1.161788e+000 7.508790e-001 9.439039e-001 1.042865e+000 8.602666e-001 8.939267e-001 8.765050e-001 7.512791e-001 6.259642e-001
<GCONST> 1.449714e+002
<STATE> 3
<MEAN> 39
 -2.991269e+000 -7.548010e+000 -2.067814e+000 -1.460921e+001 -5.561329e+000 -8.413077e+000 -9.088518e+000 -5.553747e+000 -7.045764e+000 -7.201469e+000 -8.307020e+000 -6.733443e+000 7.107312e+001 2.432980e-001 -1.163168e-001 -1.008993e-001 1.023741e-001 4.922129e-002 8.079694e-002 -2.659087e-001 -1.864286e-001 -3.964459e-002 -1.229280e-001 -1.576228e-001 1.163622e-003 -1.560506e-001 2.522408e-002 1.343214e-001 8.995615e-002 1.398747e-001 -2.602706e-002 4.207240e-002 3.988152e-002 -1.169072e-001 -3.012628e-003 6.896976e-003 1.208278e-002 7.869544e-002 -1.789856e-001
<VARIANCE> 39
 2.512457e+001 7.681794e+001 9.102885e+001 8.598395e+001 9.492687e+001 8.024133e+001 7.757746e+001 9.640240e+001 6.973149e+001 7.415343e+001 9.017587e+001 6.924141e+001 4.867814e+001 1.572255e+000 5.446283e+000 4.863638e+000 4.931868e+000 6.241756e+000 4.074160e+000 4.955635e+000 6.805247e+000 4.434733e+000 4.831194e+000 4.478286e+000 4.142288e+000 4.399261e+000 2.709584e-001 6.945749e-001 6.961851e-001 8.389170e-001 1.137612e+000 7.357296e-001 9.242719e-001 1.005046e+000 8.133808e-001 8.943008e-001 8.119548e-001 7.339733e-001 4.749662e-001
<GCONST> 1.427467e+002
<STATE> 4
<MEAN> 39
 -1.796445e+000 -7.205731e+000 -2.742946e+000 -1.356165e+001 -5.241540e+000 -7.694110e+000 -1.079953e+001 -6.617722e+000 -7.840084e+000 -7.817252e+000 -9.601137e+000 -6.266958e+000 6.949834e+001 2.959905e-001 4.400930e-001 2.925581e-001 3.881484e-001 -7.444307e-002 1.739164e-001 -1.523014e-001 -6.342432e-001 -8.074359e-002 -1.209456e-001 -8.303920e-002 1.227556e-001 -7.019207e-001 -3.061623e-002 6.848098e-002 7.240475e-002 1.697456e-002 -4.083752e-002 1.969930e-002 7.526946e-002 -2.666504e-002 1.613664e-002 -4.972260e-003 4.519884e-002 3.377404e-002 -4.668825e-002
<VARIANCE> 39
 2.162318e+001 6.525365e+001 8.260583e+001 7.127952e+001 8.549049e+001 8.514414e+001 7.438512e+001 9.765881e+001 7.390733e+001 7.347734e+001 8.860879e+001 6.946007e+001 5.076517e+001 9.319421e-001 3.335108e+000 3.616149e+000 3.226614e+000 4.429595e+000 3.507105e+000 3.963780e+000 5.395575e+000 3.670556e+000 3.858585e+000 3.495216e+000 3.645557e+000 2.562496e+000 1.570026e-001 4.379383e-001 4.981402e-001 5.510234e-001 7.600061e-001 6.231254e-001 7.042797e-001 8.599780e-001 6.636453e-001 6.964876e-001 6.182007e-001 6.201956e-001 3.302988e-001
<GCONST> 1.341216e+002
<TRANSP> 5
 0.000000e+000 1.000000e+000 0.000000e+000 0.000000e+000 0.000000e+000
 0.000000e+000 6.828642e-001 3.171358e-001 0.000000e+000 0.000000e+000
 0.000000e+000 0.000000e+000 6.783779e-001 3.216220e-001 0.000000e+000
 0.000000e+000 0.000000e+000 0.000000e+000 7.206921e-001 2.793079e-001
 0.000000e+000 0.000000e+000 0.000000e+000 0.000000e+000 0.000000e+000
<ENDHMM>
~h "af"
<BEGINHMM>
<NUMSTATES> 5
<STATE> 2
<MEAN> 39
 -3.517955e+000 -1.480680e+001 -2.982085e+000 -1.330825e+001 -3.425104e+000 -5.249470e+000 -2.695422e+000 -3.411294e+000 -7.261055e+000 -8.506382e+000 -6.294676e+000 -6.430046e+000 7.481052e+001 -7.788721e-002 -7.716174e-001 -1.743792e-001 1.902175e-001 2.537819e-001 2.816368e-001 4.310586e-001 5.732825e-002 -2.459100e-001 -3.117530e-001 -6.236111e-002 -1.030698e-001 4.989188e-001 4.821132e-002 2.531884e-001 1.488388e-001 7.938503e-002 -4.553691e-002 -1.020824e-001 -1.345805e-001 -6.064720e-002 7.256513e-002 1.272923e-001 7.033134e-002 4.905924e-002 -2.367853e-001
<VARIANCE> 39
 2.627507e+001 6.608839e+001 6.882219e+001 8.059686e+001 7.097060e+001 7.024552e+001 7.172549e+001 9.143670e+001 6.848483e+001 6.364204e+001 5.643332e+001 4.830507e+001 4.691413e+001 8.886231e-001 2.938331e+000 1.990321e+000 2.826340e+000 2.231952e+000 3.024467e+000 3.214069e+000 3.472332e+000 2.750196e+000 2.915687e+000 2.777281e+000 2.200956e+000 2.118778e+000 1.483675e-001 3.771977e-001 3.036922e-001 4.848856e-001 3.543732e-001 5.004201e-001 5.526730e-001 6.246210e-001 4.989487e-001 5.048901e-001 5.026708e-001 3.794103e-001 2.479377e-001
<GCONST> 1.248292e+002
<STATE> 3
<MEAN> 39
 -3.436629e+000 -1.591600e+001 -2.938174e+000 -1.270687e+001 -3.007074e+000 -4.995320e+000 -2.165890e+000 -3.400043e+000 -7.617525e+000 -8.850444e+000 -6.334932e+000 -6.527045e+000 7.528087e+001 8.737916e-002 -8.413893e-002 1.559227e-001 2.605165e-001 3.684685e-002 2.277800e-002 1.046456e-001 -1.662942e-002 -2.854730e-002 2.425265e-002 -1.410083e-002 -3.420140e-002 -6.750959e-002 6.575897e-002 2.900859e-001 1.337411e-001 2.951865e-002 -9.242071e-002 -1.038336e-001 -1.308480e-001 -5.016335e-002 8.264694e-002 1.334849e-001 1.917371e-002 3.185735e-002 -2.381376e-001
<VARIANCE> 39
 2.503941e+001 6.369400e+001 6.641878e+001 7.685425e+001 7.129855e+001 6.713761e+001 6.798747e+001 8.935181e+001 6.793464e+001 6.278570e+001 5.291280e+001 4.508907e+001 4.316040e+001 8.015446e-001 2.825913e+000 1.742463e+000 2.335768e+000 2.097509e+000 2.530560e+000 2.647986e+000 2.977491e+000 2.393293e+000 2.521998e+000 2.378519e+000 1.927059e+000 1.986470e+000 1.228380e-001 3.236605e-001 2.620299e-001 4.112942e-001 3.185906e-001 4.196824e-001 4.473123e-001 5.605463e-001 4.265645e-001 4.455289e-001 4.222770e-001 3.322536e-001 2.138722e-001
<GCONST> 1.206226e+002
<STATE> 4
<MEAN> 39
 -3.322544e+000 -1.642274e+001 -1.801415e+000 -1.147559e+001 -2.760844e+000 -4.131202e+000 -2.440369e+000 -3.075992e+000 -8.216369e+000 -8.037959e+000 -6.621988e+000 -6.380121e+000 7.443836e+001 2.443008e-001 6.462092e-001 3.225348e-001 1.816386e-001 -2.054322e-001 -2.548105e-001 -1.207008e-001 -4.485060e-002 2.263155e-001 2.638196e-001 -7.686273e-002 1.830562e-003 -6.328713e-001 3.596131e-002 2.168769e-001 6.928612e-002 3.677296e-002 -5.210534e-002 -5.617951e-002 -7.891629e-002 -6.332994e-002 5.086319e-002 7.461345e-002 1.539668e-002 3.333553e-002 -1.792471e-001
<VARIANCE> 39
 2.371667e+001 6.769637e+001 6.386941e+001 7.593759e+001 7.215881e+001 6.430477e+001 6.404918e+001 8.586766e+001 7.070712e+001 5.834399e+001 5.000176e+001 4.238667e+001 5.100180e+001 6.583927e-001 2.242692e+000 1.435380e+000 2.085307e+000 1.896462e+000 2.164913e+000 2.173072e+000 2.596973e+000 2.050729e+000 2.196203e+000 2.041010e+000 1.708448e+000 1.491217e+000 1.016762e-001 2.706316e-001 2.147831e-001 3.718483e-001 2.886115e-001 3.523920e-001 3.609847e-001 4.709929e-001 3.593818e-001 3.781920e-001 3.463077e-001 2.899452e-001 1.943469e-001
<GCONST> 1.161881e+002
<TRANSP> 5
 0.000000e+000 1.000000e+000 0.000000e+000 0.000000e+000 0.000000e+000
 0.000000e+000 6.079041e-001 3.920959e-001 0.000000e+000 0.000000e+000
 0.000000e+000 0.000000e+000 6.125221e-001 3.874779e-001 0.000000e+000
 0.000000e+000 0.000000e+000 0.000000e+000 8.166865e-001 1.833136e-001
 0.000000e+000 0.000000e+000 0.000000e+000 0.000000e+000 0.000000e+000
<ENDHMM>
~h "ai"
<BEGINHMM>
<NUMSTATES> 5
<STATE> 2
<MEAN> 39
 -6.352705e+000 -1.669389e+001 -3.330743e+000 -9.920666e+000 -1.826487e+000 -6.469964e+000 -3.423344e+000 -4.126516e+000 -7.140643e+000 -1.041852e+001 -4.254170e+000 -4.746708e+000 7.359273e+001 -1.175930e-001 -7.239305e-001 -7.912070e-003 1.536672e-001 -8.457242e-002 -5.639539e-002 -3.045686e-002 -7.938797e-002 -3.139884e-001 -2.815050e-001 1.085890e-001 -7.613727e-002 5.122845e-001 2.199321e-002 1.913092e-001 9.321079e-002 -4.893032e-002 -1.092307e-001 -1.292836e-002 8.687844e-003 2.910835e-002 5.852957e-002 1.215200e-001 2.709139e-002 1.422260e-003 -1.036764e-001
<VARIANCE> 39
 2.246198e+001 5.643256e+001 5.697425e+001 7.217830e+001 7.518852e+001 6.054226e+001 7.581899e+001 7.983327e+001 6.592838e+001 5.825717e+001 5.337929e+001 4.670004e+001 6.686908e+001 7.604889e-001 2.006718e+000 1.635020e+000 2.222991e+000 2.361902e+000 2.046590e+000 2.494610e+000 2.406858e+000 2.128284e+000 2.190203e+000 2.002460e+000 1.768031e+000 1.392727e+000 1.371450e-001 2.994638e-001 2.461135e-001 3.367960e-001 3.491030e-001 3.386090e-001 3.971899e-001 3.925381e-001 3.944012e-001 3.776465e-001 3.470561e-001 3.008402e-001 1.780802e-001
<GCONST> 1.172033e+002
<STATE> 3
<MEAN> 39
