~o
<STREAMINFO> 1 39
<VECSIZE> 39<NULLD><MFCC_D_A_0><DIAGC>
~h "a"
<BEGINHMM>
<NUMSTATES> 5
<STATE> 2
<MEAN> 39
 -4.701587e+000 -7.439173e+000 -8.218983e-001 -9.878393e+000 -4.313154e+000 -5.201946e+000 -4.060731e+000 -3.897042e+000 -4.089443e+000 -4.838875e+000 -3.630431e+000 -4.192928e+000 6.459486e+001 1.723789e-003 -2.067954e-003 -3.712450e-003 3.839453e-003 -2.518571e-004 3.105034e-003 1.008903e-002 -5.308114e-003 1.346357e-003 -1.879446e-003 -3.519868e-003 -2.547962e-003 -8.068550e-003 -4.189331e-005 1.038689e-003 8.510461e-005 -1.292084e-004 -1.324853e-004 1.320251e-004 -6.153701e-004 3.020094e-004 5.060037e-004 6.930328e-004 3.465397e-004 -9.281802e-005 -1.224562e-003
<VARIANCE> 39
 3.865394e+001 8.249809e+001 7.387644e+001 1.021976e+002 8.022108e+001 6.858356e+001 7.533296e+001 8.173267e+001 7.060815e+001 6.186620e+001 6.292027e+001 4.990327e+001 1.421484e+002 1.565138e+000 3.050810e+000 2.465881e+000 3.884217e+000 3.377486e+000 3.090954e+000 3.353974e+000 3.748037e+000 3.295215e+000 3.169102e+000 3.102961e+000 2.569578e+000 3.534472e+000 2.592628e-001 4.214623e-001 3.882518e-001 6.219541e-001 5.800142e-001 5.406861e-001 5.812782e-001 6.588399e-001 5.902165e-001 5.733731e-001 5.596333e-001 4.700460e-001 4.437014e-001
<GCONST> 1.328016e+002
<STATE> 3
<MEAN> 39
 -4.695010e+000 -7.433714e+000 -8.353136e-001 -9.865025e+000 -4.312932e+000 -5.189331e+000 -4.031703e+000 -3.913823e+000 -4.076288e+000 -4.838192e+000 -3.639616e+000 -4.200005e+000 6.455574e+001 1.462490e-003 1.475624e-003 -3.248786e-003 3.216828e-003 -7.924574e-004 3.464921e-003 7.729617e-003 -4.559704e-003 2.857278e-003 1.743496e-004 -2.241658e-003 -2.596386e-003 -1.141715e-002 -2.554587e-005 9.946944e-004 -1.483457e-005 -1.940540e-004 -1.808841e-005 1.128275e-004 -6.450976e-004 2.763077e-004 4.615274e-004 6.153148e-004 3.106926e-004 -3.668960e-005 -9.770264e-004
<VARIANCE> 39
 3.852978e+001 8.247390e+001 7.368047e+001 1.020950e+002 7.981118e+001 6.866009e+001 7.535800e+001 8.160570e+001 7.042581e+001 6.175541e+001 6.267948e+001 4.981055e+001 1.428186e+002 1.560488e+000 3.047887e+000 2.457334e+000 3.877044e+000 3.366355e+000 3.086692e+000 3.341759e+000 3.747111e+000 3.286979e+000 3.160861e+000 3.097138e+000 2.562178e+000 3.529609e+000 2.584138e-001 4.209048e-001 3.867962e-001 6.211839e-001 5.783628e-001 5.396442e-001 5.789605e-001 6.581909e-001 5.884545e-001 5.720614e-001 5.582827e-001 4.683988e-001 4.428749e-001
<GCONST> 1.327224e+002
<STATE> 4
<MEAN> 39
 -4.826760e+000 -7.344860e+000 -8.702137e-001 -9.647794e+000 -4.237052e+000 -4.884859e+000 -4.080332e+000 -3.823263e+000 -4.056862e+000 -4.719923e+000 -3.665630e+000 -4.103970e+000 6.410218e+001 9.460540e-004 9.214051e-003 -1.836505e-003 2.514054e-003 -1.615961e-003 3.941309e-003 3.960840e-003 -3.751524e-003 5.377970e-003 4.231628e-003 3.035115e-004 -5.921003e-004 -1.719363e-002 -1.521105e-005 1.081301e-003 2.847476e-005 -1.632349e-004 -7.208747e-005 1.139749e-004 -4.582458e-004 1.556268e-004 2.937858e-004 6.551064e-004 3.146937e-004 2.016078e-004 -8.241993e-004
<VARIANCE> 39
 3.819950e+001 8.302656e+001 7.297001e+001 1.017842e+002 7.858392e+001 6.792221e+001 7.568351e+001 8.079730e+001 7.120164e+001 6.016602e+001 6.224614e+001 4.997409e+001 1.488240e+002 1.495475e+000 2.968037e+000 2.392339e+000 3.771065e+000 3.271852e+000 3.007716e+000 3.270971e+000 3.662516e+000 3.224635e+000 3.079993e+000 3.042911e+000 2.515975e+000 3.429366e+000 2.469421e-001 4.073966e-001 3.748654e-001 6.030005e-001 5.613409e-001 5.250781e-001 5.658016e-001 6.428019e-001 5.758969e-001 5.581359e-001 5.475247e-001 4.578295e-001 4.269903e-001
<GCONST> 1.319982e+002
<TRANSP> 5
 0.000000e+000 1.000000e+000 0.000000e+000 0.000000e+000 0.000000e+000
 0.000000e+000 7.153361e-001 2.846638e-001 0.000000e+000 0.000000e+000
 0.000000e+000 0.000000e+000 7.153378e-001 2.846622e-001 0.000000e+000
 0.000000e+000 0.000000e+000 0.000000e+000 8.436727e-001 1.563273e-001
 0.000000e+000 0.000000e+000 0.000000e+000 0.000000e+000 0.000000e+000
<ENDHMM>
~h "b"
<BEGINHMM>
<NUMSTATES> 5
<STATE> 2
<MEAN> 39
 -4.201597e+000 -6.257770e+000 -6.277135e-001 -1.051077e+001 -4.245732e+000 -4.279262e+000 -4.787781e+000 -4.137120e+000 -3.640018e+000 -4.247218e+000 -3.370484e+000 -4.400688e+000 6.361968e+001 1.013881e-002 4.568771e-003 -1.497375e-003 -7.511371e-003 -4.721569e-003 2.114933e-003 6.766776e-003 -9.512653e-003 -3.909682e-003 -7.387796e-003 -9.529671e-003 -3.848973e-003 7.728887e-003 -4.584446e-004 6.473714e-005 1.814008e-004 3.668031e-004 2.709778e-004 4.284557e-004 4.324308e-004 1.722898e-004 3.425003e-004 3.598581e-004 -1.155466e-004 8.632327e-005 -7.290591e-004
<VARIANCE> 39
 3.927437e+001 7.561484e+001 7.707868e+001 1.100806e+002 8.039513e+001 7.064543e+001 7.807035e+001 8.033454e+001 6.915263e+001 5.957620e+001 6.443597e+001 5.071639e+001 1.409769e+002 1.460224e+000 2.928278e+000 2.678762e+000 4.330279e+000 3.437835e+000 3.196416e+000 3.516619e+000 3.966460e+000 3.433000e+000 3.272408e+000 3.260492e+000 2.697774e+000 3.903356e+000 2.398091e-001 4.298645e-001 4.185242e-001 6.838163e-001 5.849020e-001 5.558596e-001 6.141433e-001 7.071511e-001 6.226494e-001 6.014779e-001 5.890711e-001 4.936545e-001 5.086856e-001
<GCONST> 1.339893e+002
<STATE> 3
<MEAN> 39
 -4.168383e+000 -6.236594e+000 -6.286759e-001 -1.053254e+001 -4.260476e+000 -4.268438e+000 -4.760327e+000 -4.167479e+000 -3.648815e+000 -4.269439e+000 -3.403519e+000 -4.414712e+000 6.363921e+001 8.993447e-003 5.030023e-003 -9.134440e-004 -5.991340e-003 -3.942428e-003 2.939121e-003 7.648963e-003 -8.558587e-003 -2.157837e-003 -5.968353e-003 -9.520925e-003 -3.454997e-003 5.391311e-003 -3.419608e-004 1.173062e-004 2.498595e-004 5.811480e-004 2.653916e-004 2.375290e-004 2.778155e-004 3.619033e-004 5.206912e-004 4.358293e-004 8.163472e-005 1.557127e-004 -7.686749e-004
<VARIANCE> 39
 3.918725e+001 7.589359e+001 7.717068e+001 1.104277e+002 8.041174e+001 7.061803e+001 7.794724e+001 8.050911e+001 6.908466e+001 5.969728e+001 6.436298e+001 5.069905e+001 1.410692e+002 1.460671e+000 2.941117e+000 2.682051e+000 4.346547e+000 3.435250e+000 3.194649e+000 3.519820e+000 3.972954e+000 3.441611e+000 3.283024e+000 3.264483e+000 2.704252e+000 3.916963e+000 2.395567e-001 4.316677e-001 4.188488e-001 6.862438e-001 5.841289e-001 5.553331e-001 6.144028e-001 7.083207e-001 6.245955e-001 6.035244e-001 5.897751e-001 4.948469e-001 5.095573e-001
<GCONST> 1.340386e+002
<STATE> 4
<MEAN> 39
 -4.280910e+000 -6.148730e+000 -6.324988e-001 -1.037501e+001 -4.276608e+000 -4.014151e+000 -4.801576e+000 -4.107245e+000 -3.691332e+000 -4.237155e+000 -3.463736e+000 -4.346847e+000 6.333725e+001 6.656958e-003 5.974314e-003 4.833109e-004 -3.415006e-003 -3.089334e-003 2.088035e-003 6.847435e-003 -6.237512e-003 -7.008414e-004 -3.892500e-003 -7.695832e-003 -2.056450e-003 1.999291e-003 -4.048346e-004 1.047503e-004 2.349111e-004 5.990763e-004 1.985459e-004 -1.531535e-004 -7.469851e-005 3.925810e-004 2.694058e-004 3.351155e-004 3.921266e-004 3.160123e-004 -6.118710e-004
<VARIANCE> 39
 3.890506e+001 7.705973e+001 7.695111e+001 1.110591e+002 7.980633e+001 6.965750e+001 7.810783e+001 8.018304e+001 6.939755e+001 5.868870e+001 6.400449e+001 5.068079e+001 1.458421e+002 1.418424e+000 2.905718e+000 2.614834e+000 4.255730e+000 3.347259e+000 3.113112e+000 3.464528e+000 3.885429e+000 3.393915e+000 3.234006e+000 3.213536e+000 2.667714e+000 3.817310e+000 2.311531e-001 4.225630e-001 4.059343e-001 6.701129e-001 5.671660e-001 5.394073e-001 6.022279e-001 6.922658e-001 6.149185e-001 5.944630e-001 5.795807e-001 4.866590e-001 4.906997e-001
<GCONST> 1.334628e+002
<TRANSP> 5
 0.000000e+000 1.000000e+000 0.000000e+000 0.000000e+000 0.000000e+000
 0.000000e+000 7.162995e-001 2.837006e-001 0.000000e+000 0.000000e+000
 0.000000e+000 0.000000e+000 7.162943e-001 2.837056e-001 0.000000e+000
 0.000000e+000 0.000000e+000 0.000000e+000 8.450285e-001 1.549715e-001
 0.000000e+000 0.000000e+000 0.000000e+000 0.000000e+000 0.000000e+000
<ENDHMM>
~h "c"
<BEGINHMM>
<NUMSTATES> 5
<STATE> 2
<MEAN> 39
 -4.556066e+000 -6.003968e+000 -1.360369e+000 -1.040339e+001 -4.003678e+000 -4.610306e+000 -4.567186e+000 -3.739425e+000 -3.167322e+000 -3.519232e+000 -3.050257e+000 -3.825007e+000 6.337048e+001 7.409593e-003 -1.183159e-004 -8.986244e-003 -9.067394e-003 1.116029e-003 1.788187e-003 -8.224144e-004 -3.965707e-003 -3.848779e-003 2.212737e-004 -5.361509e-003 -2.351285e-003 8.999142e-003 -2.367686e-004 1.405617e-004 3.561534e-004 3.178291e-004 -4.821819e-005 1.635645e-004 4.631819e-005 -5.049558e-005 1.474673e-004 -9.895817e-005 1.048029e-004 -1.138833e-004 -3.800921e-004
<VARIANCE> 39
 4.025148e+001 7.027882e+001 7.599834e+001 1.113116e+002 8.193187e+001 7.059256e+001 7.944663e+001 7.774611e+001 6.796798e+001 5.877204e+001 6.339552e+001 5.081490e+001 1.349467e+002 1.667625e+000 2.866170e+000 2.757715e+000 4.772062e+000 3.820709e+000 3.457592e+000 3.776673e+000 3.954930e+000 3.584646e+000 3.372879e+000 3.386754e+000 2.885519e+000 4.250000e+000 2.767963e-001 4.330202e-001 4.419983e-001 7.467313e-001 6.682559e-001 6.165364e-001 6.573389e-001 7.097365e-001 6.475134e-001 6.174175e-001 6.166266e-001 5.314178e-001 5.403267e-001
<GCONST> 1.354525e+002
<STATE> 3
<MEAN> 39
 -4.531919e+000 -6.004660e+000 -1.388018e+000 -1.043373e+001 -3.999666e+000 -4.602507e+000 -4.568392e+000 -3.753411e+000 -3.180383e+000 -3.520657e+000 -3.067460e+000 -3.834128e+000 6.340197e+001 6.745441e-003 4.824944e-004 -7.840493e-003 -7.929302e-003 9.213382e-004 1.774735e-003 -5.169972e-004 -4.056876e-003 -3.273661e-003 -1.179352e-004 -5.137383e-003 -2.417732e-003 7.998331e-003 -2.214067e-004 1.359031e-004 3.316767e-004 3.715608e-004 -3.718662e-005 -2.907008e-005 6.732092e-005 -3.918778e-006 2.156944e-004 -1.173430e-004 8.014162e-005 -4.970313e-006 -2.296526e-004
<VARIANCE> 39
 4.019886e+001 7.043150e+001 7.617901e+001 1.115933e+002 8.202424e+001 7.072027e+001 7.947904e+001 7.773434e+001 6.801668e+001 5.886760e+001 6.339247e+001 5.095833e+001 1.347612e+002 1.669952e+000 2.867690e+000 2.764081e+000 4.787299e+000 3.825378e+000 3.465460e+000 3.780158e+000 3.958493e+000 3.590439e+000 3.378076e+000 3.393110e+000 2.893502e+000 4.263206e+000 2.770742e-001 4.330498e-001 4.429289e-001 7.489941e-001 6.692145e-001 6.178958e-001 6.578866e-001 7.103378e-001 6.483334e-001 6.183269e-001 6.176345e-001 5.327774e-001 5.419270e-001
<GCONST> 1.355102e+002
<STATE> 4
<MEAN> 39
 -4.663679e+000 -5.966430e+000 -1.441977e+000 -1.035377e+001 -4.000990e+000 -4.354194e+000 -4.663946e+000 -3.696743e+000 -3.237596e+000 -3.473012e+000 -3.131823e+000 -3.770339e+000 6.316590e+001 5.939818e-003 8.095771e-004 -5.259010e-003 -6.835012e-003 2.487151e-004 1.488597e-003 -1.591332e-004 -4.424659e-003 -3.001055e-003 -9.840272e-004 -5.205353e-003 -2.514119e-003 8.217779e-003 -1.807452e-004 9.255011e-005 3.974444e-004 2.537609e-004 -1.013078e-004 -1.308756e-004 1.093055e-005 -5.842046e-005 1.093633e-004 -1.413305e-004 -3.257728e-005 -4.344587e-005 -1.417397e-005
<VARIANCE> 39
 3.993756e+001 7.074132e+001 7.622710e+001 1.124531e+002 8.143333e+001 7.001389e+001 7.962043e+001 7.712874e+001 6.856876e+001 5.786531e+001 6.339468e+001 5.100097e+001 1.387196e+002 1.624354e+000 2.810009e+000 2.704501e+000 4.685169e+000 3.752381e+000 3.408900e+000 3.728657e+000 3.889184e+000 3.548002e+000 3.318757e+000 3.351795e+000 2.860405e+000 4.171939e+000 2.686667e-001 4.211218e-001 4.313749e-001 7.296466e-001 6.553542e-001 6.067131e-001 6.470680e-001 6.970164e-001 6.387494e-001 6.076170e-001 6.091242e-001 5.250486e-001 5.261383e-001
<GCONST> 1.350039e+002
<TRANSP> 5
 0.000000e+000 1.000000e+000 0.000000e+000 0.000000e+000 0.000000e+000
 0.000000e+000 7.105350e-001 2.894650e-001 0.000000e+000 0.000000e+000
 0.000000e+000 0.000000e+000 7.105354e-001 2.894646e-001 0.000000e+000
 0.000000e+000 0.000000e+000 0.000000e+000 8.377349e-001 1.622651e-001
 0.000000e+000 0.000000e+000 0.000000e+000 0.000000e+000 0.000000e+000
<ENDHMM>
~h "d"
<BEGINHMM>
<NUMSTATES> 5
<STATE> 2
<MEAN> 39
 -4.345580e+000 -6.232037e+000 -4.974945e-002 -1.047098e+001 -5.089839e+000 -5.245937e+000 -5.253084e+000 -3.984841e+000 -3.553216e+000 -4.047665e+000 -3.500193e+000 -4.075252e+000 6.426021e+001 7.619308e-003 2.953700e-003 7.852713e-003 -7.312419e-003 -1.160315e-002 -5.944326e-003 -4.851694e-003 -4.389757e-003 -4.642328e-003 -2.273796e-003 -6.733557e-003 -4.085594e-003 1.320194e-002 -4.426935e-004 1.159328e-004 -2.574162e-004 4.589916e-004 5.746987e-004 4.356247e-004 4.803104e-004 5.694789e-005 3.360915e-004 1.533789e-004 3.891764e-004 1.852149e-005 -6.314177e-004
<VARIANCE> 39
 3.917413e+001 7.340221e+001 8.174925e+001 1.106528e+002 8.447425e+001 7.198263e+001 8.109707e+001 8.251679e+001 6.868582e+001 6.081657e+001 6.532287e+001 4.965067e+001 1.341228e+002 1.493052e+000 2.938390e+000 2.715711e+000 4.477310e+000 3.862124e+000 3.284277e+000 3.725816e+000 4.138697e+000 3.403285e+000 3.373940e+000 3.252908e+000 2.735754e+000 3.719311e+000 2.449579e-001 4.354931e-001 4.164270e-001 7.144268e-001 6.788405e-001 5.730480e-001 6.466581e-001 7.388192e-001 6.146077e-001 6.188909e-001 5.895531e-001 5.015084e-001 4.890960e-001
<GCONST> 1.347530e+002
<STATE> 3
<MEAN> 39
 -4.322907e+000 -6.220789e+000 -2.396964e-002 -1.049068e+001 -5.123155e+000 -5.262173e+000 -5.267742e+000 -3.998101e+000 -3.566095e+000 -4.055320e+000 -3.520159e+000 -4.089459e+000 6.429967e+001 6.423236e-003 3.306011e-003 6.991947e-003 -5.559140e-003 -9.406328e-003 -4.808011e-003 -3.266454e-003 -3.986045e-003 -3.576616e-003 -2.081284e-003 -5.897601e-003 -3.899183e-003 1.100867e-002 -3.321386e-004 8.818048e-005 -3.054318e-004 5.897158e-004 6.790385e-004 3.845376e-004 4.763757e-004 1.303655e-004 3.149062e-004 5.881481e-005 2.899077e-004 1.176254e-004 -6.733512e-004
<VARIANCE> 39
 3.903978e+001 7.356554e+001 8.193504e+001 1.106761e+002 8.450915e+001 7.206638e+001 8.125296e+001 8.261242e+001 6.867167e+001 6.095813e+001 6.530560e+001 4.964663e+001 1.339735e+002 1.490582e+000 2.943006e+000 2.720744e+000 4.483078e+000 3.870302e+000 3.285979e+000 3.734518e+000 4.145257e+000 3.407414e+000 3.379193e+000 3.257008e+000 2.736017e+000 3.729491e+000 2.443790e-001 4.363070e-001 4.166498e-001 7.158332e-001 6.802183e-001 5.732117e-001 6.477237e-001 7.398900e-001 6.153963e-001 6.198537e-001 5.902594e-001 5.017017e-001 4.904414e-001
<GCONST> 1.347906e+002
<STATE> 4
<MEAN> 39
 -4.474322e+000 -6.147956e+000 -4.827825e-002 -1.034929e+001 -5.102333e+000 -5.033635e+000 -5.353940e+000 -3.909568e+000 -3.619939e+000 -3.978632e+000 -3.569466e+000 -4.004506e+000 6.400596e+001 4.461884e-003 3.190565e-003 4.605050e-003 -2.653695e-003 -5.135127e-003 -2.386376e-003 -1.086249e-003 -2.686161e-003 -1.861686e-003 -1.389622e-003 -4.562218e-003 -3.225476e-003 6.985449e-003 -3.018874e-004 -9.869264e-006 -4.700390e-004 5.140436e-004 7.076148e-004 4.021564e-004 4.480788e-004 1.817596e-004 2.724507e-004 1.334571e-004 2.271389e-004 1.506440e-004 -6.714573e-004
<VARIANCE> 39
 3.880355e+001 7.373892e+001 8.208914e+001 1.109682e+002 8.391187e+001 7.121340e+001 8.145553e+001 8.188737e+001 6.936660e+001 5.981660e+001 6.537190e+001 4.949406e+001 1.384225e+002 1.451478e+000 2.893448e+000 2.664165e+000 4.389627e+000 3.794693e+000 3.228737e+000 3.690894e+000 4.075397e+000 3.371113e+000 3.324881e+000 3.222607e+000 2.698759e+000 3.647923e+000 2.369614e-001 4.264383e-001 4.057395e-001 6.987166e-001 6.656047e-001 5.626560e-001 6.380641e-001 7.274802e-001 6.078533e-001 6.100928e-001 5.833995e-001 4.936716e-001 4.756730e-001
<GCONST> 1.342995e+002
<TRANSP> 5
 0.000000e+000 1.000000e+000 0.000000e+000 0.000000e+000 0.000000e+000
 0.000000e+000 7.116556e-001 2.883444e-001 0.000000e+000 0.000000e+000
 0.000000e+000 0.000000e+000 7.116517e-001 2.883483e-001 0.000000e+000
 0.000000e+000 0.000000e+000 0.000000e+000 8.391752e-001 1.608248e-001
 0.000000e+000 0.000000e+000 0.000000e+000 0.000000e+000 0.000000e+000
<ENDHMM>
~h "e"
<BEGINHMM>
<NUMSTATES> 5
<STATE> 2
<MEAN> 39
 -5.839486e+000 -6.350253e+000 7.911394e-001 -1.064814e+001 -5.532601e+000 -5.269116e+000 -3.089582e+000 -3.225476e+000 -3.418982e+000 -3.693749e+000 -3.202817e+000 -4.122838e+000 6.451098e+001 1.000469e-002 -3.271779e-003 7.854970e-003 -1.531594e-002 -2.183380e-002 -8.871561e-003 8.863586e-003 -8.680100e-003 -8.775611e-003 -5.718341e-003 -1.047480e-002 -1.255978e-002 1.608641e-002 6.836822e-004 -5.879655e-004 -3.867391e-004 5.745583e-004 5.929850e-004 1.076868e-003 -1.630410e-003 -8.998460e-004 1.269537e-004 -6.634675e-004 1.184057e-004 -2.471655e-004 -3.071961e-004
<VARIANCE> 39
 4.343486e+001 7.173677e+001 7.241707e+001 1.178040e+002 8.827457e+001 6.797381e+001 7.390398e+001 7.753783e+001 6.782819e+001 5.465132e+001 6.177719e+001 4.671694e+001 1.400498e+002 1.767390e+000 2.744779e+000 2.290281e+000 3.989720e+000 3.373518e+000 3.064890e+000 3.352433e+000 3.530543e+000 3.056354e+000 2.855344e+000 2.848787e+000 2.433003e+000 3.196826e+000 2.818615e-001 3.944980e-001 3.635923e-001 5.994743e-001 5.585211e-001 5.329072e-001 5.761983e-001 6.178205e-001 5.410337e-001 5.167637e-001 5.089195e-001 4.373376e-001 4.009465e-001
<GCONST> 1.314614e+002
<STATE> 3
<MEAN> 39
 -5.800430e+000 -6.363786e+000 8.166626e-001 -1.069518e+001 -5.603002e+000 -5.294898e+000 -3.068699e+000 -3.259848e+000 -3.441714e+000 -3.716365e+000 -3.233698e+000 -4.162626e+000 6.456541e+001 1.206495e-002 -4.463397e-003 6.634939e-003 -1.270772e-002 -1.914775e-002 -5.216745e-003 4.014029e-003 -1.173972e-002 -7.987254e-003 -7.740183e-003 -9.582711e-003 -1.204775e-002 1.396050e-002 5.375470e-004 -1.799603e-004 -4.135162e-004 9.378549e-004 9.040032e-004 1.278380e-003 -1.546699e-003 -7.895615e-004 2.535399e-004 -6.303368e-004 3.375678e-004 2.625741e-004 -6.722984e-004
<VARIANCE> 39
 4.315501e+001 7.175266e+001 7.253641e+001 1.176624e+002 8.879526e+001 6.807985e+001 7.400930e+001 7.771145e+001 6.783523e+001 5.483668e+001 6.182375e+001 4.685818e+001 1.398545e+002 1.753748e+000 2.746786e+000 2.292305e+000 3.989240e+000 3.387510e+000 3.068237e+000 3.361876e+000 3.544571e+000 3.067518e+000 2.858547e+000 2.847907e+000 2.439754e+000 3.218682e+000 2.798201e-001 3.945047e-001 3.635651e-001 5.996168e-001 5.607579e-001 5.333428e-001 5.779879e-001 6.199749e-001 5.423919e-001 5.173306e-001 5.081399e-001 4.384877e-001 4.029620e-001
<GCONST> 1.315064e+002
<STATE> 4
<MEAN> 39
 -5.845616e+000 -6.330595e+000 8.936163e-001 -1.063049e+001 -5.658869e+000 -5.047458e+000 -3.177095e+000 -3.184016e+000 -3.447960e+000 -3.653396e+000 -3.267657e+000 -4.111250e+000 6.430633e+001 1.363107e-002 -2.718926e-003 3.977130e-003 -6.213006e-003 -9.737884e-003 1.349330e-003 -1.430955e-003 -1.552584e-002 -5.427827e-003 -8.540973e-003 -6.868592e-003 -7.473819e-003 6.532417e-003 3.496131e-004 3.394916e-004 -3.864664e-004 1.085868e-003 1.332305e-003 1.236059e-003 -1.149925e-003 -8.320143e-004 1.052303e-004 -2.914352e-004 2.531977e-004 6.329630e-004 -1.178502e-003
<VARIANCE> 39
 4.237930e+001 7.151531e+001 7.342165e+001 1.180913e+002 8.867747e+001 6.748985e+001 7.439038e+001 7.792204e+001 6.805813e+001 5.388249e+001 6.141201e+001 4.672543e+001 1.428355e+002 1.667423e+000 2.670431e+000 2.247510e+000 3.875524e+000 3.321048e+000 2.998939e+000 3.314430e+000 3.511958e+000 3.031228e+000 2.805993e+000 2.799647e+000 2.402138e+000 3.139459e+000 2.648643e-001 3.812590e-001 3.546581e-001 5.798809e-001 5.478131e-001 5.206128e-001 5.686429e-001 6.134189e-001 5.356416e-001 5.073190e-001 4.982590e-001 4.311819e-001 3.896421e-001
<GCONST> 1.308905e+002
<TRANSP> 5
 0.000000e+000 1.000000e+000 0.000000e+000 0.000000e+000 0.000000e+000
 0.000000e+000 7.197265e-001 2.802735e-001 0.000000e+000 0.000000e+000
 0.000000e+000 0.000000e+000 7.197267e-001 2.802734e-001 0.000000e+000
 0.000000e+000 0.000000e+000 0.000000e+000 8.480129e-001 1.519872e-001
 0.000000e+000 0.000000e+000 0.000000e+000 0.000000e+000 0.000000e+000
<ENDHMM>
~h "f"
<BEGINHMM>
<NUMSTATES> 5
<STATE> 2
<MEAN> 39
 -5.748367e+000 -3.837373e+000 3.193272e+000 -1.087255e+001 -5.583203e+000 -5.685749e+000 -5.446489e+000 -5.643904e+000 -3.564129e+000 -3.659321e+000 -3.158198e+000 -3.943034e+000 6.362988e+001 -7.800351e-003 5.799428e-003 -2.097283e-002 4.397645e-002 2.876825e-002 1.063608e-002 1.263678e-002 2.308020e-002 4.091007e-002 7.505347e-003 1.300597e-002 1.291521e-002 -5.149245e-002 5.622561e-004 -3.352775e-003 -3.117527e-003 -1.936252e-004 1.807281e-003 7.061888e-004 2.305201e-003 3.642047e-003 4.265842e-004 -3.127572e-004 1.292125e-003 6.222822e-004 4.413202e-004
<VARIANCE> 39
 3.350135e+001 7.448066e+001 1.027208e+002 1.124712e+002 8.851804e+001 7.244589e+001 7.502289e+001 8.112534e+001 6.972856e+001 5.689277e+001 6.274580e+001 4.650617e+001 1.264037e+002 1.345749e+000 2.484107e+000 2.605946e+000 3.906360e+000 3.542611e+000 2.824113e+000 3.211872e+000 3.357907e+000 2.927362e+000 2.983727e+000 2.813353e+000 2.493023e+000 2.851442e+000 2.251407e-001 3.527640e-001 3.750435e-001 6.097685e-001 5.938089e-001 5.004497e-001 5.538340e-001 5.933927e-001 5.209134e-001 5.374962e-001 4.885065e-001 4.538499e-001 3.647488e-001
<GCONST> 1.306867e+002
<STATE> 3
<MEAN> 39
 -5.770188e+000 -3.827462e+000 3.093559e+000 -1.071073e+001 -5.469012e+000 -5.641810e+000 -5.379099e+000 -5.548408e+000 -3.408573e+000 -3.638395e+000 -3.104980e+000 -3.893571e+000 6.343485e+001 -6.034378e-003 -3.828084e-003 -3.077840e-002 4.365213e-002 3.479071e-002 1.377594e-002 1.999090e-002 3.422898e-002 4.214516e-002 7.225384e-003 1.730136e-002 1.459564e-002 -5.001529e-002 4.892792e-004 -3.377198e-003 -3.098003e-003 -8.407356e-004 1.754435e-003 1.480502e-003 3.227570e-003 3.653612e-003 -4.085476e-004 3.542723e-004 1.355097e-003 6.846640e-004 1.167438e-003
<VARIANCE> 39
 3.328556e+001 7.386494e+001 1.013632e+002 1.123283e+002 8.760043e+001 7.160116e+001 7.509225e+001 8.107249e+001 7.000089e+001 5.602032e+001 6.236669e+001 4.600439e+001 1.280991e+002 1.339107e+000 2.468972e+000 2.589948e+000 3.886102e+000 3.495057e+000 2.797816e+000 3.186317e+000 3.339475e+000 2.918132e+000 2.972593e+000 2.807778e+000 2.475316e+000 2.829586e+000 2.237075e-001 3.528862e-001 3.724096e-001 6.071987e-001 5.861986e-001 4.958193e-001 5.482329e-001 5.907879e-001 5.191920e-001 5.370658e-001 4.889003e-001 4.518561e-001 3.633096e-001
<GCONST> 1.304722e+002
<STATE> 4
<MEAN> 39
 -5.918782e+000 -3.875349e+000 2.787677e+000 -1.011732e+001 -5.275912e+000 -5.208272e+000 -5.261693e+000 -5.125197e+000 -3.232936e+000 -3.597035e+000 -2.950696e+000 -3.718506e+000 6.282851e+001 -3.846547e-003 -1.083374e-002 -4.303844e-002 4.273657e-002 4.279777e-002 1.836215e-002 3.204997e-002 4.269677e-002 4.374671e-002 9.834309e-003 2.252591e-002 1.642154e-002 -4.974601e-002 8.894114e-005 -2.485494e-003 -2.386057e-003 -8.429891e-004 1.327793e-003 1.440121e-003 2.713198e-003 2.015120e-003 -7.227754e-004 8.020540e-004 1.698376e-003 9.762686e-004 1.507430e-003
<VARIANCE> 39
 3.280724e+001 7.256569e+001 9.999477e+001 1.117953e+002 8.596536e+001 7.000517e+001 7.634380e+001 7.963255e+001 6.938714e+001 5.422903e+001 6.185087e+001 4.501941e+001 1.353538e+002 1.298389e+000 2.399890e+000 2.514528e+000 3.740413e+000 3.336675e+000 2.717831e+000 3.135596e+000 3.254284e+000 2.874036e+000 2.899709e+000 2.756876e+000 2.410813e+000 2.747127e+000 2.162937e-001 3.450510e-001 3.614593e-001 5.847595e-001 5.585515e-001 4.804233e-001 5.375100e-001 5.766573e-001 5.107512e-001 5.248234e-001 4.825296e-001 4.417676e-001 3.508148e-001
<GCONST> 1.296464e+002
<TRANSP> 5
 0.000000e+000 1.000000e+000 0.000000e+000 0.000000e+000 0.000000e+000
 0.000000e+000 7.121823e-001 2.878177e-001 0.000000e+000 0.000000e+000
 0.000000e+000 0.000000e+000 7.121814e-001 2.878186e-001 0.000000e+000
 0.000000e+000 0.000000e+000 0.000000e+000 8.400913e-001 1.599087e-001
 0.000000e+000 0.000000e+000 0.000000e+000 0.000000e+000 0.000000e+000
<ENDHMM>
~h "g"
<BEGINHMM>
<NUMSTATES> 5
<STATE> 2
<MEAN> 39
 -4.261929e+000 -6.550534e+000 -5.869161e-001 -1.150432e+001 -4.305096e+000 -4.925834e+000 -4.550955e+000 -3.646952e+000 -3.604265e+000 -3.725133e+000 -3.656440e+000 -4.220883e+000 6.468867e+001 3.957562e-003 -6.990454e-003 2.551770e-003 -1.379027e-003 1.937604e-003 -1.011206e-002 3.837127e-003 4.106982e-003 3.468457e-003 -1.562573e-003 -5.942941e-003 1.417006e-003 1.320454e-002 -3.494727e-004 -3.953778e-004 6.601385e-005 1.107485e-003 6.001090e-004 -3.404000e-005 -7.924220e-005 4.375579e-004 -4.507967e-005 5.652115e-005 1.356913e-004 5.849619e-004 -4.981202e-004
<VARIANCE> 39
 3.822758e+001 7.597102e+001 7.723706e+001 1.172485e+002 8.688654e+001 8.160794e+001 8.100981e+001 8.395551e+001 6.953542e+001 6.160129e+001 7.059782e+001 5.235194e+001 1.319981e+002 1.330189e+000 2.769932e+000 2.564620e+000 4.234514e+000 3.543433e+000 3.445363e+000 3.578757e+000 3.838243e+000 3.325900e+000 3.283843e+000 3.257591e+000 2.704770e+000 3.462250e+000 2.185088e-001 3.861451e-001 3.909554e-001 6.526668e-001 6.010613e-001 5.805383e-001 6.106904e-001 6.722275e-001 5.860380e-001 5.915150e-001 5.814136e-001 4.878386e-001 4.268273e-001
<GCONST> 1.335816e+002
<STATE> 3
<MEAN> 39
 -4.254800e+000 -6.580345e+000 -5.761925e-001 -1.149687e+001 -4.292011e+000 -4.958545e+000 -4.535878e+000 -3.629104e+000 -3.594551e+000 -3.728243e+000 -3.674968e+000 -4.210748e+000 6.473048e+001 2.880605e-003 -7.895618e-003 2.640476e-003 2.456958e-003 3.590069e-003 -9.329392e-003 2.907973e-003 4.860867e-003 2.567758e-003 -1.431376e-003 -5.256608e-003 2.968172e-003 1.111209e-002 -2.818954e-004 -1.307177e-004 6.487337e-005 1.014136e-003 4.124134e-004 4.368704e-004 -3.189081e-004 2.402928e-004 -4.325781e-004 1.715569e-004 2.803173e-004 3.087474e-004 -6.258098e-004
<VARIANCE> 39
 3.810416e+001 7.655542e+001 7.736441e+001 1.170580e+002 8.713921e+001 8.160488e+001 8.112619e+001 8.418234e+001 6.952431e+001 6.179464e+001 7.044951e+001 5.247275e+001 1.319384e+002 1.324961e+000 2.777497e+000 2.566174e+000 4.219646e+000 3.543643e+000 3.446528e+000 3.583860e+000 3.838943e+000 3.326530e+000 3.283292e+000 3.251290e+000 2.708190e+000 3.453004e+000 2.177149e-001 3.863865e-001 3.910842e-001 6.509783e-001 6.000669e-001 5.804010e-001 6.105947e-001 6.722603e-001 5.860818e-001 5.915127e-001 5.804124e-001 4.881579e-001 4.255331e-001
<GCONST> 1.335791e+002
<STATE> 4
<MEAN> 39
 -4.484300e+000 -6.531613e+000 -5.084942e-001 -1.128057e+001 -4.281610e+000 -4.689913e+000 -4.556413e+000 -3.469178e+000 -3.613344e+000 -3.599689e+000 -3.655095e+000 -4.088942e+000 6.441419e+001 1.095833e-003 -7.310607e-003 3.969044e-003 8.629870e-003 4.389098e-003 -5.830942e-003 1.097258e-003 4.142303e-003 1.385160e-003 -8.048943e-005 -3.276198e-003 2.163408e-003 6.783376e-003 -1.370748e-004 2.454928e-004 2.667555e-004 9.216446e-004 1.724884e-005 7.179190e-004 -2.977491e-004 1.670481e-006 -2.915558e-004 2.072882e-004 4.438151e-004 -2.578811e-004 -7.000648e-004
<VARIANCE> 39
 3.812395e+001 7.727901e+001 7.783599e+001 1.167843e+002 8.705332e+001 7.987209e+001 8.143126e+001 8.381718e+001 7.015303e+001 6.068937e+001 6.975453e+001 5.235857e+001 1.367726e+002 1.282913e+000 2.724964e+000 2.499576e+000 4.089835e+000 3.466799e+000 3.366848e+000 3.541808e+000 3.771127e+000 3.287101e+000 3.221024e+000 3.171706e+000 2.660072e+000 3.354916e+000 2.105916e-001 3.770360e-001 3.789639e-001 6.292630e-001 5.843128e-001 5.658925e-001 6.005570e-001 6.598358e-001 5.789906e-001 5.812477e-001 5.660110e-001 4.774308e-001 4.103580e-001
<GCONST> 1.329744e+002
<TRANSP> 5
 0.000000e+000 1.000000e+000 0.000000e+000 0.000000e+000 0.000000e+000
 0.000000e+000 7.193374e-001 2.806626e-001 0.000000e+000 0.000000e+000
 0.000000e+000 0.000000e+000 7.193342e-001 2.806658e-001 0.000000e+000
 0.000000e+000 0.000000e+000 0.000000e+000 8.473364e-001 1.526636e-001
 0.000000e+000 0.000000e+000 0.000000e+000 0.000000e+000 0.000000e+000
<ENDHMM>
~h "h"
<BEGINHMM>
<NUMSTATES> 5
<STATE> 2
<MEAN> 39
 -4.623978e+000 -6.690206e+000 -8.834935e-001 -1.018527e+001 -3.562963e+000 -4.266634e+000 -4.478713e+000 -4.073083e+000 -3.693523e+000 -4.630671e+000 -3.193161e+000 -4.302654e+000 6.436912e+001 5.494212e-003 -5.721127e-003 -8.277099e-004 8.035033e-004 4.545211e-003 3.322507e-003 8.370357e-004 -6.038988e-003 -2.381901e-003 -1.069456e-002 -4.114886e-003 -6.736673e-003 1.153488e-002 -1.495541e-004 3.269079e-004 3.585155e-004 1.440011e-004 -4.211798e-004 -1.351909e-004 -2.696372e-004 2.114908e-004 2.851594e-004 2.858842e-004 -2.280645e-004 2.401902e-004 -6.978060e-004
<VARIANCE> 39
 3.911227e+001 7.321868e+001 7.725952e+001 1.080262e+002 8.809445e+001 7.248135e+001 8.016236e+001 7.888362e+001 6.975014e+001 6.435818e+001 6.373323e+001 4.984793e+001 1.318886e+002 1.437795e+000 2.616451e+000 2.471040e+000 3.889127e+000 3.481940e+000 3.131742e+000 3.428144e+000 3.636127e+000 3.144191e+000 3.178000e+000 3.095999e+000 2.582716e+000 3.029478e+000 2.343147e-001 3.752056e-001 3.800541e-001 5.931693e-001 5.741850e-001 5.383473e-001 5.823480e-001 6.391937e-001 5.614874e-001 5.625590e-001 5.473918e-001 4.618166e-001 3.759703e-001
<GCONST> 1.319352e+002
<STATE> 3
<MEAN> 39
 -4.607403e+000 -6.710327e+000 -8.803269e-001 -1.018109e+001 -3.550881e+000 -4.256459e+000 -4.475909e+000 -4.091674e+000 -3.701197e+000 -4.662908e+000 -3.207790e+000 -4.321073e+000 6.440808e+001 4.973219e-003 -4.517341e-003 3.092084e-004 1.245338e-003 3.236081e-003 3.030982e-003 -2.198778e-004 -5.551174e-003 -1.307113e-003 -9.593546e-003 -4.065676e-003 -5.652167e-003 9.150903e-003 -1.135917e-004 3.439216e-004 3.174258e-004 1.123406e-004 -4.413809e-004 -9.526519e-005 -3.117465e-004 2.379443e-004 2.794669e-004 3.850412e-004 1.860207e-005 3.167555e-004 -6.984281e-004
<VARIANCE> 39
 3.907303e+001 7.343211e+001 7.741425e+001 1.079363e+002 8.839579e+001 7.258366e+001 8.011394e+001 7.903251e+001 6.973038e+001 6.454489e+001 6.365929e+001 4.969391e+001 1.316500e+002 1.438099e+000 2.619492e+000 2.468197e+000 3.885114e+000 3.479294e+000 3.128795e+000 3.423225e+000 3.637072e+000 3.143098e+000 3.178599e+000 3.087953e+000 2.580137e+000 3.024318e+000 2.341032e-001 3.750972e-001 3.791449e-001 5.917299e-001 5.730246e-001 5.372260e-001 5.811350e-001 6.395612e-001 5.607476e-001 5.621087e-001 5.454928e-001 4.609258e-001 3.740543e-001
<GCONST> 1.319075e+002
<STATE> 4
<MEAN> 39
 -4.760681e+000 -6.703566e+000 -8.294962e-001 -9.989174e+000 -3.584998e+000 -4.021375e+000 -4.558063e+000 -3.980709e+000 -3.746292e+000 -4.597339e+000 -3.270450e+000 -4.243529e+000 6.410147e+001 4.575720e-003 -1.907764e-003 2.621477e-003 1.135675e-003 1.725325e-004 2.115793e-003 -1.802704e-003 -5.053945e-003 -6.083029e-004 -5.388036e-003 -2.855460e-003 -3.419435e-003 5.267398e-003 1.799507e-005 4.848621e-004 2.208802e-004 -2.461835e-005 -4.766270e-004 -9.273914e-005 -3.610440e-004 1.330115e-004 1.409483e-004 5.958228e-004 1.419472e-004 2.620775e-004 -8.533490e-004
<VARIANCE> 39
 3.872348e+001 7.411774e+001 7.739339e+001 1.075363e+002 8.753049e+001 7.156954e+001 8.063638e+001 7.834176e+001 7.043585e+001 6.303072e+001 6.326055e+001 4.941437e+001 1.367458e+002 1.398752e+000 2.565436e+000 2.408362e+000 3.779591e+000 3.389128e+000 3.049782e+000 3.358811e+000 3.569249e+000 3.103184e+000 3.102228e+000 3.030993e+000 2.534492e+000 2.943848e+000 2.270520e-001 3.645462e-001 3.677728e-001 5.735664e-001 5.565930e-001 5.221961e-001 5.686049e-001 6.278555e-001 5.519031e-001 5.490413e-001 5.347309e-001 4.516163e-001 3.594073e-001
<GCONST> 1.312610e+002
<TRANSP> 5
 0.000000e+000 1.000000e+000 0.000000e+000 0.000000e+000 0.000000e+000
 0.000000e+000 7.135224e-001 2.864776e-001 0.000000e+000 0.000000e+000
 0.000000e+000 0.000000e+000 7.135266e-001 2.864733e-001 0.000000e+000
 0.000000e+000 0.000000e+000 0.000000e+000 8.421413e-001 1.578588e-001
 0.000000e+000 0.000000e+000 0.000000e+000 0.000000e+000 0.000000e+000
<ENDHMM>
~h "i"
<BEGINHMM>
<NUMSTATES> 5
<STATE> 2
<MEAN> 39
 -5.549455e+000 -4.814834e+000 8.944985e-001 -9.579083e+000 -5.752605e+000 -5.867867e+000 -4.903628e+000 -4.669371e+000 -3.478863e+000 -3.963601e+000 -3.166210e+000 -3.616640e+000 6.364151e+001 8.104525e-003 6.259221e-003 1.654898e-002 -1.382011e-002 -2.577830e-002 -9.793306e-003 -1.089112e-002 -1.152329e-002 -1.156493e-002 -6.468774e-003 -8.011296e-003 -8.098131e-003 2.514591e-002 8.074089e-004 -1.299510e-003 -8.471134e-004 2.592148e-004 5.313206e-004 2.756591e-004 -4.118936e-005 -2.286935e-004 3.969018e-005 -2.084552e-004 2.995458e-004 -2.419480e-004 -2.829580e-004
<VARIANCE> 39
 4.357873e+001 6.467181e+001 8.258431e+001 1.077964e+002 8.833041e+001 7.087527e+001 7.544044e+001 8.217289e+001 6.812984e+001 5.602975e+001 6.554541e+001 4.978222e+001 1.292202e+002 1.882310e+000 2.736831e+000 2.683077e+000 4.309141e+000 3.915807e+000 3.309041e+000 3.694382e+000 4.009460e+000 3.399064e+000 3.145001e+000 3.356230e+000 2.720729e+000 3.634559e+000 3.026796e-001 4.164677e-001 4.165069e-001 6.706239e-001 6.511698e-001 5.802305e-001 6.398251e-001 7.001318e-001 6.065277e-001 5.766842e-001 5.997372e-001 4.941267e-001 4.809329e-001
<GCONST> 1.344827e+002
<STATE> 3
<MEAN> 39
 -5.517185e+000 -4.805701e+000 9.474708e-001 -9.629287e+000 -5.839514e+000 -5.900844e+000 -4.942956e+000 -4.710369e+000 -3.522123e+000 -3.988215e+000 -3.192741e+000 -3.646007e+000 6.373176e+001 1.057752e-002 2.177403e-003 1.370897e-002 -1.340956e-002 -2.356180e-002 -8.559927e-003 -1.079941e-002 -1.226131e-002 -1.146256e-002 -7.150541e-003 -7.714524e-003 -9.003717e-003 2.354013e-002 6.839504e-004 -1.392223e-003 -1.111410e-003 2.803310e-004 7.966007e-004 4.246951e-004 6.599959e-005 -1.975292e-004 1.202473e-005 -2.071411e-004 1.599502e-004 -2.116125e-004 -5.185717e-004
<VARIANCE> 39
 4.348299e+001 6.466093e+001 8.284850e+001 1.081452e+002 8.865475e+001 7.129719e+001 7.564729e+001 8.232938e+001 6.827744e+001 5.630084e+001 6.554145e+001 4.993198e+001 1.285560e+002 1.878684e+000 2.743317e+000 2.686190e+000 4.328270e+000 3.927107e+000 3.318212e+000 3.705398e+000 4.011135e+000 3.407414e+000 3.148165e+000 3.361339e+000 2.720016e+000 3.649951e+000 3.025428e-001 4.178932e-001 4.165868e-001 6.730020e-001 6.521603e-001 5.814666e-001 6.410660e-001 7.002759e-001 6.073828e-001 5.766687e-001 5.999249e-001 4.934991e-001 4.832596e-001
<GCONST> 1.345475e+002
<STATE> 4
<MEAN> 39
 -5.633689e+000 -4.791366e+000 9.403885e-001 -9.481758e+000 -5.901184e+000 -5.673378e+000 -5.084853e+000 -4.633366e+000 -3.628556e+000 -3.912111e+000 -3.246884e+000 -3.576530e+000 6.346358e+001 1.273395e-002 -3.707676e-003 8.260473e-003 -1.407768e-002 -1.763125e-002 -4.827489e-003 -9.232735e-003 -1.163492e-002 -1.092329e-002 -7.386445e-003 -7.897451e-003 -9.745242e-003 2.034633e-002 4.299931e-004 -1.053365e-003 -1.353938e-003 1.149083e-004 1.137258e-003 7.671456e-004 3.386286e-004 8.895731e-005 2.676811e-004 -7.973816e-005 4.750824e-005 -1.541765e-004 -8.223728e-004
<VARIANCE> 39
 4.269107e+001 6.422449e+001 8.392624e+001 1.081968e+002 8.824367e+001 7.048892e+001 7.609402e+001 8.173403e+001 6.928947e+001 5.543281e+001 6.569793e+001 4.992590e+001 1.333141e+002 1.807262e+000 2.677274e+000 2.628528e+000 4.203264e+000 3.839313e+000 3.248868e+000 3.644314e+000 3.926413e+000 3.368192e+000 3.083218e+000 3.303687e+000 2.672843e+000 3.565195e+000 2.914706e-001 4.062104e-001 4.050348e-001 6.516328e-001 6.356249e-001 5.684136e-001 6.289865e-001 6.846489e-001 5.982460e-001 5.642157e-001 5.887943e-001 4.839314e-001 4.691072e-001
<GCONST> 1.339486e+002
<TRANSP> 5
 0.000000e+000 1.000000e+000 0.000000e+000 0.000000e+000 0.000000e+000
 0.000000e+000 7.099015e-001 2.900985e-001 0.000000e+000 0.000000e+000
 0.000000e+000 0.000000e+000 7.099053e-001 2.900947e-001 0.000000e+000
 0.000000e+000 0.000000e+000 0.000000e+000 8.373193e-001 1.626807e-001
 0.000000e+000 0.000000e+000 0.000000e+000 0.000000e+000 0.000000e+000
<ENDHMM>
~h "k"
<BEGINHMM>
<NUMSTATES> 5
<STATE> 2
<MEAN> 39
 -5.329038e+000 -5.471108e+000 8.229459e-001 -9.927337e+000 -6.080883e+000 -5.626166e+000 -4.293187e+000 -4.345868e+000 -3.311001e+000 -3.193134e+000 -3.069174e+000 -3.537130e+000 6.330247e+001 -2.945909e-003 5.678839e-003 1.578921e-002 -3.045201e-003 -1.785980e-002 -7.488470e-003 2.535666e-003 -7.241675e-003 1.732286e-003 2.182121e-003 -3.243734e-003 5.608387e-003 3.720750e-003 1.565449e-004 -7.680809e-006 -7.963831e-004 3.152339e-004 8.928814e-004 1.167321e-003 -1.138748e-004 -5.967929e-004 2.409247e-004 -1.224297e-004 1.052524e-004 -2.519239e-004 -4.651004e-004
<VARIANCE> 39
 3.734037e+001 6.063060e+001 8.058069e+001 1.044598e+002 8.777067e+001 6.801383e+001 7.459899e+001 8.118372e+001 6.821807e+001 5.673094e+001 6.561324e+001 4.979160e+001 1.362565e+002 1.596076e+000 2.617783e+000 2.720703e+000 4.369334e+000 3.927688e+000 3.306725e+000 3.686018e+000 3.930585e+000 3.478567e+000 3.210448e+000 3.376928e+000 2.775878e+000 4.476223e+000 2.655028e-001 4.032607e-001 4.270939e-001 6.941908e-001 6.681215e-001 5.861911e-001 6.457832e-001 6.965404e-001 6.207219e-001 5.855311e-001 6.055693e-001 5.116788e-001 5.672451e-001
<GCONST> 1.344660e+002
<STATE> 3
<MEAN> 39
 -5.338874e+000 -5.451901e+000 8.720228e-001 -9.938210e+000 -6.139674e+000 -5.645155e+000 -4.287261e+000 -4.376088e+000 -3.304752e+000 -3.188679e+000 -3.077652e+000 -3.528090e+000 6.332359e+001 -2.457566e-003 5.729118e-003 1.287510e-002 -2.999927e-003 -1.469733e-002 -4.377255e-003 1.311424e-003 -9.289701e-003 2.583950e-003 1.344394e-003 -3.566127e-003 3.976719e-003 3.154009e-003 1.009732e-004 -6.837877e-005 -7.805766e-004 1.020519e-004 1.015030e-003 9.407530e-004 -3.135011e-004 -5.593421e-004 2.130434e-004 -2.520556e-004 -5.926625e-005 -5.447477e-004 -3.644031e-005
<VARIANCE> 39
 3.721698e+001 6.075061e+001 8.078600e+001 1.047368e+002 8.785287e+001 6.800878e+001 7.436133e+001 8.136306e+001 6.817738e+001 5.662568e+001 6.561890e+001 4.977284e+001 1.363223e+002 1.596571e+000 2.615908e+000 2.722430e+000 4.374194e+000 3.935923e+000 3.301136e+000 3.688933e+000 3.936652e+000 3.478655e+000 3.206083e+000 3.390467e+000 2.776067e+000 4.488675e+000 2.654098e-001 4.027921e-001 4.270787e-001 6.943521e-001 6.688238e-001 5.849540e-001 6.467547e-001 6.974957e-001 6.203184e-001 5.843093e-001 6.074900e-001 5.118083e-001 5.686590e-001
<GCONST> 1.344807e+002
<STATE> 4
<MEAN> 39
 -5.550776e+000 -5.388073e+000 8.975644e-001 -9.813200e+000 -6.120074e+000 -5.352429e+000 -4.334901e+000 -4.247442e+000 -3.303542e+000 -3.113107e+000 -3.118243e+000 -3.461798e+000 6.298202e+001 -8.742338e-004 3.893326e-003 8.872531e-003 -6.067736e-003 -1.032439e-002 -1.562912e-003 -2.961896e-003 -1.007238e-002 1.783357e-003 -5.067613e-004 -3.924460e-003 1.697345e-004 7.643129e-003 2.268404e-004 -2.749470e-004 -7.394751e-004 -1.629921e-004 1.120125e-003 5.914727e-004 -4.589108e-004 -6.075090e-005 2.859890e-005 -3.361598e-004 -2.038836e-004 -3.861994e-004 3.125455e-004
<VARIANCE> 39
 3.686411e+001 6.087490e+001 8.095914e+001 1.050666e+002 8.724635e+001 6.703427e+001 7.411267e+001 8.028809e+001 6.877306e+001 5.531763e+001 6.547325e+001 4.907472e+001 1.414688e+002 1.545094e+000 2.549120e+000 2.659936e+000 4.242721e+000 3.834126e+000 3.208598e+000 3.622778e+000 3.849871e+000 3.424316e+000 3.133800e+000 3.341851e+000 2.718476e+000 4.341145e+000 2.559647e-001 3.887441e-001 4.144911e-001 6.698096e-001 6.486604e-001 5.667427e-001 6.334944e-001 6.823281e-001 6.089358e-001 5.711803e-001 5.972884e-001 4.995739e-001 5.442718e-001
<GCONST> 1.337630e+002
<TRANSP> 5
 0.000000e+000 1.000000e+000 0.000000e+000 0.000000e+000 0.000000e+000
 0.000000e+000 7.123904e-001 2.876096e-001 0.000000e+000 0.000000e+000
 0.000000e+000 0.000000e+000 7.123964e-001 2.876036e-001 0.000000e+000
 0.000000e+000 0.000000e+000 0.000000e+000 8.412908e-001 1.587091e-001
 0.000000e+000 0.000000e+000 0.000000e+000 0.000000e+000 0.000000e+000
<ENDHMM>
~h "l"
<BEGINHMM>
<NUMSTATES> 5
<STATE> 2
<MEAN> 39
 -4.298343e+000 -7.223938e+000 -6.297379e-001 -1.100422e+001 -4.238194e+000 -5.273063e+000 -5.419508e+000 -3.575746e+000 -3.382739e+000 -4.567606e+000 -3.620049e+000 -4.108527e+000 6.518896e+001 9.358393e-003 -6.635939e-003 -1.071606e-003 -6.738411e-003 -9.110917e-004 -3.742068e-003 -4.511290e-004 -2.166414e-003 -4.493779e-003 -7.633318e-003 -9.644494e-003 -3.489004e-003 1.926128e-002 -4.048471e-004 1.101588e-003 4.303603e-004 7.697812e-004 -6.321185e-006 1.775002e-004 5.484687e-004 -1.317237e-004 2.265379e-004 5.243397e-004 5.580997e-004 -7.146509e-005 -1.571376e-003
<VARIANCE> 39
 3.829927e+001 7.574938e+001 7.527996e+001 1.068691e+002 8.037845e+001 7.949590e+001 8.690659e+001 8.302969e+001 7.029337e+001 6.549334e+001 6.459577e+001 5.130854e+001 1.317436e+002 1.409061e+000 2.691755e+000 2.608229e+000 3.989141e+000 3.476894e+000 3.623806e+000 3.892632e+000 3.967713e+000 3.393494e+000 3.333521e+000 3.251392e+000 2.688622e+000 3.126264e+000 2.304051e-001 3.862208e-001 3.974179e-001 6.266766e-001 5.892541e-001 6.138132e-001 6.660636e-001 7.008017e-001 6.049232e-001 6.009810e-001 5.845044e-001 4.836682e-001 3.867270e-001
<GCONST> 1.335776e+002
<STATE> 3
<MEAN> 39
 -4.268282e+000 -7.238445e+000 -6.306330e-001 -1.102011e+001 -4.238955e+000 -5.280671e+000 -5.415977e+000 -3.586098e+000 -3.394680e+000 -4.589160e+000 -3.649649e+000 -4.121518e+000 6.524265e+001 7.957249e-003 -2.767381e-003 2.396035e-004 -4.073514e-003 -1.222421e-003 -2.846941e-003 1.473343e-003 -2.490540e-003 -3.735281e-003 -6.181156e-003 -7.808879e-003 -3.317395e-003 1.361363e-002 -3.655962e-004 1.147736e-003 3.803296e-004 8.439246e-004 4.261597e-006 2.341167e-004 5.215494e-004 -1.507266e-004 2.245485e-004 4.242756e-004 5.027405e-004 2.673364e-005 -1.599146e-003
<VARIANCE> 39
 3.818229e+001 7.611233e+001 7.523766e+001 1.068728e+002 8.031308e+001 7.979729e+001 8.699619e+001 8.304285e+001 7.038068e+001 6.568733e+001 6.448813e+001 5.134703e+001 1.316257e+002 1.406776e+000 2.690804e+000 2.610899e+000 3.982765e+000 3.472989e+000 3.629611e+000 3.906050e+000 3.967164e+000 3.391151e+000 3.334739e+000 3.249800e+000 2.685263e+000 3.119219e+000 2.299035e-001 3.856580e-001 3.974383e-001 6.252366e-001 5.880347e-001 6.142908e-001 6.676072e-001 7.002171e-001 6.043069e-001 6.011378e-001 5.843236e-001 4.826869e-001 3.851191e-001
<GCONST> 1.335692e+002
<STATE> 4
<MEAN> 39
 -4.385644e+000 -7.172510e+000 -6.189161e-001 -1.086271e+001 -4.225564e+000 -5.040378e+000 -5.491749e+000 -3.534999e+000 -3.468791e+000 -4.489329e+000 -3.732913e+000 -4.053613e+000 6.498382e+001 5.453516e-003 3.005108e-003 1.485011e-003 3.213233e-004 -8.552400e-004 7.232833e-004 4.715982e-003 -3.042994e-003 -2.105025e-003 -3.117049e-003 -4.893464e-003 -2.486624e-003 4.230609e-003 -3.601318e-004 1.043763e-003 2.193972e-004 7.393268e-004 4.041709e-005 4.363122e-004 4.677800e-004 -1.186539e-004 1.802269e-004 4.522928e-004 4.799925e-004 1.333346e-004 -1.502555e-003
<VARIANCE> 39
 3.789886e+001 7.677433e+001 7.537773e+001 1.073857e+002 7.978769e+001 7.893510e+001 8.724205e+001 8.252620e+001 7.111346e+001 6.428177e+001 6.443089e+001 5.139551e+001 1.362939e+002 1.372379e+000 2.644106e+000 2.567919e+000 3.893897e+000 3.405736e+000 3.558557e+000 3.869562e+000 3.894389e+000 3.348189e+000 3.275528e+000 3.207377e+000 2.651744e+000 3.046023e+000 2.234765e-001 3.761758e-001 3.885372e-001 6.087667e-001 5.748218e-001 6.009384e-001 6.588013e-001 6.863444e-001 5.953323e-001 5.902374e-001 5.760674e-001 4.749804e-001 3.729637e-001
<GCONST> 1.330749e+002
<TRANSP> 5
 0.000000e+000 1.000000e+000 0.000000e+000 0.000000e+000 0.000000e+000
 0.000000e+000 7.126521e-001 2.873479e-001 0.000000e+000 0.000000e+000
 0.000000e+000 0.000000e+000 7.126499e-001 2.873501e-001 0.000000e+000
 0.000000e+000 0.000000e+000 0.000000e+000 8.402319e-001 1.597681e-001
 0.000000e+000 0.000000e+000 0.000000e+000 0.000000e+000 0.000000e+000
<ENDHMM>
~h "m"
<BEGINHMM>
<NUMSTATES> 5
<STATE> 2
<MEAN> 39
 -4.156341e+000 -6.367180e+000 -4.704553e-001 -1.038952e+001 -4.138623e+000 -4.484594e+000 -5.288951e+000 -4.677216e+000 -4.002959e+000 -4.562253e+000 -3.521810e+000 -4.379294e+000 6.409282e+001 1.003454e-002 3.977687e-003 -4.445747e-003 -6.246597e-003 -3.229305e-004 6.674697e-003 -4.024720e-003 -6.609267e-003 -8.811284e-003 -4.211156e-003 1.133344e-003 -4.918805e-003 7.646738e-003 -8.438018e-004 3.974962e-004 5.192221e-005 2.032215e-004 2.209219e-004 4.709324e-004 7.181537e-004 7.811152e-004 8.389268e-004 4.773058e-004 5.703654e-004 1.784776e-004 -1.072459e-003
<VARIANCE> 39
 4.005995e+001 7.681535e+001 7.488920e+001 1.072530e+002 8.220428e+001 7.547205e+001 8.260791e+001 9.002011e+001 7.130421e+001 6.226643e+001 6.582300e+001 5.236912e+001 1.325318e+002 1.522639e+000 2.751988e+000 2.691586e+000 4.125628e+000 3.466787e+000 3.232331e+000 3.533557e+000 4.216238e+000 3.454527e+000 3.261454e+000 3.328285e+000 2.714213e+000 3.364667e+000 2.475296e-001 3.902210e-001 4.187643e-001 6.438891e-001 5.888383e-001 5.544583e-001 6.035181e-001 7.257324e-001 6.146966e-001 5.878321e-001 5.924007e-001 4.892850e-001 4.202917e-001
<GCONST> 1.338557e+002
<STATE> 3
<MEAN> 39
 -4.128539e+000 -6.348689e+000 -4.840448e-001 -1.040985e+001 -4.139885e+000 -4.457162e+000 -5.298455e+000 -4.693723e+000 -4.025300e+000 -4.572140e+000 -3.510562e+000 -4.393518e+000 6.411211e+001 6.832766e-003 5.646881e-003 -4.108531e-003 -4.968647e-003 6.116868e-004 7.614243e-003 -1.274351e-003 -3.251902e-003 -5.196651e-003 -2.261253e-003 2.833199e-003 -3.832048e-003 2.997938e-003 -9.132519e-004 4.719202e-004 1.237337e-004 3.273648e-004 3.320543e-004 2.819264e-004 7.753902e-004 9.524894e-004 1.077765e-003 6.084675e-004 4.129043e-004 3.495090e-004 -1.331877e-003
<VARIANCE> 39
 4.005024e+001 7.695613e+001 7.501702e+001 1.076077e+002 8.230276e+001 7.581462e+001 8.267937e+001 9.001418e+001 7.133404e+001 6.236278e+001 6.580054e+001 5.236707e+001 1.322014e+002 1.519819e+000 2.743571e+000 2.692515e+000 4.134761e+000 3.469352e+000 3.238009e+000 3.535015e+000 4.220020e+000 3.459060e+000 3.262696e+000 3.333060e+000 2.711912e+000 3.349566e+000 2.467445e-001 3.889862e-001 4.186660e-001 6.441776e-001 5.887526e-001 5.547538e-001 6.036456e-001 7.261661e-001 6.153471e-001 5.879686e-001 5.933758e-001 4.888448e-001 4.182645e-001
<GCONST> 1.338594e+002
<STATE> 4
<MEAN> 39
 -4.247545e+000 -6.241277e+000 -4.960317e-001 -1.025514e+001 -4.147595e+000 -4.112947e+000 -5.402454e+000 -4.618877e+000 -4.047273e+000 -4.495189e+000 -3.468127e+000 -4.312515e+000 6.381365e+001 1.265637e-003 8.062963e-003 -3.509113e-003 -1.909988e-003 1.591174e-003 7.516128e-003 3.680556e-003 2.767748e-003 1.294575e-003 9.523312e-004 4.922155e-003 -1.319944e-003 -5.533389e-003 -8.348290e-004 4.578867e-004 6.229732e-005 4.757132e-004 3.172521e-004 4.441639e-005 8.232652e-004 9.304212e-004 1.077501e-003 5.827806e-004 1.639086e-004 4.111666e-004 -1.563637e-003
<VARIANCE> 39
 3.996160e+001 7.782512e+001 7.519136e+001 1.084977e+002 8.184161e+001 7.549264e+001 8.387926e+001 9.003817e+001 7.225923e+001 6.130743e+001 6.553648e+001 5.238275e+001 1.363488e+002 1.466803e+000 2.665501e+000 2.632390e+000 4.024632e+000 3.387180e+000 3.166550e+000 3.478929e+000 4.115437e+000 3.409026e+000 3.185423e+000 3.283834e+000 2.661010e+000 3.227210e+000 2.366505e-001 3.748354e-001 4.069275e-001 6.230171e-001 5.722765e-001 5.408384e-001 5.917037e-001 7.073908e-001 6.039669e-001 5.736185e-001 5.836550e-001 4.783067e-001 3.995689e-001
<GCONST> 1.332278e+002
<TRANSP> 5
 0.000000e+000 1.000000e+000 0.000000e+000 0.000000e+000 0.000000e+000
 0.000000e+000 7.170378e-001 2.829623e-001 0.000000e+000 0.000000e+000
 0.000000e+000 0.000000e+000 7.170306e-001 2.829693e-001 0.000000e+000
 0.000000e+000 0.000000e+000 0.000000e+000 8.460386e-001 1.539614e-001
 0.000000e+000 0.000000e+000 0.000000e+000 0.000000e+000 0.000000e+000
<ENDHMM>
~h "n"
<BEGINHMM>
<NUMSTATES> 5
<STATE> 2
<MEAN> 39
 -4.267026e+000 -5.954031e+000 -1.303959e-001 -1.060188e+001 -4.784268e+000 -5.006319e+000 -5.114299e+000 -4.423222e+000 -3.725662e+000 -4.269108e+000 -3.716280e+000 -4.193171e+000 6.408775e+001 3.982746e-003 1.403783e-003 -3.173568e-003 2.152208e-003 3.882091e-003 1.341877e-003 1.607815e-003 -5.736726e-003 1.045084e-003 -4.538592e-004 -3.350590e-003 7.772792e-004 -4.435061e-003 -4.932265e-004 1.449268e-004 -2.816192e-004 5.878757e-004 5.859038e-004 2.995366e-004 4.806952e-004 4.990607e-004 4.476828e-004 3.284396e-004 2.856683e-004 1.025962e-004 -8.978896e-004
<VARIANCE> 39
 3.924477e+001 7.144769e+001 7.860549e+001 1.084487e+002 8.363391e+001 7.264118e+001 7.906637e+001 8.406682e+001 6.934435e+001 6.189677e+001 6.685455e+001 5.174059e+001 1.311178e+002 1.540374e+000 2.758638e+000 2.620931e+000 4.092750e+000 3.557345e+000 3.235012e+000 3.537273e+000 4.053856e+000 3.345475e+000 3.265060e+000 3.272913e+000 2.744185e+000 3.454300e+000 2.526196e-001 3.987568e-001 4.045474e-001 6.357633e-001 6.053515e-001 5.637719e-001 6.138330e-001 7.091576e-001 5.990753e-001 5.894454e-001 5.820533e-001 4.945840e-001 4.369170e-001
<GCONST> 1.336471e+002
<STATE> 3
<MEAN> 39
 -4.258490e+000 -5.948611e+000 -1.425539e-001 -1.058739e+001 -4.766036e+000 -4.997808e+000 -5.103344e+000 -4.436491e+000 -3.716019e+000 -4.266342e+000 -3.724011e+000 -4.188864e+000 6.406422e+001 2.193056e-003 1.973442e-003 -4.107485e-003 4.210061e-003 5.620581e-003 2.254911e-003 3.351231e-003 -3.857870e-003 2.569171e-003 7.582308e-004 -2.398914e-003 1.045750e-003 -7.428861e-003 -5.457446e-004 2.368891e-004 -2.046211e-004 5.247141e-004 4.705200e-004 2.465858e-004 5.568783e-004 5.464191e-004 4.843758e-004 4.118608e-004 2.289480e-004 4.822762e-005 -8.241464e-004
<VARIANCE> 39
 3.917625e+001 7.155099e+001 7.847691e+001 1.084533e+002 8.350594e+001 7.263794e+001 7.906822e+001 8.405507e+001 6.932156e+001 6.187281e+001 6.666760e+001 5.175402e+001 1.314699e+002 1.538433e+000 2.754987e+000 2.615035e+000 4.079330e+000 3.549152e+000 3.227127e+000 3.531386e+000 4.054860e+000 3.337844e+000 3.260429e+000 3.267134e+000 2.742270e+000 3.436854e+000 2.522404e-001 3.978738e-001 4.035490e-001 6.335768e-001 6.037700e-001 5.625638e-001 6.125799e-001 7.092211e-001 5.978457e-001 5.884781e-001 5.810677e-001 4.940699e-001 4.345696e-001
<GCONST> 1.335892e+002
<STATE> 4
<MEAN> 39
 -4.431338e+000 -5.876472e+000 -1.965490e-001 -1.036061e+001 -4.695998e+000 -4.718480e+000 -5.141469e+000 -4.332428e+000 -3.716886e+000 -4.163659e+000 -3.748552e+000 -4.065975e+000 6.365448e+001 -9.674727e-004 2.671538e-003 -4.901952e-003 7.313261e-003 7.550207e-003 3.686690e-003 6.225138e-003 -4.349446e-004 5.752223e-003 3.053110e-003 -2.871398e-004 1.491969e-003 -1.168168e-002 -5.148177e-004 2.444467e-004 -1.267772e-004 3.762896e-004 2.835533e-004 1.824267e-004 5.051903e-004 4.785294e-004 5.130908e-004 3.777814e-004 2.764799e-004 2.369726e-005 -7.057749e-004
<VARIANCE> 39
 3.902068e+001 7.169706e+001 7.787017e+001 1.085002e+002 8.255415e+001 7.147527e+001 7.928250e+001 8.341105e+001 7.006451e+001 6.049643e+001 6.645275e+001 5.168897e+001 1.369997e+002 1.491359e+000 2.689461e+000 2.543318e+000 3.958380e+000 3.462882e+000 3.148160e+000 3.463278e+000 3.971674e+000 3.281156e+000 3.191090e+000 3.214599e+000 2.696592e+000 3.323646e+000 2.437536e-001 3.858635e-001 3.910513e-001 6.131819e-001 5.878384e-001 5.481200e-001 5.990168e-001 6.942372e-001 5.865713e-001 5.760414e-001 5.710486e-001 4.846645e-001 4.171160e-001
<GCONST> 1.329210e+002
<TRANSP> 5
 0.000000e+000 1.000000e+000 0.000000e+000 0.000000e+000 0.000000e+000
 0.000000e+000 7.117197e-001 2.882803e-001 0.000000e+000 0.000000e+000
 0.000000e+000 0.000000e+000 7.117141e-001 2.882859e-001 0.000000e+000
 0.000000e+000 0.000000e+000 0.000000e+000 8.393620e-001 1.606379e-001
 0.000000e+000 0.000000e+000 0.000000e+000 0.000000e+000 0.000000e+000
<ENDHMM>
~h "o"
<BEGINHMM>
<NUMSTATES> 5
<STATE> 2
<MEAN> 39
 -4.461696e+000 -6.615446e+000 -1.407342e+000 -1.071817e+001 -3.834747e+000 -4.405634e+000 -4.990112e+000 -4.135121e+000 -3.462550e+000 -4.262466e+000 -3.270096e+000 -4.446549e+000 6.453141e+001 1.375891e-002 -2.141879e-003 -8.996451e-003 -1.497687e-002 2.510642e-003 3.082286e-003 -6.258212e-003 -9.055497e-003 -7.180039e-003 -7.618833e-003 -1.158806e-002 -9.795822e-003 1.768030e-002 7.013475e-005 7.923979e-004 8.497814e-004 2.017433e-004 -4.562098e-004 -1.885008e-004 -1.420691e-004 -2.707624e-004 -1.430349e-004 4.035064e-004 -2.243174e-004 1.739342e-004 -8.990888e-004
<VARIANCE> 39
 4.257243e+001 7.486282e+001 8.048196e+001 1.042386e+002 8.433329e+001 7.411054e+001 7.706535e+001 8.070010e+001 6.728651e+001 6.215567e+001 6.588626e+001 5.378568e+001 1.306197e+002 1.847795e+000 3.149533e+000 3.003980e+000 4.380956e+000 4.099007e+000 3.538106e+000 3.593286e+000 3.914136e+000 3.455573e+000 3.438399e+000 3.469700e+000 2.875073e+000 3.931568e+000 3.124027e-001 4.667248e-001 4.796988e-001 7.039022e-001 7.382002e-001 6.298022e-001 6.297772e-001 6.925254e-001 6.251559e-001 6.342261e-001 6.337606e-001 5.260601e-001 5.098782e-001
<GCONST> 1.361349e+002
<STATE> 3
<MEAN> 39
 -4.414527e+000 -6.620210e+000 -1.428952e+000 -1.076993e+001 -3.830276e+000 -4.395029e+000 -5.014271e+000 -4.168109e+000 -3.489488e+000 -4.286504e+000 -3.311869e+000 -4.477447e+000 6.459185e+001 1.359545e-002 4.317577e-004 -6.190015e-003 -1.390134e-002 1.181704e-003 2.733533e-003 -6.527950e-003 -9.431821e-003 -7.616440e-003 -6.242441e-003 -1.197393e-002 -8.658853e-003 1.460586e-002 -9.917583e-005 7.188156e-004 9.592490e-004 3.384461e-004 -4.415161e-004 -9.194610e-005 -2.333065e-005 -1.041094e-004 -2.240449e-004 4.286300e-004 -1.374346e-005 3.474053e-004 -8.378879e-004
<VARIANCE> 39
 4.250850e+001 7.502558e+001 8.052536e+001 1.045894e+002 8.428306e+001 7.426090e+001 7.730593e+001 8.080956e+001 6.726392e+001 6.236614e+001 6.597000e+001 5.386459e+001 1.299747e+002 1.852841e+000 3.159593e+000 3.012523e+000 4.402487e+000 4.109387e+000 3.556386e+000 3.596638e+000 3.920836e+000 3.462361e+000 3.449884e+000 3.481007e+000 2.880653e+000 3.946193e+000 3.134297e-001 4.683233e-001 4.810093e-001 7.070184e-001 7.407431e-001 6.331563e-001 6.304265e-001 6.934199e-001 6.260852e-001 6.358289e-001 6.357696e-001 5.269780e-001 5.113028e-001
<GCONST> 1.362211e+002
<STATE> 4
<MEAN> 39
 -4.511066e+000 -6.595968e+000 -1.442742e+000 -1.072640e+001 -3.797178e+000 -4.123745e+000 -5.130451e+000 -4.136516e+000 -3.585979e+000 -4.231985e+000 -3.403626e+000 -4.410328e+000 6.437962e+001 1.181449e-002 3.531278e-003 -1.770069e-003 -1.066761e-002 -6.864769e-004 2.202919e-003 -6.372366e-003 -8.643964e-003 -7.761419e-003 -3.836333e-003 -1.082478e-002 -5.961684e-003 9.373792e-003 -2.470910e-004 5.310486e-004 7.238279e-004 5.517488e-004 -3.666645e-004 -1.023586e-004 1.219771e-004 1.345860e-004 -1.362961e-004 3.634657e-004 2.532841e-004 3.918721e-004 -9.321462e-004
<VARIANCE> 39
 4.203067e+001 7.547305e+001 8.039417e+001 1.060260e+002 8.383852e+001 7.367558e+001 7.817550e+001 8.048532e+001 6.800007e+001 6.114313e+001 6.604819e+001 5.385203e+001 1.338254e+002 1.793037e+000 3.090852e+000 2.945326e+000 4.333093e+000 4.026937e+000 3.501425e+000 3.549440e+000 3.856390e+000 3.423029e+000 3.381391e+000 3.427075e+000 2.836640e+000 3.857086e+000 3.026379e-001 4.546134e-001 4.672008e-001 6.923110e-001 7.232170e-001 6.214266e-001 6.198694e-001 6.815467e-001 6.170217e-001 6.222330e-001 6.243839e-001 5.165517e-001 4.943914e-001
<GCONST> 1.356991e+002
<TRANSP> 5
 0.000000e+000 1.000000e+000 0.000000e+000 0.000000e+000 0.000000e+000
 0.000000e+000 7.130008e-001 2.869992e-001 0.000000e+000 0.000000e+000
 0.000000e+000 0.000000e+000 7.129962e-001 2.870038e-001 0.000000e+000
 0.000000e+000 0.000000e+000 0.000000e+000 8.408784e-001 1.591216e-001
 0.000000e+000 0.000000e+000 0.000000e+000 0.000000e+000 0.000000e+000
<ENDHMM>
~h "p"
<BEGINHMM>
<NUMSTATES> 5
<STATE> 2
<MEAN> 39
 -4.889859e+000 -6.104679e+000 -6.397388e-001 -9.436201e+000 -3.919627e+000 -4.415882e+000 -4.158743e+000 -3.246543e+000 -2.770798e+000 -3.379664e+000 -3.115382e+000 -3.898336e+000 6.303256e+001 -6.044210e-004 1.236555e-002 -2.699065e-003 1.997539e-002 7.280442e-003 1.429111e-002 6.778423e-003 6.323020e-003 1.309112e-002 4.250319e-003 7.476018e-003 5.694426e-003 -2.967721e-002 2.258232e-004 5.622861e-004 -1.262559e-004 3.511311e-005 -3.413558e-004 2.941710e-004 -2.919050e-004 -4.597973e-004 -2.783739e-004 -7.086024e-005 -5.124401e-005 2.303052e-004 -2.152604e-004
<VARIANCE> 39
 3.926566e+001 6.909133e+001 7.505035e+001 1.046157e+002 8.463950e+001 6.896104e+001 7.603273e+001 7.299702e+001 6.564211e+001 5.733101e+001 6.270833e+001 5.008708e+001 1.383066e+002 1.854147e+000 3.089171e+000 2.739948e+000 4.544119e+000 3.785502e+000 3.434278e+000 3.753421e+000 3.843438e+000 3.477866e+000 3.319123e+000 3.343315e+000 2.833944e+000 4.507707e+000 3.168509e-001 4.765855e-001 4.456338e-001 7.202480e-001 6.531524e-001 6.098309e-001 6.547418e-001 6.917292e-001 6.256652e-001 6.109613e-001 6.099547e-001 5.187714e-001 5.623881e-001
<GCONST> 1.353341e+002
<STATE> 3
<MEAN> 39
 -4.892859e+000 -6.057234e+000 -6.469162e-001 -9.368311e+000 -3.899158e+000 -4.369439e+000 -4.137564e+000 -3.228131e+000 -2.728096e+000 -3.366620e+000 -3.090352e+000 -3.879460e+000 6.293098e+001 3.700578e-005 1.409183e-002 -2.564033e-003 1.969405e-002 5.830847e-003 1.471806e-002 5.791884e-003 4.710023e-003 1.212365e-002 4.432111e-003 7.444935e-003 6.534296e-003 -2.992743e-002 1.096776e-004 3.805971e-004 5.612729e-005 -3.034208e-004 -5.286306e-004 -1.315079e-004 -3.219218e-004 -7.086968e-004 -4.570386e-004 -1.229025e-004 -8.454356e-005 1.850859e-004 1.852477e-004
<VARIANCE> 39
 3.915953e+001 6.892549e+001 7.500754e+001 1.044476e+002 8.419392e+001 6.875422e+001 7.624527e+001 7.272550e+001 6.580788e+001 5.708229e+001 6.249131e+001 4.986930e+001 1.388527e+002 1.840142e+000 3.065032e+000 2.733365e+000 4.515374e+000 3.768170e+000 3.422283e+000 3.740699e+000 3.826934e+000 3.468843e+000 3.305776e+000 3.327056e+000 2.825635e+000 4.469551e+000 3.141560e-001 4.729933e-001 4.444061e-001 7.147096e-001 6.498994e-001 6.072052e-001 6.524293e-001 6.880671e-001 6.239408e-001 6.082461e-001 6.071345e-001 5.173504e-001 5.568888e-001
<GCONST> 1.351798e+002
<STATE> 4
<MEAN> 39
 -5.097782e+000 -5.921537e+000 -6.518977e-001 -9.141145e+000 -3.851764e+000 -4.060027e+000 -4.205835e+000 -3.115558e+000 -2.706552e+000 -3.287418e+000 -3.094719e+000 -3.766821e+000 6.249775e+001 1.343671e-004 1.562701e-002 -9.762348e-004 1.681057e-002 2.629839e-003 1.198675e-002 4.151298e-003 1.437151e-003 9.196147e-003 3.948475e-003 7.002092e-003 6.420204e-003 -2.694446e-002 -1.260652e-005 9.751155e-005 1.901196e-004 -7.108375e-004 -5.625386e-004 -5.662058e-004 -3.360718e-004 -9.531851e-004 -6.718765e-004 -1.404706e-004 -1.699696e-004 -1.173061e-004 5.841926e-004
<VARIANCE> 39
 3.898718e+001 6.855776e+001 7.497571e+001 1.040139e+002 8.271949e+001 6.724863e+001 7.724961e+001 7.182943e+001 6.684834e+001 5.577349e+001 6.250937e+001 4.934447e+001 1.431347e+002 1.769949e+000 2.956173e+000 2.657035e+000 4.358756e+000 3.654569e+000 3.316622e+000 3.681475e+000 3.738707e+000 3.414590e+000 3.227857e+000 3.261154e+000 2.768190e+000 4.285223e+000 3.005821e-001 4.533094e-001 4.297818e-001 6.871090e-001 6.289628e-001 5.875826e-001 6.411017e-001 6.714115e-001 6.128005e-001 5.945483e-001 5.943819e-001 5.057631e-001 5.297971e-001
<GCONST> 1.343750e+002
<TRANSP> 5
 0.000000e+000 1.000000e+000 0.000000e+000 0.000000e+000 0.000000e+000
 0.000000e+000 7.117142e-001 2.882858e-001 0.000000e+000 0.000000e+000
 0.000000e+000 0.000000e+000 7.117133e-001 2.882867e-001 0.000000e+000
 0.000000e+000 0.000000e+000 0.000000e+000 8.394600e-001 1.605399e-001
 0.000000e+000 0.000000e+000 0.000000e+000 0.000000e+000 0.000000e+000
<ENDHMM>
~h "r"
<BEGINHMM>
<NUMSTATES> 5
<STATE> 2
<MEAN> 39
 -4.194662e+000 -7.729566e+000 -6.709457e-001 -1.004627e+001 -4.788573e+000 -5.031622e+000 -5.096483e+000 -3.334763e+000 -3.572555e+000 -4.417781e+000 -3.635698e+000 -3.979919e+000 6.475049e+001 1.985595e-003 -5.679620e-003 -1.566278e-003 5.002017e-003 5.922005e-003 3.247121e-003 9.278212e-003 1.465497e-003 1.966875e-003 -3.966163e-003 -5.524704e-003 -4.614772e-004 -5.587590e-004 -6.379015e-004 1.658411e-003 6.200550e-004 2.233873e-004 1.755948e-005 2.401807e-004 6.589898e-004 -9.445543e-005 2.625229e-004 9.632836e-004 8.182607e-004 -1.131077e-004 -1.557351e-003
<VARIANCE> 39
 4.140492e+001 7.949489e+001 7.616234e+001 1.094872e+002 8.456839e+001 7.401819e+001 8.412655e+001 8.206731e+001 6.869212e+001 6.133091e+001 6.410801e+001 4.881290e+001 1.318103e+002 1.615608e+000 2.875602e+000 2.535941e+000 4.285218e+000 3.807912e+000 3.463203e+000 3.653434e+000 3.909666e+000 3.284997e+000 3.210417e+000 3.247618e+000 2.673859e+000 3.243569e+000 2.730175e-001 4.169779e-001 3.848455e-001 6.533402e-001 6.536877e-001 5.956154e-001 6.223528e-001 6.841462e-001 5.844985e-001 5.784890e-001 5.817574e-001 4.833873e-001 4.072049e-001
<GCONST> 1.339145e+002
<STATE> 3
<MEAN> 39
 -4.191555e+000 -7.737020e+000 -6.729515e-001 -1.001959e+001 -4.764331e+000 -5.017574e+000 -5.056644e+000 -3.324572e+000 -3.559458e+000 -4.423842e+000 -3.647653e+000 -3.979995e+000 6.473321e+001 1.836319e-004 2.878826e-005 2.363167e-004 5.500611e-003 6.332267e-003 4.042220e-003 1.096884e-002 1.710327e-003 3.143674e-003 -4.562604e-004 -2.732192e-003 -3.090941e-004 -5.835173e-003 -5.490439e-004 1.663403e-003 5.674605e-004 1.963909e-004 -1.227255e-004 1.789267e-004 4.547942e-004 6.695613e-005 2.939412e-004 8.666533e-004 8.341394e-004 2.020638e-006 -1.518537e-003
<VARIANCE> 39
 4.139428e+001 7.973611e+001 7.604704e+001 1.094386e+002 8.438590e+001 7.397219e+001 8.427264e+001 8.179037e+001 6.866422e+001 6.129700e+001 6.394994e+001 4.875648e+001 1.322040e+002 1.615136e+000 2.875005e+000 2.529012e+000 4.283443e+000 3.808020e+000 3.453236e+000 3.650434e+000 3.903886e+000 3.278343e+000 3.201177e+000 3.242688e+000 2.668361e+000 3.232936e+000 2.730565e-001 4.169299e-001 3.835290e-001 6.529063e-001 6.536326e-001 5.939350e-001 6.218711e-001 6.833459e-001 5.838479e-001 5.765589e-001 5.809193e-001 4.824222e-001 4.052920e-001
<GCONST> 1.338672e+002
<STATE> 4
<MEAN> 39
 -4.405372e+000 -7.600038e+000 -6.483908e-001 -9.854030e+000 -4.688454e+000 -4.724125e+000 -5.061589e+000 -3.197145e+000 -3.591244e+000 -4.327178e+000 -3.659124e+000 -3.864917e+000 6.434972e+001 -2.081885e-003 8.780537e-003 1.808128e-003 7.283692e-003 6.771842e-003 5.061190e-003 1.241355e-002 3.259161e-003 5.683612e-003 3.919751e-003 7.413727e-004 6.534281e-004 -1.385058e-002 -4.353442e-004 1.455335e-003 3.732855e-004 3.982631e-005 -1.936237e-004 1.853966e-004 1.027713e-004 8.915251e-005 1.870269e-004 6.569602e-004 5.850789e-004 4.915840e-005 -1.227241e-003
<VARIANCE> 39
 4.139499e+001 7.994255e+001 7.575634e+001 1.091354e+002 8.356036e+001 7.317784e+001 8.437559e+001 8.058336e+001 6.973926e+001 5.990748e+001 6.370043e+001 4.859496e+001 1.372912e+002 1.574202e+000 2.816303e+000 2.462903e+000 4.158993e+000 3.708277e+000 3.381705e+000 3.582881e+000 3.827463e+000 3.236012e+000 3.130623e+000 3.182926e+000 2.630006e+000 3.131384e+000 2.650231e-001 4.061059e-001 3.712574e-001 6.304161e-001 6.354626e-001 5.799947e-001 6.091703e-001 6.711291e-001 5.759680e-001 5.633994e-001 5.700949e-001 4.747449e-001 3.883720e-001
<GCONST> 1.332351e+002
<TRANSP> 5
 0.000000e+000 1.000000e+000 0.000000e+000 0.000000e+000 0.000000e+000
 0.000000e+000 7.192295e-001 2.807704e-001 0.000000e+000 0.000000e+000
 0.000000e+000 0.000000e+000 7.192343e-001 2.807657e-001 0.000000e+000
 0.000000e+000 0.000000e+000 0.000000e+000 8.479994e-001 1.520006e-001
 0.000000e+000 0.000000e+000 0.000000e+000 0.000000e+000 0.000000e+000
<ENDHMM>
~h "s"
<BEGINHMM>
<NUMSTATES> 5
<STATE> 2
<MEAN> 39
 -6.225250e+000 -5.160302e+000 -1.239113e+000 -9.859600e+000 -3.725177e+000 -5.223923e+000 -4.281120e+000 -3.335163e+000 -3.173264e+000 -4.020108e+000 -2.988139e+000 -3.618753e+000 6.460484e+001 -5.253452e-003 9.226936e-003 -1.248610e-002 -9.212832e-003 2.788194e-003 -1.629920e-003 -3.562471e-004 4.867655e-005 3.719302e-004 -1.976913e-003 -1.068070e-003 -1.619987e-003 1.828175e-002 9.806304e-004 -1.288043e-003 -4.964299e-005 -9.412023e-004 -3.290190e-004 3.957688e-004 -5.777701e-004 -7.481374e-004 3.572252e-004 4.237508e-004 -1.266953e-004 -1.823633e-004 -4.676678e-004
<VARIANCE> 39
 6.553704e+001 8.448492e+001 7.597641e+001 1.075598e+002 8.106308e+001 7.095219e+001 7.925050e+001 7.707044e+001 6.531087e+001 5.770842e+001 6.392111e+001 4.930945e+001 1.270763e+002 3.279497e+000 3.634495e+000 2.628938e+000 4.562494e+000 3.797992e+000 3.561717e+000 3.735113e+000 3.821596e+000 3.400357e+000 3.296743e+000 3.415751e+000 2.816511e+000 3.150906e+000 4.809242e-001 4.945021e-001 4.129222e-001 6.937674e-001 6.487764e-001 6.231256e-001 6.362273e-001 6.699719e-001 6.048653e-001 5.962394e-001 6.085019e-001 5.090747e-001 4.037114e-001
<GCONST> 1.363251e+002
<STATE> 3
<MEAN> 39
 -6.230845e+000 -5.143151e+000 -1.282965e+000 -9.900937e+000 -3.718313e+000 -5.224106e+000 -4.285958e+000 -3.340328e+000 -3.172572e+000 -4.030132e+000 -2.995009e+000 -3.628400e+000 6.466688e+001 -6.438957e-004 4.625558e-003 -1.197098e-002 -1.208921e-002 1.138139e-003 -3.491079e-004 -1.993769e-003 -2.076426e-003 5.578178e-004 -1.683726e-003 -1.919095e-003 -2.416874e-003 1.617602e-002 1.418561e-003 -1.439059e-003 2.896853e-004 -8.523329e-004 -5.507235e-004 3.710479e-004 -5.102911e-004 -6.139428e-004 -1.789523e-005 4.143028e-005 -3.430855e-004 -2.331163e-004 -6.699036e-004
<VARIANCE> 39
 6.617699e+001 8.477122e+001 7.639794e+001 1.078227e+002 8.111803e+001 7.113625e+001 7.931583e+001 7.684572e+001 6.529412e+001 5.795316e+001 6.386809e+001 4.941022e+001 1.266440e+002 3.311761e+000 3.659724e+000 2.628523e+000 4.579085e+000 3.803121e+000 3.571531e+000 3.736057e+000 3.814736e+000 3.398728e+000 3.302041e+000 3.417421e+000 2.823410e+000 3.145783e+000 4.859799e-001 4.972419e-001 4.126365e-001 6.958631e-001 6.493999e-001 6.248829e-001 6.365350e-001 6.685285e-001 6.045793e-001 5.968336e-001 6.086886e-001 5.100835e-001 4.024496e-001
<GCONST> 1.363944e+002
<STATE> 4
<MEAN> 39
 -6.288340e+000 -5.178469e+000 -1.393259e+000 -9.880059e+000 -3.737299e+000 -4.954550e+000 -4.399206e+000 -3.296648e+000 -3.219989e+000 -3.990525e+000 -3.048758e+000 -3.594187e+000 6.440375e+001 8.495750e-003 -1.832224e-003 -9.255250e-003 -1.452609e-002 -2.064048e-003 1.549601e-003 -3.862538e-003 -5.417073e-003 -7.331412e-004 -3.015308e-003 -3.864918e-003 -3.071636e-003 1.032344e-002 1.452682e-003 -1.047766e-003 6.337846e-004 -3.692699e-004 -5.496992e-004 2.475718e-004 -3.665645e-004 -5.567094e-004 -1.540544e-004 -2.845609e-005 -3.718861e-004 -2.387162e-005 -1.046000e-003
<VARIANCE> 39
 6.539152e+001 8.502212e+001 7.700232e+001 1.083599e+002 8.047437e+001 7.041357e+001 7.951050e+001 7.658289e+001 6.606312e+001 5.763583e+001 6.393618e+001 4.967464e+001 1.311982e+002 3.194724e+000 3.571324e+000 2.577034e+000 4.447354e+000 3.724433e+000 3.491215e+000 3.668043e+000 3.740242e+000 3.355345e+000 3.246501e+000 3.364983e+000 2.790154e+000 3.068533e+000 4.679057e-001 4.817716e-001 4.017512e-001 6.745772e-001 6.340945e-001 6.093200e-001 6.239014e-001 6.547110e-001 5.961635e-001 5.861922e-001 5.983484e-001 5.027757e-001 3.885515e-001
<GCONST> 1.358379e+002
<TRANSP> 5
 0.000000e+000 1.000000e+000 0.000000e+000 0.000000e+000 0.000000e+000
 0.000000e+000 7.134005e-001 2.865994e-001 0.000000e+000 0.000000e+000
 0.000000e+000 0.000000e+000 7.134007e-001 2.865993e-001 0.000000e+000
 0.000000e+000 0.000000e+000 0.000000e+000 8.414720e-001 1.585280e-001
 0.000000e+000 0.000000e+000 0.000000e+000 0.000000e+000 0.000000e+000
<ENDHMM>
~h "t"
<BEGINHMM>
<NUMSTATES> 5
<STATE> 2
<MEAN> 39
 -4.838658e+000 -6.051426e+000 -8.537644e-001 -1.019914e+001 -3.939606e+000 -4.694173e+000 -4.587543e+000 -3.576722e+000 -2.955047e+000 -3.757130e+000 -3.055110e+000 -3.746842e+000 6.318664e+001 3.972232e-003 2.634332e-003 -3.086663e-003 -7.827905e-004 1.865518e-003 1.406900e-003 -2.819104e-003 -8.049123e-004 3.127523e-003 1.348357e-003 -3.529993e-003 -7.126621e-004 -3.834627e-004 -6.712918e-005 -3.706404e-005 1.555188e-004 2.531524e-005 -1.235477e-004 7.987602e-005 -1.937282e-005 -3.076536e-004 2.616095e-005 1.785595e-004 1.379727e-004 -1.947038e-004 -6.360783e-005
<VARIANCE> 39
 3.860916e+001 6.831172e+001 7.404369e+001 1.083390e+002 8.030386e+001 7.081456e+001 7.811470e+001 7.752959e+001 6.807781e+001 5.822379e+001 6.317624e+001 4.977186e+001 1.381900e+002 1.630700e+000 2.791096e+000 2.637729e+000 4.500703e+000 3.595349e+000 3.380947e+000 3.750620e+000 3.907286e+000 3.463360e+000 3.250372e+000 3.351193e+000 2.780026e+000 4.386281e+000 2.726608e-001 4.213481e-001 4.165578e-001 7.003100e-001 6.208699e-001 5.992755e-001 6.530430e-001 6.941584e-001 6.198249e-001 5.932653e-001 6.049554e-001 5.106236e-001 5.687239e-001
<GCONST> 1.345547e+002
<STATE> 3
<MEAN> 39
 -4.826010e+000 -6.045141e+000 -8.624948e-001 -1.019895e+001 -3.932341e+000 -4.689248e+000 -4.597471e+000 -3.580979e+000 -2.946206e+000 -3.752704e+000 -3.068095e+000 -3.751640e+000 6.318723e+001 3.850257e-003 2.620474e-003 -2.319890e-003 -5.328268e-004 1.576093e-003 1.570297e-003 -2.875979e-003 -1.754316e-003 2.863003e-003 1.672035e-003 -3.311766e-003 -1.442196e-003 -2.493559e-004 -4.568623e-005 -4.621837e-006 2.400396e-004 4.886934e-005 -1.127628e-004 6.567783e-005 1.023666e-006 -2.216540e-004 -1.195195e-004 6.857656e-005 8.101473e-005 -2.344445e-004 2.709405e-005
<VARIANCE> 39
 3.845946e+001 6.839668e+001 7.395095e+001 1.083794e+002 8.022060e+001 7.089828e+001 7.819529e+001 7.738502e+001 6.809160e+001 5.829617e+001 6.312170e+001 4.977659e+001 1.384565e+002 1.627045e+000 2.786102e+000 2.633780e+000 4.500829e+000 3.591290e+000 3.382204e+000 3.746280e+000 3.902359e+000 3.462534e+000 3.249144e+000 3.350870e+000 2.782666e+000 4.402629e+000 2.718794e-001 4.203949e-001 4.154867e-001 6.997697e-001 6.198292e-001 5.991377e-001 6.519173e-001 6.931391e-001 6.194618e-001 5.927426e-001 6.045656e-001 5.110517e-001 5.709875e-001
<GCONST> 1.345374e+002
<STATE> 4
<MEAN> 39
 -4.955252e+000 -6.013216e+000 -8.874159e-001 -1.005381e+001 -3.915118e+000 -4.451931e+000 -4.696157e+000 -3.494302e+000 -2.987519e+000 -3.679430e+000 -3.119205e+000 -3.688970e+000 6.289267e+001 3.483934e-003 2.432649e-003 -4.341181e-004 5.549906e-004 1.069425e-003 1.377254e-003 -2.346708e-003 -2.973189e-003 1.427602e-003 1.526596e-003 -3.157430e-003 -2.622133e-003 7.565202e-004 -4.399188e-005 1.482884e-004 3.256256e-004 7.117580e-005 -1.896610e-004 1.887922e-005 1.191404e-004 -1.850437e-004 -2.086876e-004 -1.804445e-005 1.322693e-004 -1.636781e-004 -1.944395e-005
<VARIANCE> 39
 3.807047e+001 6.896007e+001 7.379217e+001 1.087407e+002 7.941520e+001 7.015186e+001 7.858411e+001 7.676010e+001 6.866264e+001 5.731776e+001 6.287551e+001 4.955108e+001 1.429087e+002 1.575844e+000 2.726081e+000 2.567921e+000 4.388187e+000 3.505421e+000 3.310674e+000 3.683158e+000 3.820580e+000 3.417225e+000 3.187267e+000 3.294736e+000 2.738454e+000 4.302481e+000 2.623910e-001 4.080509e-001 4.027891e-001 6.793277e-001 6.035511e-001 5.850371e-001 6.389512e-001 6.784893e-001 6.100673e-001 5.813541e-001 5.939145e-001 5.015446e-001 5.539898e-001
<GCONST> 1.339316e+002
<TRANSP> 5
 0.000000e+000 1.000000e+000 0.000000e+000 0.000000e+000 0.000000e+000
 0.000000e+000 7.121609e-001 2.878391e-001 0.000000e+000 0.000000e+000
 0.000000e+000 0.000000e+000 7.121581e-001 2.878419e-001 0.000000e+000
 0.000000e+000 0.000000e+000 0.000000e+000 8.395627e-001 1.604373e-001
 0.000000e+000 0.000000e+000 0.000000e+000 0.000000e+000 0.000000e+000
<ENDHMM>
~h "u"
<BEGINHMM>
<NUMSTATES> 5
<STATE> 2
<MEAN> 39
 -3.621946e+000 -4.171034e+000 -1.564070e+000 -1.144187e+001 -4.729532e+000 -4.524504e+000 -6.230019e+000 -4.655268e+000 -4.100533e+000 -4.077884e+000 -3.669234e+000 -4.042141e+000 6.364598e+001 9.476777e-003 9.385275e-003 -1.629014e-002 -3.147932e-003 1.390632e-002 1.517413e-002 -9.228209e-003 -4.652469e-003 5.697799e-003 1.098585e-003 -8.132586e-003 -3.955391e-003 -1.708418e-002 -4.014296e-004 -1.167611e-003 -5.851390e-004 8.730392e-004 8.712354e-004 8.441302e-004 7.385408e-004 4.934676e-004 2.577047e-004 3.230738e-004 -2.394669e-004 1.251440e-005 -3.851492e-004
<VARIANCE> 39
 4.474137e+001 6.854531e+001 8.272002e+001 1.221212e+002 8.310312e+001 7.326237e+001 8.257589e+001 7.901487e+001 7.011327e+001 5.992029e+001 6.429115e+001 4.820037e+001 1.184418e+002 2.027499e+000 2.777724e+000 3.099670e+000 5.134090e+000 4.155095e+000 3.766674e+000 4.152175e+000 4.031938e+000 3.747025e+000 3.501634e+000 3.566723e+000 2.896343e+000 3.763318e+000 3.278674e-001 4.277105e-001 4.941960e-001 7.833822e-001 7.371153e-001 6.868974e-001 7.365058e-001 7.275238e-001 6.829291e-001 6.434857e-001 6.526783e-001 5.399066e-001 5.005977e-001
<GCONST> 1.371034e+002
<STATE> 3
<MEAN> 39
 -3.595318e+000 -4.141519e+000 -1.621394e+000 -1.144569e+001 -4.679728e+000 -4.468024e+000 -6.252263e+000 -4.666324e+000 -4.076128e+000 -4.072374e+000 -3.693500e+000 -4.053268e+000 6.358490e+001 7.562818e-003 5.594135e-003 -1.742869e-002 7.970056e-005 1.607410e-002 1.744997e-002 -6.091526e-003 -2.795735e-003 7.190682e-003 2.002322e-003 -8.534169e-003 -3.474001e-003 -1.878651e-002 -5.287681e-004 -1.174019e-003 -5.047971e-004 8.384277e-004 4.622196e-004 5.897532e-004 9.044397e-004 5.438155e-004 3.202381e-004 9.864039e-005 -9.647590e-005 1.486143e-004 -4.238932e-004
<VARIANCE> 39
 4.446046e+001 6.851337e+001 8.243342e+001 1.224956e+002 8.307435e+001 7.337727e+001 8.279772e+001 7.869449e+001 7.010648e+001 5.984005e+001 6.398104e+001 4.814083e+001 1.185290e+002 2.009007e+000 2.768507e+000 3.091951e+000 5.139834e+000 4.142474e+000 3.766540e+000 4.151482e+000 4.021698e+000 3.758098e+000 3.511611e+000 3.567299e+000 2.895578e+000 3.758402e+000 3.248219e-001 4.265164e-001 4.928606e-001 7.842876e-001 7.343156e-001 6.866775e-001 7.361507e-001 7.262431e-001 6.853234e-001 6.464433e-001 6.527140e-001 5.395104e-001 5.001135e-001
<GCONST> 1.370604e+002
<STATE> 4
<MEAN> 39
 -3.770107e+000 -4.088882e+000 -1.734020e+000 -1.130871e+001 -4.598134e+000 -4.149834e+000 -6.351138e+000 -4.552805e+000 -4.079689e+000 -3.975911e+000 -3.724945e+000 -3.959911e+000 6.324459e+001 2.845002e-003 5.796091e-004 -1.526562e-002 4.217583e-003 1.493878e-002 1.643343e-002 -4.307743e-004 7.823280e-004 9.704274e-003 3.798902e-003 -6.962388e-003 -9.279689e-004 -1.978677e-002 -7.812796e-004 -1.070813e-003 1.344981e-004 7.447595e-004 -1.231819e-004 -1.624961e-004 9.300092e-004 5.694171e-004 4.821641e-004 1.656707e-004 1.622524e-004 3.991170e-004 -4.890454e-004
<VARIANCE> 39
 4.435070e+001 6.851663e+001 8.180194e+001 1.236493e+002 8.221371e+001 7.255230e+001 8.409559e+001 7.766843e+001 7.103546e+001 5.848964e+001 6.392838e+001 4.789791e+001 1.228499e+002 1.933515e+000 2.717059e+000 3.011097e+000 5.021782e+000 4.032090e+000 3.671802e+000 4.081412e+000 3.918287e+000 3.711089e+000 3.455640e+000 3.508318e+000 2.836649e+000 3.666558e+000 3.111089e-001 4.159967e-001 4.781095e-001 7.636807e-001 7.120402e-001 6.667928e-001 7.204726e-001 7.077923e-001 6.750597e-001 6.373338e-001 6.408678e-001 5.262105e-001 4.839264e-001
<GCONST> 1.364296e+002
<TRANSP> 5
 0.000000e+000 1.000000e+000 0.000000e+000 0.000000e+000 0.000000e+000
 0.000000e+000 7.117786e-001 2.882215e-001 0.000000e+000 0.000000e+000
 0.000000e+000 0.000000e+000 7.117801e-001 2.882199e-001 0.000000e+000
 0.000000e+000 0.000000e+000 0.000000e+000 8.389998e-001 1.610002e-001
 0.000000e+000 0.000000e+000 0.000000e+000 0.000000e+000 0.000000e+000
<ENDHMM>
~h "v"
<BEGINHMM>
<NUMSTATES> 5
<STATE> 2
<MEAN> 39
 -4.130415e+000 -6.063504e+000 -8.832178e-001 -1.064715e+001 -4.500000e+000 -4.809248e+000 -5.003387e+000 -4.165254e+000 -3.563518e+000 -3.806923e+000 -3.414430e+000 -4.251218e+000 6.419733e+001 1.147960e-002 4.539939e-005 -4.024875e-004 -7.767988e-003 -4.736091e-003 -1.937325e-003 -1.310843e-003 -4.827790e-003 -4.054489e-003 -1.801561e-003 -6.380785e-003 -4.524031e-003 1.629004e-002 -4.064236e-004 2.975752e-004 4.978558e-004 2.645572e-004 -2.439532e-004 2.528714e-004 -2.708209e-004 -3.546305e-004 5.378751e-006 1.255776e-004 5.796361e-004 4.157443e-004 -3.608842e-004
<VARIANCE> 39
 4.048715e+001 7.048894e+001 7.855522e+001 1.099763e+002 8.119421e+001 7.093981e+001 7.556979e+001 7.955704e+001 6.742270e+001 5.989558e+001 6.516972e+001 4.986837e+001 1.298372e+002 1.568008e+000 2.753515e+000 2.582577e+000 4.418012e+000 3.501567e+000 3.136119e+000 3.504934e+000 3.833810e+000 3.324648e+000 3.268212e+000 3.256561e+000 2.692776e+000 3.473391e+000 2.627092e-001 3.956286e-001 3.966989e-001 6.890109e-001 5.917745e-001 5.480983e-001 6.097955e-001 6.736564e-001 6.008834e-001 5.957117e-001 5.893450e-001 4.887199e-001 4.323725e-001
<GCONST> 1.333203e+002
<STATE> 3
<MEAN> 39
 -4.093817e+000 -6.064313e+000 -8.801379e-001 -1.067234e+001 -4.516328e+000 -4.814471e+000 -5.011455e+000 -4.182417e+000 -3.579932e+000 -3.812493e+000 -3.432673e+000 -4.266667e+000 6.425645e+001 9.979797e-003 7.908706e-004 8.966675e-004 -7.037882e-003 -5.164733e-003 -1.380204e-003 -2.242993e-003 -5.533351e-003 -3.978012e-003 -1.797162e-003 -5.217589e-003 -3.684820e-003 1.547075e-002 -4.500973e-004 1.853197e-004 4.148315e-004 2.072679e-004 -1.924841e-004 1.227952e-004 -3.128921e-004 -2.123652e-004 -4.637489e-005 -4.557886e-006 3.070051e-004 1.938176e-004 -1.775717e-004
<VARIANCE> 39
 4.029720e+001 7.068958e+001 7.890735e+001 1.102738e+002 8.127835e+001 7.098328e+001 7.568295e+001 7.956561e+001 6.744963e+001 6.000538e+001 6.515985e+001 4.989682e+001 1.294749e+002 1.567021e+000 2.759043e+000 2.587237e+000 4.430347e+000 3.505537e+000 3.135232e+000 3.508086e+000 3.835053e+000 3.331229e+000 3.272627e+000 3.259380e+000 2.693392e+000 3.479200e+000 2.624100e-001 3.963877e-001 3.970138e-001 6.903217e-001 5.920553e-001 5.478445e-001 6.098331e-001 6.736568e-001 6.016503e-001 5.965638e-001 5.894113e-001 4.888679e-001 4.325120e-001
<GCONST> 1.333499e+002
<STATE> 4
<MEAN> 39
 -4.228119e+000 -6.045542e+000 -9.042240e-001 -1.054620e+001 -4.524394e+000 -4.608764e+000 -5.109089e+000 -4.111712e+000 -3.646929e+000 -3.734263e+000 -3.494782e+000 -4.191980e+000 6.404255e+001 7.510280e-003 1.311809e-005 2.231614e-003 -6.017892e-003 -4.097245e-003 -1.549050e-003 -3.773248e-003 -5.154388e-003 -4.472451e-003 -2.534254e-003 -4.763063e-003 -3.364260e-003 1.528980e-002 -3.994716e-004 -7.159331e-005 2.274127e-004 2.140336e-004 7.916978e-005 -3.867381e-005 -2.244459e-004 -6.393627e-006 -3.904896e-005 -1.829474e-004 5.220560e-005 6.045425e-005 -1.179735e-004
<VARIANCE> 39
 3.995205e+001 7.107616e+001 7.939762e+001 1.108108e+002 8.100389e+001 7.014268e+001 7.608528e+001 7.896666e+001 6.819626e+001 5.888206e+001 6.531371e+001 4.981110e+001 1.338042e+002 1.527011e+000 2.715367e+000 2.536988e+000 4.338258e+000 3.449724e+000 3.077841e+000 3.471392e+000 3.773943e+000 3.304640e+000 3.219790e+000 3.222570e+000 2.660926e+000 3.404202e+000 2.547154e-001 3.877284e-001 3.870001e-001 6.729237e-001 5.809811e-001 5.363216e-001 6.016153e-001 6.628272e-001 5.946925e-001 5.872479e-001 5.816139e-001 4.817654e-001 4.189428e-001
<GCONST> 1.328928e+002
<TRANSP> 5
 0.000000e+000 1.000000e+000 0.000000e+000 0.000000e+000 0.000000e+000
 0.000000e+000 7.117697e-001 2.882303e-001 0.000000e+000 0.000000e+000
 0.000000e+000 0.000000e+000 7.117765e-001 2.882235e-001 0.000000e+000
 0.000000e+000 0.000000e+000 0.000000e+000 8.390893e-001 1.609108e-001
 0.000000e+000 0.000000e+000 0.000000e+000 0.000000e+000 0.000000e+000
<ENDHMM>
~h "x"
<BEGINHMM>
<NUMSTATES> 5
<STATE> 2
<MEAN> 39
 -6.238571e+000 -5.205198e+000 -7.536582e-001 -1.002402e+001 -4.239903e+000 -5.335117e+000 -4.547349e+000 -3.067492e+000 -3.732506e+000 -3.767490e+000 -3.006880e+000 -3.553305e+000 6.495322e+001 -9.453313e-003 1.371632e-002 -4.700718e-003 8.692143e-003 2.787891e-003 1.272149e-004 5.379150e-003 5.099794e-003 3.070862e-003 4.948467e-004 3.399780e-003 4.121867e-003 -3.670412e-003 6.060256e-004 -1.061617e-003 7.379565e-005 -4.696585e-004 4.754019e-004 2.580331e-004 -1.703309e-004 -1.933091e-005 -1.552303e-004 -1.502660e-005 -4.896227e-005 -2.790174e-004 -9.825458e-004
<VARIANCE> 39
 6.061802e+001 8.591111e+001 7.655207e+001 1.123689e+002 8.472659e+001 7.153730e+001 8.180252e+001 7.824780e+001 6.577691e+001 5.722727e+001 6.177475e+001 4.822565e+001 1.212770e+002 3.088874e+000 3.564711e+000 2.587728e+000 4.681803e+000 3.783552e+000 3.545017e+000 3.914881e+000 3.883764e+000 3.313483e+000 3.233758e+000 3.378761e+000 2.760018e+000 3.121863e+000 4.577569e-001 4.889842e-001 4.064471e-001 6.966312e-001 6.317784e-001 6.175533e-001 6.622213e-001 6.784400e-001 5.892413e-001 5.849753e-001 6.014639e-001 5.016208e-001 3.970783e-001
<GCONST> 1.360665e+002
<STATE> 3
<MEAN> 39
 -6.260061e+000 -5.168425e+000 -7.676219e-001 -1.000051e+001 -4.231778e+000 -5.332689e+000 -4.533920e+000 -3.055769e+000 -3.723145e+000 -3.768543e+000 -2.998019e+000 -3.543600e+000 6.493655e+001 -6.406673e-003 9.962303e-003 -4.536943e-003 6.885906e-003 3.213900e-003 1.100663e-003 4.574174e-003 3.506280e-003 3.254103e-003 1.350841e-004 2.465539e-003 2.513884e-003 -7.636820e-003 1.137591e-003 -1.426554e-003 -1.418584e-004 -8.104806e-004 2.042646e-004 3.502007e-004 -3.583864e-004 -4.846869e-004 -7.068015e-005 -1.833405e-004 -3.710247e-004 -5.822740e-004 -1.044368e-003
<VARIANCE> 39
 6.077913e+001 8.583226e+001 7.619395e+001 1.121619e+002 8.477098e+001 7.161990e+001 8.188479e+001 7.823958e+001 6.572463e+001 5.720697e+001 6.185977e+001 4.825172e+001 1.213803e+002 3.090128e+000 3.563441e+000 2.578722e+000 4.674519e+000 3.772816e+000 3.543379e+000 3.912002e+000 3.873110e+000 3.311103e+000 3.222530e+000 3.359162e+000 2.758592e+000 3.107686e+000 4.579269e-001 4.882829e-001 4.047348e-001 6.948432e-001 6.296250e-001 6.168975e-001 6.623983e-001 6.763157e-001 5.884049e-001 5.826625e-001 5.977172e-001 5.016473e-001 3.937572e-001
<GCONST> 1.360038e+002
<STATE> 4
<MEAN> 39
 -6.387887e+000 -5.171992e+000 -7.895224e-001 -9.871053e+000 -4.169662e+000 -5.092184e+000 -4.615794e+000 -2.954069e+000 -3.733310e+000 -3.707956e+000 -3.011358e+000 -3.442968e+000 6.454906e+001 1.572710e-003 4.478260e-003 -3.187127e-003 3.077921e-003 1.134223e-003 2.407407e-003 2.287248e-003 -1.713971e-003 3.731522e-003 -1.164079e-003 -5.021042e-004 4.541136e-004 -1.311115e-002 1.385052e-003 -1.217291e-003 -8.806495e-005 -7.393604e-004 -1.172777e-004 3.712095e-004 -4.030569e-004 -6.987536e-004 6.129365e-005 -2.569500e-004 -5.224170e-004 -4.669852e-004 -1.174762e-003
<VARIANCE> 39
 5.960524e+001 8.479639e+001 7.618572e+001 1.126541e+002 8.440541e+001 7.093085e+001 8.241142e+001 7.771120e+001 6.648577e+001 5.613807e+001 6.173857e+001 4.835770e+001 1.268686e+002 2.950446e+000 3.439363e+000 2.522077e+000 4.524513e+000 3.669003e+000 3.455097e+000 3.835971e+000 3.786286e+000 3.261690e+000 3.148569e+000 3.281743e+000 2.712550e+000 3.016541e+000 4.360619e-001 4.698318e-001 3.937325e-001 6.705478e-001 6.103044e-001 6.007428e-001 6.492599e-001 6.602601e-001 5.784053e-001 5.693814e-001 5.837340e-001 4.922671e-001 3.776648e-001
<GCONST> 1.352822e+002
<TRANSP> 5
 0.000000e+000 1.000000e+000 0.000000e+000 0.000000e+000 0.000000e+000
 0.000000e+000 7.164643e-001 2.835357e-001 0.000000e+000 0.000000e+000
 0.000000e+000 0.000000e+000 7.164674e-001 2.835326e-001 0.000000e+000
 0.000000e+000 0.000000e+000 0.000000e+000 8.445321e-001 1.554679e-001
 0.000000e+000 0.000000e+000 0.000000e+000 0.000000e+000 0.000000e+000
<ENDHMM>
~h "y"
<BEGINHMM>
<NUMSTATES> 5
<STATE> 2
<MEAN> 39
 -4.425559e+000 -5.247085e+000 9.436778e-001 -1.128416e+001 -6.659312e+000 -5.847443e+000 -5.496176e+000 -4.932901e+000 -4.609262e+000 -3.933987e+000 -4.009498e+000 -4.221603e+000 6.504971e+001 -1.241110e-002 -5.665537e-003 2.391341e-002 1.030449e-003 -6.909602e-003 2.547264e-002 3.582520e-002 1.634797e-003 1.533320e-002 -1.450811e-003 1.105013e-002 -3.408263e-003 -2.977606e-003 -1.498153e-003 -1.161176e-004 -5.385777e-004 2.521663e-004 1.247409e-003 1.000911e-003 1.232129e-003 1.209302e-003 2.134363e-003 1.336165e-003 -6.181092e-004 3.028011e-004 -1.301942e-003
<VARIANCE> 39
 3.764228e+001 6.385980e+001 9.279160e+001 1.164607e+002 9.601440e+001 6.912706e+001 8.193258e+001 8.351700e+001 6.911649e+001 5.958547e+001 7.408813e+001 5.453664e+001 1.134337e+002 1.610290e+000 2.716701e+000 3.143222e+000 4.522659e+000 4.212799e+000 3.616804e+000 4.000040e+000 4.365675e+000 3.760720e+000 3.572624e+000 3.668445e+000 3.015792e+000 4.040357e+000 2.689318e-001 4.112975e-001 4.608913e-001 7.160315e-001 6.927835e-001 6.326260e-001 7.112473e-001 7.506450e-001 6.772137e-001 6.617710e-001 6.521752e-001 5.519354e-001 5.446151e-001
<GCONST> 1.366568e+002
<STATE> 3
<MEAN> 39
 -4.471212e+000 -5.272314e+000 1.004096e+000 -1.127819e+001 -6.667908e+000 -5.758040e+000 -5.368491e+000 -4.908691e+000 -4.547914e+000 -3.941412e+000 -3.973908e+000 -4.228203e+000 6.503073e+001 -1.650888e-002 -4.193147e-003 2.091189e-002 1.353385e-003 -3.804352e-003 2.770529e-002 3.917582e-002 4.690463e-003 2.206814e-002 2.748641e-003 9.564314e-003 -2.049396e-003 -7.407387e-003 -1.424553e-003 4.261949e-004 -1.278775e-003 1.819803e-004 1.323453e-003 -1.608935e-004 1.417504e-003 1.497133e-003 1.565679e-003 1.635249e-003 -2.852211e-004 8.870497e-004 -1.156591e-003
<VARIANCE> 39
 3.756933e+001 6.405030e+001 9.198140e+001 1.163658e+002 9.648346e+001 6.936231e+001 8.167806e+001 8.405864e+001 6.947453e+001 5.972771e+001 7.392405e+001 5.412843e+001 1.143682e+002 1.617570e+000 2.712429e+000 3.124195e+000 4.499141e+000 4.190679e+000 3.600317e+000 3.968555e+000 4.332406e+000 3.761182e+000 3.551760e+000 3.640718e+000 2.978840e+000 3.999483e+000 2.697139e-001 4.106176e-001 4.584658e-001 7.098190e-001 6.892052e-001 6.282119e-001 7.048565e-001 7.450349e-001 6.778117e-001 6.576421e-001 6.455835e-001 5.438836e-001 5.392170e-001
<GCONST> 1.365148e+002
<STATE> 4
<MEAN> 39
 -4.705047e+000 -5.305891e+000 1.166520e+000 -1.127940e+001 -6.570385e+000 -5.400865e+000 -5.347846e+000 -4.720897e+000 -4.532527e+000 -3.954829e+000 -3.991416e+000 -4.215671e+000 6.480257e+001 -1.740856e-002 2.493130e-003 9.380370e-003 5.046054e-003 2.921304e-003 2.593659e-002 4.070631e-002 1.017325e-002 2.699014e-002 5.348063e-003 1.170164e-002 8.748531e-004 -1.844820e-002 -6.128420e-004 1.154453e-003 -1.861341e-003 2.532313e-004 1.460642e-003 -4.421762e-004 3.084853e-004 1.332600e-003 4.512396e-004 1.203241e-003 4.128133e-004 9.170040e-004 -1.722181e-003
<VARIANCE> 39
 3.703009e+001 6.573165e+001 9.258795e+001 1.193908e+002 9.658019e+001 6.943115e+001 8.169583e+001 8.407049e+001 7.054970e+001 5.890503e+001 7.298940e+001 5.327578e+001 1.185487e+002 1.585415e+000 2.680333e+000 3.022892e+000 4.373729e+000 4.082599e+000 3.489382e+000 3.877506e+000 4.195794e+000 3.694792e+000 3.438076e+000 3.530518e+000 2.869237e+000 3.867768e+000 2.625650e-001 4.024333e-001 4.413594e-001 6.862763e-001 6.687175e-001 6.068239e-001 6.846612e-001 7.222257e-001 6.660352e-001 6.345356e-001 6.255738e-001 5.203620e-001 5.164630e-001
<GCONST> 1.357958e+002
<TRANSP> 5
 0.000000e+000 1.000000e+000 0.000000e+000 0.000000e+000 0.000000e+000
 0.000000e+000 7.051437e-001 2.948563e-001 0.000000e+000 0.000000e+000
 0.000000e+000 0.000000e+000 7.051463e-001 2.948538e-001 0.000000e+000
 0.000000e+000 0.000000e+000 0.000000e+000 8.320295e-001 1.679705e-001
 0.000000e+000 0.000000e+000 0.000000e+000 0.000000e+000 0.000000e+000
<ENDHMM>
~h "doafi"
<BEGINHMM>
<NUMSTATES> 5
<STATE> 2
<MEAN> 39
 -4.901095e+000 -5.842618e+000 -5.097519e-001 -9.923710e+000 -4.122406e+000 -4.544213e+000 -4.531428e+000 -3.756145e+000 -3.134470e+000 -3.843007e+000 -3.141330e+000 -3.863289e+000 6.290533e+001 3.156596e-003 4.426242e-003 -3.008057e-004 -9.815464e-004 -7.398279e-004 -3.059326e-004 6.043092e-004 -2.233922e-003 1.730658e-004 -2.990019e-004 -3.013898e-003 -8.223696e-004 -5.428240e-004 -1.672899e-004 -1.806980e-004 4.561614e-005 -7.206317e-005 6.492341e-005 1.899766e-004 7.487284e-005 1.468558e-005 -2.101225e-005 1.112924e-004 1.261849e-004 6.155111e-006 1.118417e-005
<VARIANCE> 39
 3.977646e+001 6.976524e+001 7.436712e+001 1.058175e+002 8.034691e+001 6.925978e+001 7.782265e+001 7.860110e+001 6.821010e+001 5.800883e+001 6.279465e+001 4.830898e+001 1.459772e+002 1.544968e+000 2.667576e+000 2.529959e+000 4.061153e+000 3.472722e+000 3.155723e+000 3.471568e+000 3.756795e+000 3.266600e+000 3.146162e+000 3.154106e+000 2.635824e+000 3.396390e+000 2.536712e-001 3.905498e-001 3.963176e-001 6.350257e-001 5.963098e-001 5.526317e-001 6.014287e-001 6.646528e-001 5.859886e-001 5.718929e-001 5.669279e-001 4.794365e-001 4.314951e-001
<GCONST> 1.326273e+002
<STATE> 3
<MEAN> 39
 -4.901095e+000 -5.842618e+000 -5.097519e-001 -9.923710e+000 -4.122406e+000 -4.544213e+000 -4.531428e+000 -3.756145e+000 -3.134470e+000 -3.843007e+000 -3.141330e+000 -3.863289e+000 6.290533e+001 3.156596e-003 4.426242e-003 -3.008057e-004 -9.815464e-004 -7.398279e-004 -3.059326e-004 6.043092e-004 -2.233922e-003 1.730658e-004 -2.990019e-004 -3.013898e-003 -8.223696e-004 -5.428240e-004 -1.672899e-004 -1.806980e-004 4.561614e-005 -7.206317e-005 6.492341e-005 1.899766e-004 7.487284e-005 1.468558e-005 -2.101225e-005 1.112924e-004 1.261849e-004 6.155111e-006 1.118417e-005
<VARIANCE> 39
 3.977646e+001 6.976524e+001 7.436712e+001 1.058175e+002 8.034691e+001 6.925978e+001 7.782265e+001 7.860110e+001 6.821010e+001 5.800883e+001 6.279465e+001 4.830898e+001 1.459772e+002 1.544968e+000 2.667576e+000 2.529959e+000 4.061153e+000 3.472722e+000 3.155723e+000 3.471568e+000 3.756795e+000 3.266600e+000 3.146162e+000 3.154106e+000 2.635824e+000 3.396390e+000 2.536712e-001 3.905498e-001 3.963176e-001 6.350257e-001 5.963098e-001 5.526317e-001 6.014287e-001 6.646528e-001 5.859886e-001 5.718929e-001 5.669279e-001 4.794365e-001 4.314951e-001
<GCONST> 1.326273e+002
<STATE> 4
<MEAN> 39
 -4.901095e+000 -5.842618e+000 -5.097519e-001 -9.923710e+000 -4.122406e+000 -4.544213e+000 -4.531428e+000 -3.756145e+000 -3.134470e+000 -3.843007e+000 -3.141330e+000 -3.863289e+000 6.290533e+001 3.156596e-003 4.426242e-003 -3.008057e-004 -9.815464e-004 -7.398279e-004 -3.059326e-004 6.043092e-004 -2.233922e-003 1.730658e-004 -2.990019e-004 -3.013898e-003 -8.223696e-004 -5.428240e-004 -1.672899e-004 -1.806980e-004 4.561614e-005 -7.206317e-005 6.492341e-005 1.899766e-004 7.487284e-005 1.468558e-005 -2.101225e-005 1.112924e-004 1.261849e-004 6.155111e-006 1.118417e-005
<VARIANCE> 39
 3.977646e+001 6.976524e+001 7.436712e+001 1.058175e+002 8.034691e+001 6.925978e+001 7.782265e+001 7.860110e+001 6.821010e+001 5.800883e+001 6.279465e+001 4.830898e+001 1.459772e+002 1.544968e+000 2.667576e+000 2.529959e+000 4.061153e+000 3.472722e+000 3.155723e+000 3.471568e+000 3.756795e+000 3.266600e+000 3.146162e+000 3.154106e+000 2.635824e+000 3.396390e+000 2.536712e-001 3.905498e-001 3.963176e-001 6.350257e-001 5.963098e-001 5.526317e-001 6.014287e-001 6.646528e-001 5.859886e-001 5.718929e-001 5.669279e-001 4.794365e-001 4.314951e-001
<GCONST> 1.326273e+002
<TRANSP> 5
 0.000000e+000 1.000000e+000 0.000000e+000 0.000000e+000 0.000000e+000
 0.000000e+000 6.000000e-001 4.000000e-001 0.000000e+000 0.000000e+000
 0.000000e+000 0.000000e+000 6.000000e-001 4.000000e-001 0.000000e+000
 0.000000e+000 0.000000e+000 0.000000e+000 7.000000e-001 3.000000e-001
 0.000000e+000 0.000000e+000 0.000000e+000 0.000000e+000 0.000000e+000
<ENDHMM>
~h "aa"
<BEGINHMM>
<NUMSTATES> 5
<STATE> 2
<MEAN> 39
 -3.970058e+000 -5.560487e+000 -2.808154e-001 -1.063752e+001 -4.616808e+000 -5.376019e+000 -5.896818e+000 -4.748262e+000 -4.177632e+000 -4.470425e+000 -4.348810e+000 -4.484512e+000 6.449827e+001 5.021698e-003 3.726678e-003 -8.769420e-004 1.848411e-003 -8.148269e-004 1.204431e-003 -9.955340e-004 -7.581864e-003 -1.721273e-005 -7.658861e-003 -7.685107e-004 -2.913848e-003 -1.198885e-003 -1.862820e-004 -6.605788e-004 -7.868531e-004 1.712442e-004 5.780043e-004 9.678453e-004 7.470418e-004 2.356326e-004 6.094334e-004 -1.472733e-004 5.288391e-004 5.169103e-004 -3.174145e-005
<VARIANCE> 39
 3.853299e+001 7.048656e+001 7.870731e+001 1.077741e+002 8.213897e+001 7.543169e+001 8.035540e+001 8.571175e+001 7.104409e+001 6.337868e+001 6.931581e+001 5.317688e+001 1.200268e+002 1.714208e+000 3.097956e+000 2.917839e+000 4.229442e+000 3.889840e+000 3.343288e+000 3.768772e+000 4.296514e+000 3.541917e+000 3.445450e+000 3.362915e+000 2.848148e+000 3.693445e+000 2.805614e-001 4.464585e-001 4.514121e-001 6.745446e-001 6.868765e-001 5.948851e-001 6.593360e-001 7.350359e-001 6.335189e-001 6.265199e-001 6.043130e-001 5.156661e-001 4.737222e-001
<GCONST> 1.354888e+002
<STATE> 3
<MEAN> 39
 -3.951868e+000 -5.551564e+000 -2.879735e-001 -1.063277e+001 -4.619955e+000 -5.365495e+000 -5.898828e+000 -4.770652e+000 -4.171226e+000 -4.493358e+000 -4.347463e+000 -4.491681e+000 6.449185e+001 4.193126e-003 1.783673e-003 -3.433918e-003 2.142658e-003 8.371290e-004 4.156589e-003 1.217468e-003 -6.497920e-003 2.365891e-003 -7.675886e-003 1.012506e-003 -1.323705e-003 -1.784279e-003 -2.079769e-004 -7.754822e-004 -9.176962e-004 -3.315417e-005 5.548524e-004 8.152139e-004 4.626912e-004 3.594481e-004 6.647758e-004 -2.873023e-006 3.676616e-004 5.054019e-004 -1.329815e-004
<VARIANCE> 39
 3.836160e+001 7.049027e+001 7.896080e+001 1.076839e+002 8.198684e+001 7.554958e+001 8.022205e+001 8.570595e+001 7.071316e+001 6.350915e+001 6.899072e+001 5.315228e+001 1.202372e+002 1.712350e+000 3.096010e+000 2.914518e+000 4.216620e+000 3.892849e+000 3.341680e+000 3.763113e+000 4.304827e+000 3.528639e+000 3.447156e+000 3.360878e+000 2.847247e+000 3.686540e+000 2.804139e-001 4.458148e-001 4.505220e-001 6.721033e-001 6.868927e-001 5.945548e-001 6.582333e-001 7.358496e-001 6.313513e-001 6.266793e-001 6.039818e-001 5.157482e-001 4.716919e-001
<GCONST> 1.354509e+002
<STATE> 4
<MEAN> 39
 -4.090067e+000 -5.542219e+000 -3.840755e-001 -1.042464e+001 -4.619320e+000 -5.106297e+000 -5.982271e+000 -4.706983e+000 -4.195419e+000 -4.415641e+000 -4.357656e+000 -4.330927e+000 6.411752e+001 2.574860e-003 8.085520e-004 -6.140293e-003 2.763039e-003 2.438831e-003 7.157328e-003 3.909996e-003 -3.567501e-003 6.647114e-003 -4.828096e-003 4.023165e-003 9.701013e-004 -5.544901e-003 -3.901209e-004 -3.662117e-004 -6.611876e-004 2.238198e-004 6.214947e-004 4.005533e-004 4.661704e-004 5.376635e-004 6.160676e-004 3.111536e-004 3.525467e-004 5.183117e-004 -7.772295e-004
<VARIANCE> 39
 3.796554e+001 7.026102e+001 7.934321e+001 1.080356e+002 8.088043e+001 7.450888e+001 7.995227e+001 8.528382e+001 7.112620e+001 6.213224e+001 6.818552e+001 5.317762e+001 1.262628e+002 1.653170e+000 3.011899e+000 2.836701e+000 4.110378e+000 3.783561e+000 3.266446e+000 3.689896e+000 4.224565e+000 3.460796e+000 3.368255e+000 3.310964e+000 2.808314e+000 3.585400e+000 2.701235e-001 4.308408e-001 4.361926e-001 6.520307e-001 6.645017e-001 5.803028e-001 6.440220e-001 7.209586e-001 6.174062e-001 6.118485e-001 5.951499e-001 5.078667e-001 4.548495e-001
<GCONST> 1.347804e+002
<TRANSP> 5
 0.000000e+000 1.000000e+000 0.000000e+000 0.000000e+000 0.000000e+000
 0.000000e+000 7.082793e-001 2.917207e-001 0.000000e+000 0.000000e+000
 0.000000e+000 0.000000e+000 7.082786e-001 2.917214e-001 0.000000e+000
 0.000000e+000 0.000000e+000 0.000000e+000 8.352993e-001 1.647007e-001
 0.000000e+000 0.000000e+000 0.000000e+000 0.000000e+000 0.000000e+000
<ENDHMM>
~h "af"
<BEGINHMM>
<NUMSTATES> 5
<STATE> 2
<MEAN> 39
 -4.208107e+000 -7.348889e+000 -5.707507e-001 -1.037604e+001 -4.079776e+000 -4.935334e+000 -4.274327e+000 -3.759079e+000 -4.025574e+000 -4.669487e+000 -3.844475e+000 -4.371747e+000 6.527536e+001 1.500889e-002 -7.626681e-003 -6.561165e-004 -2.307162e-003 3.300278e-003 7.030129e-005 -1.059252e-004 -4.791293e-003 -1.092990e-002 -9.481763e-003 -8.315862e-003 -9.104020e-003 2.239994e-002 -3.380538e-004 9.626842e-004 8.172771e-005 2.833139e-004 -6.221744e-005 1.749799e-004 -4.156952e-004 -1.396755e-004 3.283021e-004 2.364285e-004 3.299229e-004 -9.150452e-006 -8.519065e-004
<VARIANCE> 39
 3.923540e+001 7.923236e+001 7.485577e+001 1.038731e+002 7.964243e+001 7.311790e+001 7.850028e+001 8.298228e+001 6.964647e+001 6.304510e+001 6.449777e+001 4.974925e+001 1.320597e+002 1.518042e+000 2.926177e+000 2.540248e+000 4.008257e+000 3.298109e+000 3.245777e+000 3.573099e+000 3.842115e+000 3.248082e+000 3.204820e+000 3.157625e+000 2.611671e+000 3.343493e+000 2.499848e-001 4.115678e-001 3.957891e-001 6.381689e-001 5.614710e-001 5.613145e-001 6.146175e-001 6.800498e-001 5.807967e-001 5.803679e-001 5.667574e-001 4.697292e-001 4.163400e-001
<GCONST> 1.329706e+002
<STATE> 3
<MEAN> 39
 -4.158078e+000 -7.371565e+000 -5.735261e-001 -1.038530e+001 -4.068357e+000 -4.933172e+000 -4.277840e+000 -3.778140e+000 -4.062103e+000 -4.697950e+000 -3.871786e+000 -4.403799e+000 6.534904e+001 1.373993e-002 -4.206047e-003 -6.460161e-004 -1.596048e-003 2.656308e-003 4.055154e-004 -1.401295e-003 -5.438422e-003 -9.617695e-003 -8.477122e-003 -7.060824e-003 -8.904105e-003 1.909567e-002 -4.540665e-004 1.015641e-003 5.816102e-007 1.131289e-004 -2.927352e-004 1.294597e-004 -2.981152e-004 -1.428491e-004 4.875732e-004 4.109061e-004 3.946559e-004 6.175999e-005 -9.536843e-004
<VARIANCE> 39
 3.916592e+001 7.971706e+001 7.494984e+001 1.037606e+002 7.969821e+001 7.321706e+001 7.847662e+001 8.303384e+001 6.952699e+001 6.322414e+001 6.447264e+001 4.977072e+001 1.314152e+002 1.527120e+000 2.941406e+000 2.546900e+000 4.023245e+000 3.301158e+000 3.255009e+000 3.581672e+000 3.852077e+000 3.253281e+000 3.211794e+000 3.164992e+000 2.614081e+000 3.359157e+000 2.513057e-001 4.134803e-001 3.967047e-001 6.402367e-001 5.621132e-001 5.631628e-001 6.157930e-001 6.818761e-001 5.814871e-001 5.816371e-001 5.679574e-001 4.700207e-001 4.182869e-001
<GCONST> 1.330469e+002
<STATE> 4
<MEAN> 39
 -4.271589e+000 -7.349223e+000 -6.038362e-001 -1.024188e+001 -4.044460e+000 -4.662963e+000 -4.391456e+000 -3.725719e+000 -4.149666e+000 -4.623535e+000 -3.961105e+000 -4.348994e+000 6.511404e+001 1.107494e-002 6.388541e-004 -9.539760e-004 -2.009986e-003 7.053544e-004 8.124138e-004 -2.833121e-003 -6.086503e-003 -6.610762e-003 -5.343077e-003 -4.823992e-003 -7.505418e-003 1.275442e-002 -4.946161e-004 9.810019e-004 -2.878349e-005 -2.186040e-006 -4.766280e-004 3.939480e-005 -1.274074e-004 -7.798456e-005 7.219476e-004 5.735260e-004 4.307487e-004 2.396985e-004 -1.176207e-003
<VARIANCE> 39
 3.895771e+001 8.067873e+001 7.518921e+001 1.037324e+002 7.935720e+001 7.238934e+001 7.854929e+001 8.211909e+001 7.018379e+001 6.183812e+001 6.464174e+001 4.969316e+001 1.357851e+002 1.495682e+000 2.900526e+000 2.498905e+000 3.957195e+000 3.242041e+000 3.202559e+000 3.535347e+000 3.787035e+000 3.211170e+000 3.157831e+000 3.127453e+000 2.583123e+000 3.296685e+000 2.451662e-001 4.047037e-001 3.870187e-001 6.274164e-001 5.514448e-001 5.533348e-001 6.065350e-001 6.703730e-001 5.726796e-001 5.722588e-001 5.603223e-001 4.629389e-001 4.073695e-001
<GCONST> 1.325976e+002
<TRANSP> 5
 0.000000e+000 1.000000e+000 0.000000e+000 0.000000e+000 0.000000e+000
 0.000000e+000 7.128768e-001 2.871232e-001 0.000000e+000 0.000000e+000
 0.000000e+000 0.000000e+000 7.128742e-001 2.871258e-001 0.000000e+000
 0.000000e+000 0.000000e+000 0.000000e+000 8.408340e-001 1.591659e-001
 0.000000e+000 0.000000e+000 0.000000e+000 0.000000e+000 0.000000e+000
<ENDHMM>
~h "ai"
<BEGINHMM>
<NUMSTATES> 5
<STATE> 2
<MEAN> 39
 -5.792642e+000 -8.447402e+000 -5.808141e-001 -9.764054e+000 -4.217875e+000 -5.024559e+000 -3.826604e+000 -3.675058e+000 -4.343496e+000 -5.289370e+000 -3.190872e+000 -4.050277e+000 6.474370e+001 9.848531e-003 -1.761332e-002 -1.769566e-003 -1.682151e-002 -1.010911e-002 -1.577541e-002 -3.494832e-003 -1.797882e-002 -2.500038e-002 -2.161408e-002 -1.259410e-002 -1.240233e-002 4.192528e-002 1.185600e-003 8.527659e-004 6.299873e-005 -1.042290e-003 -3.014216e-004 -4.052216e-004 -1.928748e-003 -4.182316e-004 1.135655e-004 1.432766e-003 2.682937e-004 -5.307898e-004 -9.408380e-004
<VARIANCE> 39
 3.438750e+001 8.876191e+001 6.992442e+001 9.630396e+001 7.938728e+001 6.515697e+001 7.641512e+001 7.690422e+001 6.982942e+001 6.391633e+001 5.894536e+001 4.816463e+001 1.511669e+002 1.314755e+000 2.679868e+000 2.316978e+000 3.639744e+000 3.221945e+000 2.880549e+000 3.300869e+000 3.415884e+000 3.024384e+000 3.039226e+000 2.860780e+000 2.362714e+000 2.999119e+000 2.194127e-001 3.572765e-001 3.576201e-001 5.684482e-001 5.318210e-001 4.999458e-001 5.647066e-001 5.894674e-001 5.356941e-001 5.364968e-001 5.098550e-001 4.288851e-001 3.588236e-001
<GCONST> 1.300328e+002
<STATE> 3
<MEAN> 39
