~o
<STREAMINFO> 1 39
<VECSIZE> 39<NULLD><MFCC_D_A_0><DIAGC>
~h "a"
<BEGINHMM>
<NUMSTATES> 5
<STATE> 2
<MEAN> 39
 -5.521039e+000 -1.677594e+001 -4.024605e+000 -1.433261e+001 -4.128039e+000 -6.096747e+000 -1.245940e+000 -1.721676e+000 -7.268812e+000 -8.794048e+000 -6.090788e+000 -4.886103e+000 7.464632e+001 -4.660385e-001 -1.584939e+000 -3.817443e-001 4.286471e-001 7.846020e-001 4.361700e-001 4.402745e-001 -4.878655e-001 -1.200391e+000 -1.056442e+000 3.091212e-002 1.645041e-002 1.113835e+000 6.832148e-002 5.409801e-001 2.412960e-001 2.716880e-001 -8.797286e-002 -7.500479e-002 -3.076385e-001 -3.144966e-001 1.630899e-001 3.410193e-001 2.632640e-001 5.822138e-002 -4.235404e-001
<VARIANCE> 39
 2.219620e+001 5.083725e+001 6.032109e+001 7.877073e+001 8.657607e+001 5.864537e+001 6.760320e+001 8.676498e+001 7.686580e+001 5.418822e+001 6.123424e+001 5.763158e+001 6.680653e+001 1.012509e+000 2.733852e+000 2.241501e+000 3.186865e+000 3.460819e+000 3.102935e+000 3.454556e+000 3.634129e+000 3.357793e+000 3.098175e+000 3.454708e+000 2.928334e+000 3.312117e+000 1.867636e-001 5.241029e-001 3.353382e-001 6.063874e-001 5.203564e-001 5.049004e-001 6.172738e-001 7.047150e-001 7.323388e-001 5.928013e-001 6.117176e-001 5.648796e-001 6.655413e-001
<GCONST> 1.304385e+002
<STATE> 3
<MEAN> 39
 -5.804864e+000 -1.950208e+001 -4.544966e+000 -1.387932e+001 -3.188809e+000 -5.860874e+000 -1.394637e+000 -3.386357e+000 -9.618731e+000 -1.028716e+001 -5.717346e+000 -5.095707e+000 7.746638e+001 -5.824167e-002 -2.105986e-001 4.352305e-002 4.760148e-001 8.933154e-002 -9.463547e-003 -9.365056e-002 -4.872474e-001 -3.475631e-001 -1.190461e-001 1.940978e-001 1.527585e-002 -3.498698e-002 2.040644e-001 4.800397e-001 1.831935e-001 -5.279412e-002 -2.760170e-001 -1.881840e-001 -2.095497e-001 4.744244e-002 3.151244e-001 3.155437e-001 -1.427236e-002 -7.432220e-003 -3.528026e-001
<VARIANCE> 39
 2.150257e+001 3.865128e+001 5.813319e+001 6.453861e+001 7.973363e+001 5.938824e+001 6.577431e+001 9.386411e+001 6.728456e+001 4.927095e+001 5.526285e+001 5.502168e+001 2.242023e+001 5.696913e-001 1.402672e+000 1.260629e+000 1.711435e+000 2.323125e+000 1.820637e+000 1.931086e+000 2.081740e+000 1.960193e+000 1.903756e+000 2.032598e+000 1.718962e+000 7.957293e-001 8.722200e-002 2.214331e-001 2.098088e-001 3.168431e-001 3.063234e-001 3.175920e-001 3.419859e-001 4.407316e-001 4.038232e-001 3.566617e-001 3.557801e-001 3.191854e-001 1.481757e-001
<GCONST> 1.118716e+002
<STATE> 4
<MEAN> 39
 -5.224269e+000 -1.805180e+001 -3.928109e+000 -1.076200e+001 -3.354033e+000 -4.851970e+000 -2.586700e+000 -4.012929e+000 -9.226053e+000 -9.572267e+000 -5.304739e+000 -5.581221e+000 7.454105e+001 1.904821e-001 5.224258e-001 2.100364e-001 9.408104e-002 -1.936508e-001 -2.387237e-001 -1.431541e-001 -4.845802e-002 1.829216e-001 1.536922e-001 -7.660532e-002 -1.148943e-002 -5.595990e-001 8.100545e-002 2.098086e-001 6.430976e-002 -8.653105e-003 -6.145085e-002 -6.415573e-002 -5.966438e-002 -3.833639e-003 8.624230e-002 8.970700e-002 -2.932592e-002 2.094792e-002 -1.716620e-001
<VARIANCE> 39
 2.281823e+001 5.287989e+001 5.518024e+001 7.100711e+001 7.064548e+001 5.612399e+001 6.595339e+001 8.964268e+001 7.044271e+001 5.130403e+001 5.076151e+001 5.518142e+001 7.202927e+001 4.257584e-001 1.189159e+000 9.048408e-001 1.269592e+000 1.391393e+000 1.456076e+000 1.396468e+000 1.566494e+000 1.440653e+000 1.540273e+000 1.374253e+000 1.177283e+000 7.054960e-001 6.015270e-002 1.565478e-001 1.479966e-001 2.255149e-001 2.031504e-001 2.327200e-001 2.425768e-001 2.992156e-001 2.501878e-001 2.515463e-001 2.315913e-001 1.993121e-001 9.703467e-002
<GCONST> 1.043858e+002
<TRANSP> 5
 0.000000e+000 1.000000e+000 0.000000e+000 0.000000e+000 0.000000e+000
 0.000000e+000 5.608875e-001 4.391125e-001 0.000000e+000 0.000000e+000
 0.000000e+000 0.000000e+000 5.067833e-001 4.932166e-001 0.000000e+000
 0.000000e+000 0.000000e+000 0.000000e+000 8.784428e-001 1.215573e-001
 0.000000e+000 0.000000e+000 0.000000e+000 0.000000e+000 0.000000e+000
<ENDHMM>
~h "b"
<BEGINHMM>
<NUMSTATES> 5
<STATE> 2
<MEAN> 39
 2.354194e-001 -2.196841e+000 1.604330e+000 -7.410870e+000 -4.641291e+000 -5.611890e+000 -7.356132e+000 -8.448601e+000 -6.105832e+000 -5.405581e+000 -5.537712e+000 -6.083892e+000 5.905963e+001 8.162051e-001 1.197134e+000 5.263003e-001 1.228782e+000 6.936305e-001 2.061402e-001 -3.746095e-001 -1.069453e+000 -7.836807e-001 -6.134137e-001 -3.273389e-001 -4.626249e-001 -1.264411e+000 -1.086314e-001 -3.370735e-001 -2.498138e-001 -3.869199e-001 -4.238588e-002 1.878767e-002 4.330199e-002 2.112447e-001 8.910496e-002 6.886369e-002 6.484110e-002 3.863885e-003 6.021709e-001
<VARIANCE> 39
 2.514409e+001 5.341850e+001 5.168475e+001 7.855248e+001 4.898894e+001 6.528829e+001 5.715007e+001 6.401926e+001 5.527945e+001 5.340716e+001 6.102185e+001 4.355549e+001 7.620335e+001 1.747042e+000 2.304753e+000 2.745003e+000 4.966693e+000 3.530991e+000 3.574849e+000 4.430130e+000 4.298400e+000 4.299612e+000 3.910152e+000 3.823992e+000 3.019590e+000 5.476829e+000 3.043777e-001 6.164500e-001 5.840240e-001 1.070676e+000 6.578990e-001 6.732304e-001 7.966676e-001 9.291807e-001 9.185102e-001 8.808265e-001 7.835039e-001 6.030821e-001 9.126548e-001
<GCONST> 1.358189e+002
<STATE> 3
<MEAN> 39
 2.482600e+000 -2.042510e+000 -5.903227e-001 -8.808246e+000 -3.305934e+000 -4.374398e+000 -9.046001e+000 -9.786393e+000 -6.804164e+000 -5.476248e+000 -5.545628e+000 -7.874678e+000 6.241459e+001 -2.195060e-001 -2.481217e+000 -1.854015e+000 -2.116371e+000 3.034340e-002 -9.019817e-002 1.310556e-001 1.768584e+000 1.128279e+000 6.456524e-001 2.294459e-001 -2.889661e-001 3.609450e+000 -4.271591e-001 -7.927397e-001 -2.182033e-001 -4.493934e-001 -1.419472e-001 4.189513e-002 3.691466e-001 6.516950e-001 2.131311e-001 -7.873789e-003 -1.694645e-002 1.791782e-001 7.051974e-001
<VARIANCE> 39
 1.406412e+001 5.698309e+001 5.675444e+001 7.567803e+001 3.481434e+001 6.304526e+001 5.257328e+001 6.577312e+001 6.051464e+001 6.030922e+001 6.591674e+001 4.356837e+001 7.377521e+001 2.009943e+000 6.803961e+000 4.929790e+000 7.493527e+000 4.459709e+000 4.704810e+000 6.726482e+000 8.111122e+000 7.332316e+000 6.859090e+000 6.695900e+000 5.380977e+000 7.584704e+000 2.930666e-001 1.026923e+000 1.125992e+000 1.795134e+000 8.521062e-001 8.646678e-001 1.226830e+000 1.459225e+000 1.590197e+000 1.523463e+000 1.287611e+000 9.890820e-001 1.721173e+000
<GCONST> 1.472830e+002
<STATE> 4
<MEAN> 39
 2.781599e-001 -9.556423e+000 -4.188660e+000 -1.320208e+001 -3.244609e+000 -4.456792e+000 -6.684749e+000 -3.859808e+000 -3.867521e+000 -5.754642e+000 -6.566890e+000 -7.917317e+000 7.049574e+001 -9.171464e-001 -2.276888e+000 -7.407945e-001 -1.293925e+000 -1.710448e-001 4.071866e-003 1.013570e+000 1.588385e+000 -7.490452e-003 -3.811406e-001 4.000717e-002 5.019929e-001 2.643482e+000 -1.141983e-001 3.939736e-001 4.852387e-001 2.421639e-001 -1.881204e-001 8.938461e-002 4.157113e-002 -4.498437e-001 -4.604471e-001 -9.628712e-002 2.121205e-001 2.266835e-001 -5.143802e-001
<VARIANCE> 39
 1.891049e+001 9.344542e+001 6.897597e+001 9.068804e+001 5.326067e+001 7.658378e+001 6.397693e+001 7.989631e+001 6.531420e+001 6.795857e+001 6.397884e+001 5.987999e+001 8.554064e+001 1.627874e+000 5.209461e+000 4.762080e+000 8.353104e+000 5.375587e+000 5.642947e+000 6.488895e+000 6.356686e+000 5.929066e+000 6.642240e+000 5.874427e+000 4.435779e+000 5.595522e+000 2.671149e-001 9.883996e-001 7.362301e-001 1.682595e+000 8.552873e-001 8.541070e-001 9.498900e-001 1.317104e+000 1.109569e+000 1.097338e+000 9.606511e-001 8.594075e-001 1.433728e+000
<GCONST> 1.466127e+002
<TRANSP> 5
 0.000000e+000 1.000000e+000 0.000000e+000 0.000000e+000 0.000000e+000
 0.000000e+000 7.046641e-001 2.953360e-001 0.000000e+000 0.000000e+000
 0.000000e+000 0.000000e+000 6.601050e-001 3.398950e-001 0.000000e+000
 0.000000e+000 0.000000e+000 0.000000e+000 2.580078e-001 7.419922e-001
 0.000000e+000 0.000000e+000 0.000000e+000 0.000000e+000 0.000000e+000
<ENDHMM>
~h "c"
<BEGINHMM>
<NUMSTATES> 5
<STATE> 2
<MEAN> 39
 -4.431820e+000 -3.405558e+000 -8.019768e-001 -6.711355e+000 -3.481057e+000 -4.981058e+000 -2.922112e+000 -4.401499e+000 -1.641520e+000 -1.891566e+000 -2.508461e+000 -3.079475e+000 5.637916e+001 -7.926559e-001 -4.792906e-002 -1.687789e-001 1.339134e+000 8.488218e-001 5.195880e-001 8.700508e-001 7.282746e-001 9.733558e-001 4.055461e-001 5.800925e-001 2.983895e-001 -1.584715e+000 -5.091778e-002 -3.014831e-001 -2.744429e-001 -3.434691e-001 2.575707e-002 -7.615890e-002 -7.866381e-002 7.902224e-002 -4.387498e-002 3.058622e-002 -2.875452e-002 2.861806e-002 6.792660e-001
<VARIANCE> 39
 2.490401e+001 3.758247e+001 5.313815e+001 6.068182e+001 5.599236e+001 5.903078e+001 5.667110e+001 6.010310e+001 5.416275e+001 4.638523e+001 5.376817e+001 4.258040e+001 6.121534e+001 1.741721e+000 3.041813e+000 3.530514e+000 4.547826e+000 4.064884e+000 4.428669e+000 4.364194e+000 4.456846e+000 4.339057e+000 3.836965e+000 3.835676e+000 3.127223e+000 5.659082e+000 3.386260e-001 5.388434e-001 5.967227e-001 8.497913e-001 8.222798e-001 9.662623e-001 8.548681e-001 8.803766e-001 8.866882e-001 7.772817e-001 7.445118e-001 6.251890e-001 8.737469e-001
<GCONST> 1.356789e+002
<STATE> 3
<MEAN> 39
 -7.366536e+000 -4.983980e+000 -3.392620e+000 -4.006354e+000 -2.074509e-001 -5.054888e+000 -1.133169e+000 -2.114529e+000 1.234425e+000 -6.743575e-002 -8.307551e-001 -1.322278e+000 5.713979e+001 -5.100695e-002 -6.154456e-001 -8.832003e-001 -7.109475e-001 3.562683e-001 -8.552681e-001 -1.562345e-001 3.766800e-001 -6.760047e-002 3.880734e-001 -1.781788e-001 1.927960e-001 2.479688e+000 5.125743e-001 -5.242249e-002 3.897814e-002 -9.116629e-001 -4.687085e-001 -1.281251e-001 -4.139515e-001 -2.716377e-001 -5.664442e-001 -2.734733e-001 -3.468757e-001 -3.221898e-001 7.995363e-001
<VARIANCE> 39
 2.415372e+001 3.369263e+001 5.168790e+001 4.328996e+001 6.461137e+001 5.789211e+001 5.334265e+001 4.952944e+001 4.605729e+001 4.075528e+001 4.129832e+001 3.614656e+001 6.584879e+001 3.286970e+000 3.919812e+000 5.694719e+000 6.976524e+000 7.930658e+000 6.493417e+000 6.600818e+000 6.001109e+000 5.588968e+000 4.986784e+000 5.270952e+000 4.912756e+000 1.057336e+001 4.942264e-001 6.708220e-001 8.727106e-001 1.062325e+000 1.275811e+000 1.226890e+000 1.051234e+000 1.047729e+000 9.811101e-001 9.473918e-001 1.029440e+000 9.882101e-001 1.196376e+000
<GCONST> 1.435186e+002
<STATE> 4
<MEAN> 39
 -5.911848e+000 -5.935530e+000 -4.034407e+000 -7.758152e+000 -1.525271e+000 -5.968554e+000 -2.209733e+000 -2.026120e+000 -2.891820e-001 -5.505206e-001 -1.845368e+000 -2.048596e+000 6.102108e+001 8.617008e-001 -4.026904e-001 -3.888788e-001 -2.013285e+000 -5.843225e-001 -3.254222e-001 -6.426299e-001 -3.807718e-001 -1.151424e+000 -5.451480e-001 -8.035061e-001 -6.266870e-001 2.189442e+000 1.703558e-001 7.165448e-004 9.219499e-002 -2.413677e-001 -8.568081e-002 2.504683e-001 -1.186843e-001 -2.118614e-001 -2.584641e-001 -2.688454e-001 -7.839907e-002 -1.815094e-001 -2.262263e-002
<VARIANCE> 39
 2.489709e+001 3.919494e+001 5.642531e+001 7.229178e+001 7.750031e+001 6.481425e+001 6.257156e+001 5.627599e+001 5.143318e+001 4.390767e+001 4.762597e+001 4.325659e+001 1.093497e+002 2.786600e+000 4.232650e+000 4.743160e+000 8.086689e+000 6.409424e+000 5.185136e+000 5.865643e+000 5.579121e+000 5.268590e+000 4.856537e+000 5.538407e+000 4.990523e+000 6.728383e+000 4.644020e-001 6.109231e-001 6.676667e-001 1.203106e+000 1.226583e+000 1.037948e+000 9.508911e-001 8.776062e-001 8.579354e-001 8.047071e-001 8.527385e-001 7.680103e-001 1.138346e+000
<GCONST> 1.431015e+002
<TRANSP> 5
 0.000000e+000 1.000000e+000 0.000000e+000 0.000000e+000 0.000000e+000
 0.000000e+000 6.967227e-001 3.032773e-001 0.000000e+000 0.000000e+000
 0.000000e+000 0.000000e+000 5.420132e-001 4.579868e-001 0.000000e+000
 0.000000e+000 0.000000e+000 0.000000e+000 4.602578e-001 5.397421e-001
 0.000000e+000 0.000000e+000 0.000000e+000 0.000000e+000 0.000000e+000
<ENDHMM>
~h "d"
<BEGINHMM>
<NUMSTATES> 5
<STATE> 2
<MEAN> 39
 -2.192360e+000 -3.022666e+000 3.569427e+000 -8.413398e+000 -7.991470e+000 -8.135373e+000 -8.533373e+000 -7.259043e+000 -5.329028e+000 -5.185001e+000 -5.449543e+000 -4.647992e+000 6.206987e+001 4.126662e-001 9.141505e-001 1.100167e+000 1.161085e+000 -1.489853e-001 -7.354476e-001 -8.750988e-001 -5.132595e-001 -4.580055e-001 -6.617591e-001 -2.643076e-001 -2.318553e-001 -5.962654e-001 -6.900993e-002 -2.638446e-001 -6.812961e-002 -1.437433e-001 5.211886e-002 4.233004e-002 6.951064e-002 2.070193e-001 2.330759e-002 -5.921998e-002 3.654110e-002 -3.965505e-003 3.391123e-001
<VARIANCE> 39
 3.533808e+001 7.705730e+001 7.645927e+001 1.018884e+002 6.880163e+001 6.373742e+001 6.844884e+001 8.427431e+001 6.244297e+001 6.006734e+001 6.431745e+001 5.181357e+001 8.897898e+001 2.020147e+000 3.331104e+000 3.380823e+000 5.504693e+000 5.700655e+000 4.305303e+000 4.953887e+000 5.356116e+000 4.568241e+000 4.535207e+000 4.086423e+000 3.449867e+000 4.522379e+000 3.176980e-001 7.491952e-001 5.828014e-001 1.153045e+000 1.168909e+000 7.875543e-001 8.969865e-001 1.155817e+000 8.569670e-001 9.396362e-001 7.676132e-001 6.580233e-001 7.716507e-001
<GCONST> 1.418799e+002
<STATE> 3
<MEAN> 39
 -1.477701e+000 -2.927031e+000 6.351232e+000 -7.422657e+000 -9.330618e+000 -9.864659e+000 -1.074636e+001 -7.019032e+000 -6.289538e+000 -6.814371e+000 -5.917770e+000 -5.272675e+000 6.416888e+001 -1.992682e-001 -1.146142e+000 6.348000e-002 -8.048453e-001 -7.133212e-001 -2.568363e-001 6.786002e-002 1.216678e+000 1.317620e-001 6.924126e-002 1.630368e-001 6.724534e-002 1.668965e+000 -1.436115e-001 -5.141352e-001 -5.010979e-001 -6.056213e-001 -5.525131e-003 2.345253e-001 3.679167e-001 3.865114e-001 1.537676e-001 2.444619e-001 2.244714e-002 1.976714e-002 5.558969e-001
<VARIANCE> 39
 3.067423e+001 7.040807e+001 7.035338e+001 1.079791e+002 7.148952e+001 5.425272e+001 6.360362e+001 8.458207e+001 5.977660e+001 6.378401e+001 6.011795e+001 4.232259e+001 6.236252e+001 2.254751e+000 6.992893e+000 5.702785e+000 1.087191e+001 8.778560e+000 5.161273e+000 6.512980e+000 8.772879e+000 5.662941e+000 6.457665e+000 5.322547e+000 4.107780e+000 9.452205e+000 3.870430e-001 1.064591e+000 7.802373e-001 1.717822e+000 1.968668e+000 9.583780e-001 1.193221e+000 1.612600e+000 1.044086e+000 1.281678e+000 1.065220e+000 8.132630e-001 1.304905e+000
<GCONST> 1.501486e+002
<STATE> 4
<MEAN> 39
 -2.530080e+000 -6.885386e+000 4.641385e+000 -1.195345e+001 -1.059692e+001 -9.409602e+000 -8.718006e+000 -3.620366e+000 -5.897264e+000 -5.617325e+000 -5.647618e+000 -5.044464e+000 6.918420e+001 -1.237850e-001 -1.297251e+000 -9.638106e-001 -8.230345e-001 1.986365e-001 1.637927e-001 5.414504e-001 9.857931e-001 3.160170e-001 2.559863e-002 -1.936171e-001 -1.097539e-001 1.475507e+000 -4.763217e-002 5.052530e-002 -2.257878e-001 -3.356781e-002 3.199792e-001 1.870747e-001 5.882533e-002 -1.958852e-001 1.688715e-002 -5.943938e-003 -8.382473e-003 -5.571249e-002 -5.945933e-002
<VARIANCE> 39
 2.758568e+001 7.805932e+001 8.599386e+001 1.206056e+002 7.865114e+001 5.899926e+001 7.609165e+001 9.792616e+001 6.438765e+001 6.320541e+001 6.420310e+001 4.345737e+001 7.352749e+001 1.679085e+000 5.319830e+000 5.012007e+000 8.596120e+000 8.679506e+000 4.495153e+000 6.642188e+000 7.992560e+000 5.228114e+000 6.056223e+000 5.024448e+000 3.914671e+000 6.741248e+000 2.307898e-001 8.798772e-001 6.235401e-001 1.414403e+000 1.403895e+000 7.729740e-001 1.124836e+000 1.532802e+000 9.223748e-001 1.019665e+000 8.524362e-001 6.939827e-001 1.098336e+000
<GCONST> 1.468456e+002
<TRANSP> 5
 0.000000e+000 1.000000e+000 0.000000e+000 0.000000e+000 0.000000e+000
 0.000000e+000 5.639393e-001 4.360607e-001 0.000000e+000 0.000000e+000
 0.000000e+000 0.000000e+000 6.020549e-001 3.979451e-001 0.000000e+000
 0.000000e+000 0.000000e+000 0.000000e+000 3.724356e-001 6.275644e-001
 0.000000e+000 0.000000e+000 0.000000e+000 0.000000e+000 0.000000e+000
<ENDHMM>
~h "e"
<BEGINHMM>
<NUMSTATES> 5
<STATE> 2
<MEAN> 39
 -7.474595e+000 -1.039046e+001 3.048088e+000 -1.671088e+001 -1.126235e+001 -6.742326e+000 1.620546e+000 -1.746035e+000 -4.158835e+000 -4.306130e+000 -4.681831e+000 -4.949818e+000 7.045332e+001 -4.381855e-001 -8.941079e-001 5.073351e-001 -1.450345e+000 -9.119509e-001 4.419848e-001 6.320499e-001 -8.381712e-002 -5.663170e-001 -2.221451e-001 -4.687029e-001 -8.875380e-001 1.508922e+000 2.539848e-003 2.933320e-001 -1.032721e-001 2.778929e-001 2.546605e-001 1.057544e-001 -2.531703e-001 -1.667325e-001 1.025731e-001 9.587619e-002 7.945636e-002 8.732768e-002 -2.147340e-001
<VARIANCE> 39
 2.098991e+001 4.672823e+001 5.927284e+001 1.007022e+002 8.205482e+001 7.116927e+001 6.021824e+001 7.093998e+001 6.471318e+001 4.584344e+001 5.406158e+001 4.050320e+001 1.044120e+002 1.207700e+000 2.277330e+000 2.123951e+000 3.548367e+000 3.053437e+000 2.981122e+000 3.584386e+000 3.267829e+000 3.093146e+000 2.590829e+000 3.010915e+000 2.256856e+000 4.849032e+000 2.796832e-001 4.726004e-001 3.619302e-001 8.217320e-001 5.919924e-001 5.885062e-001 6.340275e-001 5.385448e-001 5.174723e-001 4.812290e-001 5.238197e-001 4.268315e-001 9.042452e-001
<GCONST> 1.295501e+002
<STATE> 3
<MEAN> 39
 -8.125471e+000 -1.229372e+001 4.036548e+000 -2.066127e+001 -1.399930e+001 -6.903558e+000 1.609263e+000 -2.864378e+000 -6.024522e+000 -5.123494e+000 -6.229114e+000 -7.226583e+000 7.624467e+001 -1.797555e-001 -2.358652e-001 1.767434e-001 -3.859580e-001 -2.639637e-001 3.058585e-001 -3.968246e-002 -1.613597e-001 -1.808857e-001 -3.697701e-002 -1.813482e-001 -3.276818e-001 3.607043e-001 1.726859e-001 2.301621e-001 -9.338081e-002 3.614903e-001 1.927519e-001 -1.124296e-001 -1.966999e-001 -4.135613e-002 7.935535e-002 1.318710e-002 1.057213e-001 2.406997e-001 -3.162928e-001
<VARIANCE> 39
 2.245447e+001 3.377689e+001 5.954192e+001 8.233998e+001 6.122559e+001 6.175837e+001 5.747294e+001 8.274358e+001 5.417799e+001 4.763670e+001 5.315972e+001 3.366597e+001 2.216516e+001 5.255646e-001 1.060872e+000 1.034781e+000 1.276209e+000 1.247460e+000 1.387838e+000 1.720227e+000 1.519236e+000 1.636541e+000 1.544639e+000 1.500395e+000 1.283872e+000 9.220552e-001 1.133119e-001 2.122763e-001 1.550771e-001 2.592164e-001 2.518260e-001 2.625045e-001 3.093110e-001 3.046595e-001 2.858450e-001 2.726040e-001 2.930616e-001 2.380717e-001 1.966506e-001
<GCONST> 1.057995e+002
<STATE> 4
<MEAN> 39
 -7.293180e+000 -1.217931e+001 4.710036e+000 -2.000963e+001 -1.420711e+001 -5.860825e+000 -2.085191e-001 -2.860988e+000 -6.892124e+000 -5.091300e+000 -6.353846e+000 -7.102139e+000 7.590129e+001 3.249662e-001 8.369735e-003 -5.447803e-002 3.975359e-001 1.933801e-001 -2.316957e-001 -2.022822e-001 -5.179419e-002 -6.921203e-002 -1.055813e-001 2.433999e-002 1.274380e-001 -3.126126e-001 1.414408e-001 1.135152e-001 -4.526405e-002 2.208776e-001 1.438969e-001 -1.018041e-001 -1.520665e-001 -4.482031e-002 4.270886e-002 1.271977e-002 2.454340e-002 5.484371e-002 -2.096700e-001
<VARIANCE> 39
 2.258222e+001 3.488366e+001 5.656067e+001 9.661896e+001 5.789679e+001 5.948412e+001 5.378059e+001 8.390060e+001 5.393796e+001 4.899325e+001 5.907151e+001 3.509233e+001 2.657650e+001 4.966461e-001 8.117262e-001 7.591602e-001 1.230745e+000 1.168349e+000 1.303074e+000 1.467859e+000 1.201273e+000 1.131195e+000 1.177824e+000 1.038489e+000 9.268957e-001 5.516199e-001 6.793085e-002 1.416768e-001 1.205821e-001 2.020213e-001 1.982456e-001 2.107482e-001 2.790647e-001 2.600355e-001 1.999126e-001 2.017732e-001 1.770774e-001 1.592334e-001 9.814198e-002
<GCONST> 9.871543e+001
<TRANSP> 5
 0.000000e+000 1.000000e+000 0.000000e+000 0.000000e+000 0.000000e+000
 0.000000e+000 5.787112e-001 4.212889e-001 0.000000e+000 0.000000e+000
 0.000000e+000 0.000000e+000 4.783260e-001 5.216740e-001 0.000000e+000
 0.000000e+000 0.000000e+000 0.000000e+000 8.869420e-001 1.130580e-001
 0.000000e+000 0.000000e+000 0.000000e+000 0.000000e+000 0.000000e+000
<ENDHMM>
~h "f"
<BEGINHMM>
<NUMSTATES> 5
<STATE> 2
<MEAN> 39
 -9.005429e+000 3.051723e-001 1.166419e+001 -1.952508e+001 -1.187012e+001 -1.099924e+001 -1.079463e+001 -9.912132e+000 -9.379152e+000 -3.256036e+000 -6.709095e+000 -5.036425e+000 7.058048e+001 -9.338321e-003 -5.432203e-001 5.353720e-001 -7.334508e-001 -9.455656e-001 3.224059e-001 -7.582860e-002 1.883406e-002 4.051297e-001 5.276146e-001 2.039712e-001 -4.348848e-002 6.428996e-001 4.644205e-002 1.262729e-001 -9.028836e-002 2.474213e-001 1.158438e-001 -1.772477e-002 3.231009e-002 -1.022369e-001 9.656419e-002 -3.191767e-002 6.327069e-002 7.371929e-002 -1.695337e-001
<VARIANCE> 39
 1.576915e+001 4.761829e+001 5.444640e+001 1.189629e+002 5.550846e+001 3.808778e+001 5.573567e+001 6.391061e+001 4.658576e+001 5.820174e+001 7.776479e+001 3.530393e+001 3.303973e+001 4.570771e-001 1.489351e+000 1.192985e+000 1.756795e+000 2.528808e+000 1.274084e+000 1.941073e+000 2.046711e+000 1.832620e+000 2.041118e+000 1.883533e+000 1.715888e+000 8.960940e-001 8.061220e-002 2.386819e-001 2.132499e-001 3.808357e-001 4.798396e-001 2.294102e-001 3.760501e-001 3.152127e-001 3.282466e-001 3.641440e-001 3.290607e-001 2.497137e-001 1.650325e-001
<GCONST> 1.102918e+002
<STATE> 3
<MEAN> 39
 -8.584090e+000 -1.218061e+000 1.418028e+001 -2.394422e+001 -1.463095e+001 -1.062025e+001 -1.182603e+001 -1.141362e+001 -6.758739e+000 -2.126142e-002 -6.523185e+000 -3.430294e+000 7.225564e+001 1.751186e-001 1.207986e-001 4.255757e-001 2.871804e-001 -1.107283e-001 1.217821e-001 -1.542268e-001 -2.425726e-001 1.098075e-001 9.227882e-002 1.115868e-001 1.480039e-001 -2.687306e-001 4.917715e-002 8.280389e-002 -5.279896e-002 2.393025e-001 1.654653e-001 6.776245e-003 6.228177e-002 1.505639e-002 -5.236939e-002 -9.986793e-002 -1.540372e-002 -3.768220e-002 -1.835351e-001
<VARIANCE> 39
 1.327298e+001 3.040343e+001 4.755918e+001 7.628265e+001 3.965923e+001 3.461354e+001 5.361855e+001 4.767947e+001 5.370760e+001 4.455105e+001 6.081848e+001 3.029483e+001 1.908394e+001 3.004586e-001 8.253161e-001 6.198062e-001 1.153688e+000 1.251648e+000 8.453913e-001 1.280438e+000 1.156405e+000 1.243977e+000 1.357345e+000 1.058334e+000 9.875944e-001 5.431993e-001 5.175563e-002 9.928757e-002 1.107905e-001 1.859808e-001 2.067365e-001 1.497055e-001 2.244113e-001 2.002094e-001 1.978929e-001 2.272432e-001 1.930680e-001 1.675766e-001 5.864212e-002
<GCONST> 9.276945e+001
<STATE> 4
<MEAN> 39
 -5.895307e+000 1.874619e+000 1.682413e+001 -8.710251e+000 -1.424633e+001 -4.095665e+000 -9.963728e+000 -7.733472e+000 -6.614263e+000 -3.957726e+000 2.033805e+000 -5.206306e+000 6.666957e+001 1.918658e-001 7.416453e-003 -2.915834e-001 7.166890e-001 5.883923e-001 2.636454e-001 5.243508e-001 2.238557e-001 1.681990e-001 -4.822408e-002 -5.502058e-002 -3.978899e-004 -8.039914e-001 4.230231e-003 -2.177070e-002 -1.551752e-001 7.709210e-002 1.582278e-001 -2.421076e-002 8.092763e-002 9.549561e-002 4.634313e-002 -5.373748e-003 -3.297427e-002 2.611817e-002 -1.017873e-001
<VARIANCE> 39
 1.446777e+001 4.021423e+001 7.663701e+001 8.575681e+001 6.715965e+001 4.712293e+001 5.386236e+001 5.307852e+001 5.305508e+001 3.936583e+001 6.568329e+001 2.839729e+001 7.050183e+001 5.545436e-001 9.424045e-001 1.640824e+000 2.035254e+000 1.850884e+000 1.430599e+000 1.976795e+000 1.682890e+000 1.738746e+000 1.614977e+000 1.377570e+000 1.171192e+000 1.020488e+000 8.919788e-002 1.435844e-001 2.176938e-001 2.955639e-001 3.092166e-001 2.312351e-001 3.036827e-001 2.684073e-001 2.793839e-001 2.914577e-001 2.216936e-001 2.216066e-001 1.424403e-001
<GCONST> 1.068302e+002
<TRANSP> 5
 0.000000e+000 1.000000e+000 0.000000e+000 0.000000e+000 0.000000e+000
 0.000000e+000 6.693856e-001 3.306145e-001 0.000000e+000 0.000000e+000
 0.000000e+000 0.000000e+000 8.490466e-001 1.509534e-001 0.000000e+000
 0.000000e+000 0.000000e+000 0.000000e+000 8.698208e-001 1.301792e-001
 0.000000e+000 0.000000e+000 0.000000e+000 0.000000e+000 0.000000e+000
<ENDHMM>
~h "g"
<BEGINHMM>
<NUMSTATES> 5
<STATE> 2
<MEAN> 39
 -2.683488e+000 -2.846978e+000 2.541738e+000 -1.003194e+001 -6.168035e+000 -1.252434e+001 -8.072453e+000 -7.272432e+000 -5.948726e+000 -2.221488e+000 -5.560958e+000 -3.348946e+000 6.453236e+001 -1.265579e-001 -6.550401e-001 5.224577e-002 -8.951656e-001 -4.886713e-001 -8.397799e-001 -9.218650e-003 9.746548e-001 2.557469e-001 4.426526e-001 -9.488735e-002 -9.408481e-002 1.247989e+000 2.309168e-002 -4.076797e-001 -2.804518e-001 -4.237914e-001 -4.625482e-002 4.044614e-001 2.563657e-001 2.662056e-001 7.590558e-002 -1.530660e-001 -1.316485e-001 -1.798889e-001 3.674421e-001
<VARIANCE> 39
 2.212702e+001 3.985349e+001 8.111232e+001 9.753861e+001 8.021988e+001 7.571065e+001 7.041046e+001 8.874930e+001 5.912128e+001 7.421568e+001 7.691375e+001 5.779966e+001 5.329819e+001 1.484857e+000 3.802207e+000 3.565957e+000 7.013060e+000 5.233990e+000 4.947422e+000 5.687739e+000 6.580210e+000 4.727121e+000 4.852212e+000 4.668771e+000 3.690256e+000 5.566017e+000 2.289848e-001 3.772755e-001 5.037560e-001 9.901686e-001 9.823442e-001 8.869803e-001 9.019474e-001 9.110198e-001 8.472831e-001 9.504684e-001 8.518408e-001 6.721966e-001 5.490060e-001
<GCONST> 1.403195e+002
<STATE> 3
<MEAN> 39
 -2.964252e+000 -8.402086e+000 6.774436e-001 -1.754453e+001 -8.078113e+000 -1.336782e+001 -6.437467e+000 -1.562387e+000 -4.114061e+000 -1.397289e+000 -7.306775e+000 -4.968669e+000 7.212220e+001 -1.383468e-001 -2.016294e+000 -1.424620e+000 -1.515795e+000 5.088187e-001 1.320790e+000 1.364360e+000 1.343861e+000 2.105851e-001 -7.616828e-001 -8.247657e-001 -8.143283e-001 1.858462e+000 2.415019e-002 -6.348018e-003 -2.048305e-001 5.916520e-001 5.313894e-001 5.693541e-001 8.062389e-002 -5.250416e-001 -2.926639e-001 -4.020904e-001 9.844074e-002 1.386135e-003 -3.442771e-001
<VARIANCE> 39
 1.900756e+001 4.007732e+001 8.165365e+001 8.818781e+001 8.583090e+001 8.121680e+001 9.396490e+001 9.544921e+001 5.540239e+001 8.766537e+001 9.703487e+001 6.162078e+001 3.655402e+001 5.669271e-001 2.443574e+000 2.241063e+000 4.079360e+000 4.194368e+000 3.849795e+000 4.433926e+000 4.349151e+000 3.991224e+000 4.222435e+000 3.935511e+000 2.997800e+000 2.331038e+000 1.014922e-001 2.760509e-001 3.432508e-001 7.919959e-001 6.312673e-001 5.795605e-001 7.780119e-001 7.881355e-001 5.875082e-001 7.604315e-001 8.248240e-001 5.503598e-001 3.740041e-001
<GCONST> 1.313965e+002
<STATE> 4
<MEAN> 39
 -2.503046e+000 -1.094180e+001 -3.372280e+000 -1.812258e+001 -4.615885e+000 -7.544230e+000 -4.210917e+000 -2.773369e+000 -5.265718e+000 -4.444420e+000 -7.807749e+000 -5.970176e+000 7.342516e+001 2.456682e-003 -8.107579e-001 -6.786239e-001 1.892557e-001 6.571401e-001 1.015596e+000 3.169549e-001 -1.458605e-001 -2.906036e-001 -5.795273e-001 6.080701e-002 -2.552474e-001 3.338231e-001 5.549384e-002 2.512071e-001 1.379863e-001 2.656540e-001 7.414658e-003 -1.213431e-001 -2.175293e-001 -2.290677e-001 -4.082887e-002 1.040822e-001 1.896675e-001 1.119415e-001 -2.881867e-001
<VARIANCE> 39
 2.469858e+001 9.002246e+001 7.914265e+001 1.046940e+002 9.391325e+001 9.614803e+001 8.545688e+001 1.004610e+002 6.818676e+001 6.890717e+001 7.814065e+001 5.659306e+001 5.557165e+001 3.539836e-001 2.147599e+000 1.703671e+000 2.593855e+000 2.626006e+000 3.172086e+000 3.069336e+000 2.559196e+000 2.674020e+000 3.011441e+000 2.606949e+000 1.968387e+000 1.322126e+000 6.128103e-002 2.070226e-001 2.028737e-001 4.467934e-001 3.726999e-001 3.825064e-001 4.475491e-001 5.195094e-001 4.480442e-001 4.526515e-001 4.536928e-001 3.580132e-001 1.968552e-001
<GCONST> 1.216197e+002
<TRANSP> 5
 0.000000e+000 1.000000e+000 0.000000e+000 0.000000e+000 0.000000e+000
 0.000000e+000 7.442603e-001 2.557397e-001 0.000000e+000 0.000000e+000
 0.000000e+000 0.000000e+000 4.924497e-001 5.075504e-001 0.000000e+000
 0.000000e+000 0.000000e+000 0.000000e+000 6.511225e-001 3.488775e-001
 0.000000e+000 0.000000e+000 0.000000e+000 0.000000e+000 0.000000e+000
<ENDHMM>
~h "h"
<BEGINHMM>
<NUMSTATES> 5
<STATE> 2
<MEAN> 39
 -4.634017e+000 -6.076199e+000 -1.449872e+000 -8.681349e+000 3.380418e-001 -4.417511e+000 -4.581983e+000 -5.649094e+000 -5.461727e+000 -8.972798e+000 -3.600035e+000 -4.669012e+000 6.615619e+001 -1.058809e-001 -5.478409e-001 -2.865150e-001 1.786571e-001 6.287836e-001 1.974236e-001 -1.958217e-001 -4.376778e-002 -2.349570e-001 -7.604674e-001 1.417986e-001 -2.881167e-001 4.374335e-001 6.907326e-002 -1.793390e-001 -8.177818e-002 -2.412598e-001 -2.040666e-001 -1.464929e-002 -7.185389e-002 -4.353086e-002 3.902487e-002 1.296184e-001 -1.649359e-002 -4.426824e-002 1.628849e-001
<VARIANCE> 39
 3.050361e+001 4.860469e+001 6.740143e+001 8.814104e+001 9.991337e+001 9.007113e+001 8.420757e+001 8.196877e+001 7.503998e+001 7.272685e+001 6.827929e+001 5.233724e+001 5.699734e+001 1.208966e+000 2.489245e+000 2.782101e+000 3.833254e+000 5.191570e+000 3.717540e+000 4.201952e+000 3.950133e+000 3.567471e+000 3.791868e+000 3.455139e+000 2.863659e+000 1.835159e+000 1.990500e-001 3.545833e-001 3.952973e-001 5.260491e-001 7.426254e-001 6.383142e-001 7.148167e-001 7.288675e-001 6.400607e-001 7.141746e-001 6.089295e-001 4.927003e-001 1.768178e-001
<GCONST> 1.318445e+002
<STATE> 3
<MEAN> 39
 -3.854902e+000 -8.429942e+000 -3.191382e+000 -1.019402e+001 1.013456e+000 -4.456670e+000 -6.555802e+000 -6.903293e+000 -6.750219e+000 -1.137445e+001 -3.903848e+000 -6.444752e+000 6.892088e+001 1.679499e-001 -9.021369e-001 -4.810991e-001 -6.092104e-001 -1.366875e-001 2.011674e-001 -1.756514e-001 1.127954e-002 1.336912e-002 2.294342e-002 4.635870e-003 -3.004497e-001 8.031046e-001 2.723579e-002 -9.227832e-002 2.103809e-002 -1.516590e-001 -1.353664e-001 3.714025e-002 6.394008e-002 7.109828e-002 6.673042e-002 2.604698e-001 -1.177824e-002 4.406731e-002 6.675923e-002
<VARIANCE> 39
 2.812801e+001 5.318156e+001 7.093082e+001 8.905344e+001 1.020892e+002 8.662252e+001 9.213065e+001 7.763140e+001 7.061304e+001 7.386502e+001 6.268141e+001 5.179345e+001 4.141213e+001 9.737260e-001 2.088727e+000 2.288479e+000 2.880650e+000 3.372346e+000 2.912858e+000 3.066289e+000 2.958417e+000 2.802143e+000 3.075754e+000 2.840728e+000 2.429498e+000 1.257311e+000 1.817436e-001 3.116824e-001 3.744894e-001 4.396558e-001 5.182772e-001 4.864157e-001 4.998614e-001 5.409563e-001 4.747866e-001 5.370377e-001 4.831480e-001 4.090661e-001 1.546189e-001
<GCONST> 1.252546e+002
<STATE> 4
<MEAN> 39
 -3.732594e+000 -1.073289e+001 -3.843312e+000 -1.131546e+001 -6.106685e-001 -2.235082e+000 -5.237748e+000 -5.487048e+000 -5.659067e+000 -7.995158e+000 -3.333577e+000 -6.205193e+000 6.899094e+001 5.290939e-002 -2.773164e-001 -8.729918e-002 -3.028118e-001 -1.572131e-001 7.361893e-002 5.180085e-002 5.285526e-002 4.826118e-002 1.781885e-001 1.762169e-002 -3.132037e-002 2.337639e-001 2.899226e-002 6.066642e-002 2.380332e-002 -4.232613e-003 -4.377236e-002 -4.601070e-002 6.791494e-003 4.759455e-003 -9.864090e-003 2.886588e-002 -2.262620e-002 1.324490e-002 -3.585977e-002
<VARIANCE> 39
 3.052559e+001 7.007027e+001 7.227998e+001 1.136894e+002 1.000125e+002 7.800370e+001 9.809545e+001 7.606803e+001 6.968899e+001 5.775849e+001 5.230493e+001 4.653124e+001 9.417854e+001 4.874395e-001 1.389572e+000 1.238305e+000 1.646228e+000 1.689280e+000 1.727942e+000 1.819119e+000 1.810930e+000 1.728113e+000 1.829525e+000 1.756562e+000 1.548396e+000 8.245879e-001 8.599933e-002 1.869843e-001 1.868493e-001 2.382570e-001 2.631144e-001 2.648624e-001 2.838907e-001 3.062233e-001 2.897001e-001 2.991719e-001 2.837708e-001 2.584284e-001 1.015347e-001
<GCONST> 1.117325e+002
<TRANSP> 5
 0.000000e+000 1.000000e+000 0.000000e+000 0.000000e+000 0.000000e+000
 0.000000e+000 6.243156e-001 3.756845e-001 0.000000e+000 0.000000e+000
 0.000000e+000 0.000000e+000 4.987473e-001 5.012528e-001 0.000000e+000
 0.000000e+000 0.000000e+000 0.000000e+000 7.948185e-001 2.051816e-001
 0.000000e+000 0.000000e+000 0.000000e+000 0.000000e+000 0.000000e+000
<ENDHMM>
~h "i"
<BEGINHMM>
<NUMSTATES> 5
<STATE> 2
<MEAN> 39
 -5.842278e+000 -5.333351e+000 3.684425e+000 -1.317213e+001 -1.190059e+001 -1.310651e+001 -6.680556e+000 -4.510556e+000 -5.288674e+000 -5.217968e+000 -3.644232e+000 -1.107119e+000 7.222490e+001 4.063793e-001 -7.680395e-001 1.090300e+000 -1.719045e+000 -2.324423e+000 -7.163070e-001 -9.780226e-001 -6.520203e-001 -1.323050e+000 -4.494182e-001 -7.169834e-001 -6.594169e-001 1.152669e+000 -2.911038e-001 1.511207e-001 -9.762245e-002 4.294593e-001 4.249438e-001 5.393701e-001 2.546875e-001 -1.040825e-001 1.899213e-001 1.790864e-001 7.410581e-002 -1.478386e-001 -5.771127e-001
<VARIANCE> 39
 2.107703e+001 5.431589e+001 7.650054e+001 1.029314e+002 6.234184e+001 6.181026e+001 7.808708e+001 9.039414e+001 6.269378e+001 5.128697e+001 6.358111e+001 7.093868e+001 3.654302e+001 2.441895e+000 3.207698e+000 3.321425e+000 6.965998e+000 6.598549e+000 4.434688e+000 6.339201e+000 6.050439e+000 4.896376e+000 4.081988e+000 6.746626e+000 4.657392e+000 4.037940e+000 5.060641e-001 7.966698e-001 5.926290e-001 1.001706e+000 9.556161e-001 8.260502e-001 1.047867e+000 1.233401e+000 8.648707e-001 6.879366e-001 9.261435e-001 8.692113e-001 6.356003e-001
<GCONST> 1.423607e+002
<STATE> 3
<MEAN> 39
 -6.202585e+000 -6.383280e+000 5.889939e+000 -1.626558e+001 -1.545265e+001 -1.288994e+001 -7.818680e+000 -6.364411e+000 -7.441582e+000 -5.416780e+000 -5.150326e+000 -2.657630e+000 7.301202e+001 1.042441e-001 1.031679e-002 7.254232e-001 -2.303268e-001 -7.282777e-001 4.475919e-001 -4.487495e-001 -8.712220e-001 -4.840186e-001 -9.522751e-002 -4.362883e-001 -6.078537e-001 -4.144000e-001 -5.791558e-002 3.337459e-001 -1.610237e-001 5.335413e-001 5.892954e-001 2.887943e-001 2.152015e-001 -7.275550e-002 3.190367e-001 9.616788e-002 1.329015e-001 1.171415e-001 -4.945922e-001
<VARIANCE> 39
 1.873678e+001 3.946405e+001 7.250995e+001 1.096148e+002 6.011990e+001 5.614309e+001 7.018213e+001 9.293783e+001 5.826773e+001 5.363612e+001 7.636185e+001 7.181921e+001 2.876650e+001 1.331585e+000 2.683344e+000 2.012453e+000 4.941096e+000 3.903188e+000 2.826224e+000 3.268562e+000 4.286144e+000 2.563847e+000 2.893819e+000 4.797927e+000 3.233023e+000 3.608892e+000 2.766559e-001 4.142609e-001 4.178286e-001 7.174181e-001 6.900637e-001 5.414032e-001 7.361907e-001 9.497549e-001 5.729089e-001 5.254624e-001 7.933636e-001 6.157708e-001 3.857618e-001
<GCONST> 1.312444e+002
<STATE> 4
<MEAN> 39
 -6.918147e+000 -3.220412e+000 1.127120e+001 -1.473702e+001 -1.753272e+001 -8.231547e+000 -1.023561e+001 -1.019762e+001 -9.199880e+000 -4.329805e+000 -4.632958e+000 -6.002522e+000 7.110647e+001 2.722315e-001 3.421017e-001 1.032933e-001 4.809937e-001 5.143248e-001 2.372071e-001 1.993020e-002 -2.631747e-001 -3.872712e-002 -6.377047e-002 -1.168786e-001 -2.405226e-002 -7.985800e-001 7.471152e-002 7.538171e-002 -1.626473e-001 2.239530e-001 2.316694e-001 -1.293077e-002 1.105592e-001 6.972892e-002 1.028585e-001 -1.028348e-002 3.654756e-002 7.907662e-002 -1.801088e-001
<VARIANCE> 39
 2.178057e+001 3.605732e+001 6.785142e+001 1.306472e+002 6.233481e+001 5.676750e+001 5.426608e+001 6.158513e+001 4.781013e+001 4.985102e+001 1.099195e+002 6.165162e+001 4.008549e+001 7.949427e-001 1.122718e+000 1.459110e+000 2.327181e+000 2.177131e+000 1.565623e+000 2.022607e+000 2.472254e+000 1.678359e+000 1.640857e+000 1.950439e+000 1.501874e+000 1.493691e+000 1.137647e-001 2.002030e-001 2.096897e-001 3.423863e-001 3.596854e-001 2.969695e-001 3.568618e-001 4.074106e-001 3.181671e-001 2.870294e-001 3.627851e-001 2.637177e-001 2.074432e-001
<GCONST> 1.135471e+002
<TRANSP> 5
 0.000000e+000 1.000000e+000 0.000000e+000 0.000000e+000 0.000000e+000
 0.000000e+000 5.580359e-001 4.419641e-001 0.000000e+000 0.000000e+000
 0.000000e+000 0.000000e+000 4.826899e-001 5.173100e-001 0.000000e+000
 0.000000e+000 0.000000e+000 0.000000e+000 8.626638e-001 1.373362e-001
 0.000000e+000 0.000000e+000 0.000000e+000 0.000000e+000 0.000000e+000
<ENDHMM>
~h "k"
<BEGINHMM>
<NUMSTATES> 5
<STATE> 2
<MEAN> 39
 -5.364074e+000 -2.907120e+000 2.661783e-001 -5.579885e+000 -3.917640e+000 -4.842642e+000 -2.639091e+000 -4.911382e+000 -9.453583e-001 -2.093257e+000 -2.785899e+000 -3.019646e+000 5.467817e+001 -9.653931e-001 -5.048342e-001 -2.456590e-001 8.617561e-001 4.043145e-001 1.530178e-001 8.665668e-001 6.202549e-001 7.641416e-001 3.773099e-001 6.538361e-001 3.941764e-001 -6.283564e-001 -4.977661e-002 -1.844574e-001 8.350061e-002 -3.340703e-001 -3.618765e-001 -2.504276e-001 -1.136875e-001 -1.442262e-001 -1.513764e-001 7.415408e-003 -6.179239e-002 3.942303e-002 8.925148e-001
<VARIANCE> 39
 2.358737e+001 3.152891e+001 4.978778e+001 5.000330e+001 4.933034e+001 4.825556e+001 4.776373e+001 5.810684e+001 5.022891e+001 4.120143e+001 4.868905e+001 3.476914e+001 5.810090e+001 1.840325e+000 3.010227e+000 3.158299e+000 4.148544e+000 3.980597e+000 4.523687e+000 3.915421e+000 4.998917e+000 4.445021e+000 3.613167e+000 3.604517e+000 2.920213e+000 9.200414e+000 3.211869e-001 5.406338e-001 6.763384e-001 8.087259e-001 8.479553e-001 8.670851e-001 7.932137e-001 1.033118e+000 8.984128e-001 7.106541e-001 6.895431e-001 5.999079e-001 9.854896e-001
<GCONST> 1.342361e+002
<STATE> 3
<MEAN> 39
 -1.016639e+001 -6.144752e+000 1.121128e+000 -4.916554e+000 -6.273383e+000 -8.402363e+000 -1.698161e-001 -4.531259e+000 1.188272e-002 -5.356742e-001 -8.503500e-001 -4.959599e-001 6.376292e+001 2.424577e-001 -2.219236e-001 1.568229e+000 -2.180607e+000 -2.705228e+000 -1.747009e+000 -1.085179e+000 -7.623573e-001 -1.259722e+000 1.847324e-001 -5.733282e-001 -1.950694e-001 4.445781e+000 5.465224e-001 1.277782e-001 3.248924e-001 -8.164106e-001 -4.963610e-001 1.281127e-001 -5.320371e-001 4.483685e-002 -3.874184e-001 -1.620521e-001 -3.285916e-001 -4.798350e-001 -9.764798e-002
<VARIANCE> 39
 2.579315e+001 3.449120e+001 4.961684e+001 5.891315e+001 6.297942e+001 5.455302e+001 5.230818e+001 5.505883e+001 4.825070e+001 3.677671e+001 3.942747e+001 3.428138e+001 7.537987e+001 3.293752e+000 4.052616e+000 5.310318e+000 8.666399e+000 6.467204e+000 5.655643e+000 6.491803e+000 6.180723e+000 5.632595e+000 4.461454e+000 6.686922e+000 5.168768e+000 6.199689e+000 5.161620e-001 7.461747e-001 8.794627e-001 1.296814e+000 1.298777e+000 1.155402e+000 1.146879e+000 1.111415e+000 1.008502e+000 8.240656e-001 1.186011e+000 8.133828e-001 1.438889e+000
<GCONST> 1.438408e+002
<STATE> 4
<MEAN> 39
 -7.357413e+000 -5.996571e+000 4.590261e+000 -1.159824e+001 -1.291601e+001 -1.019189e+001 -3.988865e+000 -4.925621e+000 -3.202077e+000 -7.668507e-001 -2.898041e+000 -3.150307e+000 6.861376e+001 5.690136e-001 -3.984004e-001 1.010538e+000 -2.222583e+000 -1.735824e+000 -4.238479e-001 -8.878680e-001 2.537681e-002 -9.152846e-001 -2.240435e-001 -6.845658e-001 -8.079479e-001 1.947246e+000 -5.102674e-002 -4.931880e-002 -2.423620e-001 3.479720e-001 5.030726e-001 3.638259e-001 1.795668e-001 1.643235e-001 1.231552e-001 -1.451871e-001 6.910394e-002 -4.139301e-003 -6.984838e-001
<VARIANCE> 39
 2.031730e+001 3.801145e+001 7.175291e+001 1.052826e+002 7.259238e+001 5.370725e+001 5.288390e+001 7.498441e+001 5.092457e+001 4.519916e+001 6.218168e+001 4.296410e+001 1.100287e+002 1.782445e+000 3.035382e+000 4.788256e+000 7.083326e+000 6.441186e+000 3.784579e+000 5.021781e+000 5.326880e+000 4.433625e+000 3.913638e+000 6.272702e+000 3.624760e+000 4.957238e+000 3.634648e-001 4.548585e-001 6.699216e-001 1.144759e+000 1.095645e+000 6.801703e-001 8.195383e-001 7.483134e-001 7.711841e-001 6.293110e-001 8.878483e-001 6.230643e-001 9.352804e-001
<GCONST> 1.391836e+002
<TRANSP> 5
 0.000000e+000 1.000000e+000 0.000000e+000 0.000000e+000 0.000000e+000
 0.000000e+000 8.110448e-001 1.889552e-001 0.000000e+000 0.000000e+000
 0.000000e+000 0.000000e+000 6.316060e-001 3.683940e-001 0.000000e+000
 0.000000e+000 0.000000e+000 0.000000e+000 4.192076e-001 5.807924e-001
 0.000000e+000 0.000000e+000 0.000000e+000 0.000000e+000 0.000000e+000
<ENDHMM>
~h "l"
<BEGINHMM>
<NUMSTATES> 5
<STATE> 2
<MEAN> 39
 -1.292400e+000 -7.561548e+000 1.692186e+000 -1.278091e+001 -7.385365e+000 -1.108365e+001 -1.270259e+001 -5.888440e+000 -2.663046e+000 -5.832368e+000 -4.165833e+000 -3.030495e+000 6.822692e+001 9.415304e-002 -6.020490e-002 4.447651e-001 -3.920752e-001 1.569419e-001 -1.365819e+000 -1.205070e+000 6.272238e-001 3.682338e-001 -2.444047e-001 -1.103062e-001 2.009002e-001 4.124140e-001 -1.130230e-001 -1.304121e-001 -1.828142e-001 -1.456956e-001 8.711913e-002 2.120705e-001 3.124596e-001 3.022320e-001 -9.045775e-002 -2.816276e-002 -1.085733e-001 -8.070000e-002 1.560909e-001
<VARIANCE> 39
 2.563365e+001 5.043892e+001 8.206165e+001 8.555567e+001 6.751369e+001 1.049757e+002 9.972507e+001 8.833873e+001 7.320631e+001 8.434001e+001 7.101666e+001 6.549541e+001 4.614246e+001 1.090374e+000 2.504668e+000 2.903958e+000 4.593365e+000 4.603595e+000 6.066222e+000 6.037265e+000 6.372170e+000 4.893611e+000 4.979169e+000 4.426578e+000 3.565130e+000 2.333128e+000 1.777876e-001 3.701278e-001 4.668627e-001 7.258310e-001 7.773801e-001 1.162263e+000 1.232548e+000 1.067753e+000 8.712618e-001 8.949355e-001 8.153042e-001 6.330506e-001 2.295099e-001
<GCONST> 1.380150e+002
<STATE> 3
<MEAN> 39
 -2.185471e+000 -9.440561e+000 1.622042e+000 -1.683626e+001 -6.233853e+000 -1.488989e+001 -1.397019e+001 -7.117730e-001 -2.524542e+000 -7.047302e+000 -5.779887e+000 -2.588732e+000 7.148277e+001 -3.195574e-001 -1.187433e+000 -1.173466e+000 -5.991559e-001 2.128760e-001 9.963374e-001 1.499988e+000 1.295473e+000 -2.519251e-001 -2.257848e-001 -8.615813e-001 -4.124142e-001 1.230217e+000 -8.575159e-002 -2.499544e-001 -3.377783e-001 2.325263e-001 7.254621e-002 6.960170e-001 6.083431e-001 -2.944462e-001 -2.700292e-001 -1.094574e-001 -1.480711e-002 -9.777630e-002 1.357424e-001
<VARIANCE> 39
 1.748940e+001 4.157260e+001 6.691589e+001 6.323333e+001 5.525483e+001 9.182465e+001 1.042813e+002 7.369547e+001 7.298238e+001 9.881618e+001 6.300546e+001 6.649227e+001 2.217032e+001 6.052643e-001 2.817449e+000 3.402986e+000 3.302582e+000 3.629131e+000 6.942888e+000 7.513084e+000 5.447544e+000 4.961208e+000 4.641065e+000 4.104081e+000 3.222718e+000 1.350088e+000 8.979136e-002 4.101434e-001 4.013472e-001 5.564867e-001 6.432951e-001 9.556560e-001 1.155601e+000 1.004411e+000 7.906224e-001 9.119100e-001 7.830604e-001 5.718012e-001 1.993148e-001
<GCONST> 1.324469e+002
<STATE> 4
<MEAN> 39
 -3.246283e+000 -1.408625e+001 -2.688315e+000 -1.778166e+001 -3.867165e+000 -7.931282e+000 -8.125228e+000 -4.289343e-002 -4.659920e+000 -8.234349e+000 -7.659707e+000 -4.871311e+000 7.507090e+001 -2.352175e-001 -6.631343e-001 -7.387756e-001 1.458402e-001 4.015219e-001 1.060412e+000 9.649272e-001 -1.314957e-001 -3.731450e-001 -2.603614e-001 -1.001176e-001 -2.238142e-001 5.773195e-001 3.713179e-002 1.714144e-001 1.453991e-001 1.282849e-001 -4.312909e-003 -9.340509e-002 -2.045848e-001 -2.964390e-001 2.036498e-002 7.748590e-002 2.309710e-001 3.569928e-002 -1.752685e-001
<VARIANCE> 39
 1.844043e+001 4.932125e+001 7.008582e+001 6.695491e+001 6.999730e+001 1.032290e+002 1.118820e+002 7.906216e+001 7.838901e+001 8.041599e+001 5.334388e+001 5.930991e+001 2.529549e+001 4.871564e-001 2.247993e+000 2.264307e+000 2.305084e+000 3.012071e+000 4.922635e+000 4.961571e+000 3.690664e+000 3.286123e+000 3.543770e+000 2.816897e+000 2.238176e+000 1.147153e+000 6.644551e-002 2.750672e-001 2.761668e-001 3.308368e-001 4.019286e-001 6.344567e-001 7.886585e-001 6.725394e-001 5.168769e-001 5.120229e-001 5.268598e-001 3.736679e-001 1.568801e-001
<GCONST> 1.235343e+002
<TRANSP> 5
 0.000000e+000 1.000000e+000 0.000000e+000 0.000000e+000 0.000000e+000
 0.000000e+000 7.097718e-001 2.902282e-001 0.000000e+000 0.000000e+000
 0.000000e+000 0.000000e+000 6.688529e-001 3.311471e-001 0.000000e+000
 0.000000e+000 0.000000e+000 0.000000e+000 6.731807e-001 3.268193e-001
 0.000000e+000 0.000000e+000 0.000000e+000 0.000000e+000 0.000000e+000
<ENDHMM>
~h "m"
<BEGINHMM>
<NUMSTATES> 5
<STATE> 2
<MEAN> 39
 -1.094631e-001 -7.778817e+000 -2.383204e-001 -1.007457e+001 -4.578379e+000 -6.429949e+000 -8.204035e+000 -7.964030e+000 -5.536724e+000 -5.060021e+000 -5.009264e+000 -6.418863e+000 6.611564e+001 7.480102e-001 1.441375e+000 8.216041e-001 1.379913e+000 3.812469e-001 -1.385494e-001 -1.218348e+000 -2.215469e+000 -1.051075e+000 1.640745e-001 -4.306223e-001 8.767501e-002 -1.430617e+000 -2.269567e-001 -3.385985e-002 1.036359e-001 -7.379416e-002 -1.706094e-002 1.139667e-001 6.962002e-002 -2.010948e-001 -2.752035e-001 -1.586210e-001 -1.079567e-001 8.980759e-002 1.651912e-001
<VARIANCE> 39
 2.338229e+001 6.107659e+001 6.638950e+001 7.816976e+001 6.852513e+001 9.183319e+001 7.333965e+001 8.691187e+001 6.381024e+001 6.721141e+001 7.520458e+001 6.710813e+001 6.618883e+001 1.502903e+000 2.745459e+000 3.936434e+000 4.517994e+000 4.077219e+000 4.557764e+000 4.882547e+000 6.077226e+000 5.530197e+000 5.183188e+000 4.725125e+000 4.013853e+000 3.653275e+000 2.373113e-001 4.121063e-001 5.170859e-001 7.605913e-001 5.851544e-001 6.227266e-001 7.659715e-001 1.118503e+000 8.492833e-001 7.643719e-001 7.551497e-001 6.618977e-001 3.375911e-001
<GCONST> 1.376541e+002
<STATE> 3
<MEAN> 39
 7.978616e-001 -4.852805e+000 1.302590e+000 -7.994653e+000 -3.796071e+000 -5.936515e+000 -1.135700e+001 -1.456505e+001 -9.992889e+000 -5.944788e+000 -7.137869e+000 -5.874893e+000 6.423310e+001 -6.949171e-002 6.555227e-002 4.553408e-002 -3.360128e-002 1.538370e-001 2.108096e-001 -2.221503e-001 -4.376277e-001 -4.805943e-001 -4.557659e-001 -3.740690e-001 2.862178e-002 1.336172e-001 -1.805536e-001 -3.501076e-001 -2.913004e-001 -4.506524e-001 -1.088340e-001 6.247881e-002 3.675249e-001 8.003281e-001 3.882190e-001 -1.092724e-001 1.224712e-001 -3.048227e-002 3.915859e-001
<VARIANCE> 39
 1.468382e+001 4.112689e+001 6.186366e+001 6.929053e+001 5.669366e+001 9.900401e+001 7.145969e+001 7.875900e+001 6.666084e+001 8.096228e+001 8.658451e+001 6.945887e+001 2.859373e+001 9.046971e-001 3.155789e+000 3.910243e+000 4.697666e+000 3.069982e+000 3.653397e+000 4.202610e+000 8.302126e+000 5.848532e+000 4.858661e+000 5.086886e+000 4.531432e+000 3.495040e+000 1.759996e-001 2.991966e-001 6.284513e-001 7.226074e-001 5.763719e-001 6.321817e-001 7.602315e-001 1.049806e+000 9.685926e-001 9.699319e-001 9.270430e-001 8.042196e-001 2.973890e-001
<GCONST> 1.354889e+002
<STATE> 4
<MEAN> 39
 5.438451e-001 -3.384677e+000 2.429105e+000 -7.747709e+000 -4.003619e+000 -3.840002e+000 -9.971231e+000 -1.340155e+001 -9.521125e+000 -6.990139e+000 -7.241228e+000 -5.498845e+000 6.291446e+001 -1.176718e-001 7.768269e-002 -3.030218e-001 -2.933603e-001 -8.324038e-002 1.318960e-001 3.435784e-001 6.594500e-001 3.169195e-001 -2.304639e-001 4.147194e-002 4.259252e-002 5.614102e-002 -4.101126e-002 -1.295415e-001 -1.867239e-001 -1.667119e-001 -2.427706e-003 -1.899612e-002 1.301131e-001 3.751961e-001 2.027120e-001 1.058674e-001 1.867216e-001 -5.235893e-002 1.522826e-001
<VARIANCE> 39
 1.742223e+001 4.777057e+001 5.673157e+001 6.942346e+001 5.956090e+001 9.023534e+001 7.191592e+001 9.055482e+001 6.968588e+001 6.822668e+001 7.346674e+001 5.682679e+001 4.185798e+001 6.189545e-001 1.688775e+000 1.996364e+000 2.661923e+000 2.251439e+000 2.347124e+000 2.485050e+000 3.751503e+000 3.192810e+000 2.868523e+000 3.058457e+000 2.603884e+000 1.595605e+000 1.277142e-001 2.164594e-001 3.923428e-001 4.935063e-001 4.221007e-001 4.068173e-001 4.543569e-001 6.957721e-001 6.240489e-001 5.380557e-001 5.785378e-001 4.930935e-001 1.861475e-001
<GCONST> 1.227870e+002
<TRANSP> 5
 0.000000e+000 1.000000e+000 0.000000e+000 0.000000e+000 0.000000e+000
 0.000000e+000 5.557473e-001 4.442527e-001 0.000000e+000 0.000000e+000
 0.000000e+000 0.000000e+000 5.462273e-001 4.537727e-001 0.000000e+000
 0.000000e+000 0.000000e+000 0.000000e+000 7.546813e-001 2.453187e-001
 0.000000e+000 0.000000e+000 0.000000e+000 0.000000e+000 0.000000e+000
<ENDHMM>
~h "n"
<BEGINHMM>
<NUMSTATES> 5
<STATE> 2
<MEAN> 39
 -9.116268e-001 -6.106542e+000 1.494340e+000 -1.291216e+001 -8.270345e+000 -7.532509e+000 -6.933769e+000 -8.052816e+000 -6.469117e+000 -5.127041e+000 -7.802948e+000 -4.989878e+000 6.710746e+001 6.021252e-001 1.104964e+000 4.559436e-001 1.058551e+000 -3.718083e-001 -2.879825e-001 -4.086233e-001 -1.522676e+000 6.535385e-002 -3.269707e-001 -5.072803e-001 4.068283e-001 -1.310226e+000 -8.411095e-002 -6.417620e-002 -7.069919e-002 -2.582110e-002 5.214772e-002 8.563462e-002 -4.588574e-004 3.412184e-002 2.062657e-002 -1.119995e-001 9.682465e-002 -3.514164e-002 1.062581e-001
<VARIANCE> 39
 2.177323e+001 5.050233e+001 7.902399e+001 8.415978e+001 7.551958e+001 8.281580e+001 8.242318e+001 9.921857e+001 7.405071e+001 7.723077e+001 8.501731e+001 6.722170e+001 4.062607e+001 9.854629e-001 2.200846e+000 3.411247e+000 3.648275e+000 3.910728e+000 4.400073e+000 4.045356e+000 5.377402e+000 3.941416e+000 4.368554e+000 3.824601e+000 3.530168e+000 1.907880e+000 1.483543e-001 3.253568e-001 4.417613e-001 5.635661e-001 5.940067e-001 6.682928e-001 6.394295e-001 9.747922e-001 6.659164e-001 6.864672e-001 6.287759e-001 5.762123e-001 2.395627e-001
<GCONST> 1.325098e+002
<STATE> 3
<MEAN> 39
 4.714670e-001 -3.294748e+000 2.441564e+000 -1.025022e+001 -9.489640e+000 -8.252804e+000 -8.256943e+000 -1.193519e+001 -6.359952e+000 -6.778649e+000 -8.883049e+000 -3.813847e+000 6.417355e+001 9.438667e-002 3.407896e-001 9.506369e-002 5.489605e-001 1.305400e-002 -6.951468e-003 -1.652036e-001 -3.754817e-001 -6.313556e-002 -3.839760e-001 -7.974184e-002 8.212114e-002 -4.868818e-001 -2.336988e-001 -2.887294e-001 -1.360849e-001 -1.807057e-001 2.136353e-001 1.125568e-001 1.276621e-001 5.452762e-001 -2.775028e-002 7.194354e-002 2.133951e-001 -1.271169e-001 2.707579e-001
<VARIANCE> 39
 1.639353e+001 4.071300e+001 6.015181e+001 6.310258e+001 5.616984e+001 8.099081e+001 6.426196e+001 7.608026e+001 6.918693e+001 8.227383e+001 7.899735e+001 6.490840e+001 2.667052e+001 8.903208e-001 2.930683e+000 2.405679e+000 3.400472e+000 3.115981e+000 3.608969e+000 3.555351e+000 6.345602e+000 3.644716e+000 3.670687e+000 3.366289e+000 3.227571e+000 2.594866e+000 1.507643e-001 3.962013e-001 4.462508e-001 5.596738e-001 5.487390e-001 6.756611e-001 6.311448e-001 1.001342e+000 6.883958e-001 7.237501e-001 6.164106e-001 5.884975e-001 2.779314e-001
<GCONST> 1.296949e+002
<STATE> 4
<MEAN> 39
 -1.870514e-001 -1.504815e+000 2.410986e+000 -7.885717e+000 -7.698910e+000 -6.038713e+000 -7.315058e+000 -1.086781e+001 -5.509195e+000 -6.363544e+000 -6.921444e+000 -3.940664e+000 6.049075e+001 -2.499720e-001 9.598394e-002 -7.446019e-002 4.722813e-001 3.764756e-001 6.007911e-002 1.538139e-001 3.899522e-001 8.697669e-002 -1.178962e-002 2.259308e-001 -2.464556e-002 -4.264935e-001 -1.306327e-001 -1.598879e-001 -8.864799e-002 -7.008050e-002 1.287617e-001 2.299952e-002 7.787856e-002 2.694449e-001 4.672197e-002 7.670930e-002 8.723649e-002 -2.857631e-002 1.404413e-001
<VARIANCE> 39
 2.416200e+001 3.938847e+001 5.071965e+001 6.243645e+001 5.568480e+001 6.525876e+001 6.116096e+001 7.398249e+001 6.205529e+001 6.662929e+001 6.411506e+001 5.039902e+001 5.136284e+001 7.384655e-001 1.673187e+000 1.415760e+000 1.969958e+000 2.190880e+000 2.216235e+000 2.568074e+000 3.460464e+000 2.778682e+000 2.644951e+000 2.486253e+000 2.213699e+000 1.462367e+000 1.466549e-001 2.730657e-001 2.720360e-001 3.595513e-001 3.924987e-001 4.143172e-001 4.517538e-001 6.396108e-001 5.016317e-001 4.872259e-001 4.562446e-001 4.110933e-001 1.930427e-001
<GCONST> 1.193124e+002
<TRANSP> 5
 0.000000e+000 1.000000e+000 0.000000e+000 0.000000e+000 0.000000e+000
 0.000000e+000 5.322621e-001 4.677378e-001 0.000000e+000 0.000000e+000
 0.000000e+000 0.000000e+000 4.828194e-001 5.171806e-001 0.000000e+000
 0.000000e+000 0.000000e+000 0.000000e+000 7.589322e-001 2.410678e-001
 0.000000e+000 0.000000e+000 0.000000e+000 0.000000e+000 0.000000e+000
<ENDHMM>
~h "o"
<BEGINHMM>
<NUMSTATES> 5
<STATE> 2
<MEAN> 39
 -3.258147e+000 -1.376363e+001 -4.412336e+000 -1.769333e+001 -7.097525e+000 -8.733920e+000 -5.262520e+000 2.614997e-001 -3.932293e+000 -5.540016e+000 -6.557729e+000 -6.452031e+000 7.612997e+001 8.354210e-001 -2.527559e+000 -2.706599e+000 -6.493666e-001 1.769297e+000 1.400774e+000 -3.283386e-001 -1.369040e-001 -7.048015e-001 -1.442094e+000 -1.230989e+000 -1.495349e+000 1.149942e+000 -4.386721e-001 7.602702e-001 8.117788e-002 6.582088e-001 7.966650e-001 7.198589e-001 -2.409523e-002 -5.895143e-001 6.235486e-002 1.941227e-001 6.154199e-001 1.899639e-001 -8.088131e-001
<VARIANCE> 39
 2.317886e+001 4.846463e+001 6.949697e+001 7.006078e+001 9.564207e+001 6.474406e+001 7.253910e+001 7.229514e+001 7.197293e+001 7.478761e+001 7.217997e+001 6.885577e+001 2.520017e+001 1.406601e+000 3.824364e+000 3.797780e+000 7.032020e+000 7.716606e+000 4.247175e+000 5.020973e+000 5.393285e+000 5.426913e+000 7.071330e+000 6.497999e+000 5.645338e+000 2.241671e+000 3.574223e-001 7.094027e-001 6.808775e-001 1.070736e+000 1.634210e+000 9.100568e-001 1.061703e+000 9.120635e-001 1.079805e+000 1.230316e+000 1.057115e+000 1.005000e+000 3.028370e-001
<GCONST> 1.424563e+002
<STATE> 3
<MEAN> 39
 -1.840090e+000 -1.637607e+001 -9.641648e+000 -1.697766e+001 -1.271902e+000 -4.359695e+000 -6.917531e+000 -2.691024e+000 -4.877892e+000 -7.045519e+000 -6.049352e+000 -8.968897e+000 7.667961e+001 6.029131e-001 -2.080799e-001 -1.320314e+000 -7.781040e-002 1.353643e+000 1.892254e+000 -4.265710e-001 -1.369695e+000 -5.631282e-001 -9.700544e-002 6.640599e-001 -5.768675e-001 -3.352442e-001 -1.106499e-001 7.977969e-001 7.147905e-001 2.495836e-001 -4.776042e-001 -1.333533e-001 1.398904e-001 -1.325926e-001 6.245980e-002 2.785632e-001 3.625972e-001 4.637983e-001 -5.435917e-001
<VARIANCE> 39
 2.288478e+001 4.546608e+001 5.902559e+001 6.323722e+001 7.082240e+001 7.209692e+001 6.488530e+001 6.912820e+001 7.098672e+001 8.622488e+001 8.736001e+001 7.943793e+001 1.934196e+001 7.535225e-001 3.334248e+000 2.474095e+000 3.996320e+000 4.841688e+000 3.421611e+000 4.368529e+000 3.680781e+000 3.918570e+000 4.525141e+000 4.140272e+000 4.066476e+000 1.538407e+000 1.809110e-001 3.413504e-001 4.760673e-001 8.888664e-001 9.327461e-001 6.232299e-001 7.622434e-001 7.436594e-001 8.833619e-001 1.003238e+000 1.109652e+000 8.822619e-001 1.461227e-001
<GCONST> 1.324301e+002
<STATE> 4
<MEAN> 39
 -4.061760e-001 -1.535478e+001 -1.112314e+001 -1.746545e+001 4.904819e-001 1.030869e+000 -8.593942e+000 -5.897286e+000 -6.450976e+000 -6.987844e+000 -3.968952e+000 -9.303820e+000 7.478115e+001 2.999090e-001 9.417239e-001 4.740321e-001 2.190178e-001 -3.792823e-001 -8.340291e-002 -4.823006e-002 -3.839234e-001 -1.505871e-001 5.007780e-002 6.169254e-002 3.377682e-001 -9.605995e-001 -8.516560e-002 2.518284e-001 3.759596e-001 2.217843e-001 -2.069423e-001 -3.246847e-001 3.292502e-002 2.445200e-002 7.386923e-002 3.339913e-002 -1.549151e-001 1.480133e-001 -2.183623e-001
<VARIANCE> 39
 2.143056e+001 4.855719e+001 5.296811e+001 6.819615e+001 7.443042e+001 8.806498e+001 7.447462e+001 7.118320e+001 5.737967e+001 6.860990e+001 7.727162e+001 7.320262e+001 2.384782e+001 5.256475e-001 2.017412e+000 2.274763e+000 2.781158e+000 2.980349e+000 3.369195e+000 2.747089e+000 2.821909e+000 2.704447e+000 2.817181e+000 3.194883e+000 2.585501e+000 1.255629e+000 1.103479e-001 2.323884e-001 2.791173e-001 5.374200e-001 5.135304e-001 5.008586e-001 5.067510e-001 5.148591e-001 4.778581e-001 5.157068e-001 5.820156e-001 4.559686e-001 1.355809e-001
<GCONST> 1.219112e+002
<TRANSP> 5
 0.000000e+000 1.000000e+000 0.000000e+000 0.000000e+000 0.000000e+000
 0.000000e+000 5.249943e-001 4.750058e-001 0.000000e+000 0.000000e+000
 0.000000e+000 0.000000e+000 4.665574e-001 5.334426e-001 0.000000e+000
 0.000000e+000 0.000000e+000 0.000000e+000 8.481882e-001 1.518118e-001
 0.000000e+000 0.000000e+000 0.000000e+000 0.000000e+000 0.000000e+000
<ENDHMM>
~h "p"
<BEGINHMM>
<NUMSTATES> 5
<STATE> 2
<MEAN> 39
 -2.066598e-001 -8.109988e+000 -2.427810e+000 -8.456800e+000 -2.847329e+000 -3.559685e+000 -3.187627e+000 -2.529137e+000 -9.238912e-001 -2.216338e+000 -1.037627e+000 -4.113216e+000 6.568081e+001 -8.113500e-002 2.033449e+000 1.096373e+000 2.726906e+000 1.530753e+000 1.412079e+000 1.353709e+000 8.003990e-001 1.224418e+000 7.820617e-001 5.251163e-001 4.828368e-001 -3.438360e+000 -6.459092e-001 -2.982669e-001 4.523084e-002 -4.728830e-003 -2.690700e-002 7.884271e-002 1.554832e-001 9.455403e-002 -9.160630e-002 -1.279580e-001 -1.988776e-001 -2.000055e-002 -1.182780e-001
<VARIANCE> 39
 2.820798e+001 5.296027e+001 7.368377e+001 7.423248e+001 6.574190e+001 6.548247e+001 5.051509e+001 4.778264e+001 4.749613e+001 4.727429e+001 5.411188e+001 7.666430e+001 7.047647e+001 2.965980e+000 3.760033e+000 4.035627e+000 5.041468e+000 4.276108e+000 4.122940e+000 4.484979e+000 4.328654e+000 4.293160e+000 3.829519e+000 4.340216e+000 4.198737e+000 6.133390e+000 4.666270e-001 8.083400e-001 6.659718e-001 1.105351e+000 8.032451e-001 7.934000e-001 7.175858e-001 7.252102e-001 7.545937e-001 6.705139e-001 7.724071e-001 7.510213e-001 8.531477e-001
<GCONST> 1.390588e+002
<STATE> 3
<MEAN> 39
 -3.485248e+000 -5.316588e+000 7.950965e-002 -2.296732e+000 8.882971e-001 1.083212e-001 6.973161e-001 -4.095744e-001 1.220931e+000 -1.051806e+000 -8.887155e-001 -3.078339e+000 5.710319e+001 -1.328565e+000 1.282662e-001 6.140312e-002 9.856457e-001 3.780123e-001 4.479716e-001 7.748862e-001 5.678111e-001 6.484743e-001 2.993937e-001 1.301170e-001 3.881348e-001 -2.066250e+000 -8.402701e-002 -5.484044e-001 -4.244047e-001 -8.463966e-001 -5.369001e-001 -5.453915e-001 -5.053533e-001 -2.837150e-001 -3.251218e-001 -1.854257e-001 -1.156840e-001 -7.226130e-002 8.251042e-001
<VARIANCE> 39
 2.412361e+001 4.219436e+001 5.085769e+001 5.104464e+001 5.863863e+001 5.105248e+001 4.504180e+001 4.565385e+001 4.341285e+001 3.947706e+001 4.326244e+001 4.914844e+001 2.516632e+001 2.504347e+000 3.768987e+000 3.302820e+000 4.354395e+000 3.787829e+000 4.452727e+000 4.151569e+000 3.805196e+000 4.056112e+000 3.350880e+000 3.570871e+000 3.366732e+000 6.567520e+000 4.932944e-001 6.890331e-001 6.409268e-001 7.058300e-001 7.641700e-001 7.487550e-001 7.325030e-001 7.426257e-001 7.510220e-001 6.789447e-001 7.185419e-001 6.077963e-001 5.477376e-001
<GCONST> 1.327623e+002
<STATE> 4
<MEAN> 39
 -7.225257e+000 -5.755406e+000 -2.026870e+000 -2.802269e+000 -3.451475e-001 -1.206316e+000 2.650881e-001 -6.413960e-001 1.676563e+000 -8.878675e-001 -3.507657e-001 -1.912819e+000 5.249075e+001 -1.792092e-001 3.230523e-001 4.235841e-002 -1.371086e-002 -1.513914e-001 -3.641975e-001 -3.780597e-001 -3.720183e-001 -2.901936e-001 -2.200507e-001 -1.101900e-001 2.510348e-002 4.030038e-002 2.018468e-001 6.275579e-002 5.841821e-002 -1.597363e-001 -7.008184e-002 -1.554556e-001 -2.082373e-001 -1.542006e-001 -1.870907e-001 -1.017959e-001 -7.792255e-002 -5.318146e-002 4.403230e-001
<VARIANCE> 39
 1.729057e+001 3.207055e+001 3.561148e+001 3.144876e+001 4.062320e+001 3.232218e+001 3.433235e+001 3.458986e+001 3.373812e+001 2.935429e+001 3.064281e+001 2.844131e+001 2.700172e+001 1.772303e+000 2.082441e+000 2.080180e+000 2.079955e+000 2.420628e+000 2.735638e+000 3.119196e+000 2.968839e+000 2.972431e+000 2.476821e+000 2.347316e+000 2.113724e+000 2.516900e+000 2.823183e-001 3.757049e-001 3.670952e-001 4.503641e-001 4.705819e-001 5.026988e-001 5.478339e-001 5.389110e-001 5.489521e-001 4.777914e-001 4.686980e-001 4.069085e-001 4.235641e-001
<GCONST> 1.170888e+002
<TRANSP> 5
 0.000000e+000 1.000000e+000 0.000000e+000 0.000000e+000 0.000000e+000
 0.000000e+000 5.269926e-001 4.730075e-001 0.000000e+000 0.000000e+000
 0.000000e+000 0.000000e+000 4.548700e-001 5.451300e-001 0.000000e+000
 0.000000e+000 0.000000e+000 0.000000e+000 8.640114e-001 1.359886e-001
 0.000000e+000 0.000000e+000 0.000000e+000 0.000000e+000 0.000000e+000
<ENDHMM>
~h "r"
<BEGINHMM>
<NUMSTATES> 5
<STATE> 2
<MEAN> 39
 -2.721849e+000 -7.432489e+000 2.347174e+000 -4.636046e+000 -8.247142e+000 -9.274630e+000 -8.444295e+000 -4.277859e+000 -3.278503e+000 -5.916197e+000 -3.315141e+000 -3.482238e+000 6.551372e+001 2.386954e-001 -6.765023e-001 2.277254e-002 4.073953e-001 -5.753301e-001 -9.318997e-001 -6.374644e-002 7.450353e-001 3.356890e-001 -1.095865e-001 1.743585e-001 1.638492e-001 6.458597e-001 9.053382e-002 -3.310971e-001 -1.878081e-001 -5.089619e-001 -1.280859e-001 2.069277e-001 6.479871e-002 2.082642e-001 -8.932427e-002 2.501138e-002 -1.756143e-001 -7.022415e-002 3.193379e-001
<VARIANCE> 39
 6.464727e+001 6.435706e+001 7.994116e+001 8.678747e+001 7.580895e+001 6.414577e+001 7.337000e+001 6.654025e+001 5.325926e+001 5.645156e+001 5.049055e+001 3.910316e+001 4.961022e+001 4.429036e+000 5.805470e+000 3.785111e+000 7.095151e+000 7.002387e+000 5.449740e+000 5.712930e+000 6.197641e+000 4.354417e+000 4.574770e+000 4.473940e+000 3.472519e+000 4.761535e+000 7.408319e-001 7.725447e-001 5.917433e-001 9.650489e-001 1.341206e+000 1.096542e+000 9.454499e-001 9.454427e-001 8.279943e-001 8.684562e-001 8.284391e-001 6.399179e-001 5.393256e-001
<GCONST> 1.439538e+002
<STATE> 3
<MEAN> 39
 1.115849e+000 -1.491529e+001 -1.189645e-001 -7.796884e+000 -1.364929e+001 -1.130005e+001 -9.063008e+000 1.056688e+000 -2.733289e+000 -5.875801e+000 -5.087116e+000 -3.551449e+000 7.138037e+001 2.623832e-001 -1.978545e+000 -9.948297e-001 -1.978688e+000 -3.241217e-001 1.253419e+000 3.599091e-001 1.364577e+000 -6.050473e-001 1.554241e-002 -1.103321e+000 -5.691010e-001 1.628025e+000 -4.610549e-001 3.733256e-001 -8.667696e-002 -9.405024e-002 8.389431e-001 5.446208e-001 2.028809e-001 -4.664440e-001 -3.113674e-001 -5.944183e-002 -2.452814e-002 -1.464506e-001 -1.856629e-001
<VARIANCE> 39
 2.550254e+001 4.466703e+001 6.742574e+001 9.820026e+001 6.802476e+001 6.936538e+001 8.917735e+001 7.340544e+001 5.400145e+001 6.725414e+001 5.444546e+001 4.505562e+001 2.697712e+001 2.284938e+000 3.320907e+000 3.324102e+000 5.076266e+000 6.552316e+000 5.794734e+000 5.210077e+000 5.327259e+000 5.120710e+000 4.687573e+000 4.447623e+000 3.877153e+000 1.712585e+000 3.911108e-001 5.286442e-001 3.840682e-001 8.271865e-001 9.473876e-001 9.201592e-001 8.088015e-001 9.743636e-001 7.300637e-001 8.198962e-001 8.125362e-001 6.708282e-001 2.791606e-001
<GCONST> 1.369387e+002
<STATE> 4
<MEAN> 39
 -3.765034e-001 -1.742270e+001 -2.879996e+000 -1.166835e+001 -9.871460e+000 -6.434315e+000 -7.753218e+000 1.924088e+000 -5.407660e+000 -5.998910e+000 -7.338394e+000 -5.449387e+000 7.398446e+001 -5.797912e-001 -2.710373e-001 -6.735588e-001 -1.060403e+000 1.395657e+000 1.014989e+000 4.778427e-001 -2.985066e-001 -6.734056e-001 -1.157575e-001 -2.785512e-001 -3.457029e-001 6.177186e-001 -7.933531e-002 4.068571e-001 7.819174e-002 2.498759e-001 2.404049e-001 -1.718159e-001 -2.646840e-002 -4.323691e-001 7.563027e-002 7.037278e-003 3.032224e-001 9.906876e-002 -2.849197e-001
<VARIANCE> 39
 2.401207e+001 5.399949e+001 6.863255e+001 1.020953e+002 8.842839e+001 8.298098e+001 9.477060e+001 9.387006e+001 7.181126e+001 6.602379e+001 5.230191e+001 5.018417e+001 3.824998e+001 8.402653e-001 1.727849e+000 1.995069e+000 3.700287e+000 4.394881e+000 3.820765e+000 3.527180e+000 3.841855e+000 3.438551e+000 3.602462e+000 3.165062e+000 3.017170e+000 1.200778e+000 1.783938e-001 2.964491e-001 2.268639e-001 4.921867e-001 6.995537e-001 5.821228e-001 5.513911e-001 6.871366e-001 5.850316e-001 5.389151e-001 5.461950e-001 4.661878e-001 1.723166e-001
<GCONST> 1.271484e+002
<TRANSP> 5
 0.000000e+000 1.000000e+000 0.000000e+000 0.000000e+000 0.000000e+000
 0.000000e+000 7.865334e-001 2.134666e-001 0.000000e+000 0.000000e+000
 0.000000e+000 0.000000e+000 5.786084e-001 4.213917e-001 0.000000e+000
 0.000000e+000 0.000000e+000 0.000000e+000 5.914060e-001 4.085940e-001
 0.000000e+000 0.000000e+000 0.000000e+000 0.000000e+000 0.000000e+000
<ENDHMM>
~h "s"
<BEGINHMM>
<NUMSTATES> 5
<STATE> 2
<MEAN> 39
 -8.718547e+000 1.861693e+000 1.281931e+000 -6.272341e+000 -5.493734e+000 -9.025890e+000 -5.202229e+000 -5.307655e+000 -4.848027e+000 -5.094484e+000 -2.969936e+000 -3.057054e+000 6.617080e+001 -3.355131e+000 2.585836e+000 -1.483897e-001 2.114162e+000 1.691817e+000 9.989281e-001 1.345747e+000 1.132342e+000 9.260836e-001 3.587967e-001 9.978581e-001 3.650921e-001 -4.054146e-001 -5.589591e-001 -1.972849e-001 -2.883320e-001 -1.727311e-001 3.106583e-001 4.355629e-001 3.029846e-001 3.296760e-001 2.593272e-001 2.654435e-001 1.171848e-001 5.966653e-003 8.330072e-002
<VARIANCE> 39
 6.805686e+001 6.682830e+001 7.453276e+001 8.246174e+001 7.558367e+001 6.586758e+001 6.508316e+001 6.879223e+001 5.550005e+001 5.461050e+001 5.370368e+001 3.917238e+001 4.980233e+001 4.745777e+000 4.849975e+000 4.817316e+000 6.261714e+000 5.952747e+000 6.259684e+000 5.512083e+000 5.770823e+000 4.714851e+000 5.040256e+000 4.381080e+000 3.926482e+000 2.134102e+000 9.861154e-001 1.009622e+000 6.016266e-001 1.016268e+000 9.980701e-001 9.266942e-001 8.796229e-001 8.953795e-001 7.837223e-001 8.004758e-001 7.186157e-001 6.295216e-001 2.123413e-001
<GCONST> 1.420887e+002
<STATE> 3
<MEAN> 39
 -2.338631e+001 6.835404e+000 -1.594839e+000 -1.798563e+000 1.536132e+000 -3.012412e+000 1.305212e+000 8.943551e-001 4.270526e-001 -1.374807e+000 1.679576e+000 -1.001133e+000 6.543010e+001 1.935942e-001 -4.688870e-001 -1.851756e-001 -4.176630e-001 -1.815120e-001 -1.340049e-001 5.063443e-004 2.661456e-001 1.227849e-001 -3.122536e-002 7.137004e-002 2.787628e-001 3.488301e-001 1.069550e+000 -5.375341e-001 8.269995e-002 -4.460012e-001 -4.594024e-001 -4.489616e-001 -4.178494e-001 -2.321883e-001 -2.638285e-001 -2.820376e-001 -3.177617e-001 -6.850239e-002 2.448240e-001
<VARIANCE> 39
 3.413534e+001 3.360419e+001 6.119604e+001 5.479471e+001 4.086358e+001 3.717762e+001 3.966341e+001 3.962979e+001 3.020522e+001 2.774299e+001 2.411680e+001 1.911681e+001 2.429016e+001 9.395260e+000 2.572905e+000 2.532027e+000 3.128679e+000 3.290820e+000 3.795768e+000 3.225658e+000 2.705023e+000 2.735376e+000 2.810818e+000 2.677696e+000 2.158424e+000 1.356900e+000 6.175254e-001 4.859521e-001 5.322363e-001 6.796858e-001 5.844756e-001 6.313497e-001 6.007349e-001 5.681336e-001 5.572754e-001 5.595144e-001 5.560573e-001 4.858586e-001 2.151867e-001
<GCONST> 1.233230e+002
<STATE> 4
<MEAN> 39
 -9.127396e+000 -1.948437e+000 -1.876523e+000 -8.605012e+000 -4.341633e+000 -8.953855e+000 -3.847004e+000 5.276590e-001 -1.457786e+000 -5.276623e+000 -2.395637e+000 -5.210631e-001 7.041521e+001 3.802824e+000 -3.564793e+000 -5.588691e-001 -2.663929e+000 -1.367879e+000 -1.386433e+000 -1.562907e+000 -1.461347e-001 -7.899829e-001 -1.143960e+000 -1.755095e+000 -7.277213e-001 2.073380e+000 -6.977228e-001 -1.889727e-001 -1.647505e-001 2.947235e-002 4.046570e-001 5.420749e-001 1.769221e-001 -4.165235e-002 -3.539793e-002 1.901925e-001 4.224553e-002 -3.344840e-001 1.562213e-002
<VARIANCE> 39
 8.215414e+001 7.584061e+001 5.659286e+001 8.160985e+001 5.684054e+001 6.010321e+001 6.374086e+001 4.182920e+001 4.241473e+001 4.134885e+001 4.952494e+001 3.679602e+001 4.071681e+001 7.073628e+000 4.903925e+000 4.687202e+000 6.794974e+000 6.571595e+000 6.529778e+000 5.536387e+000 4.399469e+000 4.716117e+000 4.847975e+000 5.023761e+000 4.716680e+000 1.929807e+000 1.518516e+000 9.020754e-001 4.394403e-001 1.062525e+000 9.022173e-001 9.708827e-001 8.023140e-001 6.028052e-001 5.992631e-001 6.778914e-001 8.777136e-001 6.465724e-001 4.060889e-001
<GCONST> 1.407984e+002
<TRANSP> 5
 0.000000e+000 1.000000e+000 0.000000e+000 0.000000e+000 0.000000e+000
 0.000000e+000 7.454823e-001 2.545177e-001 0.000000e+000 0.000000e+000
 0.000000e+000 0.000000e+000 8.613027e-001 1.386973e-001 0.000000e+000
 0.000000e+000 0.000000e+000 0.000000e+000 6.642358e-001 3.357642e-001
 0.000000e+000 0.000000e+000 0.000000e+000 0.000000e+000 0.000000e+000
<ENDHMM>
~h "t"
<BEGINHMM>
<NUMSTATES> 5
<STATE> 2
<MEAN> 39
 -5.105790e+000 -3.189508e+000 -2.110281e-002 -5.856050e+000 -2.968903e+000 -4.573569e+000 -2.485044e+000 -2.903802e+000 -4.675658e-001 -2.178926e+000 -1.680747e+000 -2.826685e+000 5.638288e+001 -8.294672e-001 2.949179e-003 -1.065376e-001 1.171641e+000 7.879148e-001 6.919634e-001 1.069132e+000 7.408569e-001 9.514292e-001 4.734736e-001 6.191730e-001 2.049262e-001 -1.671693e+000 2.557632e-002 -2.560745e-001 -2.194426e-001 -5.173420e-001 -1.667267e-001 -1.351402e-001 -1.798594e-001 4.550761e-003 -1.018784e-001 -6.122113e-002 -7.687066e-002 1.863503e-002 7.170857e-001
<VARIANCE> 39
 2.309279e+001 3.767667e+001 4.719375e+001 5.369883e+001 5.425223e+001 5.459311e+001 5.452134e+001 5.057973e+001 4.540853e+001 4.083245e+001 4.670280e+001 3.968613e+001 5.936986e+001 1.830755e+000 2.799710e+000 2.842968e+000 4.451041e+000 3.535768e+000 3.943122e+000 3.892550e+000 3.655223e+000 3.513156e+000 3.288524e+000 3.386539e+000 2.909893e+000 6.081767e+000 3.753636e-001 5.610451e-001 5.024521e-001 7.862676e-001 7.312357e-001 8.534523e-001 8.196124e-001 6.855012e-001 7.261509e-001 6.577290e-001 6.442302e-001 5.771915e-001 1.048607e+000
<GCONST> 1.321201e+002
<STATE> 3
<MEAN> 39
 -7.324149e+000 -4.159010e+000 -2.046557e+000 -5.805705e+000 -1.517018e+000 -4.518485e+000 -1.058737e+000 -8.751655e-001 1.732782e+000 -1.126187e+000 -2.337313e-001 -1.573273e+000 5.782872e+001 3.411122e-001 -7.465049e-001 -7.183118e-001 -1.520336e+000 -2.057417e-001 -8.147535e-001 -8.019748e-001 5.368531e-001 -1.228026e-001 -2.812778e-001 -4.428023e-001 7.160477e-002 3.021643e+000 3.794026e-001 -2.619886e-001 -4.856155e-002 -6.163178e-001 -2.372496e-001 -1.412381e-001 -5.492366e-001 -1.955757e-001 -4.506256e-001 -3.185652e-001 -4.354164e-001 -2.482741e-001 7.371694e-001
<VARIANCE> 39
 2.357356e+001 2.965380e+001 4.116899e+001 4.955047e+001 4.226767e+001 5.038481e+001 5.061465e+001 4.294026e+001 3.664411e+001 3.463123e+001 3.959137e+001 3.389576e+001 8.505076e+001 3.025116e+000 4.149880e+000 4.068043e+000 7.070827e+000 4.648126e+000 5.715861e+000 6.738292e+000 5.227698e+000 5.200698e+000 4.466352e+000 4.972911e+000 4.027378e+000 1.429158e+001 4.884857e-001 6.698422e-001 6.187305e-001 9.561892e-001 8.504072e-001 1.104162e+000 1.021189e+000 8.971251e-001 8.315213e-001 7.771207e-001 8.623856e-001 7.338971e-001 1.755031e+000
<GCONST> 1.393951e+002
<STATE> 4
<MEAN> 39
 -6.642478e+000 -6.039546e+000 -3.436208e+000 -6.987548e+000 -1.986982e+000 -4.442406e+000 -2.342860e+000 -2.176405e-001 9.480400e-001 -2.356639e+000 -1.837773e+000 -2.074820e+000 5.783166e+001 3.133653e-001 -3.418954e-001 -5.847113e-002 -7.585317e-001 -2.796649e-001 -3.176904e-001 -7.461112e-001 -2.957993e-001 -6.422728e-001 -4.889044e-001 -5.572000e-001 -3.041067e-001 1.370097e+000 3.716137e-002 8.356581e-002 1.607576e-001 4.288848e-002 -4.826035e-002 3.379642e-002 -5.767522e-002 -2.353853e-001 -1.645219e-001 -2.647211e-002 -1.226419e-003 -7.540009e-002 4.265306e-003
<VARIANCE> 39
 1.849463e+001 3.494352e+001 3.986872e+001 6.474244e+001 4.090409e+001 4.854597e+001 5.627872e+001 4.342871e+001 3.981199e+001 3.749864e+001 4.095412e+001 3.500325e+001 1.382023e+002 1.853042e+000 3.453995e+000 2.860164e+000 4.787418e+000 3.742715e+000 3.946421e+000 4.537947e+000 3.974200e+000 3.871878e+000 3.471124e+000 3.780699e+000 3.007082e+000 7.651624e+000 3.096043e-001 4.405901e-001 4.021749e-001 7.054343e-001 5.865422e-001 6.701604e-001 7.589532e-001 6.771132e-001 6.357329e-001 5.701885e-001 6.373513e-001 5.371543e-001 1.434415e+000
<GCONST> 1.314496e+002
<TRANSP> 5
 0.000000e+000 1.000000e+000 0.000000e+000 0.000000e+000 0.000000e+000
 0.000000e+000 7.134600e-001 2.865401e-001 0.000000e+000 0.000000e+000
 0.000000e+000 0.000000e+000 5.661377e-001 4.338623e-001 0.000000e+000
 0.000000e+000 0.000000e+000 0.000000e+000 6.546001e-001 3.453998e-001
 0.000000e+000 0.000000e+000 0.000000e+000 0.000000e+000 0.000000e+000
<ENDHMM>
~h "u"
<BEGINHMM>
<NUMSTATES> 5
<STATE> 2
<MEAN> 39
 -2.315822e+000 -3.726186e+000 -1.094889e+000 -1.284056e+001 -6.296659e+000 -8.803479e+000 -1.129941e+001 -6.593402e+000 -4.164994e+000 -2.572288e+000 -4.086352e+000 -4.185438e+000 7.018445e+001 1.625856e+000 -2.774802e-001 -2.026416e+000 -2.680723e+000 1.623783e-003 7.732654e-001 -2.067170e+000 -8.659120e-001 -4.754871e-001 2.218406e-001 -2.073438e-001 -7.504405e-001 9.890419e-001 -1.934875e-001 3.101388e-001 -1.023321e-001 -3.111810e-001 8.201093e-002 7.135318e-001 3.788395e-001 6.189418e-003 -2.243001e-001 -1.367030e-001 2.204624e-001 4.144579e-002 -4.518363e-001
<VARIANCE> 39
 3.033879e+001 5.733920e+001 1.033606e+002 1.077743e+002 1.065650e+002 9.983901e+001 9.098944e+001 6.158346e+001 6.461668e+001 6.273350e+001 8.131912e+001 6.539144e+001 4.537054e+001 3.194848e+000 3.870698e+000 6.902979e+000 8.152518e+000 1.232119e+001 8.911824e+000 7.745577e+000 6.132419e+000 7.447917e+000 5.972894e+000 6.858212e+000 4.813003e+000 3.301394e+000 7.037766e-001 8.278491e-001 1.120542e+000 1.192978e+000 2.047438e+000 1.637217e+000 1.778780e+000 1.133861e+000 1.268299e+000 1.120311e+000 1.284014e+000 9.810182e-001 6.301722e-001
<GCONST> 1.524338e+002
<STATE> 3
<MEAN> 39
 1.636411e+000 -3.657891e+000 -8.350972e+000 -2.147062e+001 -5.024142e+000 -2.451463e+000 -1.494906e+001 -8.889696e+000 -7.066894e+000 -2.240207e+000 -2.237853e+000 -4.940572e+000 7.100482e+001 8.227085e-001 9.134544e-001 -8.016444e-001 -2.202922e+000 -5.009606e-001 1.740685e+000 3.865605e-001 -2.015070e-001 -1.494937e+000 -1.093526e+000 2.481911e-001 -2.018359e-003 -5.113141e-001 -3.620336e-001 1.669492e-001 7.220765e-001 8.310866e-001 -3.325888e-001 -3.990879e-001 7.692088e-001 4.865428e-001 2.121254e-001 -4.075118e-001 -2.188299e-001 1.859661e-001 -3.822789e-001
<VARIANCE> 39
 1.454876e+001 4.617250e+001 6.496369e+001 9.772337e+001 7.405690e+001 9.074274e+001 7.475999e+001 6.535686e+001 7.306824e+001 6.701502e+001 9.026268e+001 6.565697e+001 2.758609e+001 8.680229e-001 2.423446e+000 3.642389e+000 6.956025e+000 6.854078e+000 5.541125e+000 6.350611e+000 4.986053e+000 5.473454e+000 5.756159e+000 5.649049e+000 4.248920e+000 2.296575e+000 2.162329e-001 4.521801e-001 5.735276e-001 1.109282e+000 1.275601e+000 1.161542e+000 1.148331e+000 9.612612e-001 1.446990e+000 1.210916e+000 1.288476e+000 9.397615e-001 2.447003e-001
<GCONST> 1.403379e+002
<STATE> 4
<MEAN> 39
 3.116890e+000 1.636441e+000 -7.155115e+000 -2.438976e+001 -8.586193e+000 -2.019239e-001 -1.173254e+001 -4.732946e+000 -1.003902e+001 -7.856108e+000 -4.477888e+000 -4.770231e+000 6.717172e+001 -7.278490e-002 2.304811e-001 7.857931e-001 1.105975e+000 -1.685794e-001 -2.842655e-001 4.163049e-001 -1.514919e-002 2.648630e-001 -3.068165e-001 -4.001563e-001 -1.034267e-001 -7.296749e-001 -1.791989e-001 -1.470551e-001 1.963370e-001 4.690557e-001 1.675727e-001 -1.942064e-001 -5.765849e-002 -1.264405e-001 2.159465e-001 1.904375e-001 -1.358076e-002 2.949661e-002 -3.489147e-002
<VARIANCE> 39
 1.289005e+001 4.414401e+001 7.691312e+001 1.030237e+002 8.150977e+001 6.923618e+001 7.034798e+001 7.583105e+001 5.709526e+001 4.817779e+001 5.960779e+001 4.585963e+001 2.480315e+001 7.071388e-001 1.561274e+000 2.473294e+000 5.642578e+000 3.719883e+000 3.113083e+000 3.785375e+000 3.834011e+000 3.797590e+000 3.873119e+000 3.534283e+000 2.681093e+000 1.185789e+000 1.229473e-001 2.470874e-001 3.942862e-001 8.050226e-001 6.001489e-001 6.186936e-001 6.913036e-001 7.028044e-001 6.806945e-001 6.395841e-001 5.907302e-001 4.810477e-001 1.752727e-001
<GCONST> 1.260444e+002
<TRANSP> 5
 0.000000e+000 1.000000e+000 0.000000e+000 0.000000e+000 0.000000e+000
 0.000000e+000 5.933921e-001 4.066079e-001 0.000000e+000 0.000000e+000
 0.000000e+000 0.000000e+000 6.033494e-001 3.966506e-001 0.000000e+000
 0.000000e+000 0.000000e+000 0.000000e+000 8.534513e-001 1.465487e-001
 0.000000e+000 0.000000e+000 0.000000e+000 0.000000e+000 0.000000e+000
<ENDHMM>
~h "v"
<BEGINHMM>
<NUMSTATES> 5
<STATE> 2
<MEAN> 39
 -2.427593e+000 -1.767758e+000 -7.659188e-001 -6.382335e+000 -3.266794e+000 -4.818802e+000 -6.194541e+000 -7.515023e+000 -5.110557e+000 -4.600063e+000 -3.506774e+000 -4.435141e+000 5.994110e+001 3.058659e-002 6.320884e-001 -1.057306e-002 7.258446e-001 5.648926e-001 2.316678e-001 -2.730874e-001 -5.401728e-001 -3.776349e-001 -1.367666e-001 2.503630e-001 -8.581192e-002 -3.271977e-001 4.427477e-002 -2.879590e-001 -1.351620e-001 -4.106299e-001 -1.296636e-001 -3.555698e-002 -7.169365e-002 1.015019e-001 8.298123e-002 1.066187e-001 -2.048147e-002 -3.503567e-002 4.623094e-001
<VARIANCE> 39
 3.489606e+001 3.952611e+001 4.864243e+001 7.271412e+001 4.352258e+001 5.328821e+001 5.189436e+001 5.616801e+001 5.078783e+001 4.415933e+001 4.869854e+001 3.789952e+001 6.155758e+001 2.483794e+000 2.361185e+000 2.821518e+000 5.249003e+000 3.277821e+000 3.283764e+000 4.243624e+000 4.111094e+000 4.002258e+000 3.613436e+000 3.516542e+000 2.852053e+000 4.017536e+000 4.383996e-001 4.063103e-001 4.598300e-001 8.957646e-001 5.887539e-001 6.284098e-001 7.800911e-001 7.484500e-001 7.614374e-001 7.339948e-001 6.476630e-001 5.403833e-001 4.147452e-001
<GCONST> 1.315710e+002
<STATE> 3
<MEAN> 39
 -7.707582e-001 -1.736432e+000 -2.521087e+000 -8.275783e+000 -2.619444e+000 -4.152951e+000 -8.405849e+000 -9.080310e+000 -6.114548e+000 -4.016682e+000 -2.875548e+000 -5.576899e+000 6.338906e+001 5.687830e-001 -1.484597e+000 -1.051495e+000 -1.799538e+000 -1.494489e-001 -2.176987e-001 -5.407602e-001 6.862307e-001 6.281886e-001 6.857412e-001 -1.121073e-001 -5.053828e-001 2.204141e+000 -6.508643e-002 -5.834619e-001 -3.496410e-002 -4.221481e-001 -1.914267e-001 -1.101357e-001 1.766385e-001 4.936240e-001 2.193270e-001 -4.330920e-003 -2.700257e-001 -6.743494e-002 4.875690e-001
<VARIANCE> 39
 3.213662e+001 3.952763e+001 5.086895e+001 7.577232e+001 3.250401e+001 4.966623e+001 5.020520e+001 4.828265e+001 4.488365e+001 4.682949e+001 5.547675e+001 3.607232e+001 4.354524e+001 2.959420e+000 4.345166e+000 3.614292e+000 7.448236e+000 3.505683e+000 3.905414e+000 5.133569e+000 5.326239e+000 4.928567e+000 5.419143e+000 5.710842e+000 4.313358e+000 4.679548e+000 6.148175e-001 5.073697e-001 6.391562e-001 1.437307e+000 6.969908e-001 6.788610e-001 9.904789e-001 8.750564e-001 9.305378e-001 1.113114e+000 9.615976e-001 7.867574e-001 6.378701e-001
<GCONST> 1.382568e+002
<STATE> 4
<MEAN> 39
 -2.266915e-001 -5.728974e+000 -4.409789e+000 -1.256809e+001 -3.339992e+000 -4.283492e+000 -8.800205e+000 -6.347596e+000 -4.297307e+000 -3.158180e+000 -3.894214e+000 -6.500680e+000 6.782912e+001 -1.168164e-001 -1.557352e+000 -3.414170e-001 -1.262884e+000 -3.366570e-001 -4.006853e-001 2.120896e-001 1.111354e+000 4.998675e-001 3.921482e-002 -4.825554e-001 -2.464330e-001 1.879312e+000 -1.849636e-001 2.662008e-002 2.471960e-001 1.370896e-001 -1.213054e-001 -2.229712e-002 2.347673e-001 3.466239e-002 -1.635366e-001 -1.718766e-001 -7.060502e-003 1.287898e-001 -7.692484e-002
<VARIANCE> 39
 2.813402e+001 6.217111e+001 6.327652e+001 1.067709e+002 4.723404e+001 6.737449e+001 5.995924e+001 6.148588e+001 5.452838e+001 5.798424e+001 7.089509e+001 4.835749e+001 6.555469e+001 1.453173e+000 3.377178e+000 2.730535e+000 5.903121e+000 3.850069e+000 3.609715e+000 4.646301e+000 4.540603e+000 4.080937e+000 4.943328e+000 4.442303e+000 3.769758e+000 3.344756e+000 3.216299e-001 4.323448e-001 3.934109e-001 1.081198e+000 5.582110e-001 5.329450e-001 7.171128e-001 7.542631e-001 7.849395e-001 8.188452e-001 8.352609e-001 6.541957e-001 5.306922e-001
<GCONST> 1.353687e+002
<TRANSP> 5
 0.000000e+000 1.000000e+000 0.000000e+000 0.000000e+000 0.000000e+000
 0.000000e+000 6.611576e-001 3.388424e-001 0.000000e+000 0.000000e+000
 0.000000e+000 0.000000e+000 6.119491e-001 3.880510e-001 0.000000e+000
 0.000000e+000 0.000000e+000 0.000000e+000 4.793466e-001 5.206533e-001
 0.000000e+000 0.000000e+000 0.000000e+000 0.000000e+000 0.000000e+000
<ENDHMM>
~h "x"
<BEGINHMM>
<NUMSTATES> 5
<STATE> 2
<MEAN> 39
 -8.976122e+000 3.268765e+000 3.667385e-001 -5.133731e+000 -5.668124e+000 -9.171445e+000 -5.306703e+000 -5.444721e+000 -5.673647e+000 -4.948820e+000 -3.455756e+000 -3.153800e+000 6.618715e+001 -3.298815e+000 2.545019e+000 -6.907312e-001 2.353877e+000 1.672917e+000 9.997455e-001 1.506703e+000 1.227933e+000 9.870034e-001 4.953524e-001 1.064174e+000 3.735679e-001 -6.363801e-001 -4.523586e-001 -3.295890e-001 -2.717377e-001 -2.288975e-001 2.167437e-001 4.171477e-001 2.877050e-001 3.106621e-001 2.641101e-001 3.037403e-001 1.343729e-001 1.836145e-002 7.097875e-002
<VARIANCE> 39
 6.737930e+001 6.731656e+001 7.772352e+001 8.190018e+001 7.745333e+001 6.637652e+001 6.397254e+001 7.224597e+001 5.329560e+001 5.489970e+001 5.747935e+001 3.937431e+001 3.658581e+001 4.349204e+000 5.072240e+000 4.386146e+000 6.224809e+000 5.466456e+000 6.810471e+000 5.766225e+000 5.791686e+000 4.610542e+000 5.409360e+000 4.504308e+000 3.912198e+000 1.772079e+000 1.031835e+000 1.053918e+000 6.135508e-001 1.071767e+000 9.908767e-001 1.000729e+000 9.377332e-001 9.106588e-001 8.108185e-001 8.569701e-001 7.410291e-001 6.580669e-001 1.907254e-001
<GCONST> 1.420880e+002
<STATE> 3
<MEAN> 39
 -2.206419e+001 7.041800e+000 -4.020698e+000 1.305758e-001 3.545463e-001 -3.293629e+000 1.736946e+000 8.611853e-001 -1.157195e-001 -5.934963e-001 1.455901e+000 -7.498271e-001 6.426873e+001 4.250131e-001 -6.458160e-001 -6.025206e-002 -5.688364e-001 -2.523400e-001 -2.426106e-001 -7.774023e-002 2.804758e-001 9.031642e-002 -1.057504e-002 6.563970e-002 3.435914e-001 4.257215e-001 9.890666e-001 -5.044660e-001 1.957593e-001 -5.269008e-001 -4.301905e-001 -4.530419e-001 -4.555766e-001 -2.536875e-001 -2.938159e-001 -3.083828e-001 -3.186103e-001 -7.291013e-002 3.134041e-001
<VARIANCE> 39
 3.222863e+001 3.346949e+001 4.893513e+001 4.994152e+001 4.249890e+001 3.804363e+001 3.614091e+001 4.031151e+001 2.771700e+001 2.488862e+001 2.315009e+001 1.912456e+001 2.339394e+001 8.533576e+000 2.671836e+000 2.725873e+000 3.792531e+000 3.139422e+000 4.138925e+000 3.505752e+000 2.867179e+000 2.700047e+000 2.885363e+000 2.822600e+000 2.334546e+000 1.621180e+000 6.179096e-001 4.764533e-001 4.955347e-001 6.920927e-001 5.769453e-001 6.756483e-001 6.464546e-001 6.161461e-001 5.420118e-001 5.627904e-001 5.666547e-001 5.114019e-001 2.288376e-001
<GCONST> 1.236163e+002
<STATE> 4
<MEAN> 39
 -9.037138e+000 -1.913278e+000 -1.576126e+000 -8.802111e+000 -5.201200e+000 -9.450976e+000 -3.303587e+000 8.953922e-001 -2.751307e+000 -3.923175e+000 -2.164208e+000 -1.678660e-001 6.988943e+001 3.123027e+000 -3.272049e+000 -2.156233e-002 -2.910570e+000 -1.568348e+000 -1.357503e+000 -1.430371e+000 -3.400824e-001 -1.009962e+000 -1.150046e+000 -1.510524e+000 -7.004264e-001 2.194147e+000 -7.045864e-001 -7.945687e-002 -1.748459e-001 8.007263e-002 3.303457e-001 5.810923e-001 1.640452e-001 -1.028124e-001 -5.363633e-002 1.434156e-001 7.186029e-002 -3.340417e-001 -7.381082e-002
<VARIANCE> 39
 7.853311e+001 6.400846e+001 6.143024e+001 7.829808e+001 7.430809e+001 5.938148e+001 5.979652e+001 4.681611e+001 3.758555e+001 4.058552e+001 4.835117e+001 4.005313e+001 4.492955e+001 7.007587e+000 4.966839e+000 3.938483e+000 6.716825e+000 6.011340e+000 6.632459e+000 6.838330e+000 5.048544e+000 4.356108e+000 4.405213e+000 4.885468e+000 4.356500e+000 2.183578e+000 1.441372e+000 7.127671e-001 4.610383e-001 1.056254e+000 8.679351e-001 1.038245e+000 8.958711e-001 6.553575e-001 5.844179e-001 6.641187e-001 8.473434e-001 6.791339e-001 4.298051e-001
<GCONST> 1.408844e+002
<TRANSP> 5
 0.000000e+000 1.000000e+000 0.000000e+000 0.000000e+000 0.000000e+000
 0.000000e+000 7.548484e-001 2.451515e-001 0.000000e+000 0.000000e+000
 0.000000e+000 0.000000e+000 8.559310e-001 1.440690e-001 0.000000e+000
 0.000000e+000 0.000000e+000 0.000000e+000 6.586639e-001 3.413361e-001
 0.000000e+000 0.000000e+000 0.000000e+000 0.000000e+000 0.000000e+000
<ENDHMM>
~h "y"
<BEGINHMM>
<NUMSTATES> 5
<STATE> 2
<MEAN> 39
 -3.668139e+000 -6.543107e+000 -5.016817e-001 -1.417420e+001 -9.043235e+000 -1.216327e+001 -7.328939e+000 -1.428333e+000 -9.798915e-001 -3.400477e+000 -6.287591e+000 -2.214741e+000 7.003223e+001 -6.431679e-001 -5.930326e-001 1.524300e+000 -5.781479e-001 -2.801849e+000 -1.125365e+000 6.119498e-001 5.110714e-001 -9.560247e-001 -4.996156e-001 -1.474509e-001 -2.843931e-001 1.462860e+000 -1.184540e-001 2.942119e-001 2.951083e-001 -7.601985e-002 -1.264907e-001 6.016989e-001 1.994732e-001 -6.405498e-001 -5.326597e-001 1.703156e-001 2.868258e-001 -2.094248e-001 -3.925834e-001
<VARIANCE> 39
 2.479591e+001 3.758002e+001 7.991887e+001 9.402332e+001 7.544371e+001 6.864793e+001 1.125612e+002 8.918870e+001 7.494563e+001 6.607619e+001 7.584602e+001 7.282198e+001 6.979180e+001 1.498058e+000 2.015685e+000 4.363389e+000 6.061314e+000 6.037724e+000 5.301744e+000 7.144943e+000 7.135372e+000 6.920370e+000 5.894926e+000 5.326323e+000 4.292361e+000 5.076094e+000 2.428943e-001 3.938888e-001 5.129548e-001 9.037777e-001 9.746409e-001 9.350336e-001 1.380730e+000 1.171902e+000 1.269823e+000 1.094098e+000 9.685321e-001 8.188983e-001 1.036539e+000
<GCONST> 1.442215e+002
<STATE> 3
<MEAN> 39
 -6.007980e+000 -7.889092e+000 4.856830e+000 -1.753773e+001 -1.648740e+001 -1.325030e+001 -5.880970e+000 -3.001143e+000 -6.461645e+000 -2.049545e+000 -5.772954e+000 -3.608566e+000 7.441248e+001 -6.822180e-001 5.107826e-001 1.639957e+000 -6.221471e-001 -1.656807e+000 6.521897e-001 -8.834947e-002 -1.544922e+000 -9.701651e-001 6.304039e-001 3.778677e-001 -7.443455e-001 6.144829e-002 8.328286e-002 3.173769e-001 -1.200627e-001 2.015676e-001 6.142293e-001 3.176343e-001 -3.515427e-001 -2.725691e-001 2.805989e-001 5.217662e-003 -5.598005e-002 3.140214e-002 -4.222668e-001
<VARIANCE> 39
 1.832885e+001 3.247240e+001 6.637307e+001 1.074949e+002 5.212768e+001 2.988425e+001 7.041747e+001 1.046835e+002 6.048434e+001 6.431649e+001 7.180516e+001 4.706734e+001 2.962247e+001 6.761739e-001 1.192594e+000 2.136652e+000 2.477267e+000 3.410408e+000 2.351772e+000 3.958561e+000 3.596859e+000 3.332791e+000 3.359069e+000 4.505319e+000 2.391390e+000 1.448834e+000 1.317252e-001 2.131040e-001 3.804259e-001 4.814804e-001 5.654436e-001 4.939645e-001 6.626700e-001 8.372491e-001 6.099579e-001 7.346731e-001 6.438724e-001 4.397626e-001 2.998920e-001
<GCONST> 1.239243e+002
<STATE> 4
<MEAN> 39
 -7.509160e+000 -1.830163e+000 1.178826e+001 -1.505946e+001 -1.829594e+001 -8.142282e+000 -1.073030e+001 -1.006788e+001 -9.236668e+000 -3.553134e+000 -4.765491e+000 -6.977568e+000 7.082481e+001 1.432090e-001 4.562088e-001 2.214871e-001 6.957400e-001 7.455955e-001 3.867772e-001 -7.119039e-002 -3.140254e-001 -6.982734e-002 -2.193187e-001 -5.691231e-002 1.707987e-002 -9.311169e-001 8.337784e-002 -5.935950e-002 -2.406915e-001 1.958933e-001 2.472465e-001 -1.878924e-002 1.230655e-001 2.122682e-001 1.716605e-001 -1.497556e-002 4.757871e-002 6.272390e-002 -1.396875e-001
<VARIANCE> 39
 1.672440e+001 3.623447e+001 6.116214e+001 1.338613e+002 6.551810e+001 3.887735e+001 5.184827e+001 5.884675e+001 4.359851e+001 5.030579e+001 1.058408e+002 5.558195e+001 4.291095e+001 7.480333e-001 1.018843e+000 2.122325e+000 2.419971e+000 2.629665e+000 1.590560e+000 2.650920e+000 2.640352e+000 2.172568e+000 1.943772e+000 2.334538e+000 1.612169e+000 1.381950e+000 1.099905e-001 1.747139e-001 2.248638e-001 3.559634e-001 3.787829e-001 2.996445e-001 4.012010e-001 3.804627e-001 3.805187e-001 3.328985e-001 3.756182e-001 2.575776e-001 2.004135e-001
<GCONST> 1.143814e+002
<TRANSP> 5
 0.000000e+000 1.000000e+000 0.000000e+000 0.000000e+000 0.000000e+000
 0.000000e+000 5.989419e-001 4.010580e-001 0.000000e+000 0.000000e+000
 0.000000e+000 0.000000e+000 6.225985e-001 3.774015e-001 0.000000e+000
 0.000000e+000 0.000000e+000 0.000000e+000 9.003648e-001 9.963524e-002
 0.000000e+000 0.000000e+000 0.000000e+000 0.000000e+000 0.000000e+000
<ENDHMM>
~h "doafi"
<BEGINHMM>
<NUMSTATES> 5
<STATE> 2
<MEAN> 39
 -4.901095e+000 -5.842618e+000 -5.097519e-001 -9.923710e+000 -4.122406e+000 -4.544213e+000 -4.531428e+000 -3.756145e+000 -3.134470e+000 -3.843007e+000 -3.141330e+000 -3.863289e+000 6.290533e+001 3.156596e-003 4.426242e-003 -3.008057e-004 -9.815464e-004 -7.398279e-004 -3.059326e-004 6.043092e-004 -2.233922e-003 1.730658e-004 -2.990019e-004 -3.013898e-003 -8.223696e-004 -5.428240e-004 -1.672899e-004 -1.806980e-004 4.561614e-005 -7.206317e-005 6.492341e-005 1.899766e-004 7.487284e-005 1.468558e-005 -2.101225e-005 1.112924e-004 1.261849e-004 6.155111e-006 1.118417e-005
<VARIANCE> 39
 3.977646e+001 6.976524e+001 7.436712e+001 1.058175e+002 8.034691e+001 6.925978e+001 7.782265e+001 7.860110e+001 6.821010e+001 5.800883e+001 6.279465e+001 4.830898e+001 1.459772e+002 1.544968e+000 2.667576e+000 2.529959e+000 4.061153e+000 3.472722e+000 3.155723e+000 3.471568e+000 3.756795e+000 3.266600e+000 3.146162e+000 3.154106e+000 2.635824e+000 3.396390e+000 2.536712e-001 3.905498e-001 3.963176e-001 6.350257e-001 5.963098e-001 5.526317e-001 6.014287e-001 6.646528e-001 5.859886e-001 5.718929e-001 5.669279e-001 4.794365e-001 4.314951e-001
<GCONST> 1.326273e+002
<STATE> 3
<MEAN> 39
 -4.901095e+000 -5.842618e+000 -5.097519e-001 -9.923710e+000 -4.122406e+000 -4.544213e+000 -4.531428e+000 -3.756145e+000 -3.134470e+000 -3.843007e+000 -3.141330e+000 -3.863289e+000 6.290533e+001 3.156596e-003 4.426242e-003 -3.008057e-004 -9.815464e-004 -7.398279e-004 -3.059326e-004 6.043092e-004 -2.233922e-003 1.730658e-004 -2.990019e-004 -3.013898e-003 -8.223696e-004 -5.428240e-004 -1.672899e-004 -1.806980e-004 4.561614e-005 -7.206317e-005 6.492341e-005 1.899766e-004 7.487284e-005 1.468558e-005 -2.101225e-005 1.112924e-004 1.261849e-004 6.155111e-006 1.118417e-005
<VARIANCE> 39
 3.977646e+001 6.976524e+001 7.436712e+001 1.058175e+002 8.034691e+001 6.925978e+001 7.782265e+001 7.860110e+001 6.821010e+001 5.800883e+001 6.279465e+001 4.830898e+001 1.459772e+002 1.544968e+000 2.667576e+000 2.529959e+000 4.061153e+000 3.472722e+000 3.155723e+000 3.471568e+000 3.756795e+000 3.266600e+000 3.146162e+000 3.154106e+000 2.635824e+000 3.396390e+000 2.536712e-001 3.905498e-001 3.963176e-001 6.350257e-001 5.963098e-001 5.526317e-001 6.014287e-001 6.646528e-001 5.859886e-001 5.718929e-001 5.669279e-001 4.794365e-001 4.314951e-001
<GCONST> 1.326273e+002
<STATE> 4
<MEAN> 39
 -4.901095e+000 -5.842618e+000 -5.097519e-001 -9.923710e+000 -4.122406e+000 -4.544213e+000 -4.531428e+000 -3.756145e+000 -3.134470e+000 -3.843007e+000 -3.141330e+000 -3.863289e+000 6.290533e+001 3.156596e-003 4.426242e-003 -3.008057e-004 -9.815464e-004 -7.398279e-004 -3.059326e-004 6.043092e-004 -2.233922e-003 1.730658e-004 -2.990019e-004 -3.013898e-003 -8.223696e-004 -5.428240e-004 -1.672899e-004 -1.806980e-004 4.561614e-005 -7.206317e-005 6.492341e-005 1.899766e-004 7.487284e-005 1.468558e-005 -2.101225e-005 1.112924e-004 1.261849e-004 6.155111e-006 1.118417e-005
<VARIANCE> 39
 3.977646e+001 6.976524e+001 7.436712e+001 1.058175e+002 8.034691e+001 6.925978e+001 7.782265e+001 7.860110e+001 6.821010e+001 5.800883e+001 6.279465e+001 4.830898e+001 1.459772e+002 1.544968e+000 2.667576e+000 2.529959e+000 4.061153e+000 3.472722e+000 3.155723e+000 3.471568e+000 3.756795e+000 3.266600e+000 3.146162e+000 3.154106e+000 2.635824e+000 3.396390e+000 2.536712e-001 3.905498e-001 3.963176e-001 6.350257e-001 5.963098e-001 5.526317e-001 6.014287e-001 6.646528e-001 5.859886e-001 5.718929e-001 5.669279e-001 4.794365e-001 4.314951e-001
<GCONST> 1.326273e+002
<TRANSP> 5
 0.000000e+000 1.000000e+000 0.000000e+000 0.000000e+000 0.000000e+000
 0.000000e+000 6.000000e-001 4.000000e-001 0.000000e+000 0.000000e+000
 0.000000e+000 0.000000e+000 6.000000e-001 4.000000e-001 0.000000e+000
 0.000000e+000 0.000000e+000 0.000000e+000 7.000000e-001 3.000000e-001
 0.000000e+000 0.000000e+000 0.000000e+000 0.000000e+000 0.000000e+000
<ENDHMM>
~h "aa"
<BEGINHMM>
<NUMSTATES> 5
<STATE> 2
<MEAN> 39
 -5.397709e+000 -7.359201e+000 -3.271661e-001 -1.687424e+001 -7.519678e+000 -8.636042e+000 -7.007456e+000 -4.468669e+000 -7.120572e+000 -5.942401e+000 -6.404058e+000 -6.132949e+000 7.295142e+001 -2.464839e-001 -2.169046e+000 -7.936572e-001 -1.064318e+000 1.346185e-001 2.348043e-001 5.722317e-002 1.024869e+000 -4.559918e-002 -6.190537e-001 -3.786898e-001 -5.466186e-001 1.614145e+000 7.814097e-002 1.411193e-001 -4.986894e-002 6.104412e-001 2.815913e-001 1.062241e-001 -1.094300e-002 -6.549116e-002 1.378477e-001 3.099608e-002 1.030407e-001 1.042902e-001 -4.914625e-001
<VARIANCE> 39
 2.564293e+001 9.222765e+001 1.014249e+002 9.838689e+001 9.113583e+001 6.514611e+001 7.525001e+001 9.062527e+001 6.388311e+001 6.075349e+001 8.651984e+001 7.321779e+001 4.407885e+001 2.261672e+000 4.240851e+000 4.929020e+000 6.795995e+000 6.953429e+000 4.246411e+000 6.000713e+000 5.900638e+000 5.060512e+000 4.831098e+000 5.775500e+000 4.274673e+000 2.972201e+000 4.853404e-001 1.122423e+000 8.646454e-001 1.197090e+000 1.299363e+000 8.336413e-001 1.101016e+000 1.029757e+000 9.003087e-001 8.913109e-001 1.067031e+000 7.894381e-001 6.924321e-001
<GCONST> 1.460643e+002
<STATE> 3
<MEAN> 39
 -4.861415e+000 -1.371581e+001 -4.291762e+000 -1.738824e+001 -4.647756e+000 -8.462914e+000 -6.952856e+000 -8.210467e-001 -5.737288e+000 -8.290887e+000 -6.889156e+000 -6.653223e+000 7.607644e+001 5.338390e-001 -5.158884e-001 -9.819487e-001 6.066647e-001 1.235712e+000 -1.805550e-002 -8.194898e-001 1.168909e-001 2.271601e-001 -3.469142e-001 -3.520408e-001 -1.120600e-001 -3.124776e-001 1.117583e-001 7.812346e-001 3.850883e-001 2.829245e-001 -3.625369e-002 7.721943e-003 -1.878059e-001 -5.234168e-001 -3.368567e-002 2.566338e-001 8.201732e-002 1.271049e-001 -6.432304e-001
<VARIANCE> 39
 1.815032e+001 5.217012e+001 7.581388e+001 6.797523e+001 1.138262e+002 6.998190e+001 7.844373e+001 8.262880e+001 6.623270e+001 7.200599e+001 7.678613e+001 7.245354e+001 2.208175e+001 7.713734e-001 4.209104e+000 3.483179e+000 3.125246e+000 5.415274e+000 3.420126e+000 4.374252e+000 4.985230e+000 3.680900e+000 4.776049e+000 4.093865e+000 4.091399e+000 2.312139e+000 1.453131e-001 3.590601e-001 5.180858e-001 6.841636e-001 1.209548e+000 6.967266e-001 9.802881e-001 7.959622e-001 8.042898e-001 8.759573e-001 7.798815e-001 7.790306e-001 1.852924e-001
<GCONST> 1.341718e+002
<STATE> 4
<MEAN> 39
 -2.730882e+000 -1.181902e+001 -7.078187e+000 -1.548483e+001 -1.601144e+000 -8.052551e+000 -1.139896e+001 -3.293668e+000 -6.855792e+000 -8.417710e+000 -9.298993e+000 -6.814698e+000 7.285509e+001 6.226719e-001 1.162173e+000 5.045013e-001 4.626445e-001 -2.254989e-001 1.183671e-001 -4.429944e-001 -1.228980e+000 -1.941976e-001 2.342925e-001 -1.108681e-001 1.536987e-002 -1.385002e+000 7.719119e-003 2.512061e-001 3.659355e-001 7.311668e-002 -3.649056e-001 5.374341e-002 1.837171e-001 -2.841687e-001 -1.006407e-001 1.574285e-003 4.723833e-002 1.660249e-001 -1.942891e-001
<VARIANCE> 39
 1.529053e+001 6.018725e+001 6.806513e+001 6.298651e+001 8.969556e+001 8.329976e+001 7.076257e+001 8.552449e+001 6.893645e+001 6.763927e+001 8.179082e+001 7.810337e+001 3.278533e+001 5.162009e-001 1.959991e+000 2.815333e+000 2.356632e+000 4.002415e+000 3.337802e+000 3.073150e+000 3.927963e+000 3.045626e+000 3.487398e+000 2.812453e+000 3.347049e+000 1.359303e+000 9.534837e-002 3.142273e-001 3.315065e-001 4.267556e-001 5.481943e-001 6.220850e-001 5.811505e-001 6.448597e-001 5.838468e-001 6.439556e-001 5.029293e-001 5.886770e-001 1.769477e-001
<GCONST> 1.256427e+002
<TRANSP> 5
 0.000000e+000 1.000000e+000 0.000000e+000 0.000000e+000 0.000000e+000
 0.000000e+000 5.683734e-001 4.316266e-001 0.000000e+000 0.000000e+000
 0.000000e+000 0.000000e+000 5.916771e-001 4.083228e-001 0.000000e+000
 0.000000e+000 0.000000e+000 0.000000e+000 7.779065e-001 2.220935e-001
 0.000000e+000 0.000000e+000 0.000000e+000 0.000000e+000 0.000000e+000
<ENDHMM>
~h "af"
<BEGINHMM>
<NUMSTATES> 5
<STATE> 2
<MEAN> 39
 -4.012858e+000 -1.568275e+001 -4.275483e+000 -1.524951e+001 -3.964853e+000 -5.054139e+000 -2.124116e+000 -2.439224e+000 -7.291691e+000 -9.290062e+000 -7.223180e+000 -6.850163e+000 7.650948e+001 -5.484970e-001 -1.664254e+000 -4.174830e-001 5.941717e-001 7.353696e-001 8.295624e-001 1.041335e+000 -3.146999e-002 -7.709957e-001 -1.006032e+000 8.619212e-002 5.127647e-003 1.158046e+000 7.650601e-002 5.836281e-001 3.839542e-001 3.331266e-001 -6.140789e-004 -2.805476e-001 -4.374011e-001 -3.174214e-001 9.392762e-002 3.230351e-001 3.115817e-001 1.555891e-001 -5.417387e-001
<VARIANCE> 39
 2.614080e+001 4.432135e+001 7.272678e+001 7.684315e+001 7.129359e+001 6.161451e+001 6.857964e+001 8.685162e+001 7.075026e+001 6.542407e+001 5.935165e+001 5.467435e+001 2.340412e+001 8.121353e-001 1.913458e+000 1.813679e+000 2.839187e+000 2.388412e+000 3.443354e+000 3.149343e+000 4.219307e+000 3.178938e+000 3.101713e+000 3.498358e+000 2.683416e+000 1.044921e+000 1.509065e-001 2.920842e-001 3.343742e-001 5.083506e-001 4.134417e-001 5.989749e-001 6.516750e-001 7.166064e-001 6.626247e-001 5.672719e-001 5.952192e-001 4.970368e-001 1.741845e-001
<GCONST> 1.244687e+002
<STATE> 3
<MEAN> 39
 -4.599514e+000 -1.770359e+001 -4.915138e+000 -1.340046e+001 -2.480957e+000 -4.439234e+000 -1.133716e+000 -3.516996e+000 -8.006162e+000 -1.029532e+001 -6.004560e+000 -6.653382e+000 7.775964e+001 -7.539536e-002 -3.806660e-001 2.004373e-001 5.573416e-001 2.394864e-001 5.302449e-002 1.393471e-001 -1.207175e-001 -1.482845e-001 -2.318958e-002 2.424415e-001 2.545421e-002 1.108176e-001 2.215740e-001 5.017741e-001 2.485348e-001 -8.907114e-002 -2.542286e-001 -2.892033e-001 -3.058224e-001 1.970539e-002 2.404108e-001 3.493672e-001 -1.987091e-002 -9.807473e-004 -4.056822e-001
<VARIANCE> 39
 2.419021e+001 3.920921e+001 6.382690e+001 6.896558e+001 6.831413e+001 5.749825e+001 6.394475e+001 8.702124e+001 6.950687e+001 5.561451e+001 5.132802e+001 4.741042e+001 2.059796e+001 5.459554e-001 1.200315e+000 1.208998e+000 1.582398e+000 1.879285e+000 1.774881e+000 1.953619e+000 2.247022e+000 1.970626e+000 1.967732e+000 2.261507e+000 1.858414e+000 4.771716e-001 8.000568e-002 2.090182e-001 2.006998e-001 3.119557e-001 2.717841e-001 3.703791e-001 3.783118e-001 4.983186e-001 4.003618e-001 3.819083e-001 4.209862e-001 3.365827e-001 1.211595e-001
<GCONST> 1.110961e+002
<STATE> 4
<MEAN> 39
 -3.758449e+000 -1.818236e+001 -2.266044e+000 -1.177714e+001 -2.389086e+000 -3.045200e+000 -1.655867e+000 -2.149890e+000 -8.309595e+000 -8.386172e+000 -6.282752e+000 -6.861589e+000 7.674264e+001 3.058068e-001 5.851448e-001 3.518103e-001 6.546289e-002 -2.652378e-001 -3.434815e-001 -1.109976e-001 9.427848e-002 2.719511e-001 3.322725e-001 -1.009583e-001 -5.996078e-002 -5.667256e-001 8.213639e-002 2.919821e-001 9.565558e-002 3.352818e-002 -9.090132e-002 -9.040653e-002 -1.074363e-001 -6.707387e-002 6.770236e-002 1.007953e-001 -1.212023e-002 2.852678e-002 -2.406755e-001
<VARIANCE> 39
 2.092525e+001 4.575123e+001 6.441261e+001 7.346094e+001 7.601120e+001 5.998104e+001 6.230769e+001 8.663570e+001 7.148581e+001 5.056689e+001 4.565289e+001 4.196088e+001 2.491606e+001 4.313769e-001 1.416947e+000 9.666617e-001 1.300946e+000 1.543498e+000 1.570913e+000 1.503372e+000 1.702749e+000 1.494857e+000 1.632448e+000 1.562082e+000 1.351139e+000 6.859782e-001 5.949675e-002 1.582590e-001 1.436245e-001 2.726460e-001 2.159034e-001 2.404386e-001 2.599400e-001 3.562196e-001 2.576917e-001 2.666717e-001 2.543664e-001 2.191554e-001 1.133881e-001
<GCONST> 1.048282e+002
<TRANSP> 5
 0.000000e+000 1.000000e+000 0.000000e+000 0.000000e+000 0.000000e+000
 0.000000e+000 4.860547e-001 5.139453e-001 0.000000e+000 0.000000e+000
 0.000000e+000 0.000000e+000 4.831439e-001 5.168562e-001 0.000000e+000
 0.000000e+000 0.000000e+000 0.000000e+000 8.630517e-001 1.369484e-001
 0.000000e+000 0.000000e+000 0.000000e+000 0.000000e+000 0.000000e+000
<ENDHMM>
~h "ai"
<BEGINHMM>
<NUMSTATES> 5
<STATE> 2
<MEAN> 39
 -6.758647e+000 -1.744887e+001 -4.089547e+000 -9.249349e+000 -1.638138e+000 -6.604921e+000 -4.145301e+000 -4.290458e+000 -6.908796e+000 -1.072816e+001 -4.114579e+000 -4.105740e+000 7.316956e+001 -1.106885e-001 -1.307888e+000 -1.092475e-001 2.272239e-001 1.399805e-001 -5.020951e-002 -2.902261e-001 -1.045938e-001 -4.667694e-001 -4.070248e-001 7.213010e-002 -1.012432e-001 1.075974e+000 -7.496820e-003 2.423615e-001 1.840260e-001 -6.733787e-003 -1.239657e-001 2.010444e-002 1.504138e-002 3.952914e-002 6.882292e-002 1.566727e-001 8.417032e-002 6.151103e-003 -1.565178e-001
<VARIANCE> 39
 2.597098e+001 3.910414e+001 4.812218e+001 6.220404e+001 6.738334e+001 5.583598e+001 7.619086e+001 7.154226e+001 6.972414e+001 5.008607e+001 5.748467e+001 5.008629e+001 5.760861e+001 1.155149e+000 2.026264e+000 1.819827e+000 2.544069e+000 2.444055e+000 2.283066e+000 2.713225e+000 2.784379e+000 2.455469e+000 2.379509e+000 2.358536e+000 2.154108e+000 1.861400e+000 2.000795e-001 3.944539e-001 3.007343e-001 3.706462e-001 3.830364e-001 3.855873e-001 4.524107e-001 4.314057e-001 4.715989e-001 4.099409e-001 3.979681e-001 3.601412e-001 2.878250e-001
<GCONST> 1.206432e+002
<STATE> 3
<MEAN> 39
