~o
<STREAMINFO> 1 39
<VECSIZE> 39<NULLD><MFCC_D_A_0><DIAGC>
~s "silst"
<MEAN> 39
 -8.889686e+000 -3.232085e+000 9.280000e-001 -3.910800e+000 -4.119797e-001 -1.906759e+000 -4.129397e-001 -1.142193e+000 7.059958e-001 -2.077289e+000 -1.899219e-001 -2.135060e+000 5.292533e+001 -1.551867e-001 -1.933287e-002 1.886897e-002 1.910085e-001 1.419709e-001 8.077516e-002 2.038131e-001 1.749444e-001 1.794473e-001 1.405403e-001 1.208102e-001 9.300841e-002 -2.337005e-001 1.911091e-002 -4.491222e-002 -4.583594e-002 -3.146049e-002 -5.453057e-002 -2.568907e-002 -1.633688e-002 7.002347e-004 -2.889648e-003 -9.823889e-003 7.303427e-003 5.839827e-003 -1.970496e-002
<VARIANCE> 39
 2.916684e+001 3.395892e+001 4.420251e+001 5.126518e+001 4.494911e+001 4.009630e+001 4.518924e+001 4.764708e+001 4.094028e+001 3.825900e+001 3.517699e+001 2.800498e+001 5.735572e+001 1.593954e+000 2.120477e+000 2.250952e+000 2.937778e+000 2.711748e+000 2.743033e+000 3.002948e+000 2.988446e+000 3.056617e+000 2.736109e+000 2.456601e+000 2.068835e+000 2.168234e+000 2.811125e-001 3.548627e-001 3.901959e-001 5.073362e-001 4.801608e-001 5.083560e-001 5.537791e-001 5.605447e-001 5.650209e-001 5.124691e-001 4.622054e-001 3.924689e-001 2.839873e-001
<GCONST> 1.208926e+002
~h "a"
<BEGINHMM>
<NUMSTATES> 5
<STATE> 2
<MEAN> 39
 -4.845425e+000 -1.519015e+001 -4.078605e+000 -1.387188e+001 -4.189506e+000 -6.215016e+000 -1.884504e+000 -1.337272e+000 -5.814641e+000 -7.696163e+000 -6.093072e+000 -4.785499e+000 7.305460e+001 -5.442123e-001 -2.025319e+000 -4.525052e-001 9.682343e-002 7.464943e-001 4.058871e-001 5.940077e-001 -1.218230e-001 -1.289144e+000 -1.282313e+000 -2.153243e-001 -3.967949e-002 1.575425e+000 -5.122488e-002 4.685889e-001 2.520266e-001 3.948291e-001 3.310714e-002 3.762782e-002 -2.272948e-001 -4.317241e-001 -1.468841e-002 2.133619e-001 3.047918e-001 7.955529e-002 -4.446453e-001
<VARIANCE> 39
 2.401394e+001 5.606306e+001 6.445219e+001 8.441992e+001 8.961987e+001 6.426477e+001 7.182906e+001 8.274920e+001 7.560326e+001 5.635856e+001 6.472304e+001 6.318929e+001 8.075562e+001 1.360149e+000 3.280186e+000 2.896468e+000 4.184135e+000 4.047745e+000 3.910791e+000 4.388703e+000 4.869220e+000 4.548846e+000 3.728487e+000 4.125249e+000 3.492816e+000 4.397015e+000 2.713767e-001 6.824163e-001 4.445263e-001 7.967808e-001 6.692904e-001 6.214266e-001 7.582632e-001 8.342834e-001 8.248404e-001 7.160583e-001 7.395333e-001 6.935833e-001 9.821237e-001
<GCONST> 1.374198e+002
<STATE> 3
<MEAN> 39
 -6.329710e+000 -2.005242e+001 -4.983634e+000 -1.440903e+001 -3.393318e+000 -5.513962e+000 -1.186124e+000 -3.687603e+000 -1.031699e+001 -1.045459e+001 -5.728219e+000 -4.487939e+000 7.807207e+001 -2.176408e-001 -4.892767e-001 -7.659822e-002 6.571597e-001 3.436212e-001 1.227061e-001 -3.128042e-003 -6.729385e-001 -5.347960e-001 -2.747917e-001 3.682923e-001 4.687119e-002 1.388811e-001 2.218840e-001 5.148414e-001 1.957916e-001 -7.775669e-002 -2.880884e-001 -2.217953e-001 -2.554794e-001 7.043856e-002 3.708880e-001 3.828512e-001 1.098050e-002 -2.619560e-002 -3.689380e-001
<VARIANCE> 39
 2.047717e+001 3.399131e+001 5.381096e+001 6.222103e+001 7.388748e+001 5.612132e+001 6.318570e+001 8.921395e+001 6.723505e+001 4.614951e+001 5.555523e+001 5.401086e+001 1.497284e+001 4.416123e-001 1.056500e+000 1.324248e+000 1.787034e+000 2.448611e+000 1.859163e+000 2.046361e+000 2.143904e+000 2.026210e+000 1.985017e+000 2.232953e+000 1.877253e+000 3.611462e-001 8.124720e-002 1.971510e-001 2.111323e-001 3.314695e-001 3.158128e-001 3.364525e-001 3.727271e-001 4.235473e-001 4.283295e-001 3.882689e-001 4.069644e-001 3.646816e-001 1.126229e-001
<GCONST> 1.101919e+002
<STATE> 4
<MEAN> 39
 -5.070933e+000 -1.931879e+001 -4.123590e+000 -1.155760e+001 -3.396908e+000 -4.709128e+000 -2.564175e+000 -4.048130e+000 -9.658333e+000 -9.879931e+000 -5.528486e+000 -6.125726e+000 7.708021e+001 1.806091e-001 3.957760e-001 1.892590e-001 4.728073e-002 -1.857842e-001 -2.469698e-001 -1.267674e-001 -7.554407e-003 1.088427e-001 8.632708e-002 -8.965395e-002 -5.100315e-002 -4.192271e-001 1.029884e-001 2.424413e-001 7.299579e-002 -2.961766e-002 -8.576385e-002 -7.995225e-002 -6.698614e-002 2.404160e-002 9.350597e-002 1.021838e-001 -4.626741e-002 1.771814e-002 -1.955729e-001
<VARIANCE> 39
 2.262577e+001 4.320055e+001 5.960602e+001 6.722112e+001 7.476244e+001 5.651956e+001 6.912816e+001 9.559885e+001 6.874947e+001 4.996475e+001 4.978431e+001 5.593734e+001 2.354770e+001 3.149402e-001 8.702387e-001 7.481536e-001 1.071291e+000 1.211066e+000 1.193558e+000 1.171022e+000 1.322230e+000 1.197220e+000 1.303368e+000 1.183879e+000 1.032206e+000 4.092006e-001 4.811230e-002 1.325021e-001 1.252254e-001 1.832142e-001 1.734007e-001 1.889308e-001 2.065085e-001 2.429314e-001 2.078788e-001 2.162275e-001 1.959579e-001 1.697873e-001 7.882686e-002
<GCONST> 9.799072e+001
<TRANSP> 5
 0.000000e+000 1.000000e+000 0.000000e+000 0.000000e+000 0.000000e+000
 0.000000e+000 5.557635e-001 4.442365e-001 0.000000e+000 0.000000e+000
 0.000000e+000 0.000000e+000 5.793716e-001 4.206284e-001 0.000000e+000
 0.000000e+000 0.000000e+000 0.000000e+000 8.550600e-001 1.449400e-001
 0.000000e+000 0.000000e+000 0.000000e+000 0.000000e+000 0.000000e+000
<ENDHMM>
~h "b"
<BEGINHMM>
<NUMSTATES> 5
<STATE> 2
<MEAN> 39
 2.913667e-002 -1.992738e+000 1.772491e+000 -6.935012e+000 -4.502728e+000 -5.149222e+000 -6.969765e+000 -7.996375e+000 -5.934467e+000 -5.442842e+000 -5.320809e+000 -6.150221e+000 5.838562e+001 6.737250e-001 1.150205e+000 5.500033e-001 1.272890e+000 6.851946e-001 2.286772e-001 -2.191589e-001 -9.585747e-001 -7.088783e-001 -6.712859e-001 -3.762190e-001 -4.257653e-001 -1.306090e+000 -9.623653e-002 -3.235683e-001 -2.537345e-001 -4.464394e-001 -9.710213e-002 -2.070963e-002 -2.166467e-003 1.856571e-001 8.493669e-002 1.083270e-001 9.977992e-002 3.723190e-002 6.467953e-001
<VARIANCE> 39
 2.660712e+001 5.042191e+001 5.167246e+001 7.174457e+001 4.813967e+001 6.178230e+001 5.630115e+001 6.117985e+001 5.445977e+001 5.237985e+001 5.878823e+001 4.386165e+001 7.075182e+001 1.751765e+000 2.079128e+000 2.524364e+000 4.622814e+000 3.356800e+000 3.300111e+000 4.232188e+000 4.018559e+000 4.060469e+000 3.634986e+000 3.580824e+000 2.936947e+000 4.780057e+000 2.942891e-001 5.749201e-001 5.783536e-001 1.044367e+000 6.544091e-001 6.460568e-001 7.588616e-001 8.548515e-001 8.552750e-001 8.620288e-001 7.927002e-001 5.981601e-001 9.022460e-001
<GCONST> 1.341783e+002
<STATE> 3
<MEAN> 39
 2.727142e+000 1.023654e+000 1.803502e+000 -6.103380e+000 -3.168210e+000 -4.495927e+000 -8.835298e+000 -1.222055e+001 -9.102624e+000 -7.426592e+000 -6.192266e+000 -7.287315e+000 5.860086e+001 7.993224e-002 -2.287467e+000 -2.215736e+000 -2.762773e+000 -3.265856e-001 -3.259978e-001 -3.970004e-001 1.560318e+000 1.213442e+000 1.333407e+000 1.068779e+000 2.234725e-002 4.121571e+000 -4.642317e-001 -1.185643e+000 -5.476705e-001 -9.781066e-001 -2.201342e-001 1.138058e-001 3.049848e-001 1.005153e+000 5.896119e-001 3.438432e-001 1.024075e-001 1.053943e-001 1.229268e+000
<VARIANCE> 39
 1.295330e+001 2.987179e+001 3.418303e+001 4.535608e+001 2.972182e+001 5.288969e+001 4.681007e+001 4.938641e+001 4.142502e+001 4.286927e+001 5.571496e+001 3.392402e+001 2.646307e+001 1.836474e+000 4.523537e+000 4.303918e+000 5.852850e+000 4.477645e+000 4.862061e+000 5.891932e+000 6.435636e+000 6.321649e+000 5.708760e+000 5.935816e+000 4.701208e+000 3.871503e+000 2.898988e-001 5.671478e-001 7.620822e-001 9.725419e-001 9.195765e-001 8.688229e-001 1.285107e+000 1.064471e+000 1.124004e+000 1.129076e+000 1.139221e+000 9.869102e-001 6.700894e-001
<GCONST> 1.366569e+002
<STATE> 4
<MEAN> 39
 1.371122e+000 -1.022729e+001 -6.738381e+000 -1.695029e+001 -4.184422e+000 -4.863059e+000 -8.968139e+000 -3.238084e+000 -1.761513e+000 -1.907021e+000 -4.013767e+000 -8.080415e+000 7.404527e+001 -1.194945e+000 -3.728146e+000 -1.533671e+000 -2.466955e+000 -1.298344e-001 2.332747e-001 1.084650e+000 2.827289e+000 9.562096e-001 1.494245e-002 -3.745244e-001 -3.028278e-002 4.226016e+000 -2.846245e-001 5.076777e-001 8.738261e-001 8.752266e-001 2.829359e-002 1.845738e-001 4.170381e-001 -5.278490e-001 -8.152080e-001 -7.588793e-001 -2.733044e-001 1.968479e-001 -1.080488e+000
<VARIANCE> 39
 1.585502e+001 5.429947e+001 5.573146e+001 7.277711e+001 4.975531e+001 9.237995e+001 6.621072e+001 6.176565e+001 5.786059e+001 7.116266e+001 7.697666e+001 6.341716e+001 2.727155e+001 1.574500e+000 4.649854e+000 5.706268e+000 8.591963e+000 7.693176e+000 6.988192e+000 8.342134e+000 6.683075e+000 7.306169e+000 7.929670e+000 7.238101e+000 6.934788e+000 3.947569e+000 2.653399e-001 5.971977e-001 4.400768e-001 1.096762e+000 8.392881e-001 9.679452e-001 9.418458e-001 1.128293e+000 1.043117e+000 1.045822e+000 1.177907e+000 9.145346e-001 4.887153e-001
<GCONST> 1.435792e+002
<TRANSP> 5
 0.000000e+000 1.000000e+000 0.000000e+000 0.000000e+000 0.000000e+000
 0.000000e+000 7.692548e-001 2.307452e-001 0.000000e+000 0.000000e+000
 0.000000e+000 0.000000e+000 5.641444e-001 4.358556e-001 0.000000e+000
 0.000000e+000 0.000000e+000 0.000000e+000 4.437050e-001 5.562950e-001
 0.000000e+000 0.000000e+000 0.000000e+000 0.000000e+000 0.000000e+000
<ENDHMM>
~h "c"
<BEGINHMM>
<NUMSTATES> 5
<STATE> 2
<MEAN> 39
 -4.475080e+000 -3.522663e+000 -1.000660e+000 -6.345520e+000 -3.271581e+000 -4.629412e+000 -2.929639e+000 -4.045495e+000 -1.708978e+000 -1.936805e+000 -2.384611e+000 -3.068534e+000 5.551020e+001 -7.887117e-001 -8.689962e-002 -1.019837e-001 1.262827e+000 6.996642e-001 6.210736e-001 9.042591e-001 7.448695e-001 9.412344e-001 2.829758e-001 5.271702e-001 1.807804e-001 -1.781830e+000 -9.729638e-002 -2.625720e-001 -2.454847e-001 -2.982323e-001 1.214760e-002 -4.338749e-002 -3.942003e-002 7.575525e-002 5.669026e-003 5.701461e-002 2.460583e-002 6.247750e-002 5.412433e-001
<VARIANCE> 39
 2.350418e+001 3.903347e+001 5.156609e+001 5.470702e+001 5.179299e+001 5.449946e+001 5.507913e+001 5.700366e+001 5.117817e+001 4.500029e+001 5.005756e+001 4.061895e+001 5.255567e+001 1.465995e+000 2.452352e+000 2.915868e+000 4.171172e+000 3.511165e+000 3.656054e+000 3.802079e+000 3.787775e+000 3.826205e+000 3.455966e+000 3.496684e+000 2.886752e+000 3.630126e+000 2.596518e-001 4.774546e-001 5.038694e-001 6.902226e-001 6.834419e-001 7.852741e-001 7.061476e-001 7.546318e-001 7.558054e-001 6.841173e-001 6.398868e-001 5.539111e-001 6.570042e-001
<GCONST> 1.304305e+002
<STATE> 3
<MEAN> 39
 -8.187791e+000 -5.196872e+000 -2.949127e+000 -3.590985e+000 -2.718564e-001 -3.231239e+000 1.974368e-001 -1.366315e+000 2.063301e+000 -1.632989e-001 -9.631547e-003 -1.351108e+000 5.378492e+001 -3.596447e-001 -4.847590e-001 -1.137082e+000 -2.270580e-001 8.316689e-001 -8.884372e-001 1.188331e-002 2.199162e-001 3.247358e-002 5.070139e-001 -5.628091e-002 5.978362e-001 2.223190e+000 6.477202e-001 1.254635e-001 2.407754e-002 -9.025430e-001 -4.168984e-001 -4.021609e-001 -5.913749e-001 -4.075567e-001 -6.782730e-001 -2.271399e-001 -4.532211e-001 -2.247244e-001 1.141887e+000
<VARIANCE> 39
 1.745092e+001 2.989254e+001 4.083808e+001 3.167267e+001 4.952726e+001 4.482254e+001 4.198551e+001 4.012553e+001 3.719142e+001 3.268628e+001 3.320324e+001 2.574158e+001 4.084533e+001 2.406379e+000 3.770081e+000 5.375176e+000 4.495137e+000 6.711600e+000 5.307784e+000 5.315361e+000 5.041245e+000 4.640466e+000 4.347477e+000 3.871755e+000 3.431479e+000 8.209704e+000 3.438073e-001 6.074634e-001 7.262069e-001 9.511048e-001 1.006209e+000 8.737022e-001 8.195798e-001 8.636090e-001 7.722386e-001 7.818408e-001 8.308965e-001 7.799556e-001 7.811672e-001
<GCONST> 1.341492e+002
<STATE> 4
<MEAN> 39
 -5.954859e+000 -5.322074e+000 -5.403636e+000 -7.331864e+000 -1.092747e-001 -7.537010e+000 -2.853897e+000 -2.304113e+000 -4.626904e-001 6.474732e-001 -1.900837e+000 -1.142419e+000 6.409232e+001 1.479570e+000 -2.507060e-001 -2.762427e-001 -2.887074e+000 -1.158610e+000 -7.988562e-001 -1.170514e+000 -4.368972e-001 -1.453046e+000 -4.744546e-001 -9.605210e-001 -8.820594e-001 3.384904e+000 2.571054e-001 -1.616763e-001 2.900730e-001 -4.963512e-001 -4.013556e-001 4.921894e-001 -9.593785e-002 -1.624267e-001 -3.087758e-001 -4.773646e-001 -1.139914e-001 -4.738633e-001 -2.872727e-001
<VARIANCE> 39
 2.750842e+001 4.075804e+001 6.802137e+001 6.731669e+001 9.611379e+001 7.030437e+001 6.649302e+001 6.049513e+001 5.383818e+001 4.815916e+001 4.612663e+001 4.669670e+001 7.774035e+001 2.683346e+000 4.941364e+000 5.504661e+000 8.057094e+000 7.110368e+000 6.156945e+000 6.827973e+000 6.775498e+000 5.493001e+000 5.486263e+000 6.836897e+000 6.085155e+000 7.086503e+000 4.831600e-001 6.857851e-001 9.058083e-001 1.199782e+000 1.656329e+000 1.173282e+000 1.135167e+000 9.988222e-001 1.001944e+000 9.305488e-001 9.940422e-001 9.184245e-001 9.753810e-001
<GCONST> 1.468005e+002
<TRANSP> 5
 0.000000e+000 1.000000e+000 0.000000e+000 0.000000e+000 0.000000e+000
 0.000000e+000 7.860599e-001 2.139401e-001 0.000000e+000 0.000000e+000
 0.000000e+000 0.000000e+000 5.479087e-001 4.520913e-001 0.000000e+000
 0.000000e+000 0.000000e+000 0.000000e+000 3.900463e-001 6.099537e-001
 0.000000e+000 0.000000e+000 0.000000e+000 0.000000e+000 0.000000e+000
<ENDHMM>
~h "d"
<BEGINHMM>
<NUMSTATES> 5
<STATE> 2
<MEAN> 39
 -1.912712e+000 -3.973426e+000 3.834236e+000 -8.103236e+000 -8.704750e+000 -7.968455e+000 -8.580735e+000 -6.630980e+000 -5.596820e+000 -5.026754e+000 -5.041555e+000 -4.430081e+000 6.230832e+001 4.658205e-001 1.265056e+000 8.992590e-001 1.705003e+000 4.872600e-001 -5.249621e-001 -6.398286e-001 -7.195257e-001 -3.701139e-001 -9.300609e-001 -4.519168e-001 -4.494295e-001 -1.294825e+000 -1.027796e-001 -1.289332e-001 -9.661879e-002 -1.266330e-001 1.671845e-001 2.441422e-002 5.847283e-002 1.512015e-001 5.057851e-002 -9.321793e-002 -2.197414e-002 -4.123673e-002 2.995182e-001
<VARIANCE> 39
 3.518071e+001 7.447073e+001 8.095882e+001 9.654036e+001 7.175816e+001 6.346944e+001 7.071987e+001 8.592313e+001 6.406995e+001 5.815427e+001 6.217296e+001 5.172307e+001 8.393238e+001 1.832792e+000 2.954805e+000 3.475578e+000 5.413902e+000 5.888362e+000 4.587293e+000 5.099028e+000 4.979733e+000 4.461192e+000 4.470864e+000 4.091380e+000 3.440880e+000 4.188026e+000 2.785924e-001 6.695634e-001 5.913095e-001 1.025767e+000 1.136223e+000 7.555640e-001 8.456989e-001 1.084379e+000 8.338718e-001 8.677299e-001 7.248078e-001 6.317196e-001 7.157525e-001
<GCONST> 1.407441e+002
<STATE> 3
<MEAN> 39
 -7.437157e-001 1.211092e+000 6.842526e+000 -3.182714e+000 -5.797964e+000 -9.504161e+000 -1.100309e+001 -9.895085e+000 -6.812816e+000 -8.852827e+000 -7.536827e+000 -6.604111e+000 5.928244e+001 -4.472911e-001 -1.178351e+000 4.551777e-001 -9.606088e-001 -9.475777e-001 -4.532378e-001 -5.115702e-001 1.224961e+000 2.144584e-001 2.173854e-001 5.140483e-001 3.237562e-001 2.215178e+000 -2.485256e-001 -1.127309e+000 -4.500763e-001 -1.273319e+000 -7.924258e-001 1.776969e-001 3.558458e-001 9.133618e-001 2.479044e-001 6.803145e-001 3.464432e-001 2.941872e-001 1.306197e+000
<VARIANCE> 39
 3.376119e+001 4.247753e+001 5.245319e+001 7.313301e+001 4.832665e+001 4.775584e+001 5.449976e+001 5.757372e+001 5.173567e+001 5.695028e+001 5.225927e+001 3.789018e+001 2.552915e+001 2.173559e+000 4.720200e+000 4.102232e+000 6.945413e+000 6.882136e+000 4.101170e+000 5.108155e+000 7.061325e+000 5.074624e+000 5.551569e+000 4.612449e+000 3.610931e+000 5.183837e+000 4.742410e-001 5.455527e-001 7.658976e-001 1.117287e+000 1.195335e+000 9.558396e-001 1.179998e+000 1.179859e+000 9.780740e-001 9.907549e-001 9.532596e-001 7.244487e-001 6.944389e-001
<GCONST> 1.404022e+002
<STATE> 4
<MEAN> 39
 -2.680517e+000 -7.138293e+000 5.854129e+000 -1.156220e+001 -1.256771e+001 -1.017438e+001 -1.033002e+001 -3.301083e+000 -5.171566e+000 -4.915795e+000 -4.122019e+000 -4.301755e+000 7.046713e+001 -3.206021e-001 -2.814879e+000 -1.487576e+000 -2.579844e+000 -1.116197e+000 1.322722e-001 1.010849e+000 2.607934e+000 6.577044e-001 8.141967e-001 6.483658e-002 1.199132e-001 3.400326e+000 -2.266993e-002 1.342110e-001 -5.068915e-001 -4.577934e-002 7.138985e-001 3.154714e-001 3.600229e-001 -2.458745e-001 -6.631697e-002 -1.447520e-001 -2.972270e-001 -2.202884e-001 -2.482991e-001
<VARIANCE> 39
 2.632100e+001 5.693884e+001 7.715677e+001 1.185933e+002 6.917442e+001 5.514382e+001 7.458287e+001 9.399662e+001 6.691850e+001 6.199482e+001 6.201615e+001 3.813518e+001 4.518943e+001 1.992876e+000 3.778139e+000 5.111516e+000 7.399537e+000 8.929721e+000 5.506373e+000 7.086471e+000 7.671644e+000 6.266339e+000 6.184683e+000 5.653249e+000 4.366019e+000 4.296323e+000 2.494782e-001 7.469809e-001 6.522743e-001 1.502393e+000 1.430924e+000 8.736677e-001 1.263087e+000 1.532000e+000 1.034128e+000 1.131142e+000 9.415436e-001 7.430390e-001 8.466578e-001
<GCONST> 1.458027e+002
<TRANSP> 5
 0.000000e+000 1.000000e+000 0.000000e+000 0.000000e+000 0.000000e+000
 0.000000e+000 6.908011e-001 3.091989e-001 0.000000e+000 0.000000e+000
 0.000000e+000 0.000000e+000 5.673608e-001 4.326392e-001 0.000000e+000
 0.000000e+000 0.000000e+000 0.000000e+000 4.256199e-001 5.743800e-001
 0.000000e+000 0.000000e+000 0.000000e+000 0.000000e+000 0.000000e+000
<ENDHMM>
~h "e"
<BEGINHMM>
<NUMSTATES> 5
<STATE> 2
<MEAN> 39
 -6.739047e+000 -9.828696e+000 2.155717e+000 -1.499786e+001 -9.866785e+000 -6.880775e+000 9.519515e-001 -1.819040e+000 -3.009424e+000 -4.282741e+000 -4.082752e+000 -4.029399e+000 6.841651e+001 -4.971003e-001 -1.009792e+000 5.797797e-001 -1.344270e+000 -9.795519e-001 2.544403e-001 8.481823e-001 1.503048e-001 -6.215308e-001 -3.680708e-001 -4.144452e-001 -7.166590e-001 1.500759e+000 -9.045260e-002 2.251664e-001 -6.237265e-002 1.372146e-001 1.901505e-001 2.151773e-001 -1.564998e-001 -2.020721e-001 1.360689e-002 8.906688e-002 6.019744e-002 -3.817961e-002 -1.182901e-001
<VARIANCE> 39
 2.273612e+001 4.652460e+001 6.238684e+001 1.020433e+002 8.806985e+001 7.501157e+001 6.714285e+001 6.594085e+001 6.736884e+001 4.766529e+001 5.709206e+001 4.226125e+001 1.099495e+002 1.465818e+000 2.836431e+000 2.732440e+000 5.056365e+000 3.899257e+000 3.702072e+000 4.596917e+000 4.109091e+000 3.687791e+000 3.381811e+000 3.646360e+000 2.935137e+000 5.733553e+000 3.293856e-001 5.338795e-001 4.308240e-001 9.898524e-001 6.913485e-001 7.204365e-001 7.787622e-001 6.280674e-001 6.184960e-001 6.194687e-001 6.045048e-001 4.910876e-001 9.845812e-001
<GCONST> 1.352617e+002
<STATE> 3
<MEAN> 39
 -8.083968e+000 -1.272138e+001 4.081362e+000 -2.104837e+001 -1.409780e+001 -6.968382e+000 1.419672e+000 -2.928805e+000 -6.067306e+000 -5.366056e+000 -6.513616e+000 -7.269418e+000 7.633138e+001 -2.954513e-001 -2.829874e-001 1.747115e-001 -4.440268e-001 -2.514337e-001 4.538508e-001 -5.222323e-002 -2.560858e-001 -1.897591e-001 -4.952425e-002 -2.341682e-001 -4.699555e-001 4.255829e-001 1.717716e-001 2.973776e-001 -9.945160e-002 4.111184e-001 2.517285e-001 -6.433512e-002 -2.131794e-001 -3.374279e-002 1.210398e-001 4.697658e-002 1.447004e-001 2.923223e-001 -3.693776e-001
<VARIANCE> 39
 2.277781e+001 3.617667e+001 6.191075e+001 8.023459e+001 5.767924e+001 5.785646e+001 5.254107e+001 7.924397e+001 5.879983e+001 4.439998e+001 5.285609e+001 3.586210e+001 1.802894e+001 5.255132e-001 1.180522e+000 1.171508e+000 1.239029e+000 1.392224e+000 1.510980e+000 1.974695e+000 1.756186e+000 1.786259e+000 1.796875e+000 1.728656e+000 1.588759e+000 7.012371e-001 1.215279e-001 2.528301e-001 1.717290e-001 2.774613e-001 2.707900e-001 2.912687e-001 3.530709e-001 3.483316e-001 3.297339e-001 3.330263e-001 3.551095e-001 2.985722e-001 1.894227e-001
<GCONST> 1.080806e+002
<STATE> 4
<MEAN> 39
 -7.452847e+000 -1.233549e+001 4.481585e+000 -2.016431e+001 -1.472467e+001 -5.917286e+000 -4.155437e-002 -2.767995e+000 -6.987981e+000 -5.189514e+000 -6.447015e+000 -7.292761e+000 7.676740e+001 2.628417e-001 -4.629771e-002 -9.212726e-004 2.629887e-001 9.733160e-002 -1.860982e-001 -1.006316e-001 -4.324339e-002 -1.237125e-001 -9.739337e-002 5.884368e-003 9.894139e-002 -2.012390e-001 1.515202e-001 8.817237e-002 -4.348102e-002 2.113051e-001 1.284872e-001 -1.407796e-001 -1.394364e-001 -1.239548e-002 3.926092e-002 7.785674e-003 2.543383e-002 6.656303e-002 -1.944075e-001
<VARIANCE> 39
 2.239243e+001 3.226622e+001 5.686895e+001 9.123830e+001 5.157214e+001 5.974334e+001 5.297859e+001 8.616637e+001 5.328096e+001 4.957079e+001 5.935917e+001 3.605496e+001 1.394440e+001 3.211166e-001 6.648659e-001 6.325525e-001 8.834689e-001 9.031317e-001 1.069731e+000 1.156918e+000 9.737806e-001 9.601792e-001 1.037089e+000 8.871080e-001 7.999547e-001 2.841866e-001 6.135338e-002 1.118891e-001 1.064724e-001 1.757811e-001 1.717602e-001 1.754710e-001 2.393479e-001 2.118192e-001 1.692475e-001 1.737399e-001 1.520548e-001 1.367877e-001 7.158564e-002
<GCONST> 9.232961e+001
<TRANSP> 5
 0.000000e+000 1.000000e+000 0.000000e+000 0.000000e+000 0.000000e+000
 0.000000e+000 6.488132e-001 3.511868e-001 0.000000e+000 0.000000e+000
 0.000000e+000 0.000000e+000 5.409347e-001 4.590653e-001 0.000000e+000
 0.000000e+000 0.000000e+000 0.000000e+000 8.682662e-001 1.317339e-001
 0.000000e+000 0.000000e+000 0.000000e+000 0.000000e+000 0.000000e+000
<ENDHMM>
~h "f"
<BEGINHMM>
<NUMSTATES> 5
<STATE> 2
<MEAN> 39
 -8.895996e+000 -1.386380e+000 1.158224e+001 -2.026526e+001 -1.426216e+001 -1.003544e+001 -1.022828e+001 -9.413835e+000 -7.586273e+000 -4.285824e+000 -4.989276e+000 -5.782063e+000 7.267683e+001 1.074659e-001 -7.082526e-001 2.701322e-001 -5.649471e-001 -1.071732e+000 3.123625e-001 2.906206e-001 2.110734e-001 7.955697e-001 6.950432e-001 3.300242e-001 -1.280201e-001 6.305679e-001 1.463779e-002 3.519984e-001 -3.008794e-002 3.699843e-001 3.114446e-001 -6.362524e-002 -6.556500e-002 -2.291941e-001 -3.638403e-002 -2.852306e-002 3.242556e-002 1.189295e-001 -3.186989e-001
<VARIANCE> 39
 1.609983e+001 3.986740e+001 5.969608e+001 1.234392e+002 5.063588e+001 4.260083e+001 5.351868e+001 6.499081e+001 5.311459e+001 5.361387e+001 9.826064e+001 3.501138e+001 2.197270e+001 3.528385e-001 7.087130e-001 1.038495e+000 9.234097e-001 1.582195e+000 1.190712e+000 1.429664e+000 1.661752e+000 1.363274e+000 1.949790e+000 1.752611e+000 1.705306e+000 3.065174e-001 6.515780e-002 1.375664e-001 1.635787e-001 2.101903e-001 3.327658e-001 2.215015e-001 3.241484e-001 2.526661e-001 2.976030e-001 3.558794e-001 3.259740e-001 2.297505e-001 6.345558e-002
<GCONST> 1.022365e+002
<STATE> 3
<MEAN> 39
 -7.780943e+000 -9.843414e-001 1.603802e+001 -1.978106e+001 -1.623932e+001 -8.930521e+000 -1.174368e+001 -9.821815e+000 -7.214507e+000 -7.141418e-001 -3.225725e+000 -3.895057e+000 7.279130e+001 7.449216e-002 2.846422e-001 5.372816e-001 1.746802e-001 7.540434e-002 1.998574e-001 -2.879221e-001 -3.905548e-001 -5.485446e-002 3.981673e-002 -4.280102e-002 9.292705e-002 -3.668613e-001 4.071916e-002 5.567815e-002 -1.615675e-002 1.523567e-001 1.031455e-001 -1.372456e-002 3.279986e-002 1.240572e-002 -7.386391e-002 -6.676668e-002 -2.759080e-002 -2.149218e-002 -1.313692e-001
<VARIANCE> 39
 1.404988e+001 3.566623e+001 5.681792e+001 1.179079e+002 3.700557e+001 4.473285e+001 5.748740e+001 5.354714e+001 5.032473e+001 4.574632e+001 8.377532e+001 2.980881e+001 1.743437e+001 1.955487e-001 4.910121e-001 4.408024e-001 4.859434e-001 7.101341e-001 6.308164e-001 8.766959e-001 8.675106e-001 7.996129e-001 9.290884e-001 7.209908e-001 7.038099e-001 2.076645e-001 3.446015e-002 6.720723e-002 7.431056e-002 1.081289e-001 1.183860e-001 1.028479e-001 1.662867e-001 1.478668e-001 1.376715e-001 1.590063e-001 1.343383e-001 1.200489e-001 3.101180e-002
<GCONST> 8.263448e+001
<STATE> 4
<MEAN> 39
 -5.897461e+000 2.245402e+000 1.636270e+001 -1.060878e+001 -1.284562e+001 -4.057720e+000 -9.690089e+000 -8.891472e+000 -6.259116e+000 -3.064863e+000 -4.164318e-001 -5.079643e+000 6.472113e+001 3.536513e-001 -5.422195e-002 -6.448844e-001 1.217418e+000 8.881390e-001 2.333091e-001 9.784554e-001 4.573974e-001 2.730524e-001 -3.618214e-002 -5.010519e-002 1.873843e-002 -1.181968e+000 1.185129e-002 -2.075604e-002 -2.870009e-001 2.021130e-001 2.788889e-001 -5.173548e-003 1.719273e-001 1.664492e-001 1.586167e-001 -5.134178e-002 6.532842e-003 3.345348e-002 -2.045087e-001
<VARIANCE> 39
 1.370696e+001 3.818455e+001 6.625064e+001 1.137240e+002 6.815862e+001 5.579565e+001 5.389291e+001 5.873766e+001 5.803957e+001 4.391069e+001 7.664484e+001 3.103827e+001 6.398774e+001 6.597813e-001 1.185732e+000 1.663629e+000 2.636374e+000 2.363050e+000 1.983523e+000 2.420950e+000 2.129674e+000 2.472442e+000 2.255895e+000 1.911205e+000 1.564556e+000 9.549340e-001 1.068156e-001 1.851991e-001 2.449872e-001 4.489972e-001 4.585030e-001 3.181918e-001 4.148822e-001 3.726839e-001 3.831719e-001 4.150411e-001 3.173499e-001 3.007063e-001 1.892397e-001
<GCONST> 1.143559e+002
<TRANSP> 5
 0.000000e+000 1.000000e+000 0.000000e+000 0.000000e+000 0.000000e+000
 0.000000e+000 5.791385e-001 4.208615e-001 0.000000e+000 0.000000e+000
 0.000000e+000 0.000000e+000 8.767182e-001 1.232818e-001 0.000000e+000
 0.000000e+000 0.000000e+000 0.000000e+000 7.878127e-001 2.121873e-001
 0.000000e+000 0.000000e+000 0.000000e+000 0.000000e+000 0.000000e+000
<ENDHMM>
~h "g"
<BEGINHMM>
<NUMSTATES> 5
<STATE> 2
<MEAN> 39
 -2.135934e+000 -1.154364e+000 2.226083e+000 -8.166718e+000 -5.152040e+000 -1.117588e+001 -8.085656e+000 -8.816888e+000 -6.323020e+000 -3.097493e+000 -5.463387e+000 -3.544008e+000 6.232741e+001 -1.652827e-001 -3.658113e-001 9.546975e-002 -3.734652e-001 -1.926571e-001 -9.632517e-001 -2.025079e-001 6.816535e-001 2.007543e-001 4.828009e-001 1.130345e-001 2.505192e-002 9.640948e-001 -2.534008e-002 -4.830046e-001 -2.120070e-001 -6.238042e-001 -2.315618e-001 2.225004e-001 1.720444e-001 4.220547e-001 1.738340e-001 3.471558e-003 -6.130009e-002 -1.256629e-001 5.701644e-001
<VARIANCE> 39
 2.363687e+001 3.875646e+001 7.931403e+001 8.739359e+001 7.117203e+001 7.966350e+001 6.462105e+001 8.035379e+001 5.841824e+001 6.960490e+001 6.918802e+001 5.439005e+001 4.325857e+001 1.884746e+000 3.378935e+000 3.714464e+000 7.025322e+000 5.952000e+000 4.913474e+000 5.449349e+000 6.119730e+000 4.722061e+000 4.848534e+000 4.902124e+000 3.710113e+000 5.628232e+000 2.823667e-001 4.207247e-001 5.628614e-001 7.864360e-001 9.004624e-001 9.243706e-001 9.089361e-001 8.833791e-001 8.542180e-001 9.047183e-001 8.365033e-001 6.979129e-001 4.989888e-001
<GCONST> 1.397657e+002
<STATE> 3
<MEAN> 39
 -2.922478e+000 -7.955507e+000 2.126021e+000 -1.750350e+001 -9.811838e+000 -1.348365e+001 -7.646433e+000 -6.695103e-001 -3.590924e+000 3.103234e-001 -5.679596e+000 -5.354020e+000 7.294446e+001 -1.283683e-001 -2.491596e+000 -1.600643e+000 -2.359822e+000 4.835794e-002 1.315444e+000 1.606994e+000 2.015528e+000 6.277210e-001 -6.527277e-001 -1.069865e+000 -1.156538e+000 2.517786e+000 1.475831e-002 -3.412408e-002 -3.373924e-001 6.891489e-001 7.672718e-001 7.454056e-001 3.135576e-001 -5.662381e-001 -3.604335e-001 -6.353094e-001 -8.289196e-002 -5.661701e-002 -4.817077e-001
<VARIANCE> 39
 1.863282e+001 3.253822e+001 7.897004e+001 8.374784e+001 8.237330e+001 7.677707e+001 8.566156e+001 8.677828e+001 5.476033e+001 8.088828e+001 1.022081e+002 6.360541e+001 2.340250e+001 6.755579e-001 1.460582e+000 2.059384e+000 3.286982e+000 4.203807e+000 3.660095e+000 4.402325e+000 3.771614e+000 4.153542e+000 4.210620e+000 4.071806e+000 3.004792e+000 1.278009e+000 1.332542e-001 2.342512e-001 3.390681e-001 6.019980e-001 5.703858e-001 5.333014e-001 7.396076e-001 7.093101e-001 6.009358e-001 6.821791e-001 9.061222e-001 5.850392e-001 2.383655e-001
<GCONST> 1.280777e+002
<STATE> 4
<MEAN> 39
 -3.204585e+000 -1.314309e+001 -3.615218e+000 -2.008297e+001 -4.894072e+000 -8.450043e+000 -2.855952e+000 -1.943203e-001 -4.068274e+000 -4.488183e+000 -9.394781e+000 -6.890749e+000 7.602374e+001 -8.560330e-002 -1.687089e+000 -1.286351e+000 2.135703e-001 1.351187e+000 1.957274e+000 9.370867e-001 -2.611102e-001 -7.046173e-001 -1.300281e+000 -5.751306e-002 -3.972696e-001 8.558202e-001 7.345097e-002 3.736713e-001 2.681810e-001 6.183368e-001 1.097193e-001 -1.252023e-001 -4.470337e-001 -5.774891e-001 -1.956559e-001 1.913761e-001 4.502987e-001 2.798418e-001 -5.330628e-001
<VARIANCE> 39
 2.071532e+001 4.444596e+001 7.009649e+001 8.659871e+001 8.942118e+001 8.648995e+001 9.081416e+001 8.921615e+001 6.741982e+001 7.273639e+001 8.394524e+001 5.456365e+001 2.130951e+001 3.541103e-001 1.420024e+000 1.438632e+000 2.537825e+000 2.523186e+000 2.611198e+000 3.131819e+000 2.416627e+000 2.988942e+000 3.161340e+000 3.115521e+000 2.189001e+000 7.062050e-001 6.730676e-002 1.655879e-001 1.792606e-001 4.435200e-001 3.778355e-001 3.767759e-001 4.696437e-001 4.925890e-001 4.585204e-001 4.588682e-001 5.123819e-001 3.962938e-001 1.347732e-001
<GCONST> 1.178889e+002
<TRANSP> 5
 0.000000e+000 1.000000e+000 0.000000e+000 0.000000e+000 0.000000e+000
 0.000000e+000 8.163203e-001 1.836797e-001 0.000000e+000 0.000000e+000
 0.000000e+000 0.000000e+000 5.748863e-001 4.251136e-001 0.000000e+000
 0.000000e+000 0.000000e+000 0.000000e+000 4.777223e-001 5.222777e-001
 0.000000e+000 0.000000e+000 0.000000e+000 0.000000e+000 0.000000e+000
<ENDHMM>
~h "h"
<BEGINHMM>
<NUMSTATES> 5
<STATE> 2
<MEAN> 39
 -4.791703e+000 -4.779416e+000 -1.944275e-001 -6.578012e+000 8.329014e-001 -2.724391e+000 -3.087811e+000 -4.483544e+000 -4.092020e+000 -7.079985e+000 -2.762991e+000 -3.836126e+000 6.475381e+001 -1.522991e-001 -2.416513e-001 -6.426381e-002 4.532567e-001 7.688515e-001 1.797178e-001 -9.340472e-002 1.236621e-002 -2.354511e-001 -7.194858e-001 9.399918e-002 -1.947506e-001 3.651622e-001 1.060174e-001 -2.080030e-001 -1.349163e-001 -3.493415e-001 -2.827307e-001 -1.108502e-001 -1.897822e-001 -1.131573e-001 -4.744885e-002 2.303018e-002 -3.763182e-002 -1.078071e-001 2.233538e-001
<VARIANCE> 39
 3.232133e+001 5.102079e+001 6.380101e+001 8.095145e+001 1.003022e+002 8.986880e+001 7.718756e+001 7.973489e+001 7.438159e+001 6.563642e+001 6.973690e+001 5.071907e+001 4.926118e+001 1.740024e+000 2.708327e+000 3.283367e+000 4.513534e+000 5.961637e+000 4.557352e+000 5.084498e+000 5.108640e+000 4.350320e+000 4.293312e+000 4.026142e+000 3.240052e+000 2.339766e+000 2.444442e-001 4.160234e-001 4.421901e-001 5.821085e-001 8.315433e-001 7.310042e-001 7.788396e-001 8.194903e-001 7.265565e-001 7.435941e-001 6.997699e-001 5.482915e-001 2.132167e-001
<GCONST> 1.354701e+002
<STATE> 3
<MEAN> 39
 -3.380291e+000 -7.358888e+000 -3.449468e+000 -1.010547e+001 6.356834e-001 -5.634732e+000 -8.516748e+000 -8.558280e+000 -8.369906e+000 -1.292868e+001 -4.663787e+000 -6.948104e+000 6.878442e+001 4.983062e-001 -1.098101e+000 -1.012845e+000 -1.099972e+000 -5.035065e-001 4.453148e-002 -3.599333e-001 -1.062232e-001 -1.652060e-002 8.707096e-002 -8.624025e-002 -4.422886e-001 1.039860e+000 -4.589251e-002 -2.957121e-001 6.151920e-003 -1.829496e-001 -4.497183e-002 2.104850e-001 2.226603e-001 2.210357e-001 1.677994e-001 3.648151e-001 4.623158e-002 7.341153e-002 1.375095e-001
<VARIANCE> 39
 2.628680e+001 4.602346e+001 6.965337e+001 7.165940e+001 9.436389e+001 8.157217e+001 8.890265e+001 7.191731e+001 6.484215e+001 6.989179e+001 5.968972e+001 5.142775e+001 2.590906e+001 1.016417e+000 1.922638e+000 2.317238e+000 3.079972e+000 3.622791e+000 3.199507e+000 3.237493e+000 3.060810e+000 2.980891e+000 3.165121e+000 2.966376e+000 2.549444e+000 1.160594e+000 2.134698e-001 2.633982e-001 4.127561e-001 4.410386e-001 5.385935e-001 5.059404e-001 5.420589e-001 5.703146e-001 5.082176e-001 5.502505e-001 5.095488e-001 4.353381e-001 1.284956e-001
<GCONST> 1.246131e+002
<STATE> 4
<MEAN> 39
 -3.352701e+000 -9.674494e+000 -4.435279e+000 -1.011985e+001 -2.718356e-001 -1.884061e+000 -4.774078e+000 -5.677859e+000 -4.944271e+000 -7.145505e+000 -2.650790e+000 -5.902630e+000 6.707956e+001 1.132154e-002 -6.592523e-001 -1.564808e-001 -5.040402e-001 -1.746136e-001 1.820205e-001 7.081950e-002 1.513972e-001 5.010747e-002 2.416312e-001 5.448066e-002 -1.016772e-001 5.378751e-001 -3.638714e-002 4.746304e-002 1.002908e-001 2.312894e-002 2.704937e-004 -1.880357e-002 1.436837e-002 4.845156e-002 -1.100291e-002 2.081795e-002 -1.669109e-002 3.275367e-003 -4.176435e-002
<VARIANCE> 39
 3.355409e+001 6.644669e+001 6.642039e+001 9.924837e+001 8.896238e+001 8.004879e+001 9.571780e+001 6.935587e+001 6.600849e+001 5.512881e+001 5.091449e+001 4.612247e+001 1.117805e+002 5.024085e-001 1.620714e+000 1.249715e+000 1.760678e+000 1.751872e+000 1.828655e+000 1.887463e+000 1.881997e+000 1.799722e+000 1.980001e+000 1.975703e+000 1.689185e+000 9.766067e-001 1.016238e-001 1.822957e-001 2.032606e-001 2.285871e-001 2.683964e-001 2.775223e-001 2.931494e-001 3.171193e-001 3.076599e-001 3.090248e-001 2.961959e-001 2.701614e-001 1.059387e-001
<GCONST> 1.128427e+002
<TRANSP> 5
 0.000000e+000 1.000000e+000 0.000000e+000 0.000000e+000 0.000000e+000
 0.000000e+000 7.588165e-001 2.411835e-001 0.000000e+000 0.000000e+000
 0.000000e+000 0.000000e+000 6.169713e-001 3.830287e-001 0.000000e+000
 0.000000e+000 0.000000e+000 0.000000e+000 7.174921e-001 2.825079e-001
 0.000000e+000 0.000000e+000 0.000000e+000 0.000000e+000 0.000000e+000
<ENDHMM>
~h "i"
<BEGINHMM>
<NUMSTATES> 5
<STATE> 2
<MEAN> 39
 -4.741805e+000 -4.417212e+000 3.642057e+000 -1.377054e+001 -1.318068e+001 -1.259486e+001 -8.400180e+000 -5.840511e+000 -5.215025e+000 -4.942626e+000 -3.046224e+000 -1.031279e+000 7.259435e+001 2.339317e-001 -1.648607e+000 6.044743e-001 -2.591599e+000 -2.486072e+000 -9.196705e-001 -1.074820e+000 -3.598286e-002 -1.306821e+000 -6.690822e-001 -8.615476e-001 -7.557687e-001 1.941376e+000 -5.850901e-001 1.976033e-002 -9.147782e-002 5.332351e-001 6.531911e-001 6.616519e-001 5.840945e-001 1.248045e-001 2.094979e-001 2.021583e-001 3.291730e-002 -2.440134e-001 -6.538152e-001
<VARIANCE> 39
 1.764095e+001 4.407752e+001 9.305976e+001 9.638113e+001 7.191953e+001 6.256625e+001 6.763734e+001 9.070882e+001 6.567274e+001 5.367125e+001 7.423750e+001 8.656602e+001 2.885639e+001 2.159952e+000 2.315454e+000 3.979244e+000 5.614108e+000 6.731158e+000 4.278680e+000 6.751379e+000 6.625721e+000 5.880889e+000 4.344517e+000 7.887754e+000 5.175292e+000 2.229680e+000 3.916644e-001 6.770196e-001 6.876127e-001 8.686497e-001 8.657618e-001 8.045639e-001 8.221743e-001 1.193474e+000 9.727044e-001 7.795061e-001 1.034543e+000 9.979634e-001 6.247324e-001
<GCONST> 1.415569e+002
<STATE> 3
<MEAN> 39
 -7.059914e+000 -8.755055e+000 3.356434e+000 -1.843177e+001 -1.416315e+001 -1.313087e+001 -6.501943e+000 -4.391038e+000 -7.350298e+000 -5.772796e+000 -5.540010e+000 -3.070512e+000 7.508167e+001 -3.090792e-001 -3.678095e-001 7.108012e-001 -6.032535e-001 -6.200545e-001 3.548825e-001 -5.990801e-002 -2.282911e-001 -4.887952e-001 1.270940e-001 -3.162072e-001 -7.891286e-001 1.116671e-002 4.722331e-002 6.129298e-001 3.882501e-002 7.570942e-001 5.615660e-001 2.624421e-001 6.778061e-002 -2.415293e-001 3.013318e-001 1.424849e-001 2.479846e-001 2.463192e-001 -7.260854e-001
<VARIANCE> 39
 1.518805e+001 3.909682e+001 9.614222e+001 9.024812e+001 7.455860e+001 5.127904e+001 7.203756e+001 9.365814e+001 6.044060e+001 5.832153e+001 7.528606e+001 7.035612e+001 1.951219e+001 8.148882e-001 1.624867e+000 1.682018e+000 2.394927e+000 2.537808e+000 2.122562e+000 2.598490e+000 2.806500e+000 2.218233e+000 2.680727e+000 3.821515e+000 2.820352e+000 1.332331e+000 2.335748e-001 2.840413e-001 4.101555e-001 6.080579e-001 7.139394e-001 5.438529e-001 7.975819e-001 7.899854e-001 5.917897e-001 5.391998e-001 7.623246e-001 5.761859e-001 2.711150e-001
<GCONST> 1.249238e+002
<STATE> 4
<MEAN> 39
 -7.968163e+000 -3.846043e+000 1.151685e+001 -1.662970e+001 -1.849220e+001 -8.730423e+000 -1.031259e+001 -1.000929e+001 -9.090814e+000 -4.100212e+000 -4.551428e+000 -6.446868e+000 7.319843e+001 2.192748e-001 3.724091e-001 3.395221e-001 3.892295e-001 3.892415e-001 1.670348e-001 -1.018958e-001 -2.995057e-001 -1.626232e-001 -1.056835e-001 -9.293042e-002 -1.860398e-002 -6.966178e-001 1.527020e-001 1.251637e-001 -1.476762e-001 3.270669e-001 2.629372e-001 -1.128959e-002 1.246148e-001 2.873475e-002 8.036199e-002 -2.365725e-002 2.394003e-002 1.022879e-001 -2.810233e-001
<VARIANCE> 39
 1.721288e+001 3.604514e+001 7.289951e+001 1.295040e+002 6.045638e+001 5.384833e+001 5.578493e+001 6.586613e+001 4.744765e+001 4.886787e+001 1.136060e+002 5.976771e+001 2.148680e+001 6.380126e-001 9.246870e-001 1.126139e+000 1.804652e+000 1.640168e+000 1.305923e+000 1.719699e+000 1.904922e+000 1.357730e+000 1.423659e+000 1.536660e+000 1.248284e+000 1.003352e+000 8.517673e-002 1.685574e-001 1.931086e-001 2.677030e-001 3.050959e-001 2.567980e-001 3.158655e-001 3.816536e-001 2.965155e-001 2.614346e-001 3.262054e-001 2.369882e-001 1.480933e-001
<GCONST> 1.077453e+002
<TRANSP> 5
 0.000000e+000 1.000000e+000 0.000000e+000 0.000000e+000 0.000000e+000
 0.000000e+000 4.439594e-001 5.560405e-001 0.000000e+000 0.000000e+000
 0.000000e+000 0.000000e+000 5.220397e-001 4.779603e-001 0.000000e+000
 0.000000e+000 0.000000e+000 0.000000e+000 8.262540e-001 1.737461e-001
 0.000000e+000 0.000000e+000 0.000000e+000 0.000000e+000 0.000000e+000
<ENDHMM>
~h "k"
<BEGINHMM>
<NUMSTATES> 5
<STATE> 2
<MEAN> 39
 -5.488002e+000 -2.874575e+000 2.928524e-001 -5.245649e+000 -3.892877e+000 -4.533315e+000 -2.689151e+000 -4.557937e+000 -1.068887e+000 -2.017241e+000 -2.633994e+000 -3.163913e+000 5.350200e+001 -9.563023e-001 -5.322103e-001 -3.611759e-001 8.115613e-001 4.920056e-001 2.290874e-001 8.667305e-001 6.987163e-001 8.017318e-001 3.217755e-001 5.972221e-001 3.438156e-001 -7.365403e-001 -8.373202e-002 -1.648785e-001 7.614053e-002 -2.839085e-001 -3.194012e-001 -2.380691e-001 -8.502869e-002 -1.608751e-001 -1.182376e-001 1.601753e-002 -4.909734e-002 7.716881e-002 8.861483e-001
<VARIANCE> 39
 2.090464e+001 3.055203e+001 4.791726e+001 4.186037e+001 4.587231e+001 4.290750e+001 4.453776e+001 5.347030e+001 4.886974e+001 4.031748e+001 4.614368e+001 3.243328e+001 4.715458e+001 1.676698e+000 2.537802e+000 2.757155e+000 3.612200e+000 3.405940e+000 3.842921e+000 3.509040e+000 4.248212e+000 3.826782e+000 3.409279e+000 3.374510e+000 2.673853e+000 7.394939e+000 2.743347e-001 5.026819e-001 5.930707e-001 6.654146e-001 7.184370e-001 7.539758e-001 6.873513e-001 9.067194e-001 7.995061e-001 6.604296e-001 6.221365e-001 5.197782e-001 8.867385e-001
<GCONST> 1.297557e+002
<STATE> 3
<MEAN> 39
 -1.210383e+001 -6.847410e+000 2.836514e-001 -3.235006e+000 -3.731594e+000 -6.473498e+000 1.785617e+000 -4.531301e+000 1.449686e+000 -6.583775e-001 -4.866854e-001 -6.129816e-002 6.257943e+001 7.862736e-002 1.446954e-001 1.923282e+000 -1.767586e+000 -2.714623e+000 -2.103832e+000 -1.128538e+000 -1.378033e+000 -1.378065e+000 1.951250e-001 -4.998570e-001 1.315719e-001 5.114803e+000 8.299462e-001 2.720887e-001 5.911891e-001 -1.117320e+000 -9.170625e-001 -1.360756e-001 -8.657252e-001 -4.717621e-002 -6.067630e-001 -1.133372e-001 -3.620266e-001 -5.391750e-001 5.466514e-002
<VARIANCE> 39
 1.850403e+001 3.348146e+001 3.910442e+001 3.571107e+001 3.982414e+001 4.742130e+001 4.113020e+001 5.186004e+001 4.181226e+001 3.625824e+001 3.153237e+001 2.212708e+001 5.916227e+001 2.937796e+000 4.676363e+000 4.597298e+000 6.814142e+000 5.015397e+000 4.898311e+000 6.255717e+000 5.346322e+000 5.103045e+000 4.188917e+000 5.349363e+000 4.240404e+000 3.803617e+000 3.231665e-001 6.952608e-001 7.183484e-001 1.031279e+000 8.187779e-001 1.020323e+000 9.153958e-001 1.057964e+000 9.240838e-001 8.710423e-001 1.301377e+000 7.673254e-001 1.078126e+000
<GCONST> 1.366564e+002
<STATE> 4
<MEAN> 39
 -6.077453e+000 -3.710104e+000 7.664839e+000 -1.288532e+001 -1.583788e+001 -1.242036e+001 -6.087316e+000 -7.689181e+000 -4.885645e+000 -3.934545e-001 -2.935070e+000 -2.611126e+000 7.207010e+001 1.351492e+000 -4.368373e-001 1.782101e+000 -3.680645e+000 -3.256881e+000 -8.713340e-001 -1.777356e+000 1.207525e-001 -1.549159e+000 -1.205658e-001 -9.219312e-001 -1.353800e+000 2.744960e+000 -2.358437e-001 -4.531895e-001 -6.376683e-001 3.433132e-001 8.585653e-001 7.405277e-001 4.890290e-001 5.789154e-001 3.389038e-001 -1.875687e-001 2.968284e-002 -1.519018e-001 -1.129433e+000
<VARIANCE> 39
 1.622587e+001 3.832272e+001 7.041833e+001 9.674372e+001 4.928132e+001 4.297279e+001 4.538807e+001 8.050431e+001 4.854806e+001 4.584897e+001 6.326278e+001 5.433409e+001 2.614461e+001 1.569655e+000 3.043632e+000 5.314630e+000 7.071723e+000 5.646853e+000 4.621562e+000 5.860220e+000 6.421479e+000 5.457026e+000 5.199489e+000 9.869058e+000 4.614207e+000 2.668392e+000 2.474861e-001 4.243399e-001 4.303727e-001 8.861353e-001 7.155414e-001 5.920072e-001 6.157193e-001 7.027343e-001 6.895828e-001 6.253717e-001 8.171057e-001 7.120739e-001 4.042239e-001
<GCONST> 1.349349e+002
<TRANSP> 5
 0.000000e+000 1.000000e+000 0.000000e+000 0.000000e+000 0.000000e+000
 0.000000e+000 8.469225e-001 1.530775e-001 0.000000e+000 0.000000e+000
 0.000000e+000 0.000000e+000 6.012111e-001 3.987889e-001 0.000000e+000
 0.000000e+000 0.000000e+000 0.000000e+000 4.638765e-001 5.361235e-001
 0.000000e+000 0.000000e+000 0.000000e+000 0.000000e+000 0.000000e+000
<ENDHMM>
~h "l"
<BEGINHMM>
<NUMSTATES> 5
<STATE> 2
<MEAN> 39
 -7.344813e-001 -6.629024e+000 1.691729e+000 -1.071422e+001 -7.825559e+000 -1.035941e+001 -1.216491e+001 -6.975452e+000 -3.156952e+000 -5.765911e+000 -3.544126e+000 -3.155818e+000 6.698989e+001 1.209137e-001 1.423532e-002 5.201333e-001 -3.164815e-001 2.510976e-001 -1.346047e+000 -1.337677e+000 2.667324e-001 2.992902e-001 -1.664081e-001 2.813400e-002 1.427524e-001 4.511766e-001 -1.443860e-001 -1.367857e-001 -1.607713e-001 -2.671900e-001 1.162085e-001 1.779052e-001 1.900281e-001 3.933927e-001 2.182911e-002 1.150058e-002 -1.494704e-001 -8.071124e-002 1.865258e-001
<VARIANCE> 39
 2.819654e+001 5.043785e+001 8.130865e+001 8.636462e+001 6.598125e+001 1.088361e+002 9.473104e+001 8.949023e+001 7.425839e+001 7.909884e+001 6.969781e+001 6.305899e+001 5.050347e+001 1.306219e+000 2.618258e+000 2.752639e+000 5.022452e+000 4.528117e+000 6.140903e+000 5.827990e+000 6.196788e+000 4.946334e+000 5.112033e+000 4.372627e+000 3.585573e+000 2.715664e+000 2.184981e-001 3.850933e-001 4.935043e-001 7.435098e-001 7.936119e-001 1.221390e+000 1.140659e+000 1.086875e+000 8.911983e-001 8.845417e-001 8.138665e-001 6.325751e-001 2.649270e-001
<GCONST> 1.389324e+002
<STATE> 3
<MEAN> 39
 -2.346881e+000 -8.020506e+000 3.351408e+000 -1.738147e+001 -5.478568e+000 -1.580507e+001 -1.598990e+001 -1.155784e+000 -2.870185e+000 -6.541391e+000 -4.737404e+000 -2.364727e+000 7.063180e+001 -2.293248e-001 -1.236079e+000 -1.233637e+000 -8.508131e-001 4.471621e-002 8.767658e-001 1.350103e+000 1.612880e+000 1.344336e-001 1.168474e-002 -1.027450e+000 -4.384537e-001 1.293553e+000 -8.357475e-002 -4.464207e-001 -4.886633e-001 2.482324e-001 -6.287321e-002 8.127998e-001 9.216971e-001 -1.220931e-001 -2.967360e-001 -1.573393e-001 -1.633559e-001 -1.386202e-001 2.654087e-001
<VARIANCE> 39
 1.841974e+001 3.437511e+001 6.047903e+001 5.797839e+001 4.952648e+001 8.218138e+001 9.444584e+001 6.615652e+001 7.193338e+001 1.044144e+002 6.025958e+001 7.044621e+001 1.521995e+001 5.152854e-001 1.963060e+000 2.464858e+000 2.611537e+000 2.925236e+000 5.004544e+000 5.722261e+000 4.405983e+000 4.225510e+000 3.893523e+000 3.549090e+000 2.902099e+000 9.285260e-001 8.124612e-002 2.866220e-001 2.818089e-001 4.775264e-001 5.661162e-001 7.205734e-001 7.777329e-001 8.059173e-001 7.194118e-001 8.901014e-001 6.555884e-001 5.520024e-001 1.309537e-001
<GCONST> 1.255606e+002
<STATE> 4
<MEAN> 39
 -2.494243e+000 -1.425620e+001 -3.442343e+000 -1.799851e+001 -6.104255e+000 -8.311637e+000 -6.958663e+000 2.627340e+000 -2.786081e+000 -7.451424e+000 -9.292341e+000 -5.051985e+000 7.596169e+001 -6.403149e-001 -1.794116e+000 -1.921395e+000 1.806029e-001 7.838233e-001 2.539149e+000 2.607868e+000 2.432034e-001 -9.104311e-001 -9.304735e-001 -6.292669e-001 -3.998349e-001 1.625692e+000 -2.014104e-002 3.703611e-001 2.805042e-001 3.994595e-001 3.184359e-001 -1.145964e-001 -4.638919e-001 -8.920646e-001 -1.352381e-001 5.483464e-003 6.288360e-001 1.031984e-001 -3.618002e-001
<VARIANCE> 39
 1.687456e+001 3.883910e+001 5.735569e+001 6.194930e+001 6.619177e+001 7.795778e+001 8.984805e+001 7.459748e+001 7.939102e+001 8.240330e+001 5.055219e+001 5.827121e+001 1.939013e+001 6.112428e-001 2.651610e+000 2.573097e+000 4.059948e+000 4.910439e+000 6.142250e+000 5.755562e+000 6.362693e+000 5.345072e+000 5.585942e+000 4.196823e+000 3.515858e+000 8.308575e-001 7.825681e-002 2.123056e-001 2.719043e-001 4.007515e-001 5.048481e-001 6.584308e-001 8.111672e-001 6.246331e-001 6.581620e-001 6.299466e-001 5.615159e-001 4.747956e-001 1.075117e-001
<GCONST> 1.266469e+002
<TRANSP> 5
 0.000000e+000 1.000000e+000 0.000000e+000 0.000000e+000 0.000000e+000
 0.000000e+000 7.698568e-001 2.301432e-001 0.000000e+000 0.000000e+000
 0.000000e+000 0.000000e+000 6.683986e-001 3.316015e-001 0.000000e+000
 0.000000e+000 0.000000e+000 0.000000e+000 3.813812e-001 6.186188e-001
 0.000000e+000 0.000000e+000 0.000000e+000 0.000000e+000 0.000000e+000
<ENDHMM>
~h "m"
<BEGINHMM>
<NUMSTATES> 5
<STATE> 2
<MEAN> 39
 -7.809690e-002 -9.145215e+000 -9.643491e-001 -1.143838e+001 -5.065638e+000 -6.035265e+000 -7.305773e+000 -5.969400e+000 -4.781409e+000 -5.046508e+000 -4.128614e+000 -6.634927e+000 6.755550e+001 9.762587e-001 1.701611e+000 8.732450e-001 1.683568e+000 4.183610e-001 -2.022340e-001 -1.184103e+000 -2.137047e+000 -8.260246e-001 3.657575e-001 -3.822619e-001 1.854371e-001 -1.842930e+000 -2.573856e-001 1.205550e-001 2.594096e-001 1.218632e-001 3.711630e-002 7.778508e-002 -5.751134e-002 -4.982241e-001 -4.139865e-001 -1.329426e-001 -1.946905e-001 1.291626e-001 3.536237e-002
<VARIANCE> 39
 2.537994e+001 6.588489e+001 7.292619e+001 8.107247e+001 7.525187e+001 8.795410e+001 7.193902e+001 7.599800e+001 5.931789e+001 6.519009e+001 7.176496e+001 6.417918e+001 6.675609e+001 1.477272e+000 2.643063e+000 4.280162e+000 4.534506e+000 4.567941e+000 4.749710e+000 5.047239e+000 5.972664e+000 5.841369e+000 5.279198e+000 4.825819e+000 4.047004e+000 3.191356e+000 2.398391e-001 4.187021e-001 4.474326e-001 7.249815e-001 5.909497e-001 6.317771e-001 7.507504e-001 8.561149e-001 7.410460e-001 7.272419e-001 7.155710e-001 6.334922e-001 3.447582e-001
<GCONST> 1.371308e+002
<STATE> 3
<MEAN> 39
 7.167123e-001 -4.271470e+000 2.559731e+000 -6.584766e+000 -3.642179e+000 -5.984668e+000 -1.177030e+001 -1.591046e+001 -1.095261e+001 -5.309290e+000 -6.947377e+000 -5.024788e+000 6.315838e+001 -4.227010e-002 3.679553e-001 4.417063e-001 3.180559e-001 1.564787e-001 1.642176e-001 -4.740324e-001 -1.323816e+000 -1.022181e+000 -4.874596e-001 -6.687169e-001 1.462757e-001 -1.529243e-001 -1.764639e-001 -4.902946e-001 -5.099403e-001 -7.334827e-001 -1.461281e-001 9.875444e-002 4.173550e-001 1.023924e+000 5.414435e-001 -1.446603e-001 1.618603e-001 -1.210318e-001 5.735832e-001
<VARIANCE> 39
 1.356609e+001 3.762448e+001 4.804692e+001 5.910712e+001 5.344701e+001 1.004791e+002 7.442164e+001 6.617960e+001 6.165285e+001 8.133374e+001 9.031759e+001 7.932681e+001 1.941799e+001 9.670514e-001 2.468508e+000 3.357428e+000 4.449858e+000 2.825742e+000 3.689958e+000 4.053658e+000 6.301497e+000 5.050656e+000 4.614675e+000 4.949878e+000 4.356421e+000 3.274132e+000 1.696437e-001 2.388919e-001 4.585504e-001 5.249037e-001 5.606865e-001 6.535353e-001 7.759301e-001 8.164561e-001 8.947937e-001 1.000506e+000 9.350863e-001 8.117182e-001 2.284731e-001
<GCONST> 1.319295e+002
<STATE> 4
<MEAN> 39
 5.372010e-001 -2.924834e+000 3.296368e+000 -7.418304e+000 -4.146910e+000 -4.435045e+000 -9.870046e+000 -1.423297e+001 -9.923234e+000 -6.912826e+000 -7.614653e+000 -5.112878e+000 6.215178e+001 -3.104084e-002 1.201175e-001 -4.149943e-001 -4.048953e-001 -1.174236e-001 1.758002e-001 2.782406e-001 6.216664e-001 3.644214e-001 -2.281933e-001 6.881052e-002 1.033996e-003 8.175483e-002 -3.662373e-002 -1.614455e-001 -2.459669e-001 -1.910820e-001 2.533293e-002 -3.044129e-003 1.157973e-001 4.413792e-001 2.399551e-001 1.070865e-001 2.353231e-001 -7.326458e-002 1.882373e-001
<VARIANCE> 39
 1.637956e+001 3.835574e+001 4.823303e+001 6.198559e+001 5.687571e+001 9.658253e+001 6.986765e+001 8.476886e+001 6.469170e+001 7.020224e+001 7.630167e+001 5.774810e+001 3.010548e+001 5.082597e-001 1.658453e+000 1.969414e+000 2.660358e+000 2.123976e+000 2.219044e+000 2.377891e+000 3.588719e+000 3.084583e+000 2.911835e+000 3.070035e+000 2.633800e+000 1.618786e+000 1.234966e-001 1.826026e-001 3.451916e-001 4.592901e-001 4.077559e-001 4.163619e-001 4.409138e-001 6.006182e-001 5.701652e-001 5.440208e-001 5.908948e-001 4.799702e-001 1.511267e-001
<GCONST> 1.205280e+002
<TRANSP> 5
 0.000000e+000 1.000000e+000 0.000000e+000 0.000000e+000 0.000000e+000
 0.000000e+000 5.829993e-001 4.170006e-001 0.000000e+000 0.000000e+000
 0.000000e+000 0.000000e+000 5.264677e-001 4.735323e-001 0.000000e+000
 0.000000e+000 0.000000e+000 0.000000e+000 7.763996e-001 2.236005e-001
 0.000000e+000 0.000000e+000 0.000000e+000 0.000000e+000 0.000000e+000
<ENDHMM>
~h "n"
<BEGINHMM>
<NUMSTATES> 5
<STATE> 2
<MEAN> 39
 -1.402225e+000 -6.844004e+000 1.532421e+000 -1.361973e+001 -8.112955e+000 -7.368937e+000 -6.778933e+000 -6.495337e+000 -7.022259e+000 -4.013044e+000 -6.882513e+000 -5.012721e+000 6.791818e+001 8.579509e-001 1.375924e+000 4.792063e-001 1.515810e+000 -3.736925e-001 -3.456686e-001 -4.753165e-001 -1.747533e+000 2.291692e-001 -1.679942e-001 -5.596090e-001 6.053649e-001 -1.756287e+000 -4.905990e-002 9.000267e-003 -4.623779e-002 5.464664e-002 1.911083e-002 1.076303e-001 -1.618464e-002 -1.955635e-001 8.609279e-002 -2.302590e-001 3.506384e-002 -6.293419e-003 3.712105e-002
<VARIANCE> 39
 2.170893e+001 5.018172e+001 8.883479e+001 8.350038e+001 7.883744e+001 8.201596e+001 8.721846e+001 1.006042e+002 7.727264e+001 7.581409e+001 8.958078e+001 7.129211e+001 3.650740e+001 1.038448e+000 2.181462e+000 4.234512e+000 3.976761e+000 4.650459e+000 4.962548e+000 4.509052e+000 5.327261e+000 4.472270e+000 4.958664e+000 4.457807e+000 3.921590e+000 1.689593e+000 1.460318e-001 3.218777e-001 4.511819e-001 5.700120e-001 6.332390e-001 7.266507e-001 7.114992e-001 9.407600e-001 7.153711e-001 7.041788e-001 6.724907e-001 6.005066e-001 2.146969e-001
<GCONST> 1.341910e+002
<STATE> 3
<MEAN> 39
 6.787366e-001 -2.470396e+000 2.473268e+000 -9.448252e+000 -1.005557e+001 -8.674005e+000 -8.714518e+000 -1.300006e+001 -6.137702e+000 -7.044963e+000 -9.074445e+000 -2.669674e+000 6.329295e+001 1.565166e-001 3.467001e-001 1.806516e-001 5.584178e-001 -1.218807e-001 -1.016850e-001 -2.041776e-001 -5.854528e-001 -3.037328e-002 -5.249040e-001 -2.050726e-001 1.102426e-001 -5.280466e-001 -3.082633e-001 -4.464187e-001 -1.582687e-001 -3.609270e-001 2.139044e-001 1.211817e-001 1.385142e-001 7.575446e-001 -8.279207e-002 8.262821e-002 2.366009e-001 -1.995593e-001 4.394295e-001
<VARIANCE> 39
 1.444551e+001 3.357820e+001 5.865955e+001 5.852449e+001 5.222997e+001 8.438795e+001 6.369427e+001 6.503445e+001 6.939158e+001 8.164853e+001 8.538396e+001 7.816936e+001 1.977643e+001 9.463611e-001 3.025927e+000 2.804767e+000 3.582071e+000 3.263496e+000 4.075199e+000 3.839011e+000 6.975572e+000 3.841788e+000 4.071818e+000 3.872310e+000 3.649091e+000 2.844487e+000 1.538513e-001 3.893564e-001 5.043633e-001 5.917057e-001 5.928448e-001 7.504982e-001 7.003837e-001 8.982296e-001 7.457087e-001 7.904623e-001 6.951817e-001 6.762418e-001 2.829874e-001
<GCONST> 1.309906e+002
<STATE> 4
<MEAN> 39
 -2.293697e-001 -1.401662e+000 2.805809e+000 -7.914165e+000 -7.773382e+000 -5.830355e+000 -7.305126e+000 -1.071590e+001 -5.382666e+000 -6.110729e+000 -6.657559e+000 -3.944034e+000 6.020793e+001 -1.979093e-001 1.229657e-001 -3.918035e-002 4.118651e-001 3.122904e-001 5.794776e-002 1.147677e-001 3.272958e-001 1.481331e-002 -5.165831e-002 1.578801e-001 -3.296778e-002 -4.043240e-001 -1.241146e-001 -1.227455e-001 -8.487821e-002 -4.196028e-002 1.469536e-001 2.554153e-002 7.908914e-002 2.525218e-001 2.240690e-002 7.150460e-002 7.681891e-002 -3.924819e-002 1.091147e-001
<VARIANCE> 39
 2.405277e+001 3.427820e+001 4.971014e+001 6.016978e+001 5.480761e+001 6.461886e+001 6.110510e+001 7.309039e+001 6.023920e+001 6.765147e+001 6.468407e+001 5.002841e+001 4.835070e+001 6.028066e-001 1.568334e+000 1.264342e+000 1.850222e+000 1.972678e+000 2.001481e+000 2.333283e+000 3.200279e+000 2.564107e+000 2.439228e+000 2.285630e+000 2.045123e+000 1.334203e+000 1.322672e-001 2.239396e-001 2.485516e-001 3.269140e-001 3.608345e-001 3.868582e-001 4.218660e-001 5.594549e-001 4.640185e-001 4.536523e-001 4.265382e-001 3.820993e-001 1.519054e-001
<GCONST> 1.163872e+002
<TRANSP> 5
 0.000000e+000 1.000000e+000 0.000000e+000 0.000000e+000 0.000000e+000
 0.000000e+000 5.754656e-001 4.245344e-001 0.000000e+000 0.000000e+000
 0.000000e+000 0.000000e+000 5.337839e-001 4.662161e-001 0.000000e+000
 0.000000e+000 0.000000e+000 0.000000e+000 7.796513e-001 2.203486e-001
 0.000000e+000 0.000000e+000 0.000000e+000 0.000000e+000 0.000000e+000
<ENDHMM>
~h "o"
<BEGINHMM>
<NUMSTATES> 5
<STATE> 2
<MEAN> 39
 -3.136219e+000 -1.416184e+001 -3.897493e+000 -1.887813e+001 -8.015034e+000 -8.536424e+000 -4.695704e+000 4.710933e-001 -3.977195e+000 -5.543673e+000 -6.641697e+000 -7.096595e+000 7.665964e+001 6.376572e-001 -2.887942e+000 -2.825640e+000 -4.226463e-001 2.022848e+000 1.570413e+000 4.491410e-002 1.302828e-001 -7.835715e-001 -1.805047e+000 -1.447917e+000 -1.390761e+000 1.120015e+000 -5.442632e-001 8.267252e-001 -2.283397e-002 8.750538e-001 1.117398e+000 7.296146e-001 -1.013263e-001 -6.392965e-001 7.954697e-002 2.117698e-001 5.966340e-001 3.076219e-001 -8.733857e-001
<VARIANCE> 39
 2.335001e+001 3.732392e+001 6.868964e+001 7.032715e+001 8.732475e+001 7.094943e+001 7.664622e+001 7.354707e+001 7.154227e+001 6.579403e+001 7.464484e+001 6.503507e+001 1.719240e+001 1.127338e+000 2.770675e+000 3.480746e+000 6.168060e+000 5.967154e+000 3.523313e+000 4.476163e+000 4.814724e+000 5.237534e+000 6.640947e+000 5.764957e+000 5.452886e+000 1.188213e+000 2.946537e-001 5.436097e-001 5.612882e-001 9.600337e-001 1.122687e+000 9.786158e-001 1.103801e+000 9.056387e-001 1.058573e+000 1.007043e+000 1.038388e+000 9.271813e-001 2.434746e-001
<GCONST> 1.378363e+002
<STATE> 3
<MEAN> 39
 -2.561401e+000 -1.790204e+001 -9.546836e+000 -1.636671e+001 -7.954755e-001 -4.395535e+000 -7.280749e+000 -2.292224e+000 -5.177214e+000 -7.998653e+000 -7.305705e+000 -8.178051e+000 7.726880e+001 5.875399e-001 -1.964323e-001 -1.551780e+000 8.605728e-002 1.762929e+000 1.854648e+000 -7.552913e-001 -1.544463e+000 -3.574960e-001 1.374520e-001 7.142716e-001 -6.804498e-001 -3.638886e-001 -1.250497e-002 8.646760e-001 6.906062e-001 4.147224e-003 -6.363223e-001 -1.360545e-001 1.346685e-001 -1.508787e-001 4.260757e-002 3.713107e-001 4.886667e-001 3.682261e-001 -4.836562e-001
<VARIANCE> 39
 2.144910e+001 4.002586e+001 5.412635e+001 6.018312e+001 6.626256e+001 6.720576e+001 6.068886e+001 6.738303e+001 7.231980e+001 8.087107e+001 7.024815e+001 8.143256e+001 1.619249e+001 5.869248e-001 2.172775e+000 1.588394e+000 3.321082e+000 3.357374e+000 2.948249e+000 4.119933e+000 3.065868e+000 3.483447e+000 3.543165e+000 3.416616e+000 3.387711e+000 7.533528e-001 1.262657e-001 2.874861e-001 3.601452e-001 7.038702e-001 6.321268e-001 5.034102e-001 6.457759e-001 6.613000e-001 8.187394e-001 8.937799e-001 8.350859e-001 8.411795e-001 1.075504e-001
<GCONST> 1.251828e+002
<STATE> 4
<MEAN> 39
 -4.017558e-001 -1.576244e+001 -1.140686e+001 -1.778746e+001 1.374437e+000 1.781239e+000 -8.421231e+000 -6.521370e+000 -6.156126e+000 -7.017310e+000 -3.489639e+000 -9.693609e+000 7.531398e+001 3.148492e-001 8.101788e-001 2.953334e-001 -2.151572e-002 -4.272043e-001 -6.826464e-002 7.964726e-004 -1.804054e-001 -1.995713e-001 1.397441e-002 1.334150e-001 2.741510e-001 -7.664443e-001 -5.049469e-002 2.600166e-001 3.592759e-001 1.962857e-001 -2.527260e-001 -3.586460e-001 3.247741e-002 7.713380e-002 6.437419e-002 4.010721e-002 -1.938382e-001 1.687765e-001 -2.158616e-001
<VARIANCE> 39
 2.058928e+001 4.635515e+001 5.028106e+001 6.797485e+001 7.046378e+001 8.774313e+001 8.431240e+001 7.353626e+001 5.546466e+001 6.872603e+001 7.335325e+001 7.182766e+001 1.891628e+001 4.213242e-001 1.611221e+000 1.280583e+000 1.927104e+000 2.339017e+000 2.759345e+000 2.286419e+000 2.268805e+000 2.197293e+000 2.255095e+000 2.484925e+000 2.037879e+000 8.373654e-001 7.825155e-002 1.555585e-001 2.568431e-001 4.375990e-001 3.717562e-001 4.085436e-001 4.122088e-001 4.160501e-001 3.954424e-001 4.263436e-001 4.790576e-001 3.690681e-001 9.971248e-002
<GCONST> 1.149038e+002
<TRANSP> 5
 0.000000e+000 1.000000e+000 0.000000e+000 0.000000e+000 0.000000e+000
 0.000000e+000 4.559807e-001 5.440193e-001 0.000000e+000 0.000000e+000
 0.000000e+000 0.000000e+000 5.903698e-001 4.096302e-001 0.000000e+000
 0.000000e+000 0.000000e+000 0.000000e+000 8.303893e-001 1.696108e-001
 0.000000e+000 0.000000e+000 0.000000e+000 0.000000e+000 0.000000e+000
<ENDHMM>
~h "p"
<BEGINHMM>
<NUMSTATES> 5
<STATE> 2
<MEAN> 39
 6.042986e-001 -9.512684e+000 -3.281084e+000 -1.119108e+001 -3.774420e+000 -4.714391e+000 -4.473271e+000 -3.396749e+000 -2.056963e+000 -2.054991e+000 -9.148068e-001 -4.132883e+000 6.872902e+001 3.577667e-001 2.495740e+000 1.236768e+000 3.112833e+000 1.645186e+000 1.490437e+000 1.355255e+000 7.763646e-001 1.270066e+000 8.139505e-001 6.016735e-001 4.755132e-001 -4.046893e+000 -7.886540e-001 -1.691536e-001 1.847117e-001 2.772926e-001 1.259755e-001 2.634660e-001 3.220710e-001 1.815775e-001 -9.117438e-003 -1.667866e-001 -2.593732e-001 -3.656969e-002 -4.361253e-001
<VARIANCE> 39
 2.458815e+001 5.401351e+001 8.438087e+001 7.354671e+001 7.517030e+001 7.336531e+001 5.254260e+001 5.209077e+001 5.340837e+001 5.482530e+001 6.442386e+001 8.903622e+001 4.656256e+001 2.652925e+000 2.539074e+000 3.792668e+000 4.150540e+000 4.298068e+000 3.726773e+000 4.328065e+000 4.435754e+000 4.284391e+000 3.934681e+000 4.540287e+000 4.181407e+000 3.039363e+000 3.038939e-001 7.518426e-001 5.533345e-001 9.830072e-001 7.150012e-001 7.503521e-001 6.218659e-001 7.006876e-001 7.713860e-001 6.806726e-001 8.027428e-001 7.914925e-001 5.968900e-001
<GCONST> 1.367291e+002
<STATE> 3
<MEAN> 39
 -3.034029e+000 -5.576620e+000 8.656381e-001 -2.349480e+000 9.288277e-001 4.287462e-001 6.716266e-001 -3.735200e-001 5.225237e-001 -1.307555e+000 -1.511932e+000 -3.807906e+000 5.694920e+001 -1.710706e+000 -1.567074e-001 -1.763335e-001 1.029707e+000 2.909498e-001 6.282485e-001 1.077159e+000 8.430629e-001 9.552783e-001 4.026112e-001 1.614511e-001 3.742035e-001 -2.830250e+000 -1.466829e-001 -6.130552e-001 -5.512375e-001 -9.612360e-001 -6.099494e-001 -5.826755e-001 -5.134104e-001 -2.673941e-001 -2.503978e-001 -8.611236e-002 -1.734728e-002 -1.574161e-002 9.540327e-001
<VARIANCE> 39
 1.983942e+001 4.208013e+001 5.703224e+001 5.108230e+001 6.096550e+001 4.887614e+001 4.468778e+001 4.543186e+001 4.722870e+001 4.207649e+001 4.859690e+001 5.375220e+001 1.420179e+001 1.347703e+000 2.642637e+000 2.824607e+000 3.812258e+000 3.118457e+000 3.382264e+000 2.993101e+000 2.947154e+000 3.377456e+000 3.067377e+000 3.389332e+000 3.127781e+000 3.321567e+000 3.864244e-001 4.865854e-001 4.717978e-001 4.829502e-001 5.773941e-001 5.700352e-001 6.010040e-001 6.694157e-001 7.040493e-001 6.396998e-001 6.727148e-001 5.585811e-001 3.308208e-001
<GCONST> 1.261373e+002
<STATE> 4
<MEAN> 39
 -7.537377e+000 -6.696431e+000 -2.666848e+000 -3.320903e+000 -9.297120e-001 -1.514522e+000 -2.305129e-002 -5.581263e-001 1.509516e+000 -7.707024e-001 -5.689284e-001 -2.113735e+000 5.133560e+001 -2.577689e-001 3.654535e-001 1.196992e-002 1.440745e-001 -6.757014e-002 -2.048529e-001 -1.754718e-001 -2.652549e-001 -1.244533e-001 -1.225950e-001 -2.754697e-002 6.968994e-002 -2.406427e-001 2.042569e-001 1.471562e-001 1.289402e-001 -3.217961e-002 1.602620e-002 -9.153842e-002 -1.519295e-001 -1.483643e-001 -1.713651e-001 -1.022577e-001 -6.488765e-002 -3.822266e-002 3.677583e-001
<VARIANCE> 39
 1.115527e+001 2.951837e+001 3.405703e+001 2.905563e+001 4.054333e+001 3.111300e+001 3.090712e+001 3.183206e+001 3.242199e+001 2.892226e+001 3.092123e+001 2.961374e+001 1.702499e+001 9.270305e-001 1.368338e+000 1.504267e+000 1.452505e+000 1.831197e+000 1.961377e+000 2.178276e+000 2.268806e+000 2.329454e+000 2.093085e+000 1.966029e+000 1.801508e+000 1.038834e+000 1.979555e-001 2.658530e-001 2.684983e-001 3.175649e-001 3.672940e-001 4.148865e-001 4.708515e-001 4.776727e-001 4.869922e-001 4.315442e-001 4.114543e-001 3.681589e-001 2.856977e-001
<GCONST> 1.082036e+002
<TRANSP> 5
 0.000000e+000 1.000000e+000 0.000000e+000 0.000000e+000 0.000000e+000
 0.000000e+000 5.416366e-001 4.583633e-001 0.000000e+000 0.000000e+000
 0.000000e+000 0.000000e+000 5.739853e-001 4.260147e-001 0.000000e+000
 0.000000e+000 0.000000e+000 0.000000e+000 8.613470e-001 1.386531e-001
 0.000000e+000 0.000000e+000 0.000000e+000 0.000000e+000 0.000000e+000
<ENDHMM>
~h "r"
<BEGINHMM>
<NUMSTATES> 5
<STATE> 2
<MEAN> 39
 -3.189792e+000 -5.864929e+000 2.310570e+000 -3.636915e+000 -7.018679e+000 -8.720588e+000 -8.110898e+000 -5.143324e+000 -3.258157e+000 -5.994679e+000 -2.934166e+000 -3.386641e+000 6.402015e+001 3.126765e-002 -3.967012e-001 4.225676e-002 5.778489e-001 -2.255599e-001 -8.958778e-001 -5.074448e-002 5.468675e-001 3.926958e-001 -4.470823e-002 3.319844e-001 1.727026e-001 5.502555e-001 1.653419e-001 -4.469824e-001 -1.800731e-001 -5.911447e-001 -2.905291e-001 1.035770e-001 -3.501098e-003 2.857543e-001 -4.542465e-002 7.760677e-002 -1.648916e-001 -3.603957e-002 4.375795e-001
<VARIANCE> 39
 6.783111e+001 6.059267e+001 7.516951e+001 7.587100e+001 7.081975e+001 6.093758e+001 7.080092e+001 6.517181e+001 5.147509e+001 5.534880e+001 4.855426e+001 3.818873e+001 4.867199e+001 4.367567e+000 5.216216e+000 3.594554e+000 6.422411e+000 6.511517e+000 5.107791e+000 5.546054e+000 5.674699e+000 4.079677e+000 4.342122e+000 4.126040e+000 3.370183e+000 4.883438e+000 7.342747e-001 7.569142e-001 6.021051e-001 8.639033e-001 1.184335e+000 1.013168e+000 9.394106e-001 9.241686e-001 7.879527e-001 8.312435e-001 8.223152e-001 6.299304e-001 5.323491e-001
<GCONST> 1.422188e+002
<STATE> 3
<MEAN> 39
 1.754894e+000 -1.430493e+001 2.083551e-001 -7.055363e+000 -1.423345e+001 -1.240007e+001 -9.989494e+000 7.708027e-001 -1.906738e+000 -5.148052e+000 -3.738809e+000 -3.024686e+000 7.126115e+001 7.594113e-001 -2.638331e+000 -1.083317e+000 -2.480978e+000 -1.223430e+000 1.185007e+000 1.462944e-001 1.977266e+000 -4.893742e-001 1.906543e-001 -1.309186e+000 -6.550726e-001 2.040322e+000 -5.639592e-001 3.511675e-001 -1.114128e-001 -1.918400e-001 9.320217e-001 7.937504e-001 2.999994e-001 -3.695159e-001 -4.258584e-001 -1.227759e-001 -2.233479e-001 -2.363311e-001 -2.327012e-001
<VARIANCE> 39
 2.287804e+001 3.260294e+001 6.887118e+001 9.062631e+001 5.786683e+001 5.900912e+001 8.798701e+001 6.467406e+001 4.832056e+001 6.405875e+001 5.136969e+001 4.624757e+001 1.840641e+001 2.582201e+000 2.805317e+000 3.488930e+000 3.904528e+000 5.507846e+000 5.719100e+000 6.038636e+000 5.083000e+000 4.946122e+000 4.848456e+000 4.703737e+000 4.059018e+000 1.178333e+000 3.442762e-001 4.052701e-001 4.181779e-001 7.348483e-001 7.612900e-001 7.254248e-001 7.968517e-001 8.835983e-001 6.842855e-001 7.929882e-001 7.274051e-001 6.629449e-001 2.424067e-001
<GCONST> 1.334414e+002
<STATE> 4
<MEAN> 39
 3.585218e-001 -1.856166e+001 -2.745219e+000 -1.295547e+001 -1.213830e+001 -5.866704e+000 -8.304940e+000 4.225645e+000 -5.020549e+000 -5.364261e+000 -7.973812e+000 -6.284356e+000 7.538039e+001 -8.467110e-001 -6.112875e-001 -9.600142e-001 -1.852422e+000 1.961146e+000 1.737739e+000 8.093893e-001 -1.827030e-001 -1.169318e+000 -2.661822e-001 -7.374005e-001 -5.130240e-001 1.083926e+000 -2.174169e-001 6.430404e-001 8.087344e-002 4.432938e-001 6.154842e-001 -2.896924e-001 2.556430e-002 -7.752992e-001 4.378436e-002 -5.651349e-002 4.686339e-001 2.411868e-001 -4.240790e-001
<VARIANCE> 39
 1.858526e+001 3.789287e+001 6.562307e+001 8.571566e+001 7.380791e+001 8.231200e+001 1.011306e+002 8.732835e+001 6.870923e+001 7.626824e+001 5.664487e+001 5.457163e+001 1.854517e+001 5.945653e-001 1.765769e+000 2.299506e+000 3.307121e+000 3.841866e+000 3.922265e+000 4.012704e+000 3.919178e+000 3.792417e+000 4.343878e+000 3.517456e+000 3.728362e+000 5.335863e-001 2.032184e-001 2.611798e-001 2.441576e-001 4.669929e-001 6.650984e-001 6.727747e-001 6.763495e-001 7.020956e-001 6.286374e-001 6.817083e-001 6.146651e-001 5.456418e-001 1.107644e-001
<GCONST> 1.256843e+002
<TRANSP> 5
 0.000000e+000 1.000000e+000 0.000000e+000 0.000000e+000 0.000000e+000
 0.000000e+000 8.236551e-001 1.763449e-001 0.000000e+000 0.000000e+000
 0.000000e+000 0.000000e+000 5.901240e-001 4.098760e-001 0.000000e+000
 0.000000e+000 0.000000e+000 0.000000e+000 5.202993e-001 4.797007e-001
 0.000000e+000 0.000000e+000 0.000000e+000 0.000000e+000 0.000000e+000
<ENDHMM>
~h "s"
<BEGINHMM>
<NUMSTATES> 5
<STATE> 2
<MEAN> 39
 -7.879995e+000 1.645150e+000 1.377894e+000 -6.618864e+000 -6.092110e+000 -9.486546e+000 -5.615639e+000 -5.716061e+000 -5.252927e+000 -5.497140e+000 -3.283874e+000 -3.082964e+000 6.664110e+001 -3.346144e+000 2.746807e+000 -1.480225e-001 2.196740e+000 1.716085e+000 9.694178e-001 1.339689e+000 1.083640e+000 8.850640e-001 2.669621e-001 9.430680e-001 3.256815e-001 -4.621722e-001 -6.539829e-001 -1.702374e-001 -3.054979e-001 -1.317092e-001 3.666078e-001 4.866696e-001 3.469717e-001 3.705838e-001 2.971555e-001 3.081734e-001 1.463564e-001 4.101151e-004 6.917939e-002
<VARIANCE> 39
 5.911604e+001 7.284658e+001 7.780035e+001 8.536766e+001 7.530499e+001 6.360637e+001 6.614738e+001 6.842992e+001 5.681550e+001 5.568918e+001 5.642152e+001 4.221096e+001 4.907898e+001 5.074359e+000 4.548949e+000 4.997040e+000 6.279184e+000 6.150096e+000 6.613893e+000 5.691516e+000 5.891862e+000 4.794885e+000 5.172591e+000 4.646804e+000 4.099899e+000 2.155114e+000 8.497133e-001 1.100856e+000 6.137295e-001 1.070895e+000 9.930819e-001 8.888428e-001 8.833276e-001 8.738771e-001 7.773646e-001 8.039716e-001 7.416626e-001 6.534258e-001 2.133930e-001
<GCONST> 1.425868e+002
<STATE> 3
<MEAN> 39
 -2.363522e+001 6.606060e+000 -1.769834e+000 -1.828575e+000 1.433306e+000 -2.808663e+000 1.177211e+000 9.097312e-001 4.122018e-001 -1.268952e+000 1.559328e+000 -1.060320e+000 6.508094e+001 1.901868e-002 -3.354844e-001 -1.412397e-001 -2.633724e-001 -7.882465e-002 -3.471483e-002 9.908363e-002 2.577591e-001 1.664766e-001 6.319355e-002 1.370201e-001 2.389312e-001 2.637681e-001 1.111539e+000 -4.820161e-001 1.272232e-001 -4.051602e-001 -4.591489e-001 -4.701169e-001 -4.018430e-001 -2.344953e-001 -2.416901e-001 -2.734686e-001 -2.848016e-001 -5.280436e-002 2.401578e-001
<VARIANCE> 39
 3.084379e+001 3.499112e+001 6.104303e+001 5.544348e+001 4.076960e+001 3.606544e+001 3.958621e+001 4.004461e+001 3.021284e+001 2.739823e+001 2.379823e+001 1.883347e+001 2.795599e+001 7.559682e+000 1.761311e+000 2.269145e+000 2.219032e+000 2.661948e+000 3.141565e+000 2.686177e+000 2.567677e+000 2.540213e+000 2.541809e+000 2.309718e+000 1.892545e+000 1.127449e+000 5.599927e-001 4.302990e-001 4.744545e-001 6.461669e-001 5.561691e-001 5.960125e-001 5.781811e-001 5.501890e-001 5.414429e-001 5.318533e-001 5.165765e-001 4.586651e-001 2.146652e-001
<GCONST> 1.202465e+002
<STATE> 4
<MEAN> 39
 -8.182202e+000 -9.842778e-001 -1.271906e+000 -8.582489e+000 -4.527761e+000 -9.637136e+000 -3.830046e+000 2.361352e-001 -1.457924e+000 -5.274282e+000 -2.125668e+000 -3.766132e-001 7.054253e+001 4.713363e+000 -4.168484e+000 -7.083774e-001 -3.363102e+000 -1.828226e+000 -1.880609e+000 -1.987362e+000 -9.138057e-002 -8.798369e-001 -1.379137e+000 -1.985531e+000 -5.763515e-001 2.433725e+000 -8.707179e-001 -3.996995e-001 -3.127053e-001 -8.332377e-002 4.581964e-001 6.400823e-001 1.745875e-001 -3.896939e-003 -9.583542e-002 1.488738e-001 -5.965244e-002 -3.933830e-001 6.400098e-002
<VARIANCE> 39
 6.533989e+001 6.441659e+001 5.570076e+001 7.667590e+001 5.752042e+001 5.462185e+001 6.684325e+001 4.115522e+001 4.068896e+001 3.824815e+001 5.044325e+001 3.830115e+001 3.084552e+001 5.258186e+000 3.542492e+000 5.392044e+000 6.507208e+000 7.109749e+000 6.931906e+000 5.925999e+000 4.989951e+000 5.302677e+000 5.256787e+000 5.412958e+000 5.851992e+000 1.522891e+000 1.149416e+000 9.224879e-001 4.623377e-001 1.152346e+000 9.053112e-001 9.002241e-001 8.827843e-001 6.466353e-001 6.320042e-001 7.365590e-001 9.927781e-001 6.813690e-001 3.835067e-001
<GCONST> 1.402199e+002
<TRANSP> 5
 0.000000e+000 1.000000e+000 0.000000e+000 0.000000e+000 0.000000e+000
 0.000000e+000 7.419938e-001 2.580061e-001 0.000000e+000 0.000000e+000
 0.000000e+000 0.000000e+000 8.673590e-001 1.326410e-001 0.000000e+000
 0.000000e+000 0.000000e+000 0.000000e+000 6.404048e-001 3.595953e-001
 0.000000e+000 0.000000e+000 0.000000e+000 0.000000e+000 0.000000e+000
<ENDHMM>
~h "t"
<BEGINHMM>
<NUMSTATES> 5
<STATE> 2
<MEAN> 39
 -4.733045e+000 -3.454861e+000 -5.432965e-002 -6.175442e+000 -3.236946e+000 -4.569975e+000 -2.736267e+000 -2.948992e+000 -8.612102e-001 -2.389020e+000 -2.121663e+000 -3.155791e+000 5.632043e+001 -8.556620e-001 -1.716018e-002 -1.020581e-001 1.268758e+000 8.378648e-001 8.212873e-001 1.140991e+000 7.520487e-001 9.786184e-001 4.545940e-001 6.020596e-001 1.365733e-001 -1.949803e+000 -5.178210e-002 -2.191483e-001 -1.877831e-001 -4.386000e-001 -1.476446e-001 -9.999793e-002 -1.122276e-001 7.722542e-003 -5.459626e-002 -8.444102e-003 -4.717030e-003 5.733321e-002 6.218994e-001
<VARIANCE> 39
 2.125875e+001 4.056960e+001 5.107414e+001 5.208244e+001 5.680051e+001 5.478270e+001 5.474989e+001 5.409456e+001 4.774972e+001 4.282411e+001 4.827023e+001 4.205960e+001 5.388990e+001 1.609451e+000 2.606938e+000 2.691219e+000 4.167785e+000 3.403072e+000 3.525768e+000 3.590029e+000 3.517132e+000 3.365277e+000 3.218174e+000 3.314244e+000 2.946707e+000 4.256354e+000 2.976891e-001 5.350027e-001 4.607808e-001 7.026325e-001 6.738504e-001 7.605619e-001 7.222540e-001 6.574293e-001 6.767300e-001 6.189585e-001 6.037073e-001 5.556172e-001 8.792757e-001
<GCONST> 1.300977e+002
<STATE> 3
<MEAN> 39
 -8.645071e+000 -3.698582e+000 -1.490753e+000 -4.405099e+000 -8.874242e-001 -3.329940e+000 4.079271e-001 -9.014927e-001 2.241832e+000 -5.190679e-001 7.899483e-001 -1.273596e+000 5.528926e+001 1.847623e-001 -3.722495e-001 -5.527738e-001 -1.215461e+000 -2.449245e-001 -1.020686e+000 -6.877551e-001 4.462406e-001 -7.625535e-002 -1.684976e-001 -1.717319e-001 3.232309e-001 3.104738e+000 5.926917e-001 -2.839764e-001 -7.174368e-002 -8.327506e-001 -3.654553e-001 -3.428206e-001 -7.792337e-001 -1.845090e-001 -5.248906e-001 -4.036627e-001 -5.737658e-001 -2.636763e-001 1.098654e+000
<VARIANCE> 39
 1.981657e+001 2.629668e+001 3.565531e+001 3.272406e+001 3.897068e+001 4.123430e+001 3.925734e+001 3.875959e+001 3.258356e+001 2.986814e+001 3.187290e+001 2.588429e+001 5.691291e+001 2.809801e+000 3.596566e+000 3.800329e+000 5.629628e+000 4.167531e+000 4.621875e+000 5.598086e+000 4.681936e+000 4.578638e+000 3.869623e+000 4.070058e+000 3.461724e+000 1.280368e+001 3.835831e-001 6.666175e-001 6.438726e-001 7.833731e-001 8.348475e-001 9.934937e-001 8.364145e-001 8.960972e-001 8.082087e-001 7.353237e-001 7.538794e-001 6.849609e-001 1.266583e+000
<GCONST> 1.335440e+002
<STATE> 4
<MEAN> 39
 -6.588272e+000 -5.272611e+000 -3.452376e+000 -6.288246e+000 -2.433481e+000 -4.716609e+000 -2.428332e+000 -5.005646e-001 9.244416e-001 -2.151906e+000 -1.411186e+000 -1.566221e+000 5.703337e+001 5.084360e-001 -3.719299e-001 -1.239141e-001 -9.615610e-001 -3.839222e-001 -4.645134e-001 -9.409490e-001 -2.082685e-001 -6.234285e-001 -5.400814e-001 -7.022452e-001 -3.129481e-001 1.676243e+000 3.151657e-002 -2.490565e-003 1.336865e-001 1.095315e-002 2.021396e-003 1.182199e-001 -5.163045e-002 -2.063948e-001 -1.792526e-001 -6.278033e-002 -6.439419e-002 -1.449435e-001 -4.820929e-002
<VARIANCE> 39
 1.751762e+001 2.904417e+001 3.622371e+001 5.351550e+001 3.627708e+001 4.372818e+001 4.678789e+001 3.733939e+001 3.386855e+001 3.205700e+001 3.442635e+001 3.161892e+001 1.257689e+002 2.055857e+000 3.804112e+000 3.297255e+000 5.860123e+000 3.994663e+000 4.136982e+000 4.947284e+000 4.360930e+000 4.070305e+000 3.600266e+000 3.944492e+000 3.064824e+000 9.619974e+000 2.755037e-001 4.025679e-001 3.584347e-001 5.398859e-001 5.432647e-001 6.235295e-001 6.504847e-001 6.092745e-001 5.722944e-001 5.196372e-001 5.641873e-001 5.157424e-001 1.142696e+000
<GCONST> 1.293028e+002
<TRANSP> 5
 0.000000e+000 1.000000e+000 0.000000e+000 0.000000e+000 0.000000e+000
 0.000000e+000 7.694305e-001 2.305696e-001 0.000000e+000 0.000000e+000
 0.000000e+000 0.000000e+000 5.408542e-001 4.591458e-001 0.000000e+000
 0.000000e+000 0.000000e+000 0.000000e+000 6.038872e-001 3.961128e-001
 0.000000e+000 0.000000e+000 0.000000e+000 0.000000e+000 0.000000e+000
<ENDHMM>
~h "u"
<BEGINHMM>
<NUMSTATES> 5
<STATE> 2
<MEAN> 39
 -8.223940e-001 -6.140505e+000 -3.330943e+000 -1.562448e+001 -7.815933e+000 -1.042572e+001 -1.338866e+001 -5.416660e+000 -3.349713e+000 -3.138334e+000 -5.584278e+000 -4.459373e+000 7.227025e+001 1.655270e+000 -3.777508e-001 -2.826790e+000 -3.071698e+000 9.580157e-001 1.395690e+000 -2.477263e+000 -9.461485e-001 -1.134105e-002 6.102135e-001 -4.863149e-001 -1.262697e+000 6.615292e-001 -4.615565e-001 6.141384e-001 9.712300e-002 -1.703420e-001 3.502419e-001 1.130050e+000 7.284978e-001 -1.821657e-001 -3.857482e-001 -2.566322e-002 5.461720e-001 1.745940e-001 -6.394816e-001
<VARIANCE> 39
 2.181833e+001 5.867629e+001 7.519003e+001 1.013336e+002 8.119754e+001 1.026607e+002 8.280823e+001 6.116079e+001 6.222495e+001 5.989894e+001 8.818916e+001 6.148705e+001 3.281989e+001 1.561581e+000 2.529418e+000 4.911294e+000 6.196091e+000 1.232979e+001 6.392914e+000 5.137666e+000 5.502682e+000 7.623408e+000 5.748328e+000 6.319298e+000 4.194451e+000 1.989605e+000 4.349554e-001 6.491207e-001 6.707836e-001 1.007603e+000 1.285372e+000 1.191229e+000 1.441674e+000 1.191737e+000 1.182561e+000 1.044080e+000 1.235114e+000 9.048959e-001 3.880725e-001
<GCONST> 1.445715e+002
<STATE> 3
<MEAN> 39
 1.467434e+000 -4.330467e+000 -9.478852e+000 -2.363192e+001 -4.044254e+000 -1.426209e+000 -1.552319e+001 -9.353034e+000 -7.579597e+000 -1.356083e+000 -1.685450e+000 -5.125551e+000 7.184292e+001 8.007742e-001 1.181528e+000 -8.236074e-001 -2.390275e+000 -5.910817e-001 2.067496e+000 9.471585e-001 -3.769136e-003 -1.990880e+000 -1.373468e+000 5.676178e-001 4.285232e-001 -7.449506e-001 -3.157030e-001 2.091787e-001 8.184003e-001 9.866374e-001 -4.625771e-001 -5.797436e-001 8.158275e-001 6.485779e-001 2.906106e-001 -5.793067e-001 -3.872496e-001 1.950331e-001 -4.165044e-001
<VARIANCE> 39
 1.347504e+001 4.279097e+001 6.513910e+001 8.314968e+001 7.197407e+001 7.433070e+001 6.752279e+001 6.099455e+001 6.369501e+001 5.751366e+001 8.624024e+001 6.452251e+001 2.263466e+001 5.540286e-001 1.898586e+000 2.154486e+000 3.477750e+000 4.180731e+000 3.831890e+000 4.278422e+000 4.246787e+000 3.365125e+000 4.750004e+000 4.763038e+000 3.404638e+000 1.514074e+000 1.751836e-001 3.539355e-001 4.263542e-001 7.582119e-001 1.050225e+000 8.046509e-001 9.104889e-001 6.500377e-001 1.252046e+000 9.682916e-001 1.136532e+000 8.829725e-001 1.872702e-001
<GCONST> 1.311181e+002
<STATE> 4
<MEAN> 39
 3.467270e+000 2.568407e+000 -6.748892e+000 -2.659695e+001 -1.000284e+001 1.519414e-001 -1.142998e+001 -3.942351e+000 -9.933304e+000 -8.891027e+000 -4.515565e+000 -4.568820e+000 6.766110e+001 3.423977e-002 3.209636e-001 6.872857e-001 1.061468e+000 -2.782764e-001 -3.589301e-001 4.274935e-001 1.258205e-001 3.158845e-001 -2.980784e-001 -4.793226e-001 -2.364948e-001 -7.192042e-001 -1.598117e-001 -1.744640e-001 2.101793e-001 6.269754e-001 2.559000e-001 -1.836356e-001 -6.622496e-002 -2.662326e-001 2.561323e-001 2.875655e-001 1.630852e-002 7.685596e-003 -6.395677e-002
<VARIANCE> 39
 1.100763e+001 4.184204e+001 8.027469e+001 7.247153e+001 8.001388e+001 6.833749e+001 7.467650e+001 7.456410e+001 5.792011e+001 4.368676e+001 5.538169e+001 4.651440e+001 2.001340e+001 4.080084e-001 1.195625e+000 1.497634e+000 3.800658e+000 2.987164e+000 2.224438e+000 3.028049e+000 3.159858e+000 2.788527e+000 3.110250e+000 2.976470e+000 2.183006e+000 7.910138e-001 9.346368e-002 1.954549e-001 2.753873e-001 5.117092e-001 4.240082e-001 5.026924e-001 5.389585e-001 5.075617e-001 5.278547e-001 5.118758e-001 4.643573e-001 4.102480e-001 1.103265e-001
<GCONST> 1.173919e+002
<TRANSP> 5
 0.000000e+000 1.000000e+000 0.000000e+000 0.000000e+000 0.000000e+000
 0.000000e+000 4.611225e-001 5.388775e-001 0.000000e+000 0.000000e+000
 0.000000e+000 0.000000e+000 6.115394e-001 3.884606e-001 0.000000e+000
 0.000000e+000 0.000000e+000 0.000000e+000 8.272570e-001 1.727431e-001
 0.000000e+000 0.000000e+000 0.000000e+000 0.000000e+000 0.000000e+000
<ENDHMM>
~h "v"
<BEGINHMM>
<NUMSTATES> 5
<STATE> 2
<MEAN> 39
 -3.265689e+000 -1.620492e+000 -6.306850e-001 -4.863100e+000 -2.618918e+000 -4.161242e+000 -5.375967e+000 -6.828358e+000 -4.650240e+000 -4.623177e+000 -3.150626e+000 -4.102672e+000 5.820308e+001 -2.482446e-001 6.265216e-001 9.393685e-002 8.302138e-001 5.245410e-001 2.601174e-001 -3.737411e-002 -3.668946e-001 -2.855198e-001 -2.212882e-001 2.001896e-001 7.707587e-003 -4.109788e-001 9.539855e-002 -2.546923e-001 -1.297557e-001 -4.833700e-001 -1.927368e-001 -9.319001e-002 -1.378624e-001 3.352955e-002 4.458068e-002 1.254505e-001 2.483413e-002 -2.348758e-003 4.940594e-001
<VARIANCE> 39
 3.578442e+001 3.633902e+001 4.162574e+001 5.513921e+001 3.663293e+001 4.640567e+001 4.791581e+001 5.330776e+001 4.729997e+001 4.034146e+001 4.410710e+001 3.555487e+001 5.368072e+001 2.005706e+000 1.818401e+000 2.252431e+000 3.810408e+000 2.840778e+000 2.764277e+000 3.468122e+000 3.584845e+000 3.376867e+000 2.988245e+000 2.859772e+000 2.450628e+000 2.805899e+000 3.863553e-001 3.411943e-001 4.039622e-001 7.419447e-001 5.025111e-001 5.501939e-001 6.581649e-001 6.436858e-001 6.521201e-001 6.275221e-001 5.684652e-001 4.776980e-001 3.588111e-001
<GCONST> 1.254823e+002
<STATE> 3
<MEAN> 39
 -1.985731e+000 1.428193e-001 -1.503310e+000 -6.315777e+000 -2.478472e+000 -4.056046e+000 -8.157426e+000 -1.021915e+001 -7.445833e+000 -5.134002e+000 -2.270655e+000 -4.348338e+000 6.169097e+001 1.255060e+000 -1.613684e+000 -1.407589e+000 -2.889318e+000 -5.543678e-001 -4.838304e-001 -1.228326e+000 3.473988e-001 6.156199e-001 1.262277e+000 3.708846e-001 -3.801228e-001 2.918883e+000 1.452630e-001 -8.353855e-001 -2.067722e-001 -8.213449e-001 -2.359874e-001 -7.021519e-002 7.241524e-002 7.004169e-001 4.668342e-001 2.595041e-001 -3.554397e-001 -2.840194e-001 7.099120e-001
<VARIANCE> 39
 3.286298e+001 2.592367e+001 3.641579e+001 5.042990e+001 2.714671e+001 4.108036e+001 4.605029e+001 4.337241e+001 3.892710e+001 3.581173e+001 4.058567e+001 2.870674e+001 2.557636e+001 3.034654e+000 2.560107e+000 3.372456e+000 5.209926e+000 3.577296e+000 3.976142e+000 4.735392e+000 5.047709e+000 5.113738e+000 4.631483e+000 5.415885e+000 3.748312e+000 2.135340e+000 5.532133e-001 3.737152e-001 5.784969e-001 8.912275e-001 7.134126e-001 6.772598e-001 9.535934e-001 8.086835e-001 8.028634e-001 9.217103e-001 8.580894e-001 7.112266e-001 3.849433e-001
<GCONST> 1.308026e+002
<STATE> 4
<MEAN> 39
 1.912866e+000 -7.489637e+000 -6.141334e+000 -1.601080e+001 -3.882956e+000 -4.946815e+000 -1.066461e+001 -5.935273e+000 -2.671384e+000 -3.198927e-001 -3.190282e+000 -7.647557e+000 7.097894e+001 2.001108e-001 -2.927398e+000 -8.846387e-001 -2.433512e+000 -4.134364e-001 -5.172216e-001 1.921729e-001 2.176774e+000 1.084841e+000 1.833270e-001 -1.346191e+000 -1.004186e+000 3.226843e+000 -6.095456e-001 1.394202e-001 5.202081e-001 7.596348e-001 7.077176e-002 8.275881e-002 6.660802e-001 9.257176e-002 -4.284382e-001 -7.131891e-001 -2.255400e-001 2.482295e-001 -4.365429e-001
<VARIANCE> 39
 2.070474e+001 4.009593e+001 6.129327e+001 7.772773e+001 4.016618e+001 7.777041e+001 5.803056e+001 5.547265e+001 5.316106e+001 6.048746e+001 8.649927e+001 5.236306e+001 2.624063e+001 2.049026e+000 2.563967e+000 4.103846e+000 6.574004e+000 5.701651e+000 5.321286e+000 6.368456e+000 5.204959e+000 5.106574e+000 6.888593e+000 6.008261e+000 5.601439e+000 1.852723e+000 2.881623e-001 3.303746e-001 3.667886e-001 9.084124e-001 6.411637e-001 6.303260e-001 7.252716e-001 8.102909e-001 8.676870e-001 8.483905e-001 1.095949e+000 7.757849e-001 3.132193e-001
<GCONST> 1.357956e+002
<TRANSP> 5
 0.000000e+000 1.000000e+000 0.000000e+000 0.000000e+000 0.000000e+000
 0.000000e+000 7.902773e-001 2.097227e-001 0.000000e+000 0.000000e+000
 0.000000e+000 0.000000e+000 5.600480e-001 4.399520e-001 0.000000e+000
 0.000000e+000 0.000000e+000 0.000000e+000 4.352624e-001 5.647376e-001
 0.000000e+000 0.000000e+000 0.000000e+000 0.000000e+000 0.000000e+000
<ENDHMM>
~h "x"
<BEGINHMM>
<NUMSTATES> 5
<STATE> 2
<MEAN> 39
 -7.641633e+000 2.690737e+000 6.432872e-001 -5.715053e+000 -6.371631e+000 -9.755718e+000 -5.835629e+000 -5.964544e+000 -6.183753e+000 -5.450644e+000 -3.892401e+000 -3.270323e+000 6.664893e+001 -3.265255e+000 2.784056e+000 -6.248412e-001 2.484046e+000 1.700347e+000 9.094130e-001 1.445898e+000 1.158628e+000 9.035694e-001 3.719691e-001 9.938889e-001 3.429210e-001 -6.744382e-001 -6.065402e-001 -2.610122e-001 -3.188713e-001 -1.521866e-001 2.991564e-001 5.027143e-001 3.594934e-001 3.678584e-001 3.272293e-001 3.615556e-001 1.810763e-001 9.132786e-003 4.819152e-002
<VARIANCE> 39
 5.624240e+001 7.269293e+001 7.901613e+001 8.342708e+001 7.712338e+001 6.592297e+001 6.382875e+001 7.249747e+001 5.419514e+001 5.565531e+001 6.077232e+001 4.339585e+001 3.829650e+001 4.638473e+000 4.642282e+000 4.535522e+000 6.142943e+000 5.712497e+000 7.173403e+000 6.113339e+000 6.036224e+000 4.745458e+000 5.517148e+000 4.768643e+000 4.131237e+000 1.857074e+000 8.414429e-001 1.136246e+000 5.976797e-001 1.111734e+000 9.741607e-001 9.460274e-001 9.025154e-001 8.884239e-001 7.893001e-001 8.330070e-001 7.591412e-001 6.845442e-001 2.014899e-001
<GCONST> 1.424457e+002
<STATE> 3
<MEAN> 39
 -2.249751e+001 6.760897e+000 -3.910292e+000 -1.635705e-001 4.970306e-001 -3.070920e+000 1.559735e+000 9.944509e-001 -2.822284e-001 -5.146215e-001 1.336457e+000 -8.686591e-001 6.402921e+001 1.013650e-001 -4.477158e-001 -8.140685e-002 -2.898433e-001 -1.081354e-001 -4.546295e-002 7.851671e-002 2.890318e-001 1.876169e-001 1.127802e-001 1.788772e-001 3.052100e-001 2.564101e-001 1.061055e+000 -4.461407e-001 2.374333e-001 -4.825777e-001 -4.512701e-001 -4.859184e-001 -4.588206e-001 -2.704234e-001 -2.606893e-001 -2.973546e-001 -2.837324e-001 -4.395268e-002 2.962000e-001
<VARIANCE> 39
 2.599836e+001 3.545505e+001 5.093038e+001 5.258131e+001 4.287473e+001 3.723587e+001 3.677072e+001 4.234135e+001 2.837537e+001 2.519310e+001 2.298505e+001 1.914776e+001 2.565177e+001 6.942379e+000 1.708946e+000 2.555223e+000 2.484468e+000 2.624958e+000 3.395652e+000 2.917021e+000 2.738047e+000 2.567667e+000 2.652266e+000 2.405502e+000 1.996033e+000 1.230691e+000 5.097268e-001 4.267457e-001 4.448538e-001 6.724352e-001 5.448014e-001 6.330456e-001 6.376025e-001 5.850818e-001 5.341572e-001 5.456954e-001 5.341499e-001 4.827045e-001 2.231052e-001
<GCONST> 1.204369e+002
<STATE> 4
<MEAN> 39
 -7.837232e+000 -7.434576e-001 -1.424718e+000 -7.983027e+000 -5.908751e+000 -1.032616e+001 -3.514399e+000 2.054981e-001 -2.453242e+000 -4.079771e+000 -1.849679e+000 2.062339e-001 7.001642e+001 4.192559e+000 -3.904164e+000 -1.121326e-001 -3.780487e+000 -2.084236e+000 -2.009956e+000 -2.006323e+000 -2.632403e-001 -1.082790e+000 -1.384538e+000 -1.799061e+000 -5.192782e-001 2.647574e+000 -9.001015e-001 -3.373663e-001 -3.359278e-001 -1.035805e-001 3.865573e-001 6.857445e-001 1.854687e-001 -4.230824e-002 -1.409442e-001 1.094286e-001 -5.218959e-002 -4.365076e-001 9.977651e-003
<VARIANCE> 39
 5.652170e+001 5.802406e+001 5.954375e+001 7.745494e+001 6.759567e+001 5.376156e+001 6.177043e+001 4.306612e+001 3.565855e+001 3.702437e+001 4.928533e+001 4.102935e+001 3.258627e+001 5.451376e+000 3.682541e+000 4.732355e+000 6.254550e+000 6.155937e+000 7.213768e+000 7.631676e+000 5.713501e+000 4.790246e+000 4.935287e+000 5.463424e+000 5.729834e+000 1.674860e+000 1.017637e+000 7.996024e-001 4.645264e-001 1.143005e+000 8.651118e-001 9.568374e-001 9.271091e-001 7.133240e-001 6.325875e-001 7.167423e-001 9.571012e-001 7.184798e-001 4.171988e-001
<GCONST> 1.401716e+002
<TRANSP> 5
 0.000000e+000 1.000000e+000 0.000000e+000 0.000000e+000 0.000000e+000
 0.000000e+000 7.450329e-001 2.549671e-001 0.000000e+000 0.000000e+000
 0.000000e+000 0.000000e+000 8.649922e-001 1.350078e-001 0.000000e+000
 0.000000e+000 0.000000e+000 0.000000e+000 6.288709e-001 3.711291e-001
 0.000000e+000 0.000000e+000 0.000000e+000 0.000000e+000 0.000000e+000
<ENDHMM>
~h "y"
<BEGINHMM>
<NUMSTATES> 5
<STATE> 2
<MEAN> 39
 -3.620003e+000 -7.242545e+000 -1.214469e+000 -1.428862e+001 -9.525796e+000 -1.284843e+001 -7.560297e+000 6.011301e-001 -3.134232e-003 -3.396591e+000 -6.442726e+000 -2.524830e+000 7.161558e+001 -7.145913e-001 -8.337229e-001 1.411305e+000 -8.154534e-001 -2.848246e+000 -1.054094e+000 8.095651e-001 7.170074e-001 -1.160029e+000 -8.033093e-001 -1.330210e-001 -3.007330e-001 1.762745e+000 -1.676828e-001 3.679985e-001 3.604393e-001 -1.422101e-002 -4.522783e-002 6.930852e-001 2.691429e-001 -8.737729e-001 -6.236001e-001 2.049097e-001 3.711301e-001 -1.730835e-001 -5.796813e-001
<VARIANCE> 39
 2.095724e+001 3.473289e+001 7.607893e+001 8.295308e+001 7.675145e+001 6.205029e+001 1.017421e+002 8.378377e+001 7.504527e+001 6.960576e+001 7.524680e+001 6.540563e+001 6.486696e+001 1.422840e+000 2.036529e+000 4.211328e+000 6.029030e+000 5.893926e+000 4.851395e+000 6.850971e+000 6.605019e+000 6.440544e+000 5.363936e+000 6.035110e+000 3.964245e+000 4.826806e+000 2.406059e-001 3.239697e-001 4.450741e-001 9.590454e-001 8.517829e-001 9.389735e-001 1.185945e+000 9.542739e-001 1.104898e+000 9.863063e-001 9.254202e-001 7.845973e-001 1.173828e+000
<GCONST> 1.419498e+002
<STATE> 3
<MEAN> 39
 -6.806492e+000 -8.713162e+000 3.935859e+000 -1.879916e+001 -1.706646e+001 -1.320509e+001 -4.574856e+000 -2.802920e+000 -7.224743e+000 -2.336478e+000 -5.353491e+000 -3.922039e+000 7.535556e+001 -6.722431e-001 6.776279e-001 1.695900e+000 -6.993718e-001 -1.485685e+000 7.047288e-001 -1.428442e-001 -1.863839e+000 -7.730665e-001 8.039559e-001 1.959970e-001 -6.623082e-001 -1.128910e-001 1.114973e-001 2.762930e-001 -7.588005e-002 1.596902e-001 6.105351e-001 2.276653e-001 -4.655957e-001 -2.030748e-001 2.876815e-001 -5.170413e-002 -1.572383e-001 1.032223e-001 -3.370965e-001
<VARIANCE> 39
 1.440039e+001 3.005461e+001 7.131499e+001 9.542055e+001 5.627968e+001 2.811027e+001 6.588850e+001 8.489708e+001 5.217373e+001 6.780683e+001 6.940457e+001 4.803490e+001 2.064575e+001 4.410237e-001 7.625971e-001 1.443155e+000 1.274747e+000 1.893010e+000 1.740342e+000 3.119566e+000 2.355227e+000 2.822282e+000 2.611703e+000 3.786934e+000 2.130642e+000 4.698180e-001 8.806099e-002 1.683617e-001 2.978976e-001 3.249760e-001 4.411161e-001 3.762255e-001 4.742947e-001 6.052732e-001 4.674329e-001 6.741874e-001 4.739882e-001 3.971204e-001 1.388936e-001
<GCONST> 1.135267e+002
<STATE> 4
<MEAN> 39
 -8.141835e+000 -2.024092e+000 1.210963e+001 -1.647066e+001 -1.923305e+001 -8.279670e+000 -1.081542e+001 -1.140769e+001 -9.000679e+000 -3.907746e+000 -4.898527e+000 -6.878498e+000 7.178293e+001 1.274381e-001 4.860201e-001 4.180680e-001 5.596486e-001 6.225163e-001 3.150696e-001 -2.620435e-001 -3.541454e-001 -3.121085e-001 -3.134100e-001 -1.402247e-001 3.099599e-002 -7.277864e-001 1.454871e-001 -4.557953e-002 -2.463386e-001 2.912568e-001 2.641979e-001 -6.749603e-002 1.829998e-001 2.686662e-001 1.246858e-001 -2.030933e-002 7.268003e-002 5.629046e-002 -1.926655e-001
<VARIANCE> 39
 1.462697e+001 3.448353e+001 6.639135e+001 1.351412e+002 6.383691e+001 3.969777e+001 5.215026e+001 5.264259e+001 4.339833e+001 4.940166e+001 1.113536e+002 6.269102e+001 2.667332e+001 5.254087e-001 7.069306e-001 1.310947e+000 1.615034e+000 1.567612e+000 1.353878e+000 2.098234e+000 1.992321e+000 1.563373e+000 1.469067e+000 1.760047e+000 1.271796e+000 6.597180e-001 7.779200e-002 1.205356e-001 1.796614e-001 2.827822e-001 3.094724e-001 2.511377e-001 3.284268e-001 2.927383e-001 3.165369e-001 2.733977e-001 3.337655e-001 2.109977e-001 1.315906e-001
<GCONST> 1.060524e+002
<TRANSP> 5
 0.000000e+000 1.000000e+000 0.000000e+000 0.000000e+000 0.000000e+000
 0.000000e+000 6.055472e-001 3.944528e-001 0.000000e+000 0.000000e+000
 0.000000e+000 0.000000e+000 7.142857e-001 2.857142e-001 0.000000e+000
 0.000000e+000 0.000000e+000 0.000000e+000 8.791015e-001 1.208986e-001
 0.000000e+000 0.000000e+000 0.000000e+000 0.000000e+000 0.000000e+000
<ENDHMM>
~h "doafi"
<BEGINHMM>
<NUMSTATES> 5
<STATE> 2
<MEAN> 39
 -4.901095e+000 -5.842618e+000 -5.097519e-001 -9.923710e+000 -4.122406e+000 -4.544213e+000 -4.531428e+000 -3.756145e+000 -3.134470e+000 -3.843007e+000 -3.141330e+000 -3.863289e+000 6.290533e+001 3.156596e-003 4.426242e-003 -3.008057e-004 -9.815464e-004 -7.398279e-004 -3.059326e-004 6.043092e-004 -2.233922e-003 1.730658e-004 -2.990019e-004 -3.013898e-003 -8.223696e-004 -5.428240e-004 -1.672899e-004 -1.806980e-004 4.561614e-005 -7.206317e-005 6.492341e-005 1.899766e-004 7.487284e-005 1.468558e-005 -2.101225e-005 1.112924e-004 1.261849e-004 6.155111e-006 1.118417e-005
<VARIANCE> 39
 3.977646e+001 6.976524e+001 7.436712e+001 1.058175e+002 8.034691e+001 6.925978e+001 7.782265e+001 7.860110e+001 6.821010e+001 5.800883e+001 6.279465e+001 4.830898e+001 1.459772e+002 1.544968e+000 2.667576e+000 2.529959e+000 4.061153e+000 3.472722e+000 3.155723e+000 3.471568e+000 3.756795e+000 3.266600e+000 3.146162e+000 3.154106e+000 2.635824e+000 3.396390e+000 2.536712e-001 3.905498e-001 3.963176e-001 6.350257e-001 5.963098e-001 5.526317e-001 6.014287e-001 6.646528e-001 5.859886e-001 5.718929e-001 5.669279e-001 4.794365e-001 4.314951e-001
<GCONST> 1.326273e+002
<STATE> 3
<MEAN> 39
 -4.901095e+000 -5.842618e+000 -5.097519e-001 -9.923710e+000 -4.122406e+000 -4.544213e+000 -4.531428e+000 -3.756145e+000 -3.134470e+000 -3.843007e+000 -3.141330e+000 -3.863289e+000 6.290533e+001 3.156596e-003 4.426242e-003 -3.008057e-004 -9.815464e-004 -7.398279e-004 -3.059326e-004 6.043092e-004 -2.233922e-003 1.730658e-004 -2.990019e-004 -3.013898e-003 -8.223696e-004 -5.428240e-004 -1.672899e-004 -1.806980e-004 4.561614e-005 -7.206317e-005 6.492341e-005 1.899766e-004 7.487284e-005 1.468558e-005 -2.101225e-005 1.112924e-004 1.261849e-004 6.155111e-006 1.118417e-005
<VARIANCE> 39
 3.977646e+001 6.976524e+001 7.436712e+001 1.058175e+002 8.034691e+001 6.925978e+001 7.782265e+001 7.860110e+001 6.821010e+001 5.800883e+001 6.279465e+001 4.830898e+001 1.459772e+002 1.544968e+000 2.667576e+000 2.529959e+000 4.061153e+000 3.472722e+000 3.155723e+000 3.471568e+000 3.756795e+000 3.266600e+000 3.146162e+000 3.154106e+000 2.635824e+000 3.396390e+000 2.536712e-001 3.905498e-001 3.963176e-001 6.350257e-001 5.963098e-001 5.526317e-001 6.014287e-001 6.646528e-001 5.859886e-001 5.718929e-001 5.669279e-001 4.794365e-001 4.314951e-001
<GCONST> 1.326273e+002
<STATE> 4
<MEAN> 39
 -4.901095e+000 -5.842618e+000 -5.097519e-001 -9.923710e+000 -4.122406e+000 -4.544213e+000 -4.531428e+000 -3.756145e+000 -3.134470e+000 -3.843007e+000 -3.141330e+000 -3.863289e+000 6.290533e+001 3.156596e-003 4.426242e-003 -3.008057e-004 -9.815464e-004 -7.398279e-004 -3.059326e-004 6.043092e-004 -2.233922e-003 1.730658e-004 -2.990019e-004 -3.013898e-003 -8.223696e-004 -5.428240e-004 -1.672899e-004 -1.806980e-004 4.561614e-005 -7.206317e-005 6.492341e-005 1.899766e-004 7.487284e-005 1.468558e-005 -2.101225e-005 1.112924e-004 1.261849e-004 6.155111e-006 1.118417e-005
<VARIANCE> 39
 3.977646e+001 6.976524e+001 7.436712e+001 1.058175e+002 8.034691e+001 6.925978e+001 7.782265e+001 7.860110e+001 6.821010e+001 5.800883e+001 6.279465e+001 4.830898e+001 1.459772e+002 1.544968e+000 2.667576e+000 2.529959e+000 4.061153e+000 3.472722e+000 3.155723e+000 3.471568e+000 3.756795e+000 3.266600e+000 3.146162e+000 3.154106e+000 2.635824e+000 3.396390e+000 2.536712e-001 3.905498e-001 3.963176e-001 6.350257e-001 5.963098e-001 5.526317e-001 6.014287e-001 6.646528e-001 5.859886e-001 5.718929e-001 5.669279e-001 4.794365e-001 4.314951e-001
<GCONST> 1.326273e+002
<TRANSP> 5
 0.000000e+000 1.000000e+000 0.000000e+000 0.000000e+000 0.000000e+000
 0.000000e+000 6.000000e-001 4.000000e-001 0.000000e+000 0.000000e+000
 0.000000e+000 0.000000e+000 6.000000e-001 4.000000e-001 0.000000e+000
 0.000000e+000 0.000000e+000 0.000000e+000 7.000000e-001 3.000000e-001
 0.000000e+000 0.000000e+000 0.000000e+000 0.000000e+000 0.000000e+000
<ENDHMM>
~h "aa"
<BEGINHMM>
<NUMSTATES> 5
<STATE> 2
<MEAN> 39
 -5.677294e+000 -7.639645e+000 1.270751e+000 -1.933481e+001 -1.000796e+001 -8.090326e+000 -7.083364e+000 -3.330601e+000 -6.452154e+000 -4.423356e+000 -6.318120e+000 -6.495007e+000 7.407671e+001 -8.890637e-002 -3.118757e+000 -1.269704e+000 -9.736435e-001 -1.323181e-001 3.816996e-001 7.896816e-001 1.729223e+000 -2.022431e-002 -8.099697e-001 -6.160964e-001 -6.900443e-001 2.083934e+000 7.851198e-002 1.725919e-001 -3.241045e-001 9.967069e-001 7.548870e-001 3.142186e-002 8.342516e-003 -1.463799e-001 -1.365020e-002 -2.852286e-001 2.704514e-002 1.243802e-001 -6.955734e-001
<VARIANCE> 39
 2.277615e+001 5.712716e+001 1.128133e+002 9.079731e+001 1.015494e+002 6.639136e+001 7.589959e+001 8.549029e+001 6.086720e+001 5.752262e+001 8.630760e+001 6.693063e+001 3.125839e+001 1.618325e+000 2.728502e+000 4.225831e+000 5.845089e+000 6.023806e+000 4.131048e+000 6.201034e+000 5.459783e+000 5.324484e+000 4.461839e+000 5.119985e+000 3.844615e+000 1.946392e+000 4.499568e-001 7.763011e-001 8.406196e-001 8.502246e-001 1.272478e+000 8.381771e-001 1.020954e+000 9.288652e-001 8.214188e-001 8.635468e-001 1.016042e+000 7.787788e-001 6.036531e-001
<GCONST> 1.417246e+002
<STATE> 3
<MEAN> 39
 -5.388422e+000 -1.559490e+001 -4.568589e+000 -1.655692e+001 -4.790192e+000 -8.311522e+000 -5.921700e+000 2.522414e-001 -6.657523e+000 -9.618339e+000 -7.320485e+000 -5.114989e+000 7.721809e+001 3.588922e-001 -8.032679e-001 -1.365430e+000 5.941718e-001 1.966626e+000 -7.304545e-002 -1.075208e+000 1.835671e-001 3.918298e-001 -7.309808e-001 -5.733084e-001 -1.632036e-001 -6.682696e-002 9.456603e-002 9.456127e-001 4.142872e-001 7.702649e-002 -2.739886e-002 -4.495930e-002 -3.841418e-001 -5.239529e-001 1.203511e-001 4.705714e-001 1.846779e-001 -5.457789e-002 -6.820173e-001
<VARIANCE> 39
 1.632343e+001 4.229141e+001 6.668075e+001 6.740217e+001 9.716673e+001 6.224710e+001 7.264141e+001 8.151898e+001 6.749311e+001 6.207445e+001 7.338800e+001 6.532880e+001 1.628772e+001 4.857108e-001 2.059385e+000 2.248772e+000 2.530110e+000 3.291188e+000 2.587068e+000 3.445247e+000 3.263183e+000 3.006338e+000 3.709048e+000 3.602171e+000 3.621309e+000 7.123704e-001 1.075988e-001 2.064491e-001 2.814300e-001 5.696912e-001 8.034682e-001 5.164591e-001 7.551437e-001 6.791653e-001 7.002190e-001 6.271408e-001 6.648592e-001 6.371039e-001 1.642843e-001
<GCONST> 1.238930e+002
<STATE> 4
<MEAN> 39
 -3.166392e+000 -1.368325e+001 -8.219988e+000 -1.597644e+001 8.920495e-001 -8.076890e+000 -1.144036e+001 -2.670617e+000 -5.254714e+000 -7.739587e+000 -7.687253e+000 -7.706563e+000 7.421471e+001 6.970247e-001 1.438071e+000 3.200276e-001 2.252688e-001 -1.719926e-001 -1.081653e-001 -5.047909e-001 -1.235242e+000 -2.023681e-001 7.301568e-001 1.144265e-001 -3.170549e-001 -1.480721e+000 7.778960e-002 3.539568e-001 5.073622e-001 2.251861e-001 -5.795673e-001 9.896387e-002 3.049366e-001 -4.129008e-001 -2.444758e-001 1.686303e-002 1.423654e-002 3.242845e-001 -3.406395e-001
<VARIANCE> 39
 1.447677e+001 5.229591e+001 6.273430e+001 7.756385e+001 8.096603e+001 8.560965e+001 7.088801e+001 8.130025e+001 6.689344e+001 6.307579e+001 7.871925e+001 8.462057e+001 2.408333e+001 5.263372e-001 1.322530e+000 1.608850e+000 1.963069e+000 2.879700e+000 2.683554e+000 2.374915e+000 2.996248e+000 2.640642e+000 2.714812e+000 2.498207e+000 2.536681e+000 9.786934e-001 7.645303e-002 2.298660e-001 3.023986e-001 4.274960e-001 4.827425e-001 6.016815e-001 5.454394e-001 5.751377e-001 5.252690e-001 5.450895e-001 4.719116e-001 5.568666e-001 1.191908e-001
<GCONST> 1.200255e+002
<TRANSP> 5
 0.000000e+000 1.000000e+000 0.000000e+000 0.000000e+000 0.000000e+000
 0.000000e+000 5.076120e-001 4.923880e-001 0.000000e+000 0.000000e+000
 0.000000e+000 0.000000e+000 6.622273e-001 3.377727e-001 0.000000e+000
 0.000000e+000 0.000000e+000 0.000000e+000 7.140558e-001 2.859442e-001
 0.000000e+000 0.000000e+000 0.000000e+000 0.000000e+000 0.000000e+000
<ENDHMM>
~h "af"
<BEGINHMM>
<NUMSTATES> 5
<STATE> 2
<MEAN> 39
 -3.257556e+000 -1.577115e+001 -4.433057e+000 -1.597977e+001 -4.296327e+000 -4.802982e+000 -2.518153e+000 -1.398552e+000 -6.696789e+000 -8.705380e+000 -7.922360e+000 -7.330598e+000 7.671912e+001 -7.758863e-001 -2.027637e+000 -5.890980e-001 6.376319e-001 9.027069e-001 1.042283e+000 1.416808e+000 1.982420e-001 -8.660616e-001 -1.379926e+000 -3.894764e-002 6.129653e-002 1.450369e+000 1.676546e-003 6.937100e-001 4.627622e-001 5.418214e-001 8.214790e-002 -2.647096e-001 -4.672853e-001 -5.510399e-001 -3.495552e-002 2.862809e-001 4.508256e-001 2.577605e-001 -6.590680e-001
<VARIANCE> 39
 2.623358e+001 4.239808e+001 7.664715e+001 7.222010e+001 7.529314e+001 6.428019e+001 7.100221e+001 8.325008e+001 7.252387e+001 6.944148e+001 6.341906e+001 5.905224e+001 1.844510e+001 7.366802e-001 1.579388e+000 2.168910e+000 3.192842e+000 2.595378e+000 4.110708e+000 3.150378e+000 5.230411e+000 4.031978e+000 3.416769e+000 3.773338e+000 3.184601e+000 9.248708e-001 1.606734e-001 2.481151e-001 3.831583e-001 4.754525e-001 4.825847e-001 6.255003e-001 7.560930e-001 6.786444e-001 7.517533e-001 6.313649e-001 6.695001e-001 5.735759e-001 1.564298e-001
<GCONST> 1.260864e+002
<STATE> 3
<MEAN> 39
 -5.191827e+000 -1.832284e+001 -5.839384e+000 -1.322778e+001 -2.243916e+000 -4.209710e+000 -1.130556e+000 -4.266291e+000 -8.687621e+000 -1.084160e+001 -5.814655e+000 -5.908767e+000 7.828363e+001 -1.756825e-001 -4.489369e-001 1.202509e-001 7.407671e-001 3.539529e-001 1.321872e-001 1.443129e-001 -3.496820e-001 -2.229339e-001 -1.020154e-001 3.924938e-001 -5.317437e-003 1.974594e-001 2.613749e-001 5.028487e-001 2.642554e-001 -1.824170e-001 -2.779171e-001 -3.756025e-001 -3.502974e-001 1.181298e-001 3.078925e-001 3.862847e-001 -5.679222e-002 -4.341258e-002 -4.149089e-001
<VARIANCE> 39
 2.432351e+001 3.530300e+001 5.821233e+001 6.378333e+001 6.308565e+001 5.171199e+001 6.029919e+001 8.035033e+001 7.051673e+001 5.071393e+001 5.189611e+001 4.918796e+001 1.705455e+001 4.231635e-001 8.297011e-001 1.098159e+000 1.577261e+000 1.888965e+000 1.763157e+000 1.968601e+000 2.251199e+000 1.982883e+000 1.933963e+000 2.373189e+000 1.962104e+000 2.248372e-001 6.986166e-002 1.814885e-001 1.994631e-001 2.889600e-001 2.653209e-001 4.124570e-001 4.116375e-001 4.650160e-001 4.217959e-001 3.925141e-001 4.535310e-001 3.689688e-001 9.529924e-002
<GCONST> 1.086520e+002
<STATE> 4
<MEAN> 39
 -3.802166e+000 -1.848219e+001 -2.402661e+000 -1.172732e+001 -2.294969e+000 -2.742833e+000 -1.453473e+000 -2.174789e+000 -8.051402e+000 -8.386341e+000 -6.087265e+000 -7.058622e+000 7.745358e+001 2.633375e-001 3.810550e-001 2.833809e-001 -8.589206e-003 -1.950471e-001 -2.820099e-001 -2.135307e-002 1.861110e-001 2.023916e-001 2.534303e-001 -1.077505e-001 -8.612035e-002 -4.058554e-001 9.853941e-002 2.918726e-001 9.124104e-002 -1.010676e-002 -1.145537e-001 -1.034084e-001 -9.959365e-002 -2.009968e-002 7.319850e-002 1.136490e-001 -2.318130e-002 1.676153e-002 -2.275218e-001
<VARIANCE> 39
 2.033024e+001 4.387862e+001 6.493376e+001 7.346274e+001 7.945271e+001 6.081440e+001 6.464517e+001 8.803246e+001 7.205857e+001 4.777301e+001 4.587159e+001 4.264350e+001 1.542400e+001 3.225546e-001 9.612842e-001 7.943770e-001 1.022949e+000 1.346436e+000 1.308123e+000 1.265470e+000 1.414778e+000 1.263462e+000 1.384567e+000 1.365417e+000 1.195465e+000 3.380976e-001 4.562917e-002 1.328119e-001 1.192448e-001 2.016584e-001 1.757344e-001 1.903139e-001 2.225844e-001 2.675453e-001 2.083047e-001 2.251262e-001 2.149925e-001 1.845718e-001 9.510373e-002
<GCONST> 9.857181e+001
<TRANSP> 5
 0.000000e+000 1.000000e+000 0.000000e+000 0.000000e+000 0.000000e+000
 0.000000e+000 4.165899e-001 5.834101e-001 0.000000e+000 0.000000e+000
 0.000000e+000 0.000000e+000 5.526711e-001 4.473290e-001 0.000000e+000
 0.000000e+000 0.000000e+000 0.000000e+000 8.478031e-001 1.521969e-001
 0.000000e+000 0.000000e+000 0.000000e+000 0.000000e+000 0.000000e+000
<ENDHMM>
~h "ai"
<BEGINHMM>
<NUMSTATES> 5
<STATE> 2
<MEAN> 39
