BIGRAM: method Katz, cutoff 0
  coef[7]: 0.466212 0.585445 0.750054 0.757715 0.791342 0.818157 0.918448

\data\
ngram 1=12018
ngram 2~250612

\1-grams:
-4.9242	!	-0.5138
-6.0382	#chucksfirst	-0.2722
-6.0382	#fashionistavn	-0.2725
-6.0382	#gongchamilktea	-0.2726
-6.0382	#mangomatcha	-0.2714
-6.0382	#mangomilktea	-0.2726
-6.0382	#matcha	-0.2726
-6.0382	#ootd	-0.2722
-6.0382	#startfromthebottom	-0.2516
-5.5610	#timnguoilac	-0.2509
-4.2673	*	-0.3288
-6.0382	*haxy	-0.2725
-6.0382	*tasi	-0.2714
-4.6402	+	-0.3459
-5.3392	;	-0.2665
-1.3256	</s>	-0.2726
-99.9900	<s>	-0.5557
-6.0382	[nhawsn	-0.2726
-6.0382	[official	-0.2726
-4.2388	a	-0.4609
-4.9590	aafm	-0.6017
-6.0382	aafu	-0.2726
-6.0382	aajm	-0.2726
-4.7371	aajp	-0.7902
-3.5080	aam	-0.9453
-6.0382	aam…	-0.2726
-4.3222	aan	-0.3662
-3.9663	aarm	-0.6798
-4.0697	aarn	-0.5041
-6.0382	aarn!	-0.2725
-6.0382	aarons	-0.2719
-5.3392	aaru	-0.4383
-4.0650	aasm	-0.5842
-3.5567	aasn	-1.1114
-4.6957	aasp	-0.5456
-4.9968	aasu	-0.3547
-3.1631	aasy	-0.4925
-3.8738	aau	-0.4269
-6.0382	aau’	-0.2516
-6.0382	aau…	-0.2516
-5.7371	aay	-0.3822
-6.0382	aám	-0.2726
-5.7371	aán	-0.3824
-5.5610	aáy	-0.2669
-6.0382	abba	-0.2516
-6.0382	abbank	-0.2694
-5.7371	abbas	-0.2696
-5.5610	abbott	-0.3426
-5.4361	abc	-0.3208
-6.0382	abdelwahid	-0.2703
-6.0382	abdrazakov	-0.2675
-6.0382	abdullah	-0.2516
-4.6957	abe	-0.3969
-6.0382	abenomics	-0.2516
-5.5610	aber	-0.2497
-5.1931	aberdeen	-0.3588
-5.7371	abigail	-0.2726
-6.0382	abijeet	-0.2726
-6.0382	about	-0.2726
-5.7371	above	-0.3614
-6.0382	abrsm	-0.2722
-5.5610	abs	-0.2719
-4.6764	academic	-1.0820
-5.7371	academy	-0.2512
-6.0382	acapella	-0.2726
-5.7371	acb	-0.2682
-6.0382	accent	-0.2720
-5.7371	accor	-0.2516
-6.0382	accord	-0.2675
-5.5610	acecook	-0.6015
-5.5610	achilles	-0.2504
-5.2600	acid	-0.2478
-6.0382	acorn	-0.2726
-5.5610	acoustic	-0.2675
-5.4361	adam	-0.2679
-5.7371	adams	-0.3614
-6.0382	adapter	-0.2516
-5.5610	adb	-0.2482
-6.0382	add	-0.2726
-6.0382	addy	-0.2703
-6.0382	ademir	-0.2694
-5.2600	adidas	-0.2658
-5.7371	adipower	-0.2690
-5.5610	admin	-0.2724
-6.0382	admm+	-0.2726
-4.9590	adn	-0.3611
-5.7371	adolf	-0.3824
-6.0382	adrian	-0.2716
-6.0382	adriana	-0.2726
-5.5610	adrift	-0.2678
-5.7371	aegis	-0.2725
-5.7371	aeon	-0.3824
-4.5197	af	-0.4270
-6.0382	af!	-0.2516
-5.0839	affleck	-0.3422
-4.4047	afo	-0.3397
-4.9590	afp	-0.4062
-5.7371	after	-0.3824
-5.7371	ag	-0.2664
-6.0382	again!	-0.2726
-6.0382	agency	-0.2711
-6.0382	agenesis	-0.2516
-6.0382	agnew	-0.2516
-6.0382	agoda	-0.2726
-6.0382	agribank	-0.2719
-6.0382	agrico	-0.2726
-5.7371	agt	-0.2508
-6.0382	aguero	-0.2516
-6.0382	ah	-0.2712
-5.7371	ahn	-0.2516
-3.0351	ai	-0.6844
-5.1931	aida	-1.0886
-5.1931	aids	-0.3061
-5.2600	aiko	-0.3008
-5.5610	aine	-0.2478
-4.9590	air	-0.3414
-6.0382	aira	-0.2724
-6.0382	airasia	-0.2699
-6.0382	airbnb	-0.2718
-6.0382	airline	-0.2703
-4.5468	airlines	-0.4120
-5.4361	airways	-0.3156
-4.5758	aj	-0.7235
-5.5610	aj!	-0.2498
-5.3392	ajch	-0.2508
-4.9242	ajt	-0.2905
-6.0382	akamai	-0.2726
-4.9968	akhmat	-0.2726
-6.0382	akinfeev	-0.2516
-5.0382	akira	-0.6236
-5.5610	akito	-0.2663
-6.0382	akram	-0.2726
-6.0382	akutagawa	-0.2726
-6.0382	akutsu	-0.2722
-6.0382	al	-0.2726
-6.0382	alamos	-0.2711
-5.5610	alan	-0.3427
-6.0382	alatas	-0.2680
-5.5610	albina	-0.3427
-5.7371	albright	-0.2505
-4.6232	album	-0.3971
-6.0382	aldean	-0.2726
-6.0382	alegre	-0.2715
-6.0382	aleksander	-0.2726
-5.4361	aleksandr	-0.6157
-6.0382	alessandra	-0.2726
-4.6068	alex	-0.5465
-6.0382	alexa	-0.2703
-5.5610	alexander	-0.2726
-6.0382	alexandr	-0.2726
-6.0382	alexandria	-0.2719
-6.0382	alexandrovsky	-0.2725
-6.0382	alexey	-0.2726
-6.0382	alferova	-0.2516
-5.4361	ali	-0.2690
-6.0382	alice	-0.2725
-5.7371	aliens	-0.2505
-5.7371	alina	-0.3824
-4.9968	alisson	-0.2717
-5.1931	all	-0.4014
-6.0382	allan	-0.2726
-5.7371	allardyce	-0.2683
-6.0382	allegri	-0.2720
-6.0382	allure	-0.2725
-5.7371	alo	-0.3824
-6.0382	alone	-0.2694
-6.0382	alpha	-0.2708
-5.7371	alphard	-0.3818
-6.0382	alps	-0.2516
-6.0382	alves	-0.2708
-6.0382	alyssa	-0.2718
-6.0382	alzheimer	-0.2516
-4.8621	am	-1.1474
-6.0382	amanda	-0.2726
-6.0382	amaze	-0.2719
-5.2600	amazon	-0.4502
-6.0382	ambassadeurs	-0.2726
-6.0382	ambrosio	-0.2726
-5.5610	america	-0.3425
-5.7371	american	-0.2726
-6.0382	amidan	-0.2678
-5.7371	amin	-0.2723
-6.0382	amino	-0.2726
-6.0382	amoni	-0.2726
-6.0382	amsterdam	-0.2516
-2.8126	an	-0.9403
-5.7371	an;	-0.2720
-5.4361	ana	-0.2692
-6.0382	anct	-0.2726
-4.9242	and	-0.3837
-5.4361	andaman	-0.6105
-5.1931	anderson	-0.3714
-6.0382	andiez	-0.2719
-5.5610	andre	-0.3427
-5.2600	andrea	-0.3357
-5.7371	andrei	-0.2726
-6.0382	andres	-0.2726
-5.4361	andrew	-0.3230
-5.4361	androgen	-0.2503
-5.0382	android	-0.3031
-6.0382	anelka	-0.2721
-5.4361	anfield	-0.2702
-6.0382	ang	-0.2516
-5.2600	angela	-0.6021
-5.3392	angeles	-0.3355
-5.7371	angelina	-0.3824
-5.7371	angels	-0.3773
-6.0382	angry	-0.2726
-2.6143	anh	-0.5379
-6.0382	anh’	-0.2516
-6.0382	anh…	-0.2516
-5.4361	anime	-0.2483
-6.0382	animoji	-0.2714
-6.0382	ankle	-0.2726
-6.0382	ann	-0.2726
-5.5610	anna	-0.2711
-6.0382	annabelle	-0.2516
-6.0382	anne	-0.2726
-6.0382	another	-0.2726
-4.8920	anthony	-0.7061
-6.0382	anti	-0.2714
-5.3392	antoine	-0.6806
-5.7371	antonio	-0.2726
-6.0382	anwar	-0.2726
-6.0382	anzhelika	-0.2726
-4.6764	ao	-0.7718
-5.5610	aoa	-0.2462
-5.7371	ap	-0.2704
-5.2600	apec	-0.2443
-5.7371	apg	-0.2700
-6.0382	aphrodite	-0.2516
-5.2600	apollo	-0.3978
-4.9968	app	-0.3800
-4.3139	apple	-0.2706
-6.0382	apply	-0.2720
-5.7371	apraksin	-0.2711
-5.5610	aqua	-0.6021
-5.3392	aquaman	-0.2433
-4.8077	ar	-0.6045
-5.0839	arab	-0.7180
-4.3569	arabia	-0.5908
-6.0382	arbat	-0.2726
-6.0382	archive	-0.2690
-6.0382	ardell	-0.2516
-5.3392	are	-0.4395
-6.0382	area	-0.2516
-4.7594	arena	-0.6333
-6.0382	arf	-0.2726
-4.4047	argentina	-0.7633
-6.0382	arginine	-0.2725
-4.8920	arissa	-0.2944
-5.7371	arizona	-0.2656
-6.0382	arjen	-0.2726
-6.0382	arkady	-0.2726
-6.0382	arleigh	-0.2726
-5.5610	arm	-0.6021
-6.0382	armenia	-0.2693
-5.2600	armin	-0.7403
-2.9002	arnh	-0.5078
-4.1461	aro	-0.4803
-5.3392	arraajp	-0.6806
-6.0382	arrigo	-0.2726
-4.3947	arsenal	-0.4883
-5.1351	arsene	-0.2726
-5.7371	arshavin	-0.2724
-5.5610	art	-0.3202
-5.7371	artem	-0.3824
-6.0382	arteta	-0.2690
-6.0382	arthur	-0.2726
-5.7371	artist	-0.3824
-6.0382	arts	-0.2726
-5.7371	artwork	-0.3811
-6.0382	arun	-0.2726
-6.0382	arv	-0.2703
-3.7976	as	-0.5335
-6.0382	as;	-0.2715
-4.2528	asc	-0.6723
-5.1931	asch	-1.0885
-6.0382	ascountic	-0.2726
-4.5910	asean	-0.3462
-6.0382	asem	-0.2675
-5.7371	ashley	-0.2726
-4.2823	asi	-0.3546
-6.0382	asia	-0.2721
-5.7371	asiad	-0.2699
-5.3392	asian	-0.5220
-4.2253	asm	-0.9230
-3.0011	asn	-0.4467
-5.5610	asn;	-0.3423
-5.3392	asng	-0.3062
-3.6084	asnh	-0.7430
-6.0382	asn…	-0.2726
-3.3670	aso	-0.5047
-3.4027	asp	-1.0330
-6.0382	aspas	-0.2675
-6.0382	aspirin	-0.2726
-6.0382	assam	-0.2723
-4.9590	ast	-0.2584
-5.5610	aston	-0.6021
-5.5610	asxh	-0.2705
-6.0382	asy	-0.2726
-5.5610	at	-0.2726
-6.0382	atadi	-0.2703
-6.0382	atari	-0.2716
-5.5610	atgt	-0.2497
-6.0382	athens	-0.2516
-5.7371	atiso	-0.2701
-6.0382	atlanna	-0.2675
-4.9590	atletico	-0.5207
-4.9242	atm	-0.2615
-6.0382	attrage	-0.2722
-5.5610	atv	-0.2660
-6.0382	atv…	-0.2516
-6.0382	atwater	-0.2726
-5.4361	au	-0.2693
-5.3392	auckland	-0.2883
-5.1931	audi	-0.2948
-6.0382	audition	-0.2693
-6.0382	audubon	-0.2712
-5.5610	augur	-0.2669
-6.0382	austin	-0.2722
-5.7371	australia	-0.2710
-5.5610	auto	-0.2726
-6.0382	autralia	-0.2724
-6.0382	avante	-0.2516
-5.1931	avatar	-0.2424
-5.7371	aveiro	-0.3776
-5.5610	aventador	-0.3375
-6.0382	avenue	-0.2680
-6.0382	avg	-0.2516
-5.0382	avicii	-0.3164
-6.0382	aviva	-0.2720
-6.0382	aw	-0.2717
-6.0382	award	-0.2516
-6.0382	awards	-0.2712
-6.0382	awfng	-0.2726
-6.0382	awjc	-0.2516
-5.4361	awm	-0.4926
-2.9146	awn	-0.5409
-6.0382	awsc	-0.2723
-6.0382	awscquy	-0.2719
-5.4361	awsng	-0.2479
-5.0382	awsp	-0.3195
-5.2600	awst	-0.3357
-5.5610	awxm	-0.2725
-5.5610	ax	-0.2413
-5.4361	axelle	-0.6157
-5.1351	axit	-0.2490
-6.0382	ayun	-0.2516
-4.7371	az	-0.8121
-6.0382	azores	-0.2726
-5.4361	á	-0.4936
-4.8621	án	-0.3283
-5.2600	áo	-0.2724
-5.3392	áp	-0.4395
-4.7829	ảnh	-0.3114
-4.4149	b	-0.4730
-3.1562	ba	-0.5779
-5.0382	baafm	-0.3715
-5.0382	baafn	-0.6616
-3.7829	baafu	-0.7365
-5.3392	baafy	-0.2715
-4.0047	baajc	-0.7183
-4.3139	baajn	-0.6482
-5.7371	baajp	-0.2726
-3.8423	baajt	-0.5443
-5.4361	baajy	-0.3186
-5.3392	baang	-0.5006
-5.3392	baarm	-0.5200
-4.4047	baarn	-0.3164
-5.4361	baary	-0.3229
-5.0839	baasc	-0.2882
-4.4047	baasm	-0.4731
-5.7371	baasn	-0.2718
-5.0382	baasp	-1.2725
-2.9375	baast	-1.6138
-6.0382	baasu	-0.2726
-4.4361	baasy	-0.3924
-5.5610	baau	-0.3424
-5.7371	baaxng	-0.2669
-4.9968	baaxy	-0.2581
-3.8313	baay	-2.0018
-6.0382	baám	-0.2726
-4.9968	baát	-0.4555
-5.7371	baạc	-0.3824
-5.7371	babchenko	-0.2673
-4.7160	baby	-0.2894
-5.7371	back	-0.2725
-6.0382	background	-0.2678
-5.7371	backpage	-0.3614
-6.0382	bad	-0.2726
-6.0382	baekhyun	-0.2726
-3.0782	baf	-0.4644
-6.0382	baf;	-0.2723
-3.3247	bafi	-0.8471
-3.2688	bafn	-0.6867
-6.0382	bafn;	-0.2720
-4.6957	bafng	-0.6529
-5.5610	bafng’	-0.6006
-5.3392	bafnh	-0.3129
-4.0987	bafo	-0.4900
-6.0382	bafo;	-0.2719
-5.3392	bafu	-0.2714
-3.4892	bafy	-1.0045
-5.3392	bag	-0.2656
-6.0382	baggy	-0.2720
-6.0382	baguette	-0.2708
-6.0382	bahamas	-0.2516
-6.0382	bahbir	-0.2680
-6.0382	bahru	-0.2726
-3.7781	bai	-1.5656
-6.0382	baird	-0.2694
-5.4361	baj	-0.3204
-3.8535	bajc	-0.4564
-6.0382	bajc!	-0.2726
-3.8768	bajch	-0.5045
-6.0382	bajch;	-0.2725
-3.9111	baji	-0.4554
-5.5610	baji!	-0.3216
-6.0382	baji’’	-0.2693
-2.5720	bajn	-0.7107
-5.5610	bajn!	-0.5811
-6.0382	bajnh	-0.2675
-4.1297	bajo	-0.7555
-4.6957	bajt	-0.3119
-5.7371	baker	-0.2687
-6.0382	bakery	-0.2723
-5.5610	baking	-0.6022
-5.7371	balakrishnan	-0.3822
-6.0382	balanga	-0.2678
-6.0382	baldwin	-0.2516
-5.3392	bale	-0.4995
-4.8341	bali	-0.3786
-5.5610	ball	-0.2442
-4.7594	ballad	-0.2385
-6.0382	ballet	-0.2718
-5.3392	balo	-0.4994
-5.4361	baloo	-0.2666
-6.0382	balotelli	-0.2720
-5.4361	bamboo	-0.6157
-3.0902	ban	-1.1671
-6.0382	band	-0.2516
-4.1689	bang	-0.3238
-5.7371	bangalore	-0.2700
-4.9968	bangkok	-0.3111
-5.3392	bangladesh	-0.4150
-5.3392	banh	-0.4167
-5.1351	bank	-0.2875
-5.7371	banks	-0.2660
-5.7371	banner	-0.2708
-6.0382	banxehoi	-0.2516
-3.1389	bao	-1.0428
-4.7829	bar	-0.3323
-5.0839	barack	-0.2726
-4.6764	barca	-0.5233
-5.4361	barcelona	-0.5947
-4.9242	barie	-0.3857
-6.0382	barie;	-0.2723
-2.9173	barn	-0.5883
-5.5610	barn;	-0.2686
-6.0382	barnes	-0.2724
-3.4843	barng	-0.9909
-5.1351	barnh	-0.4800
-5.7371	barnnhaajt	-0.3824
-5.7371	barnthees	-0.3820
-6.0382	barn…	-0.2516
-2.9111	baro	-0.8594
-6.0382	baro…	-0.2723
-5.5610	barrow	-0.6022
-6.0382	bartender	-0.2724
-5.7371	bartomeu	-0.2706
-6.0382	barung	-0.2726
-3.6182	bary	-1.1181
-4.2458	bas	-0.3451
-6.0382	bas!	-0.2712
-3.5105	basc	-0.8687
-4.3392	basch	-0.5996
-6.0382	basedow	-0.2720
-4.9590	basi	-0.4252
-6.0382	basil	-0.2725
-4.1631	basm	-0.5410
-3.1539	basn	-0.5495
-5.5610	basng	-0.2721
-3.5250	basnh	-0.5796
-3.0559	baso	-0.5684
-6.0382	bass	-0.2693
-4.2528	bast	-0.4907
-4.8621	basu	-0.3114
-5.3392	batam	-0.3365
-5.0382	batman	-0.2616
-6.0382	batmobile	-0.2680
-5.7371	bauerle	-0.3788
-5.5610	bauza	-0.6008
-6.0382	bawfm	-0.2516
-2.9663	bawfng	-0.4887
-5.0839	bawjm	-0.2374
-5.4361	bawjt	-0.3005
-6.0382	bawled	-0.2726
-5.5610	bawm	-0.2726
-4.4149	bawn	-0.2726
-3.9111	bawng	-0.5485
-5.7371	bawngroon	-0.2718
-6.0382	bawrng	-0.2719
-3.5080	bawsc	-0.7159
-4.3480	bawsn	-0.3959
-5.5610	bawsng	-0.2715
-4.4584	bawsp	-0.3523
-3.1625	bawst	-0.8887
-6.0382	bawxm	-0.2726
-5.5610	bawxng	-0.3379
-4.9968	baẁng	-0.3614
-6.0382	baẃc	-0.2726
-5.7371	baẃt	-0.2726
-4.7594	bax	-0.3192
-3.9554	baxi	-0.5687
-6.0382	baxi…	-0.2713
-4.1088	baxo	-0.4422
-3.3230	bay	-0.4883
-6.0382	bayer	-0.2693
-5.3392	bayern	-0.5006
-6.0382	baynhe	-0.2726
-6.0382	bayona	-0.2715
-6.0382	baytrung	-0.2726
-5.5610	bà	-0.2726
-4.9242	bài	-0.3426
-5.4361	bàn	-0.2516
-6.0382	bày	-0.2726
-5.7371	bá	-0.2726
-5.5610	bác	-0.3427
-6.0382	bán	-0.2726
-5.7371	báo	-0.2726
-6.0382	báu	-0.2726
-6.0382	bã	-0.2726
-6.0382	bãi	-0.2726
-6.0382	bão	-0.2726
-4.6580	bản	-0.6730
-5.5610	bảng	-0.3426
-6.0382	bảnh	-0.2723
-4.9242	bảo	-0.3677
-6.0382	bạc	-0.2725
-4.5758	bạn	-0.3956
-6.0382	bạo	-0.2726
-6.0382	ba…	-0.2723
-6.0382	bb	-0.2724
-5.7371	bbc	-0.2713
-6.0382	bchqs	-0.2678
-5.4361	bcsdd	-0.3822
-5.0839	bdd	-0.3820
-6.0382	bddbp	-0.2726
-4.6402	bdds	-0.2464
-5.1351	be	-0.3666
-5.3392	beach	-0.5220
-5.2600	beat	-0.5230
-6.0382	beatles	-0.2516
-4.9590	beauty	-1.0273
-6.0382	because	-0.2725
-5.5610	beckham	-0.3423
-5.4361	bedchill	-0.2457
-5.7371	bedugul	-0.2663
-4.1351	bee	-0.5806
-4.2121	beef	-0.7707
-4.0469	beefn	-0.8524
-5.0382	beefnh	-0.2459
-6.0382	beefu	-0.2714
-4.8621	beej	-0.7880
-5.7371	beejch	-0.2711
-5.7371	beejn	-0.2670
-2.8859	beejnh	-0.7741
-6.0382	beejnh;	-0.2723
-5.0382	beejt	-0.3363
-6.0382	beeju	-0.2723
-3.0253	been	-0.7787
-6.0382	been;	-0.2706
-4.6068	beenh	-0.4269
-4.1993	beer	-0.7484
-4.4471	bees	-0.8081
-4.2057	beesn	-0.5742
-4.0514	beesp	-0.3367
-5.1351	beest	-0.4834
-6.0382	beetle	-0.2516
-5.7371	beetoong	-0.2720
-5.4361	beeu	-0.3224
-6.0382	beèn	-0.2726
-5.7371	beép	-0.3824
-5.3392	beẹnh	-0.3128
-5.7371	bee’	-0.3614
-3.8768	bef	-0.4527
-6.0382	bef!	-0.2516
-4.9242	befn	-0.2836
-5.0839	befo	-0.2716
-6.0382	befo…	-0.2516
-5.7371	beige	-0.2726
-5.7371	bej	-0.2515
-5.4361	bejaratana	-0.2491
-6.0382	bejo	-0.2726
-4.9590	bejp	-0.4963
-6.0382	bejt	-0.2725
-6.0382	belem	-0.2726
-5.4361	bell	-0.2477
-4.9968	bella	-0.6477
-4.9968	bellati	-0.2675
-6.0382	bellelook	-0.2712
-6.0382	bellemar	-0.2713
-6.0382	belmond	-0.2726
-6.0382	belo	-0.2726
-6.0382	belorechenskaya	-0.2675
-6.0382	belt	-0.2726
-6.0382	bely	-0.2516
-4.1748	ben	-0.4718
-5.5610	beng	-0.2510
-6.0382	bengal	-0.2725
-5.7371	benjamin	-0.3824
-6.0382	bennett	-0.2724
-5.3392	bently	-0.6595
-5.4361	bentota	-0.2439
-5.5610	beo	-0.6021
-4.9242	ber	-0.4191
-6.0382	bergkamp	-0.2703
-6.0382	berks	-0.2516
-6.0382	berlin	-0.2726
-5.2600	bermuda	-0.2675
-5.0839	bernabeu	-0.4261
-5.7371	bernard	-0.3824
-6.0382	bernardo	-0.2726
-5.5610	bert	-0.6021
-3.3264	bes	-0.4297
-4.9590	besn	-0.3152
-6.0382	besng	-0.2719
-4.1351	beso	-0.5333
-6.0382	bespoke	-0.2726
-5.0839	best	-0.4212
-6.0382	bes…ddeefu	-0.2711
-5.7371	beta	-0.2641
-5.5610	bettie	-0.2481
-5.7371	bex	-0.3819
-5.7371	bexn	-0.3824
-6.0382	beyond	-0.2703
-5.5610	bè	-0.3426
-5.5610	bé	-0.2509
-6.0382	bgt	-0.2726
-5.5610	bh	-0.6020
-6.0382	bha	-0.2721
-6.0382	bhnt	-0.2721
-5.7371	bhtn	-0.2704
-6.0382	bhutan	-0.2516
-3.7285	bhxh	-0.5195
-5.5610	bhxh;	-0.2721
-3.7180	bhyt	-0.5126
-5.5610	bhyt;	-0.2708
-4.2600	bi	-0.6402
-3.9111	bia	-0.4333
-6.0382	bic	-0.2675
-6.0382	bicks	-0.2678
-6.0382	bid	-0.2675
-4.6580	bidv	-0.3761
-5.7371	bidv;	-0.3823
-5.1931	bieber	-0.2980
-6.0382	biebersao	-0.2726
-6.0382	bieefn	-0.2725
-3.7243	bieejn	-1.1359
-3.0734	bieejt	-0.5962
-3.7017	bieen	-0.9999
-6.0382	bieeng	-0.2726
-3.3018	bieern	-0.4914
-6.0382	bieern;	-0.2725
-3.2884	bieeru	-0.7620
-5.1351	bieesc	-0.2927
-5.1351	bieesm	-0.2474
-3.2213	bieesn	-0.5601
-4.9242	bieesng	-0.3691
-2.7748	bieest	-0.5174
-5.2600	bieesu	-0.2803
-5.5610	bieén	-0.2714
-4.9968	bieét	-0.3090
-4.9590	bieẻn	-0.8525
-5.3392	bieẻu	-0.2690
-5.0382	bieẹn	-0.2726
-5.5610	bieẹt	-0.2687
-5.7371	biel	-0.3824
-4.5330	bif	-0.3308
-4.8920	bifa	-0.2694
-5.7371	bifidobacterium	-0.3810
-2.9752	bifnh	-0.8541
-5.7371	bifnh;	-0.2725
-5.4361	bifu	-0.4723
-5.0839	big	-0.5643
-6.0382	bigc	-0.2720
-4.6068	bigo	-0.7327
-2.5363	bij	-0.4783
-6.0382	bij;	-0.2725
-5.0382	bija	-1.2708
-5.1931	bijch	-0.3011
-5.5610	bijn	-0.6022
-4.9590	bijt	-0.3932
-6.0382	biju	-0.2699
-6.0382	bike	-0.2516
-5.7371	biker	-0.3824
-5.1351	bikini	-0.3170
-6.0382	bild	-0.2675
-5.1931	bill	-0.5206
-5.5610	billboard	-0.2698
-6.0382	billy	-0.2726
-5.7371	bilton	-0.3778
-5.7371	bin	-0.2726
-4.1351	binh	-0.3758
-6.0382	binh…	-0.2678
-6.0382	biolac	-0.2726
-4.5758	bir	-0.2979
-6.0382	birds	-0.2516
-5.5610	birkin	-0.5970
-5.7371	birm	-0.3823
-6.0382	birmingham	-0.2726
-6.0382	birnh	-0.2516
-5.4361	biru	-0.3225
-3.6598	bis	-1.1590
-4.3139	bisch	-0.9222
-5.3392	bisnh	-0.3367
-5.4361	bist	-0.2511
-6.0382	bisu	-0.2726
-6.0382	bisuko	-0.2721
-6.0382	bis…	-0.2675
-5.2600	bitcoin	-0.2938
-6.0382	bitexco	-0.2516
-5.7371	bitmoji	-0.2680
-6.0382	bittersweet	-0.2726
-4.9968	bixnh	-0.3843
-5.7371	bixu	-0.2709
-6.0382	bìa	-0.2726
-5.0839	bình	-0.3394
-6.0382	bí	-0.2726
-6.0382	bỉ	-0.2516
-4.8077	bị	-0.2771
-5.0382	black	-0.2665
-6.0382	blackburn	-0.2716
-6.0382	blanchett	-0.2719
-5.1931	blazer	-0.2616
-6.0382	bleacher	-0.2726
-6.0382	bless	-0.2726
-6.0382	blhs	-0.2715
-5.7371	blin	-0.2663
-6.0382	blini	-0.2675
-6.0382	blinicos	-0.2721
-5.7371	blink	-0.2726
-4.7594	blockchain	-0.3383
-6.0382	blockchain;	-0.2725
-5.7371	blog	-0.3809
-6.0382	blog;	-0.2516
-4.9968	blogger	-0.2783
-6.0382	blokhin	-0.2726
-5.4361	bloomberg	-0.2513
-5.7371	blotted	-0.3824
-6.0382	blouse	-0.2725
-5.7371	blouser	-0.3791
-4.9968	blue	-0.3596
-5.7371	blues	-0.2675
-6.0382	bluestone	-0.2711
-6.0382	bluetooth	-0.2712
-6.0382	blum	-0.2516
-6.0382	blumhouse	-0.2516
-5.5610	blv	-0.6021
-6.0382	bmd	-0.2723
-4.7371	bmw	-0.3189
-5.0382	bo	-0.3499
-6.0382	boa	-0.2516
-5.1931	boateng	-0.2990
-5.3392	bob	-0.3104
-6.0382	bobbi	-0.2726
-6.0382	bobby	-0.2726
-6.0382	bocharova	-0.2516
-5.7371	bodagh	-0.2516
-5.1351	body	-0.5689
-4.1808	bof	-0.3102
-5.7371	bogota	-0.2654
-4.8621	boj	-0.7483
-4.4149	bojc	-0.3031
-4.2528	bojn	-0.5105
-5.5610	bojng	-0.3424
-5.4361	bojp	-0.4723
-4.5468	bojt	-0.3227
-6.0382	bokeh	-0.2726
-6.0382	boldachev	-0.2516
-5.1931	bolero	-0.3228
-6.0382	bolt	-0.2516
-5.0382	bolton	-0.2545
-4.1631	bom	-0.3544
-5.7371	bomber	-0.2675
-5.0382	bon	-0.4629
-5.5610	bond	-0.2687
-6.0382	bone	-0.2708
-4.8621	bong	-0.8489
-5.7371	bonnert	-0.2711
-4.5330	bonnie	-0.4756
-6.0382	boobie	-0.2516
-3.8313	boof	-0.9992
-4.1517	boofi	-1.0967
-4.5067	boofn	-0.3787
-4.7160	boofng	-0.4122
-4.5330	booi	-0.4601
-2.6660	booj	-0.7463
-4.6402	boojc	-1.0216
-4.4361	booji	-0.3768
-5.0382	boojn	-0.4739
-6.0382	boojng	-0.2703
-4.1808	boojt	-0.3847
-6.0382	booj…	-0.2516
-5.4361	book	-0.4899
-5.3392	booking	-0.2904
-6.0382	boom	-0.2726
-6.0382	boon	-0.2723
-4.3569	boong	-0.3812
-6.0382	boong;	-0.2726
-3.6598	boor	-1.2272
-5.5610	boorn	-0.3422
-4.7160	boorng	-0.2621
-3.2402	boos	-0.5210
-4.1351	boosc	-0.7978
-3.9663	boosi	-1.1636
-3.5029	boosn	-0.9057
-5.3392	boosng	-0.3132
-5.1931	boot	-0.2973
-6.0382	boots	-0.2719
-6.0382	boox	-0.2726
-4.2186	booxng	-0.4647
-4.8920	boó	-0.2842
-6.0382	boỏ	-0.2724
-6.0382	boỏng	-0.2693
-4.6957	boọ	-0.3334
-6.0382	boọ;	-0.2726
-3.1857	bor	-0.5810
-6.0382	borax	-0.2675
-6.0382	boris	-0.2726
-4.3222	borng	-0.3518
-5.5610	bornstein	-0.2679
-6.0382	boromir	-0.2710
-6.0382	borsch	-0.2715
-4.1631	bos	-0.5641
-4.5910	bosc	-0.3240
-5.1931	bosi	-0.3595
-4.5197	bosn	-0.5100
-2.7659	bosng	-0.9968
-4.6580	bosp	-0.3754
-5.0839	boss	-0.4141
-6.0382	bost	-0.2680
-6.0382	bostjancic	-0.2711
-5.5610	boston	-0.2704
-4.6764	bot	-0.3803
-5.7371	botanic	-0.3824
-4.9590	bourdain	-0.2740
-6.0382	bourjois	-0.2516
-4.8920	bow	-0.2717
-6.0382	bow]	-0.2516
-3.9737	bowf	-0.7198
-5.2600	bowfi	-0.2774
-6.0382	bowfm	-0.2516
-4.1139	bowi	-0.3609
-5.0839	bowj	-0.3684
-5.7371	bowjm	-0.3824
-6.0382	bowjn	-0.2726
-4.3480	bowm	-0.3487
-5.1351	bowr	-0.3779
-3.1596	bowri	-0.4911
-4.9590	bowsi	-0.3103
-4.1351	bowst	-0.2929
-4.9590	bowx	-0.2726
-5.4361	boẃt	-0.3240
-5.0839	bow̉i	-0.2946
-6.0382	box	-0.2726
-6.0382	boxing	-0.2726
-6.0382	boxit	-0.2703
-5.5610	boxm	-0.2515
-6.0382	boxng	-0.2516
-4.9968	boy	-0.2793
-6.0382	boyfriend	-0.2726
-5.5610	boygroup	-0.2707
-6.0382	boyton	-0.2721
-5.7371	bó	-0.3824
-6.0382	bóng	-0.2726
-5.1351	bỏ	-0.2499
-5.4361	bỏng	-0.3824
-5.1351	bql	-0.6153
-6.0382	brachiosaurus	-0.2516
-6.0382	brad	-0.2726
-6.0382	braden	-0.2726
-5.7371	bradshaw	-0.2500
-6.0382	brady	-0.2716
-6.0382	brahmaputra	-0.2726
-6.0382	brahmos	-0.2724
-6.0382	bralette	-0.2726
-6.0382	bram	-0.2516
-6.0382	branch	-0.2516
-5.3392	brand	-0.2715
-6.0382	brandt	-0.2679
-6.0382	brar	-0.2719
-5.4361	brasil	-0.5947
-5.7371	braun	-0.2694
-4.1244	brazil	-0.4577
-6.0382	breakfast	-0.2726
-6.0382	breda	-0.2675
-6.0382	bremner	-0.2516
-6.0382	brennan	-0.2725
-6.0382	breslin	-0.2516
-6.0382	bresline	-0.2719
-6.0382	brexit	-0.2699
-6.0382	brian	-0.2722
-6.0382	bridge	-0.2718
-5.4361	bright	-0.6157
-5.7371	brimham	-0.2726
-6.0382	brisbane	-0.2726
-5.7371	britain’s	-0.3824
-6.0382	broadway	-0.2675
-6.0382	brom	-0.2726
-5.2600	bros	-0.3781
-5.4361	brother	-0.6157
-6.0382	brown	-0.2715
-5.1351	brt	-0.3374
-5.7371	bruce	-0.3824
-5.4361	bruna	-0.6157
-6.0382	brunch	-0.2516
-6.0382	brunei	-0.2726
-6.0382	bruno	-0.2726
-6.0382	bruyen	-0.2719
-6.0382	bruyne	-0.2516
-6.0382	brzezinski	-0.2713
-4.6232	bs	-0.5340
-5.5610	bsa	-0.2701
-6.0382	bsaa	-0.2516
-5.7371	bsc	-0.2720
-6.0382	bsl	-0.2516
-5.4361	bsr	-0.2985
-5.4361	bst	-0.4883
-4.8920	bt	-0.3877
-5.3392	bta	-0.2394
-4.7594	btc	-0.3598
-4.8621	bts	-0.2783
-5.2600	btv	-0.3057
-6.0382	bt…	-0.2516
-5.5610	bu	-0.2709
-6.0382	bua	-0.2726
-5.0382	buakaw	-0.3426
-6.0382	bucharest	-0.2726
-6.0382	buchi	-0.2711
-6.0382	buck	-0.2516
-5.7371	bucket	-0.2711
-5.7371	bucky	-0.2645
-6.0382	budweiser	-0.2713
-6.0382	budwweiser	-0.2726
-4.1297	buf	-0.6133
-4.9242	bufa	-0.5493
-6.0382	buffer	-0.2703
-5.5610	buffet	-0.2652
-6.0382	buffon	-0.2725
-4.0514	bufi	-0.6622
-4.7160	bufn	-0.3628
-4.2747	bufng	-1.1356
-5.7371	bugi	-0.2721
-6.0382	buiding	-0.2726
-6.0382	buja	-0.2516
-4.8920	bujc	-0.5608
-4.2528	buji	-0.5319
-4.0469	bujng	-0.4657
-6.0382	bujng…	-0.2516
-5.5610	bujt	-0.3403
-6.0382	bull	-0.2694
-6.0382	buller	-0.2722
-6.0382	bullock	-0.2675
-5.1351	bung	-0.3222
-5.7371	buoofm	-0.2722
-3.7307	buoofn	-0.4980
-4.7160	buoofng	-0.7501
-3.7549	buoojc	-0.4765
-4.2673	buoon	-0.7766
-4.2057	buoong	-0.5942
-3.5016	buoori	-0.7594
-5.2600	buoost	-0.2996
-5.2600	buoòn	-0.3020
-4.9590	buoỏi	-0.3794
-5.4361	bura	-0.6157
-6.0382	burke	-0.2678
-6.0382	burm	-0.2680
-6.0382	burn	-0.2726
-6.0382	burning	-0.2712
-4.6957	bus	-0.3540
-4.9968	busa	-0.3133
-5.1351	bush	-0.2858
-6.0382	bushnell	-0.2703
-5.3392	busi	-0.3131
-5.4361	business	-0.4936
-4.1631	busn	-0.5085
-5.7371	busng	-0.2710
-4.6580	busp	-1.0811
-6.0382	busquets	-0.2711
-4.2528	bust	-0.4509
-5.5610	but	-0.6021
-5.2600	buuren	-0.3767
-5.5610	buvac	-0.2665
-4.7594	buwfa	-0.7183
-4.8920	buwfng	-0.2863
-5.0839	buwj	-0.2410
-4.7371	buwjc	-0.8180
-5.3392	buwng	-0.2708
-6.0382	buwowi	-0.2726
-6.0382	buwowm	-0.2516
-5.4361	buwown	-0.6157
-5.0839	buwowri	-0.2461
-6.0382	buwowri…	-0.2703
-3.4296	buwowsc	-0.7753
-5.2600	buwowsm	-0.2588
-5.5610	buwowsng	-0.2703
-4.8077	buwowsu	-0.6463
-6.0382	buwowu	-0.2711
-5.4361	buwoẃc	-0.2709
-6.0382	buwru	-0.2516
-3.5197	buwsc	-1.2209
-4.7829	buwst	-0.7655
-4.4254	buwu	-1.1415
-3.9590	buwxa	-0.7551
-6.0382	buẁng	-0.2718
-5.4361	buẃc	-0.4936
-5.7371	buw̃a	-0.3824
-6.0382	buxm	-0.2516
-4.5197	buyst	-0.3174
-5.7371	buzzfeed	-0.3822
-5.7371	búp	-0.3824
-6.0382	bụng	-0.2726
-4.3661	bv	-0.4813
-5.7371	bvddk	-0.3819
-5.7371	bvsc	-0.2681
-5.7371	bxh	-0.2694
-5.2600	by	-0.5803
-6.0382	bystand	-0.2675
-5.5610	byung	-0.6022
-4.9242	b’lu	-0.2726
-4.4819	c	-0.4906
-3.4037	ca	-0.7813
-3.7139	caafm	-0.5596
-2.8546	caafn	-0.5696
-6.0382	caafp	-0.2725
-2.7524	caafu	-0.6559
-6.0382	caafu…	-0.2708
-5.7371	caafy	-0.2725
-3.7853	caajn	-0.3975
-3.6420	caajp	-0.6050
-5.2600	caajt	-0.7399
-3.6036	caaju	-0.6475
-6.0382	caaju’	-0.2516
-4.4941	caajy	-0.4407
-6.0382	caajy;	-0.2723
-5.1931	caam	-0.3311
-3.6490	caan	-0.7898
-4.5758	caarm	-0.3346
-4.1351	caarn	-1.2279
-4.9968	caaru	-0.4884
-4.0791	caasm	-0.4424
-5.1351	caasn	-0.2709
-2.9437	caasp	-0.6223
-6.0382	caasp;	-0.2720
-6.0382	caasp…	-0.2722
-4.2747	caast	-0.4713
-4.0791	caasu	-0.5388
-5.0839	caasy	-0.2932
-3.1748	caau	-1.0285
-6.0382	caaxng	-0.2720
-3.3392	caay	-0.4510
-6.0382	caay;	-0.2723
-6.0382	caay…	-0.2516
-6.0382	caàm	-0.2726
-5.0839	caàn	-0.2724
-4.9968	caàu	-0.4378
-5.1351	caáp	-0.2968
-6.0382	caát	-0.2726
-5.4361	caản	-0.2644
-5.5610	caạn	-0.2726
-6.0382	caạp	-0.2726
-5.0839	caạu	-0.3418
-5.7371	cabello	-0.2721
-4.6764	cabin	-0.4374
-5.7371	cacao	-0.2725
-6.0382	cadillac	-0.2699
-3.7976	caf	-1.0941
-4.6764	cafe	-0.3501
-5.3392	cafes	-0.3063
-4.4471	cafi	-0.9247
-5.4361	cafn	-0.3229
-3.2521	cafng	-0.5458
-6.0382	cafng…	-0.2724
-4.8920	cafnh	-0.4153
-5.0839	cafo	-0.2639
-6.0382	cafu	-0.2726
-5.3392	cafy	-0.2509
-6.0382	cah	-0.2723
-4.5197	cai	-0.3927
-6.0382	caine	-0.2726
-6.0382	cairo	-0.2726
-5.5610	caj	-0.3426
-6.0382	cajc	-0.2516
-5.5610	cajch	-0.2666
-5.5610	cajm	-0.6021
-4.6764	cajn	-0.4073
-3.3597	cajnh	-0.6213
-4.9968	cajo	-0.3787
-4.7829	cajp	-0.6318
-6.0382	caju	-0.2516
-6.0382	cajy	-0.2725
-6.0382	cake	-0.2723
-5.2600	calcada	-0.2922
-6.0382	calcio	-0.2516
-6.0382	cali	-0.2721
-6.0382	calida	-0.2721
-4.9968	california	-0.3250
-5.1931	call	-0.4985
-5.5610	calla	-0.2446
-3.9176	cam	-0.7401
-5.4361	cambridge	-0.3016
-6.0382	camellia	-0.2679
-6.0382	cameo	-0.2715
-4.2747	camera	-0.3678
-6.0382	cameron	-0.2703
-6.0382	cameroon	-0.2699
-6.0382	camerron	-0.2690
-5.7371	camila	-0.3824
-5.7371	camp	-0.2506
-6.0382	camphuchia	-0.2679
-5.7371	campi	-0.3824
-4.8341	campuchia	-0.2719
-5.3392	camry	-0.3120
-3.8920	can	-0.7518
-4.1631	canada	-0.3822
-5.7371	canada;	-0.2516
-6.0382	canadian	-0.2726
-4.8621	cand	-0.5481
-6.0382	candace	-0.2726
-5.7371	candelaria	-0.3822
-6.0382	candice	-0.2726
-4.9242	cang	-0.6183
-4.2747	canh	-0.3796
-6.0382	cannes	-0.2680
-5.7371	canoo	-0.2680
-5.7371	cantona	-0.2508
-5.3392	canxi	-0.2858
-2.8777	cao	-0.6425
-5.5610	cao;	-0.2723
-6.0382	cao…	-0.2720
-5.5610	cape	-0.2724
-4.8920	capella	-0.3867
-6.0382	capello	-0.2726
-5.7371	capital	-0.2724
-6.0382	capitol	-0.2516
-5.4361	capo	-0.2682
-5.7371	capoo	-0.2675
-5.5610	captain	-0.3427
-6.0382	caption	-0.2726
-2.6870	car	-0.4990
-5.7371	car!	-0.2502
-6.0382	caracas	-0.2516
-5.5610	caramen	-0.2696
-5.7371	carbon	-0.2722
-6.0382	carcela	-0.2722
-5.3392	cardi	-0.6805
-6.0382	cardiology	-0.2723
-3.6232	cari	-1.3061
-5.0382	carl	-0.6631
-6.0382	carla	-0.2726
-5.7371	carlos	-0.2726
-6.0382	carlsberg	-0.2516
-6.0382	carlton	-0.2516
-2.9313	carm	-1.0039
-6.0382	carm!	-0.2516
-4.0888	carn	-0.4240
-4.4149	carng	-0.3795
-3.0962	carnh	-0.5119
-6.0382	carnh;	-0.2726
-4.6764	caro	-0.5321
-5.0839	carolina	-0.2599
-6.0382	carotenoids	-0.2724
-5.7371	carpenter	-0.2642
-6.0382	carplay	-0.2726
-5.2600	carrie	-0.4528
-4.8920	carter	-0.3371
-6.0382	carton	-0.2726
-6.0382	cartoon	-0.2726
-5.7371	carvajal	-0.2679
-5.4361	carvalho	-0.3234
-6.0382	cary	-0.2710
-5.7371	car’	-0.2468
-3.2273	cas	-0.7952
-6.0382	casa	-0.2726
-2.1223	casc	-1.1079
-2.7235	casch	-0.5190
-6.0382	case	-0.2726
-4.9590	casemiro	-1.3518
-3.0321	casi	-0.5135
-5.3392	casillas	-0.3030
-4.5610	casino	-0.5037
-6.0382	casino;	-0.2675
-4.5910	casm	-0.8552
-3.6690	casn	-1.5173
-5.4361	casng	-0.2485
-3.7617	casnh	-0.5669
-3.3679	caso	-0.4359
-6.0382	caso…	-0.2720
-4.4700	casp	-0.4357
-4.1808	cast	-0.4032
-6.0382	castelldefels	-0.2690
-5.5610	casting	-0.2692
-5.7371	castro	-0.2714
-4.9242	casu	-0.3352
-6.0382	casual	-0.2679
-5.2600	casy	-0.5021
-5.7371	cas…	-0.2514
-5.5610	catalan	-0.2501
-6.0382	catchy	-0.2680
-6.0382	cate	-0.2726
-5.7371	cation	-0.3777
-4.9590	catp	-0.4947
-5.7371	cats	-0.2694
-5.2600	catwalk	-0.2627
-5.4361	cau	-0.2672
-5.5610	cavani	-0.3216
-5.0382	cawfm	-0.2520
-5.5610	cawfn	-0.3427
-5.4361	cawjm	-0.6157
-5.1351	cawjn	-0.4456
-3.8592	cawjp	-0.7906
-5.1351	cawm	-0.3522
-3.4350	cawn	-1.3413
-3.8709	cawng	-1.0281
-5.1931	cawrng	-0.3835
-6.0382	cawsc	-0.2726
-4.5197	cawsm	-0.4110
-4.3947	cawsn	-0.3102
-4.4941	cawsp	-0.2472
-3.8207	cawst	-0.4661
-6.0382	caẃt	-0.2694
-3.9242	caxi	-0.5697
-4.2057	cay	-0.3692
-5.7371	cayetano	-0.3823
-5.0839	càng	-0.3840
-5.5610	cá	-0.6022
-4.0339	các	-0.4903
-4.8920	cách	-0.2944
-5.0839	cái	-0.2922
-5.7371	cán	-0.3824
-5.7371	cáo	-0.2699
-5.0839	cả	-0.2729
-4.7829	cảm	-0.4543
-5.5610	cảnh	-0.2723
-5.4361	cạnh	-0.3236
-6.0382	cbcnvc	-0.2723
-6.0382	cbre	-0.2720
-5.5610	cd	-0.2669
-5.7371	cdd	-0.2633
-4.3392	cddv	-0.3546
-6.0382	ceara	-0.2726
-6.0382	celeb	-0.2680
-6.0382	celebrity	-0.2726
-5.5610	celerio	-0.3418
-6.0382	cello	-0.2725
-6.0382	cellular	-0.2708
-5.7371	celtic	-0.3821
-6.0382	cenk	-0.2726
-5.2600	center	-0.2838
-6.0382	centimet	-0.2516
-6.0382	central	-0.2726
-6.0382	centre	-0.2699
-5.2600	ceo	-0.2709
-5.4361	cesc	-0.4933
-5.3392	cgv	-0.2697
-5.0839	ch	-0.7871
-3.5303	cha	-0.5727
-5.1351	chaafm	-0.6491
-5.0839	chaafn	-1.2232
-5.1931	chaafu	-0.2500
-6.0382	chaafy	-0.2694
-3.8507	chaajm	-0.5187
-4.6402	chaajp	-0.7850
-4.4584	chaajt	-0.7861
-4.9968	chaaju	-0.2818
-4.6957	chaam	-0.2996
-3.2947	chaan	-0.5048
-5.7371	chaarm	-0.2516
-4.5330	chaarn	-0.9823
-4.0007	chaasm	-0.5202
-4.0088	chaasn	-1.3918
-3.5131	chaasp	-0.8079
-3.0863	chaast	-0.6049
-6.0382	chaast!	-0.2516
-5.4361	chaasu	-0.2711
-3.5344	chaau	-0.8074
-5.2600	chaay	-0.5803
-6.0382	chaán	-0.2726
-5.3392	chaáp	-0.3581
-4.9590	chaát	-0.5644
-5.4361	chae	-0.4936
-6.0382	chaebol	-0.2703
-6.0382	chaeyeon	-0.2703
-4.9590	chaf	-0.3732
-5.0839	chafi	-0.2499
-4.7594	chafm	-0.3058
-3.6783	chafng	-0.4895
-5.5610	chafnh	-0.3427
-3.8507	chafo	-0.6045
-5.3392	chafy	-0.2857
-4.2900	chai	-0.5172
-5.7371	chailease	-0.2714
-6.0382	chainsmokers	-0.2715
-6.0382	chaismokers	-0.2516
-5.3392	chajc	-0.2489
-5.7371	chajch	-0.2725
-3.1340	chajm	-1.4660
-6.0382	chajn	-0.2726
-6.0382	chajng	-0.2726
-5.4361	chajnh	-0.6154
-5.0382	chajp	-0.3456
-3.4318	chajy	-0.6269
-6.0382	chamberlain	-0.2694
-4.4471	champions	-0.2726
-5.4361	championship	-0.3218
-5.7371	champlain	-0.3773
-6.0382	champs	-0.2726
-5.3392	chan	-0.3123
-5.5610	chanel	-0.2670
-5.1351	chang	-0.2722
-6.0382	changi	-0.2516
-5.0839	chanh	-0.2476
-5.3392	channel	-0.2466
-5.5610	chanyeol	-0.2467
-5.1931	chao	-0.5204
-4.2823	char	-0.4232
-5.7371	charelle	-0.2675
-4.9968	chari	-0.2928
-5.7371	charles	-0.2719
-5.2600	charlie	-0.4513
-5.5610	charlotte	-0.2679
-6.0382	charng	-0.2516
-4.5468	charnh	-0.3187
-4.9968	charo	-0.2822
-6.0382	charoenchai	-0.2726
-6.0382	charo…	-0.2703
-4.0129	chary	-0.5544
-5.3392	chasc	-0.2482
-5.7371	chasi	-0.3824
-4.2253	chasn	-0.5188
-4.6957	chasnh	-0.5921
-4.4584	chaso	-0.3801
-5.0839	chast	-0.2859
-3.7878	chasu	-0.3929
-3.7734	chasy	-0.5214
-6.0382	chasy!	-0.2516
-5.7371	chat	-0.2687
-5.5610	chau	-0.6021
-4.9590	chawfm	-0.5698
-6.0382	chawfn	-0.2694
-4.9968	chawfng	-0.6076
-4.0425	chawjn	-0.4004
-4.5758	chawjng	-1.4321
-5.4361	chawjp	-0.3820
-3.8450	chawjt	-0.5610
-3.5879	chawm	-1.1422
-4.5758	chawn	-0.4995
-4.2673	chawng	-0.5547
-3.2970	chawrng	-0.8873
-3.4180	chawsc	-0.7712
-6.0382	chawsm	-0.2715
-3.6299	chawsn	-0.4806
-5.0839	chawsp	-0.4223
-4.9968	chawst	-0.6230
-5.4361	chawxn	-0.2497
-6.0382	chaẃc	-0.2726
-6.0382	chaẃn	-0.2726
-6.0382	chaw̉ng	-0.2726
-6.0382	chaẉt	-0.2726
-5.5610	chax	-0.2502
-5.3392	chaxi	-0.4115
-6.0382	chaxo	-0.2516
-4.6068	chay	-0.3649
-5.7371	chàng	-0.2725
-5.5610	chào	-0.3426
-5.7371	chán	-0.2712
-6.0382	cháu	-0.2725
-6.0382	chả	-0.2726
-6.0382	chạc	-0.2726
-6.0382	chạy	-0.2726
-6.0382	chdcnd	-0.2724
-4.0559	che	-0.6382
-5.7371	chebureki	-0.2511
-5.4361	check	-0.3226
-6.0382	checklist	-0.2694
-3.7037	chee	-1.1088
-5.2600	cheef	-0.2774
-6.0382	cheefnh	-0.2726
-6.0382	cheej	-0.2722
-5.5610	cheejch	-0.3424
-6.0382	cheem	-0.2723
-4.4941	cheenh	-0.8551
-5.7371	cheernh	-0.3824
-3.1631	chees	-0.6066
-6.0382	cheesch	-0.2725
-6.0382	cheesnh	-0.2719
-3.4307	cheest	-0.5341
-6.0382	cheest!	-0.2516
-6.0382	cheest’	-0.2680
-6.0382	cheex	-0.2516
-6.0382	cheexm	-0.2726
-5.7371	cheé	-0.2726
-4.3850	chef	-0.2768
-5.0382	chefn	-0.4573
-4.8341	chefo	-0.3212
-6.0382	chejn	-0.2724
-6.0382	chejo	-0.2726
-6.0382	chejp	-0.2726
-6.0382	chejt	-0.2721
-5.0382	chelsea	-0.3432
-6.0382	chem	-0.2726
-4.7594	chen	-0.3818
-5.5610	cheng	-0.3422
-5.1351	cheo	-0.5421
-6.0382	cheol	-0.2690
-6.0382	cheong	-0.2726
-5.7371	cher	-0.2726
-4.7829	cherchesov	-0.2746
-6.0382	cherry	-0.2725
-4.9590	cheryshev	-0.4021
-5.7371	ches	-0.3614
-6.0382	cheshire	-0.2675
-4.5758	chesm	-0.4321
-3.1968	chesn	-1.9176
-4.6957	cheso	-0.3236
-4.6764	chesp	-0.3027
-5.7371	chest	-0.2725
-5.7371	chester	-0.2509
-5.4361	chevrolet	-0.2711
-6.0382	chevrolettrailblazer	-0.2720
-4.2121	chex	-0.4287
-6.0382	chexn	-0.2679
-6.0382	chép	-0.2516
-3.2846	chi	-0.9658
-3.2180	chia	-1.3082
-6.0382	chiang	-0.2725
-6.0382	chiangmai	-0.2724
-6.0382	chiba	-0.2693
-5.7371	chibi	-0.2689
-5.7371	chicago	-0.2722
-5.7371	chicharron	-0.2698
-5.4361	chieefn	-0.2973
-5.5610	chieefng	-0.2724
-3.5788	chieefu	-0.5221
-4.7371	chieem	-0.7340
-4.3850	chieen	-0.4368
-5.7371	chieen;	-0.3822
-5.4361	chieeng	-0.3027
-5.7371	chieeru	-0.2467
-2.8563	chieesc	-1.0848
-3.9111	chieesm	-0.5668
-3.2226	chieesn	-1.0697
-6.0382	chieesng	-0.2724
-6.0382	chieesp	-0.2726
-4.8920	chieest	-0.6971
-3.8052	chieesu	-0.4776
-4.3661	chieeu	-0.5843
-5.5610	chieèu	-0.2511
-5.2600	chieéc	-0.4062
-5.7371	chieém	-0.2726
-5.1351	chieén	-0.4004
-5.7371	chief	-0.2714
-5.1351	chif	-0.2921
-4.8621	chifa	-1.2571
-4.2600	chifm	-0.6247
-6.0382	chifu	-0.2716
-5.7371	chihiro	-0.2696
-6.0382	chihuahua	-0.2716
-3.1974	chij	-0.4422
-5.1351	chijt	-0.2662
-2.9430	chiju	-1.0741
-5.4361	chikungunya	-0.6148
-5.5610	chile	-0.2683
-6.0382	chilee	-0.2516
-6.0382	chili	-0.2719
-4.3222	chim	-0.3069
-5.3392	china	-0.5207
-6.0382	chingford	-0.2516
-4.1139	chinh	-0.6814
-6.0382	chinicuiles	-0.2726
-6.0382	chip	-0.2724
-2.5943	chir	-0.6660
-6.0382	chiringuito	-0.2726
-4.6068	chirn	-1.7040
-3.7017	chirnh	-0.3788
-6.0382	chirnh;	-0.2724
-3.2031	chis	-0.3820
-4.8621	chisch	-0.4308
-6.0382	chism	-0.2712
-3.6020	chisn	-1.0219
-2.5207	chisnh	-1.0141
-6.0382	chisnh;	-0.2709
-5.5610	chisnh…	-0.3181
-5.7371	chisp	-0.3824
-5.4361	chist	-0.2650
-5.3392	chiu	-0.4358
-6.0382	chivadze…	-0.2516
-6.0382	chixn	-0.2516
-5.1351	chí	-0.3236
-5.7371	chín	-0.3614
-4.6232	chính	-0.6990
-4.4700	chỉ	-0.4939
-5.7371	chỉnh	-0.2516
-5.5610	chị	-0.2726
-5.4361	chịu	-0.2719
-6.0382	chi…	-0.2708
-6.0382	chlb	-0.2725
-6.0382	chloe	-0.2720
-2.1146	cho	-0.8363
-5.4361	choafng	-0.2714
-5.7371	choai	-0.2711
-6.0382	choajc	-0.2726
-6.0382	choajng	-0.2516
-6.0382	choang	-0.2724
-6.0382	choarng	-0.2693
-4.7371	choasng	-0.7991
-6.0382	choawst	-0.2726
-5.4361	chocolate	-0.2662
-5.0382	choe	-0.9707
-5.7371	choefn	-0.3614
-5.7371	choej	-0.3810
-5.7371	chof	-0.2725
-6.0382	chofe	-0.2726
-5.2600	chofi	-0.3377
-6.0382	chofi…	-0.2516
-6.0382	chofm	-0.2726
-5.5610	chofng	-0.3426
-5.7371	choi	-0.2678
-6.0382	choice	-0.2726
-4.6764	chojc	-0.3652
-4.6232	choji	-0.7577
-3.1562	chojn	-0.4800
-5.7371	chojt	-0.2504
-5.7371	choker	-0.2725
-4.8621	chol	-0.2603
-5.2600	cholesterol	-0.3166
-5.2600	chong	-0.5802
-5.4361	choofi	-0.3201
-6.0382	choofm	-0.2711
-4.8621	choofn	-0.8210
-3.3106	choofng	-0.5410
-5.3392	chooji	-0.3555
-5.4361	choojp	-0.3201
-6.0382	choom	-0.2711
-4.9590	choon	-0.2584
-4.9968	choong	-0.8538
-6.0382	choor	-0.2718
-5.0839	choori	-0.3411
-5.7371	choorng	-0.2719
-4.7594	choosc	-0.3672
-4.0296	choosi	-0.3958
-4.4254	choosn	-0.4215
-3.4037	choosng	-0.7228
-4.3754	choost	-0.3805
-3.5879	choox	-0.5550
-5.3392	choõ	-0.2678
-6.0382	chor	-0.2715
-6.0382	chorm	-0.2726
-6.0382	chorn	-0.2726
-5.4361	chorng	-0.4930
-4.2600	chos	-0.2771
-5.4361	chosc	-0.2456
-5.1351	chose	-0.3223
-4.6764	chosi	-0.3398
-3.6977	chosng	-0.4403
-6.0382	chosng!	-0.2724
-5.7371	chosp	-0.2726
-4.7829	chost	-0.4153
-6.0382	chosun	-0.2720
-5.2600	chow	-0.3858
-3.5910	chowf	-0.4520
-5.1351	chowfn	-0.4658
-3.3164	chowi	-0.4348
-3.8859	chowj	-0.3335
-5.7371	chowjp	-0.3821
-4.5910	chowjt	-0.3388
-6.0382	chown	-0.2723
-3.9928	chowr	-0.4158
-4.8920	chows	-0.2662
-5.4361	chowsi	-0.6130
-5.2600	chowsm	-0.3411
-4.7160	chowsp	-0.5226
-5.5610	choẁ	-0.2726
-6.0382	chow̉	-0.2726
-6.0382	choẉ	-0.2726
-6.0382	chox	-0.2516
-6.0382	chóng	-0.2725
-5.3392	chọn	-0.2726
-5.5610	chretien	-0.3369
-5.5610	chris	-0.2726
-6.0382	chriselle	-0.2726
-6.0382	chrissy	-0.2726
-6.0382	christian	-0.2726
-6.0382	christie	-0.2726
-6.0382	christie’s	-0.2709
-6.0382	christina	-0.2721
-5.7371	christine	-0.3824
-5.1931	christopher	-0.3319
-4.1297	chu	-0.5086
-6.0382	chu;	-0.2726
-4.2900	chua	-0.4300
-3.4243	chuaarn	-0.7819
-5.0382	chuaản	-0.3981
-6.0382	chuan	-0.2726
-5.5610	chua…	-0.2508
-5.4361	chubb	-0.6157
-5.5610	chuf	-0.6022
-4.3306	chufa	-0.4022
-5.0839	chufi	-0.2654
-4.9968	chufm	-0.3080
-5.4361	chufn	-0.3233
-5.4361	chufng	-0.3820
-4.7371	chui	-0.3991
-3.7829	chujc	-0.6622
-5.7371	chujm	-0.2705
-3.7710	chujp	-0.6251
-4.9590	chul	-1.3508
-6.0382	chula	-0.2711
-5.7371	chulalongkorn	-0.2497
-5.2600	chum	-0.4459
-6.0382	chun	-0.2726
-3.2637	chung	-0.6677
-6.0382	chung;	-0.2718
-6.0382	chuoofi	-0.2725
-6.0382	chuoofn	-0.2716
-4.8621	chuoofng	-0.3402
-6.0382	chuooi	-0.2726
-5.4361	chuoojc	-0.2707
-6.0382	chuoojc…	-0.2721
-4.4149	chuoojng	-0.3850
-4.2121	chuoojt	-0.4180
-4.5910	chuoong	-0.5213
-5.4361	chuoosc	-0.4932
-4.5330	chuoosi	-0.3513
-5.0839	chuoost	-0.2803
-4.3850	chuooxi	-0.3921
-5.3392	chuoọng	-0.2661
-2.8694	chur	-1.1043
-4.5197	churng	-0.4039
-3.4264	chus	-0.8396
-4.2253	chusa	-0.3600
-4.1461	chusc	-0.5984
-5.4361	chusi	-0.4935
-6.0382	chusm	-0.2726
-2.6665	chusng	-1.2140
-3.5864	chust	-0.3645
-5.3392	chut	-0.3518
-5.5610	chuw	-0.3408
-2.8265	chuwa	-0.8984
-5.0382	chuwf	-0.3629
-5.4361	chuwfa	-0.2672
-3.5454	chuwfng	-1.0598
-5.0839	chuwjc	-0.4500
-4.8341	chuwng	-0.2892
-5.5610	chuwowfm	-0.2709
-5.7371	chuwowfng	-0.2687
-6.0382	chuwowjc	-0.2694
-3.3383	chuwowng	-1.3431
-6.0382	chuwowng;	-0.2724
-5.4361	chuwowrng	-0.4924
-5.3392	chuwowsc	-0.2613
-5.1351	chuwowsng	-0.4338
-6.0382	chuwr	-0.2718
-6.0382	chuwra	-0.2726
-4.3661	chuwri	-0.3915
-5.5610	chuwrng	-0.2501
-3.5067	chuws	-0.8444
-5.1351	chuws!	-0.5430
-3.8679	chuwsa	-0.5890
-2.9615	chuwsc	-0.6253
-6.0382	chuwsc!	-0.2516
-6.0382	chuwsc…	-0.2516
-3.2615	chuwsng	-0.7817
-3.9209	chuwx	-0.4118
-3.5773	chuwxa	-0.8321
-4.7371	chuwxng	-0.7654
-6.0382	chuẁng	-0.2726
-5.7371	chuẃ	-0.3782
-6.0382	chuẃa	-0.2726
-5.1351	chuẃc	-0.3991
-4.9968	chuẃng	-0.3537
-6.0382	chuw̃	-0.2726
-5.7371	chuw̃a	-0.3824
-6.0382	chuw̃ng	-0.2726
-6.0382	chux	-0.2726
-6.0382	chuxi	-0.2516
-6.0382	chuxn	-0.2726
-4.3947	chuyeefn	-0.3454
-3.0224	chuyeejn	-0.4402
-5.7371	chuyeejn!	-0.3614
-3.2579	chuyeen	-1.1296
-3.2306	chuyeern	-0.6327
-3.6634	chuyeesn	-0.9966
-5.3392	chuyeén	-0.4377
-5.4361	chuyeẻn	-0.3241
-5.0382	chuyeẹn	-0.2915
-6.0382	chùa	-0.2716
-6.0382	chú	-0.2726
-5.7371	chúc	-0.3824
-4.9590	chúng	-0.6760
-5.7371	chút	-0.2716
-4.5067	chủ	-0.6233
-5.7371	chục	-0.2726
-5.1931	chụp	-0.3010
-5.2600	cia	-0.2457
-5.5610	ciaz	-0.3384
-6.0382	ciem	-0.2719
-6.0382	cindy	-0.2711
-5.5610	cinema	-0.2690
-6.0382	cinemax	-0.2726
-6.0382	circadian	-0.2725
-6.0382	circle	-0.2726
-5.7371	circus	-0.2711
-6.0382	citigo	-0.2720
-4.3480	city	-0.5676
-5.0839	cityexpress	-0.3584
-5.7371	cj	-0.3824
-6.0382	cji	-0.2723
-6.0382	claflin	-0.2703
-5.3392	claire	-0.2865
-5.7371	clara	-0.3824
-5.7371	clare	-0.2516
-6.0382	clarice	-0.2726
-6.0382	classic	-0.2724
-6.0382	claudecir	-0.2725
-4.2388	clb	-0.4798
-6.0382	cleansing	-0.2699
-6.0382	clear	-0.2726
-5.7371	cleso	-0.2692
-5.7371	click	-0.2715
-6.0382	cliniqua	-0.2726
-4.7829	clinton	-0.3331
-3.9483	clip	-0.4103
-5.5610	clo	-0.3424
-6.0382	club	-0.2726
-4.4361	clyde	-0.3390
-6.0382	cm	-0.2516
-5.7371	cmnd	-0.3778
-6.0382	cmt	-0.2724
-6.0382	cn	-0.2726
-4.8621	cnn	-0.3517
-5.3392	cntt	-0.2625
-6.0382	cnttcura	-0.2725
-5.7371	cnxh	-0.2684
-4.3569	co	-0.4188
-5.7371	coatepeque	-0.2724
-6.0382	cobalt	-0.2725
-5.4361	coc	-0.2491
-6.0382	coca	-0.2723
-5.1931	cocktail	-0.3010
-5.7371	coco	-0.3824
-5.7371	cocofest	-0.2481
-6.0382	cocosin	-0.2680
-4.6957	code	-0.4901
-4.8077	cof	-0.2984
-6.0382	coffee	-0.2516
-4.6068	cofi	-0.3677
-5.5610	cofm	-0.2726
-2.6041	cofn	-0.4415
-5.1931	cofng	-0.3584
-6.0382	cognita	-0.2726
-6.0382	cohasset	-0.2516
-3.7160	coi	-0.7484
-6.0382	coinmarketcap	-0.2719
-4.6957	coj	-0.3560
-4.5330	cojc	-0.3037
-6.0382	cojn	-0.2715
-5.5610	cojng	-0.2719
-5.3392	cojp	-0.2475
-6.0382	cojt	-0.2725
-6.0382	coldplay	-0.2726
-5.4361	cole	-0.2654
-6.0382	colebrookk	-0.2726
-6.0382	collagen	-0.2675
-6.0382	college	-0.2726
-6.0382	collin	-0.2726
-6.0382	colney	-0.2684
-4.6580	colombia	-0.3253
-5.5610	colombo	-0.3207
-5.5610	colonial	-0.6022
-5.7371	color	-0.2724
-6.0382	colorado	-0.2723
-6.0382	colourpop	-0.2516
-5.7371	columbia	-0.2678
-4.9968	com	-0.3133
-5.7371	combat	-0.3824
-5.0839	combo	-0.2924
-6.0382	combs	-0.2725
-5.7371	come	-0.2726
-5.5610	comeback	-0.2701
-6.0382	comment	-0.2726
-5.7371	commercial	-0.2721
-6.0382	common	-0.2726
-6.0382	communication	-0.2516
-5.7371	compact	-0.3791
-5.7371	company	-0.2514
-2.6831	con	-0.6512
-6.0382	con!	-0.2516
-4.7160	concept	-0.4251
-5.4361	concert	-0.3195
-5.1351	condotel	-0.4002
-6.0382	confederations	-0.2722
-6.0382	confession	-0.2680
-6.0382	confidential	-0.2703
-4.6068	cong	-0.4927
-5.3392	conjuring	-0.4092
-6.0382	connector	-0.2726
-4.8077	container	-0.3289
-5.3392	conte	-0.3066
-6.0382	continents	-0.2716
-6.0382	control	-0.2680
-6.0382	con’	-0.2516
-2.7984	coo	-0.6571
-6.0382	coo!	-0.2715
-6.0382	coof	-0.2726
-6.0382	coofi	-0.2726
-6.0382	coofm	-0.2725
-4.4700	coofn	-0.3355
-4.9242	coofng	-1.2390
-4.8920	cooi	-0.2870
-6.0382	cooi…	-0.2726
-4.8920	cooj	-0.2712
-6.0382	coojc	-0.2722
-5.1931	cooji	-0.4315
-5.5610	coojm	-0.2705
-3.5553	coojng	-1.0019
-6.0382	coojng;	-0.2711
-5.1351	coojp	-0.3452
-4.1748	coojt	-0.4334
-6.0382	cook	-0.2680
-5.4361	cooke	-0.3821
-5.7371	cookie	-0.2672
-5.1351	cool	-0.3206
-6.0382	coom	-0.2516
-4.5330	coon	-1.1320
-2.3894	coong	-1.0566
-5.7371	coong;	-0.3822
-6.0382	coop	-0.2726
-3.2800	coor	-0.7444
-4.2057	coorng	-0.4548
-3.2884	coos	-0.6487
-4.7594	coosc	-0.3309
-4.6232	coosi	-0.5206
-5.4361	coosm	-0.2652
-4.3569	coosng	-0.4799
-5.1931	coosp	-0.2672
-4.3754	coost	-0.5590
-4.8077	coox	-0.7177
-5.3392	cooxi	-0.2668
-5.4361	coó	-0.3240
-5.5610	coóng	-0.6022
-5.7371	coỏ	-0.2726
-5.7371	coỏng	-0.3824
-5.5610	coọng	-0.2723
-6.0382	copa	-0.2726
-6.0382	copy	-0.2717
-4.1993	cor	-0.4186
-6.0382	cora	-0.2726
-5.2600	cori	-0.2984
-5.7371	corin	-0.3824
-6.0382	corinthians	-0.2516
-6.0382	corm	-0.2725
-6.0382	cornell	-0.2516
-6.0382	corolado	-0.2726
-6.0382	corona	-0.2516
-5.5610	corporation	-0.3216
-6.0382	corsa	-0.2724
-5.7371	cortex	-0.3810
-6.0382	cortez	-0.2675
-1.9666	cos	-0.7298
-6.0382	cos;	-0.2708
-4.3754	cosc	-0.4539
-5.3392	cosi	-0.3044
-6.0382	cosmetics	-0.2699
-6.0382	cosmo	-0.2726
-5.7371	cosmolife	-0.2512
-6.0382	cosng	-0.2516
-5.3392	cosp	-0.3122
-6.0382	cosplay	-0.2721
-6.0382	cosrx	-0.2726
-6.0382	cost	-0.2725
-5.4361	costa	-0.6157
-6.0382	cos…	-0.2726
-5.4361	cotton	-0.2647
-6.0382	couilard	-0.2516
-6.0382	country	-0.2726
-5.3392	course	-0.6803
-6.0382	courtois	-0.2516
-4.3754	coutinho	-0.4708
-6.0382	coventry	-0.2516
-4.8621	cover	-0.2542
-2.7256	cow	-1.0968
-6.0382	cow!	-0.2516
-4.0888	cowf	-0.4096
-6.0382	cowfi	-0.2726
-6.0382	cowi	-0.2726
-5.2600	cowjt	-0.3857
-3.9310	cowm	-0.3076
-3.7459	cown	-0.8754
-4.3661	cowri	-0.7029
-4.5330	cows	-0.4120
-4.2978	cowx	-0.3565
-5.7371	coẁ	-0.2724
-6.0382	coẃ	-0.2726
-6.0382	cow̉i	-0.2726
-6.0382	cox	-0.2516
-5.2600	coxi	-0.2649
-6.0382	coxng	-0.2726
-4.6957	còn	-0.3114
-4.0987	có	-0.5903
-5.0382	cp	-0.3495
-6.0382	cph	-0.2717
-6.0382	cpi	-0.2684
-5.5610	cptpp	-0.2701
-5.7371	cptpp;	-0.3817
-6.0382	cq	-0.2726
-6.0382	cqddt	-0.2723
-5.7371	craigslist	-0.2462
-5.4361	crazy	-0.6157
-6.0382	creamer	-0.2722
-6.0382	creatinin	-0.2726
-6.0382	crepe	-0.2726
-6.0382	crepe…	-0.2722
-6.0382	cricket	-0.2516
-5.7371	crimea	-0.2697
-5.7371	cris	-0.2708
-4.6580	cristiano	-1.6505
-6.0382	cristina	-0.2680
-5.5610	croatia	-0.2460
-6.0382	crocs	-0.2723
-6.0382	cronkite	-0.2516
-4.9968	crop	-0.2726
-5.3392	croptop	-0.3572
-5.4361	crosswhite	-0.3186
-5.1351	cruise	-0.2443
-5.7371	cruiser	-0.3614
-5.0839	crush	-0.2538
-6.0382	crushed	-0.2726
-6.0382	cruyff	-0.2675
-5.7371	cryonics	-0.3776
-5.0839	csb	-0.2716
-5.1351	csddt	-0.2709
-6.0382	csddt;	-0.2723
-4.4254	csgt	-0.4100
-5.5610	cska	-0.3216
-6.0382	cst	-0.2726
-5.1931	ct	-0.2474
-5.4361	ctck	-0.2686
-6.0382	ctcp	-0.2726
-6.0382	ctkm	-0.2722
-4.8341	cu	-0.4387
-4.7371	cua	-0.2525
-6.0382	cuar	-0.2723
-5.7371	cub	-0.2725
-5.1931	cuba	-0.4996
-4.9242	cube	-0.2726
-6.0382	cubs	-0.2516
-4.9242	cuf	-0.3927
-6.0382	cufa	-0.2719
-6.0382	cuff	-0.2724
-5.4361	cufi	-0.2723
-6.0382	cufn	-0.2516
-2.7583	cufng	-0.3412
-6.0382	cufng!	-0.2516
-6.0382	cufng;	-0.2679
-5.4361	cui	-0.3229
-3.5016	cuj	-0.7221
-3.6166	cujc	-0.6624
-5.4361	cuji	-0.2708
-4.5197	cujm	-0.6750
-6.0382	cujng	-0.2726
-5.3392	cujp	-0.2695
-5.1351	cujt	-0.4450
-5.4361	culkin	-0.2685
-6.0382	cun	-0.2726
-3.4795	cung	-0.9000
-5.3392	cuoofn	-0.6806
-4.0650	cuoofng	-0.7000
-2.8700	cuoojc	-1.0877
-5.3392	cuooji	-0.4151
-4.7829	cuoojn	-0.3047
-6.0382	cuoong	-0.2719
-4.9968	cuoosc	-0.4907
-3.3997	cuoosi	-1.0032
-3.9344	cuoosn	-0.6967
-5.1931	cuoosng	-0.2667
-6.0382	cuooxm	-0.2718
-6.0382	cuoòng	-0.2726
-6.0382	cuoóc	-0.2726
-5.4361	cuoói	-0.3235
-6.0382	cuoón	-0.2516
-4.7594	cuoọc	-0.4476
-2.9685	cup	-1.0269
-5.2600	cuper	-0.2828
-6.0382	cupertino	-0.2726
-4.5910	cur	-0.3527
-1.9781	cura	-0.8338
-4.9242	curi	-0.2841
-6.0382	curiosity	-0.2708
-5.7371	curitiba	-0.2693
-4.5468	curng	-1.7634
-5.7371	curry	-0.2722
-5.5610	curtis	-0.2680
-3.9554	cus	-0.5503
-4.6764	cusc	-0.2865
-5.5610	cushion	-0.2718
-4.8920	cusi	-0.4105
-4.5067	cusm	-0.3989
-5.7371	cusn	-0.2717
-4.6764	cusng	-0.3949
-3.1827	cusp	-1.7304
-5.3392	cust	-0.2921
-5.3392	cute	-0.3511
-3.5864	cuw	-0.5402
-4.9590	cuwa	-0.3021
-5.3392	cuwf	-0.2922
-5.2600	cuwfu	-0.2800
-4.9242	cuwj	-0.2741
-5.7371	cuwja	-0.2721
-3.2884	cuwjc	-0.6669
-3.8859	cuwju	-0.7282
-4.9590	cuwng	-0.3241
-3.6455	cuwowfi	-0.3901
-5.7371	cuwowfm	-0.3614
-3.6182	cuwowfng	-0.4334
-4.3947	cuwowjc	-0.6257
-4.2600	cuwowng	-0.6629
-4.7829	cuwowsc	-0.3123
-3.9483	cuwowsi	-0.4135
-4.1297	cuwowsp	-0.4464
-5.2600	cuwowxi	-0.4055
-4.3480	cuwowxng	-0.7916
-5.2600	cuwoẁi	-0.3062
-5.4361	cuwoẁng	-0.2708
-6.0382	cuwoẃc	-0.2726
-6.0382	cuwoẃi	-0.2726
-6.0382	cuwow̃i	-0.2726
-5.7371	cuwow̃ng	-0.3824
-5.5610	cuwoẉc	-0.6022
-3.6616	cuwr	-0.7733
-3.4460	cuwra	-0.5877
-6.0382	cuwri	-0.2722
-4.6232	cuwru	-0.5635
-3.2108	cuws	-0.3657
-6.0382	cuws;	-0.2720
-5.1351	cuwsa	-0.4696
-4.0382	cuwsng	-0.5699
-3.1281	cuwsu	-0.5864
-5.4361	cuwu	-0.6154
-6.0382	cuwx	-0.2720
-5.2600	cuẃ	-0.3048
-5.5610	cuẃu	-0.2706
-5.5610	cuw̉	-0.3406
-5.2600	cuw̉a	-0.5794
-5.1351	cuẉc	-0.4134
-5.7371	cuẉu	-0.3824
-3.7180	cux	-0.4903
-5.7371	cuxi	-0.2702
-5.7371	cuxn	-0.2709
-2.3864	cuxng	-0.8730
-6.0382	cuxngg	-0.2715
-6.0382	cuxnuooi	-0.2726
-4.8920	cùng	-0.4054
-6.0382	cú	-0.2726
-6.0382	cũ	-0.2726
-4.3661	cũng	-0.3679
-6.0382	củ	-0.2516
-3.9378	của	-0.4802
-5.7371	củng	-0.3824
-5.4361	cụ	-0.4936
-5.7371	cục	-0.2725
-6.0382	cv	-0.2720
-6.0382	cvvh	-0.2726
-6.0382	cyber	-0.2712
-6.0382	cyclops	-0.2711
-6.0382	cynthia	-0.2715
-6.0382	cyprus	-0.2675
-5.5610	cyrus	-0.3163
-5.4361	czech	-0.2479
-4.5910	d	-0.9934
-3.3633	da	-0.4143
-6.0382	da;	-0.2721
-4.8621	daafm	-0.2857
-3.6879	daafn	-0.4725
-3.6997	daafu	-0.4453
-6.0382	daafy	-0.2726
-6.0382	daajm	-0.2724
-4.3392	daajp	-0.5511
-6.0382	daajt	-0.2694
-4.0559	daajy	-0.4241
-4.2121	daam	-0.4638
-2.7606	daan	-0.6364
-5.4361	daan;	-0.3214
-4.6402	daang	-0.5035
-6.0382	daarn	-0.2516
-5.7371	daasm	-0.3824
-5.1351	daasn	-0.2723
-5.7371	daasp	-0.2694
-3.5426	daasu	-0.9908
-5.0382	daasy	-0.2720
-4.2388	daau	-0.3275
-5.1931	daaxm	-0.4201
-3.2193	daaxn	-0.6795
-4.6232	daaxu	-0.6047
-6.0382	daaxy	-0.2726
-3.8233	daay	-0.4556
-5.0839	daàn	-0.4627
-6.0382	daán	-0.2723
-5.7371	daáu	-0.2726
-6.0382	daáy	-0.2720
-5.4361	daãn	-0.3030
-5.7371	dae	-0.2725
-5.1931	daf	-0.2717
-3.3489	dafi	-0.4445
-5.7371	dafi;	-0.2724
-4.0744	dafn	-0.6830
-3.6957	dafng	-0.3928
-6.0382	dafng;	-0.2516
-3.0228	dafnh	-1.5394
-4.9242	dafo	-0.3541
-4.1517	dafy	-0.5681
-4.4584	dai	-0.5368
-5.0382	daily	-0.4901
-6.0382	daimler	-0.2726
-6.0382	daisetsu	-0.2516
-5.7371	daisy	-0.2724
-4.3850	daj	-0.4771
-5.7371	dajc	-0.3823
-4.5330	daji	-0.4085
-6.0382	dajm	-0.2724
-4.6402	dajn	-0.3034
-3.1324	dajng	-0.9297
-4.2458	dajo	-0.5875
-6.0382	dajp	-0.2716
-5.0382	dajt	-0.4856
-3.8423	dajy	-0.4988
-6.0382	dajy…	-0.2516
-5.4361	dalglish	-0.2685
-5.7371	dali	-0.2667
-5.3392	dallas	-0.2845
-6.0382	dallek	-0.2693
-6.0382	dame	-0.2726
-6.0382	damond	-0.2516
-5.7371	dana	-0.2717
-6.0382	danang	-0.2726
-5.7371	danau	-0.3824
-4.8077	dance	-0.2951
-5.7371	dancer	-0.2718
-4.7829	dang	-0.5739
-3.3967	danh	-0.7383
-6.0382	danh;	-0.2723
-5.7371	dani	-0.3824
-5.1931	daniel	-0.3849
-4.9968	danilo	-0.2726
-5.7371	danisa	-0.3801
-6.0382	danlait	-0.2725
-4.1748	dao	-0.5113
-6.0382	daoud	-0.2711
-5.7371	dar	-0.2481
-6.0382	dara	-0.2708
-4.9242	dari	-0.4075
-6.0382	dario	-0.2726
-6.0382	dark	-0.2726
-6.0382	darkroom	-0.2678
-6.0382	darpa	-0.2718
-5.7371	darren	-0.2726
-6.0382	das	-0.2724
-5.7371	dasc	-0.2723
-6.0382	dash	-0.2726
-3.9483	dasm	-0.3335
-4.4700	dasn	-0.3399
-3.8207	dasng	-0.4137
-6.0382	daso	-0.2726
-6.0382	dassaev	-0.2726
-5.2600	dast	-0.5799
-6.0382	dasu	-0.2703
-5.7371	data	-0.3791
-6.0382	dauberman	-0.2725
-4.7594	david	-0.4206
-5.7371	davis	-0.2695
-5.1351	dawfn	-0.4452
-5.2600	dawfng	-0.3614
-5.7371	dawjc	-0.2715
-5.5610	dawjm	-0.2668
-4.6764	dawjn	-0.3200
-5.7371	dawjt	-0.2679
-5.1931	dawm	-0.2701
-5.7371	dawn	-0.2726
-6.0382	dawnette	-0.2724
-5.0382	dawrng	-0.3428
-4.2253	dawst	-0.3464
-4.6068	dax	-0.4617
-5.1931	daxi	-0.3267
-5.7371	daxn	-0.2726
-6.0382	daxng	-0.2516
-5.7371	daxo	-0.2676
-4.8077	daxy	-0.4248
-4.9242	day	-0.6604
-6.0382	dazai	-0.2726
-6.0382	dazs	-0.2675
-5.7371	dài	-0.2516
-5.7371	dàn	-0.2725
-5.7371	dành	-0.2693
-5.5610	dáng	-0.3216
-5.5610	dạng	-0.2675
-5.4361	dạy	-0.2726
-6.0382	da…	-0.2678
-5.0839	dc	-0.3901
-6.0382	dceu	-0.2725
-4.9968	dd	-1.1453
-3.4831	dda	-0.9197
-4.5197	ddaafm	-0.4012
-6.0382	ddaafn	-0.2722
-2.5984	ddaafu	-0.6658
-6.0382	ddaafu!	-0.2719
-3.3436	ddaafy	-0.5342
-3.9310	ddaajm	-0.6231
-5.1351	ddaajn	-0.3689
-3.8983	ddaajp	-0.6034
-5.4361	ddaajt	-0.4934
-3.9344	ddaaju	-0.5479
-5.2600	ddaajy	-0.2799
-4.0382	ddaam	-0.6266
-5.7371	ddaaru	-0.2725
-3.6899	ddaary	-0.4866
-4.6232	ddaasm	-0.5019
-4.8621	ddaasng	-0.5437
-3.0514	ddaast	-0.5804
-6.0382	ddaast;	-0.2721
-3.2334	ddaasu	-0.5600
-3.8592	ddaasy	-0.5880
-4.8077	ddaasy!	-0.7460
-3.3947	ddaau	-0.6059
-5.4361	ddaau!	-0.2479
-4.8077	ddaaxm	-0.4096
-5.3392	ddaaxy	-0.3099
-2.6333	ddaay	-0.7931
-5.4361	ddaay!	-0.4724
-4.5610	ddaàu	-0.5242
-5.0839	ddaày	-0.3573
-4.9590	ddaát	-0.3493
-5.3392	ddaáu	-0.3131
-6.0382	ddaáy	-0.2726
-5.4361	ddaảy	-0.4936
-5.7371	ddaạm	-0.2726
-6.0382	ddac	-0.2725
-3.5426	ddaf	-0.8147
-6.0382	ddaf;	-0.2690
-3.8260	ddafi	-0.5414
-3.8313	ddafm	-0.8151
-6.0382	ddafm’	-0.2516
-3.5131	ddafn	-0.8955
-5.0382	ddafng	-0.7099
-4.2900	ddafnh	-0.4301
-3.5080	ddafo	-0.8960
-6.0382	ddafo!	-0.2516
-6.0382	ddafu	-0.2722
-3.9928	ddai	-0.4318
-4.6232	ddajc	-0.3122
-6.0382	ddajch	-0.2723
-2.7468	ddaji	-1.1781
-6.0382	ddaji;	-0.2726
-4.8920	ddajm	-0.3782
-4.2057	ddajn	-0.4069
-3.0664	ddajo	-0.5918
-4.1405	ddajp	-0.4160
-3.5669	ddajt	-0.6520
-3.9663	ddam	-1.4191
-4.2121	ddan	-0.5877
-2.7147	ddang	-0.6609
-5.5610	ddanh	-0.3211
-4.9968	ddao	-0.3584
-4.9242	ddar	-0.4313
-3.3633	ddarm	-1.0597
-5.7371	ddarn	-0.2684
-3.6860	ddarng	-0.6938
-6.0382	ddarng…	-0.2516
-5.5610	ddarnh	-0.2660
-3.3947	ddaro	-0.5640
-2.8902	ddas	-0.7777
-5.4361	ddas!	-0.5947
-6.0382	ddas;	-0.2711
-5.5610	ddasc	-0.2705
-5.1931	ddasi	-0.4176
-3.7687	ddasm	-0.6795
-5.4361	ddasn	-0.2457
-3.2703	ddasng	-0.9076
-3.2012	ddasnh	-0.7484
-3.9663	ddaso	-0.4608
-3.7307	ddasp	-0.9992
-5.3392	ddast	-0.4172
-5.3392	ddasu	-0.2846
-4.6068	ddasy	-0.3298
-3.4700	ddau	-0.6219
-6.0382	ddawc	-0.2723
-5.3392	ddawfm	-0.3107
-4.2388	ddawfng	-0.8581
-3.0351	ddawjc	-1.5148
-4.6957	ddawjn	-0.2714
-4.3139	ddawjng	-0.5618
-3.2586	ddawjt	-0.6206
-6.0382	ddawm	-0.2726
-3.5803	ddawng	-0.7901
-4.0744	ddawrng	-0.5871
-4.4254	ddawsc	-0.7581
-5.0382	ddawsk	-0.6860
-4.6764	ddawsm	-0.5653
-4.5067	ddawsn	-0.4543
-4.6402	ddawsng	-0.3476
-4.4361	ddawsp	-0.3421
-4.0211	ddawst	-0.7548
-6.0382	ddawxng	-0.2516
-6.0382	ddaẃk	-0.2726
-6.0382	ddaẃt	-0.2726
-5.7371	ddaẉc	-0.3824
-5.2600	ddaẉt	-0.2480
-2.2759	ddax	-0.7883
-6.0382	ddax!	-0.2516
-4.0791	ddaxi	-0.4396
-4.9968	ddaxng	-0.2719
-5.1351	dday	-0.4244
-5.3392	ddà	-0.6806
-6.0382	ddài	-0.2726
-6.0382	ddào	-0.2726
-6.0382	ddá	-0.2726
-5.5610	ddám	-0.2681
-5.0839	ddáng	-0.3933
-5.0382	ddánh	-0.5435
-6.0382	ddáo	-0.2726
-5.7371	ddáp	-0.2726
-4.1869	ddã	-0.3946
-5.3392	ddảm	-0.6806
-5.4361	ddảo	-0.3015
-4.8341	ddại	-0.4288
-6.0382	ddạm	-0.2718
-4.8077	ddạo	-0.7685
-5.7371	ddạt	-0.2726
-4.2823	ddb	-0.3744
-4.2900	ddbqh	-0.3542
-5.5610	ddbscl	-0.3205
-6.0382	ddcs	-0.2720
-6.0382	ddddarm	-0.2720
-3.8920	dde	-0.9314
-4.5610	ddee	-0.4526
-2.9293	ddeef	-0.6834
-5.4361	ddeefm	-0.4724
-4.2121	ddeefn	-0.7441
-6.0382	ddeefnh	-0.2726
-2.8019	ddeefu	-0.8154
-4.7160	ddeej	-0.3752
-5.3392	ddeejm	-0.2665
-3.4855	ddeem	-0.4746
-6.0382	ddeen	-0.2693
-5.2600	ddeenh	-0.4506
-2.2642	ddeer	-0.6252
-6.0382	ddeernh	-0.2726
-5.1931	ddeeru	-0.3051
-5.5610	ddeer…	-0.2712
-4.6580	ddees	-0.3448
-6.0382	ddees;	-0.2709
-4.6764	ddeesm	-0.3505
-2.4437	ddeesn	-0.4528
-6.0382	ddeesn!	-0.2516
-6.0382	ddeesn’	-0.2516
-6.0382	ddeesn…	-0.2516
-6.0382	ddeesp	-0.2726
-6.0382	ddeeu	-0.2516
-6.0382	ddeexn	-0.2706
-5.5610	ddeexnh	-0.3403
-4.8920	ddeè	-0.4272
-4.9590	ddeèu	-0.2828
-6.0382	ddeé	-0.2726
-4.4941	ddeén	-0.3156
-4.2388	ddeẻ	-0.3912
-4.4700	ddef	-0.6599
-3.9310	ddefn	-0.3923
-4.8077	ddefo	-0.2516
-3.1149	ddejp	-0.5248
-6.0382	ddejp;	-0.2723
-6.0382	ddejpgiari	-0.2724
-6.0382	ddejp…	-0.2723
-6.0382	ddejt	-0.2715
-3.7687	ddem	-0.7540
-3.7878	dden	-0.3682
-4.2458	ddeo	-0.3285
-4.5197	dder	-0.4074
-5.5610	ddesc	-0.2706
-6.0382	ddeso	-0.2722
-5.7371	ddest	-0.2726
-4.8920	ddex	-0.2636
-5.2600	ddexo	-0.4057
-4.8077	ddẹp	-0.2625
-4.2673	ddh	-0.4845
-6.0382	ddhcdd	-0.2719
-6.0382	ddhddcdd	-0.2516
-5.7371	ddhqg	-0.3818
-2.6078	ddi	-0.5987
-5.7371	ddi!	-0.3614
-5.4361	ddia	-0.6146
-4.9242	ddieefm	-0.7245
-4.7371	ddieefn	-0.3488
-2.5731	ddieefu	-1.1379
-6.0382	ddieefu;	-0.2703
-6.0382	ddieejm	-0.2712
-3.1042	ddieejn	-0.8181
-4.1297	ddieejp	-0.4643
-4.8621	ddieejt	-0.3180
-3.9310	ddieeju	-0.4019
-4.3661	ddieen	-0.3980
-2.9423	ddieerm	-0.4951
-6.0382	ddieerm…	-0.2715
-3.9518	ddieern	-0.6899
-5.4361	ddieeru	-0.3025
-5.1351	ddieesc	-0.3198
-5.1931	ddieesm	-0.3385
-5.7371	ddieesng	-0.2683
-5.2600	ddieesu	-0.4684
-4.7371	ddieeu	-0.7983
-6.0382	ddieèm	-0.2726
-4.8341	ddieèu	-0.3992
-4.8341	ddieẻm	-0.4257
-6.0382	ddieẹn	-0.2726
-6.0382	ddif	-0.2726
-5.2600	ddifa	-0.2799
-3.0820	ddifnh	-0.5167
-5.7371	ddifnh;	-0.2720
-5.5610	ddifu	-0.6021
-2.9127	ddija	-1.4329
-3.1292	ddijch	-1.2598
-6.0382	ddijch;	-0.2726
-2.5635	ddijnh	-0.5525
-5.4361	ddijnh;	-0.3781
-6.0382	ddiju	-0.2726
-4.2978	ddinh	-0.5332
-3.8233	ddirnh	-0.7302
-3.8507	ddisch	-0.4605
-4.8341	ddisnh	-0.4230
-5.5610	ddist	-0.2508
-5.7371	ddix	-0.3821
-4.4584	ddixa	-0.3322
-6.0382	ddixnh	-0.2726
-5.5610	ddình	-0.3426
-6.0382	ddích	-0.2684
-5.4361	ddỉnh	-0.2509
-4.9968	ddịa	-1.3136
-4.9242	ddịnh	-0.3238
-5.7371	ddi’	-0.2482
-6.0382	ddi…	-0.2721
-5.5610	ddkvdd	-0.3425
-4.2673	ddo	-0.3939
-6.0382	ddoafi	-0.2723
-3.3578	ddoafn	-0.5710
-6.0382	ddoafng	-0.2516
-3.5131	ddoajn	-0.4993
-4.2747	ddoajt	-0.6134
-4.8341	ddoan	-0.2422
-6.0382	ddoarng	-0.2675
-6.0382	ddoasi	-0.2726
-3.8129	ddoasn	-0.4113
-6.0382	ddoasn!	-0.2516
-6.0382	ddoán	-0.2726
-5.7371	ddoạn	-0.2726
-5.1931	ddof	-0.2442
-3.9176	ddofi	-0.6678
-6.0382	ddofm	-0.2720
-4.7829	ddofn	-0.2905
-6.0382	ddofng	-0.2516
-5.0382	ddoj	-0.3759
-5.7371	ddoja	-0.2682
-3.6526	ddojc	-0.5287
-4.4941	ddojng	-0.4058
-5.3392	ddom	-0.6806
-4.7371	ddong	-0.8186
-3.6084	ddoo	-0.8097
-3.2666	ddoof	-0.4638
-4.4149	ddoofi	-0.4144
-5.7371	ddoofm	-0.2510
-4.1517	ddoofn	-0.3580
-6.0382	ddoofn;	-0.2684
-2.7404	ddoofng	-0.8208
-6.0382	ddoofng;	-0.2684
-3.3332	ddooi	-0.6361
-3.0496	ddooj	-0.3482
-2.9726	ddoojc	-1.3128
-3.0343	ddooji	-0.8274
-5.3392	ddoojn	-0.2715
-2.6083	ddoojng	-0.5617
-5.7371	ddoojng;	-0.2676
-6.0382	ddoojp	-0.2720
-3.8450	ddoojt	-0.9652
-6.0382	ddooj…	-0.2726
-5.4361	ddoola	-0.2707
-4.7371	ddoon	-0.5714
-3.1888	ddoong	-0.6955
-6.0382	ddoongindonesiaindonesiathees	-0.2722
-6.0382	ddoongtrung	-0.2726
-3.6420	ddoor	-0.6132
-3.1562	ddoori	-0.4385
-5.5610	ddoorng	-0.2701
-5.2600	ddoos	-0.3004
-3.6084	ddoosc	-0.6034
-6.0382	ddoosc;	-0.2723
-2.8075	ddoosi	-1.2708
-6.0382	ddoosi;	-0.2726
-5.3392	ddoosm	-0.3115
-4.8621	ddoosn	-0.4915
-4.4584	ddoosng	-0.3339
-4.2320	ddoost	-0.4407
-4.0650	ddoox	-0.4837
-4.7594	ddooxi	-0.3059
-4.7829	ddoò	-0.3267
-6.0382	ddoòn	-0.2726
-5.0839	ddoòng	-0.2710
-5.4361	ddoóc	-0.3222
-5.0382	ddoói	-0.5431
-6.0382	ddoõ	-0.2719
-4.9242	ddoỏi	-0.2504
-5.0839	ddoọ	-0.2719
-6.0382	ddoọc	-0.2726
-5.5610	ddoọi	-0.2726
-4.5610	ddoọng	-0.4995
-6.0382	ddoọt	-0.2516
-3.7078	ddor	-0.3575
-6.0382	ddori	-0.2724
-5.5610	ddorng	-0.6022
-6.0382	ddor’	-0.2726
-2.4534	ddos	-0.5530
-5.4361	ddos!	-0.4704
-4.9590	ddosa	-0.7782
-4.4584	ddosi	-0.3393
-5.1351	ddosm	-0.3679
-3.6938	ddosn	-0.5129
-3.4711	ddosng	-0.7228
-5.7371	ddost	-0.2668
-6.0382	ddos’	-0.2516
-5.1931	ddow	-0.3385
-5.5610	ddowf	-0.2498
-3.2199	ddowfi	-0.5941
-5.7371	ddowfm	-0.2705
-5.7371	ddowfn	-0.2680
-6.0382	ddowj	-0.2726
-3.7734	ddowji	-0.4099
-6.0382	ddowjp	-0.2718
-4.3222	ddowjt	-0.3268
-5.7371	ddowm	-0.3822
-3.1772	ddown	-0.9196
-4.5067	ddowsi	-0.3105
-5.7371	ddowsi…	-0.3824
-4.2900	ddowsn	-0.4184
-6.0382	ddowsn!	-0.2516
-6.0382	ddowsp	-0.2722
-3.8798	ddowx	-0.4056
-4.9590	ddoẁi	-0.2673
-5.4361	ddow̃	-0.2995
-6.0382	ddoẉi	-0.2726
-6.0382	ddòi	-0.2724
-4.5910	ddó	-0.3037
-5.7371	ddón	-0.2726
-5.3392	ddóng	-0.3128
-6.0382	ddỏ	-0.2723
-6.0382	ddọc	-0.2516
-5.5610	ddpgtqg	-0.2645
-6.0382	ddsddt	-0.2726
-4.3306	ddt	-1.2464
-6.0382	ddtddd	-0.2723
-6.0382	ddtm	-0.2516
-4.8341	ddtqg	-0.9039
-4.9242	ddu	-1.0048
-4.0791	ddua	-0.4239
-4.4254	ddufa	-0.3910
-4.3306	ddufi	-0.6336
-5.3392	ddufm	-0.5219
-6.0382	ddufn	-0.2725
-4.9968	ddufng	-0.4206
-5.5610	ddui	-0.3216
-4.7371	ddujc	-0.2827
-6.0382	ddujn	-0.2726
-4.6402	ddujng	-0.5536
-5.2600	ddun	-0.3043
-5.0839	ddung	-0.2723
-4.4584	dduooi	-0.5695
-6.0382	dduoojt	-0.2721
-6.0382	dduoong	-0.2684
-3.9813	dduoori	-0.3928
-5.4361	dduoosc	-0.4719
-4.8077	dduoosi	-0.3974
-5.7371	dduoosng	-0.2715
-6.0382	dduoỏi	-0.2726
-6.0382	dduoẉc	-0.2726
-3.2134	ddur	-0.4924
-5.5610	ddur;	-0.3402
-5.7371	dduri	-0.2726
-5.7371	ddurng	-0.3824
-6.0382	ddus	-0.2678
-6.0382	ddusa	-0.2675
-4.5067	ddusc	-0.4577
-5.7371	ddusm	-0.3824
-2.9737	ddusng	-0.9888
-6.0382	ddusng!	-0.2712
-5.1931	ddusp	-0.2451
-5.1351	ddust	-0.3189
-3.1144	dduwa	-0.7507
-6.0382	dduwf	-0.2720
-3.7415	dduwfng	-0.5160
-6.0382	dduwjc	-0.2722
-4.0339	dduwjng	-0.4265
-5.7371	dduwowc	-0.2710
-2.8930	dduwowfng	-0.5011
-6.0382	dduwowfng…	-0.2516
-2.0790	dduwowjc	-0.6168
-5.4361	dduwowjc!	-0.5947
-5.3392	dduwowjc…	-0.2894
-5.7371	dduwowjm	-0.2725
-6.0382	dduwowjng	-0.2720
-4.0047	dduwowng	-0.7058
-6.0382	dduwowsc	-0.2726
-4.9590	dduwoẁng	-0.3039
-4.0744	dduwoẉc	-0.2870
-3.6490	dduwsa	-0.9601
-6.0382	dduwsa…	-0.2708
-3.5093	dduwsc	-0.3710
-3.4108	dduwsng	-0.7826
-5.1931	dduwsng’	-1.0877
-4.4700	dduwst	-0.4717
-5.7371	dduẁng	-0.3823
-5.4361	dduẃa	-0.2684
-5.5610	dduẃc	-0.2726
-6.0382	dduẃng	-0.2694
-6.0382	dduẉng	-0.2725
-4.6957	dduxa	-0.2691
-5.5610	dduxi	-0.2722
-6.0382	dduxng	-0.2722
-6.0382	ddùa	-0.2722
-5.3392	ddúng	-0.3129
-5.0839	ddủ	-0.3212
-4.8077	de	-0.4270
-5.4361	deadline	-0.3000
-6.0382	deal	-0.2723
-5.7371	dearing	-0.2500
-5.7371	death	-0.3824
-5.7371	deaver	-0.3823
-5.4361	debut	-0.2452
-6.0382	decision	-0.2516
-5.2600	deck	-0.7396
-5.1931	dee	-0.4339
-5.4361	deef	-0.2493
-6.0382	deefn	-0.2725
-5.7371	deefnh	-0.2713
-5.1931	deejt	-0.3006
-5.7371	dees	-0.2516
-3.2658	deex	-0.7870
-5.5610	deẽ	-0.2725
-3.6232	def	-1.5464
-6.0382	defence	-0.2726
-6.0382	deimos	-0.2690
-6.0382	dejan	-0.2726
-4.4819	dejp	-0.3736
-5.7371	dejt	-0.2509
-6.0382	delaware	-0.2516
-6.0382	delay	-0.2718
-5.1931	delhi	-0.3557
-5.7371	deloitte	-0.2702
-6.0382	delury	-0.2693
-5.7371	demo	-0.2704
-5.3392	denim	-0.2669
-5.2600	denis	-0.4692
-5.7371	dennis	-0.2726
-6.0382	dent	-0.2726
-6.0382	depeche	-0.2726
-6.0382	depo	-0.2516
-6.0382	depp	-0.2679
-5.7371	der	-0.2680
-5.5610	derby	-0.3416
-4.7371	dero	-0.4523
-5.4361	des	-0.6157
-5.5610	deschamps	-0.6007
-6.0382	design	-0.2703
-6.0382	designer	-0.2724
-4.7594	desp	-0.2442
-5.4361	despiegelaere	-0.6153
-6.0382	deurs	-0.2723
-6.0382	developher	-0.2724
-6.0382	devil	-0.2726
-3.5926	di	-1.3162
-4.9968	diana	-0.2804
-6.0382	dicaprio	-0.2723
-6.0382	diddy	-0.2726
-6.0382	didi	-0.2675
-5.5610	didier	-0.6022
-6.0382	dieefm	-0.2726
-5.2600	dieefu	-0.2669
-5.5610	dieejc	-0.2510
-6.0382	dieejm	-0.2703
-2.9043	dieejn	-0.9145
-4.5468	dieejp	-0.6169
-4.5758	dieejt	-0.3161
-4.2747	dieeju	-0.3747
-6.0382	dieeju!	-0.2516
-5.3392	dieem	-0.2864
-5.7371	dieen	-0.2697
-6.0382	dieesc	-0.2516
-6.0382	dieesm	-0.2726
-5.7371	dieesn	-0.2686
-6.0382	dieesp	-0.2724
-5.3392	dieest	-0.2434
-6.0382	dieesu	-0.2694
-5.1931	dieeu	-0.5203
-4.6957	dieexm	-0.3262
-3.0011	dieexn	-0.6823
-5.7371	dieexn;	-0.3821
-5.5610	dieexu	-0.6015
-5.7371	dieẽm	-0.3824
-4.8920	dieẽn	-0.4125
-5.1931	dieẹn	-0.2802
-5.7371	dieẹp	-0.3824
-5.7371	diego	-0.2726
-4.5197	dier	-0.3873
-6.0382	diesel	-0.2516
-6.0382	diet	-0.2723
-4.8077	dif	-0.3595
-6.0382	diff	-0.2684
-6.0382	difm	-0.2722
-5.0839	difu	-0.3880
-3.9928	dij	-0.5686
-3.3289	dijch	-0.7046
-6.0382	dijch!	-0.2722
-5.7371	dijk	-0.2719
-6.0382	dijnh	-0.2711
-3.9276	dijp	-0.5305
-4.1808	diju	-0.6603
-5.7371	dim	-0.3824
-5.7371	dimsum	-0.2721
-6.0382	dinco	-0.2516
-4.1191	dinh	-1.2947
-5.4361	dior	-0.2503
-6.0382	dior…	-0.2713
-6.0382	dioxin	-0.2713
-5.7371	diplomat	-0.2656
-6.0382	diponegoro	-0.2690
-6.0382	direct	-0.2726
-5.0839	dis	-0.5204
-6.0382	discovery	-0.2721
-6.0382	dislike	-0.2726
-5.3392	disney	-0.3026
-4.1461	disnh	-0.3822
-6.0382	display	-0.2693
-5.3392	disu	-0.6801
-4.1931	dix	-0.5727
-5.2600	dixa	-0.3858
-6.0382	dixnh	-0.2723
-5.7371	diyhomedepot	-0.2515
-6.0382	dĩ	-0.2720
-5.7371	dịch	-0.2726
-5.7371	dịp	-0.3824
-5.7371	dịu	-0.2694
-4.4700	dj	-0.3111
-6.0382	dkra	-0.2720
-6.0382	dmz	-0.2711
-4.1574	dn	-0.3887
-5.7371	dnn	-0.2462
-4.5758	dnnn	-0.3319
-2.8621	do	-0.3902
-5.0839	doaj	-0.2918
-3.0545	doanh	-0.8332
-6.0382	doanh;	-0.2720
-6.0382	doawng	-0.2721
-5.7371	doaxn	-0.3823
-6.0382	doc	-0.2675
-5.7371	doctor	-0.2726
-4.6402	dof	-0.2970
-6.0382	dofi	-0.2678
-5.5610	dofm	-0.6021
-3.6526	dofng	-0.7433
-5.1931	dogs	-0.3544
-5.5610	doi	-0.2722
-6.0382	doing	-0.2726
-3.9276	doja	-0.3673
-4.1461	dojc	-0.4906
-5.1931	doji	-0.2959
-4.3139	dojn	-0.5997
-6.0382	dol	-0.2715
-5.5610	dollar	-0.3389
-5.3392	dolores	-0.2624
-5.7371	domino	-0.2699
-4.0744	donald	-1.6547
-6.0382	donatelifepa	-0.2724
-6.0382	donetsk	-0.2705
-5.0839	dong	-0.2701
-6.0382	dongabank	-0.2516
-5.3392	don’t	-0.4395
-4.7829	doofi	-0.6143
-4.3058	doofn	-0.6174
-5.7371	dooi	-0.2725
-4.3947	dooji	-0.3555
-5.1351	doojt	-0.4581
-4.6068	doong	-0.3573
-4.5330	doosc	-0.5236
-4.5610	doosi	-0.3238
-5.4361	doost	-0.2452
-4.6764	doox	-0.3489
-5.1351	dooxi	-0.2459
-6.0382	doòn	-0.2726
-6.0382	dop	-0.2516
-6.0382	doping	-0.2516
-5.2600	dorm	-0.2619
-6.0382	dorng	-0.2516
-6.0382	dorothy	-0.2726
-5.7371	dortmund	-0.2675
-5.4361	dos	-0.3011
-5.4361	dosc	-0.2683
-6.0382	dosm	-0.2726
-6.0382	dota	-0.2712
-6.0382	double	-0.2726
-5.7371	douglas	-0.3823
-5.7371	dow	-0.2726
-4.6957	dowfi	-0.3163
-6.0382	dowfn	-0.2699
-4.9590	dowi	-0.3664
-6.0382	down	-0.2516
-6.0382	downdetector	-0.2516
-4.3392	dowr	-0.5255
-6.0382	dowr!	-0.2516
-6.0382	dows	-0.2726
-5.7371	dowsp	-0.2704
-4.4047	dowx	-0.4922
-3.8679	doxi	-0.4429
-5.5610	doxng	-0.3426
-5.5610	dòng	-0.2726
-6.0382	dọa	-0.2726
-5.5610	dr	-0.3206
-4.8341	dragon	-1.2855
-6.0382	drake	-0.2726
-5.4361	drama	-0.2645
-5.4361	draper	-0.3785
-6.0382	dream	-0.2722
-5.2600	drisana	-0.3811
-6.0382	droz	-0.2723
-6.0382	drupal	-0.2690
-5.0839	dry	-0.4430
-6.0382	dsa	-0.2716
-6.0382	dslr	-0.2724
-3.3098	du	-1.4186
-5.4361	dua	-0.4885
-6.0382	dual	-0.2726
-5.3392	dubai	-0.2835
-6.0382	dublin	-0.2516
-5.1931	dueej	-0.6292
-6.0382	duerr	-0.2516
-3.0360	duf	-0.5580
-5.1351	dufi	-0.5498
-6.0382	dufm	-0.2721
-3.0791	dufng	-0.4769
-5.3392	dugoni	-0.3047
-4.0604	duj	-0.4367
-3.6052	dujc	-0.3780
-6.0382	dujc!	-0.2516
-5.7371	dujc;	-0.3824
-6.0382	dujch	-0.2726
-5.4361	dujm	-0.3178
-2.7596	dujng	-0.6043
-5.7371	dujng;	-0.2707
-6.0382	duma	-0.2718
-2.9385	dung	-0.8106
-6.0382	dunne	-0.2703
-5.5610	duooxi	-0.3423
-5.5610	duplantis	-0.2666
-6.0382	durian	-0.2726
-5.7371	dusa	-0.2721
-6.0382	dusk	-0.2693
-5.5610	dusm	-0.2482
-5.3392	duterte	-0.3100
-3.9590	duw	-0.8897
-4.1139	duwa	-0.6403
-4.5067	duwfa	-0.2759
-3.7571	duwfng	-0.7473
-2.9490	duwj	-1.2782
-3.8920	duwja	-1.3132
-5.2600	duwjc	-0.3143
-3.3010	duwjng	-0.4536
-6.0382	duwjng;	-0.2724
-4.8077	duwng	-0.2715
-3.8828	duwowfng	-2.1151
-4.3661	duwowjc	-0.2942
-5.7371	duwowjng	-0.3824
-5.7371	duwowjt	-0.2716
-3.5399	duwowng	-0.4320
-5.4361	duwowngk	-0.2440
-6.0382	duwowrng	-0.2684
-3.2354	duwowsi	-0.7212
-6.0382	duwowsi!	-0.2516
-3.5385	duwowxng	-0.4632
-5.4361	duwoẁng	-0.6142
-5.2600	duwoẃi	-0.3051
-6.0382	duwow̃ng	-0.2516
-6.0382	duwr	-0.2726
-6.0382	duwrng	-0.2726
-4.6580	duwsa	-0.2810
-4.0559	duwst	-0.5849
-3.8563	duwx	-1.1220
-5.7371	duẁng	-0.2722
-6.0382	duw̃	-0.2726
-4.9968	duẉ	-0.5041
-6.0382	duẉa	-0.2714
-5.7371	duẉng	-0.2721
-5.5610	dux	-0.3407
-6.0382	duxa	-0.2722
-3.8507	duxng	-0.5370
-3.4916	duy	-0.8690
-4.3139	duyeejt	-0.4011
-4.1244	duyeen	-0.4554
-6.0382	duyeen…	-0.2724
-6.0382	duyeẹt	-0.2726
-6.0382	duy…	-0.2516
-5.0839	dù	-0.2709
-5.2600	dùng	-0.2725
-5.5610	dũng	-0.2726
-5.7371	dục	-0.2690
-4.8920	dụng	-0.3574
-6.0382	dv	-0.2726
-6.0382	dvr	-0.2703
-6.0382	dwight	-0.2726
-5.7371	dxomark	-0.2668
-6.0382	dynamo	-0.2726
-5.4361	dzagoev	-0.3179
-5.3392	dzuxng	-0.2440
-5.7371	dzyuba	-0.3773
-4.3139	e	-0.6844
-5.7371	ea	-0.3824
-6.0382	earth	-0.2726
-6.0382	eas	-0.2726
-5.5610	ebola	-0.2496
-5.1351	ecb	-0.3553
-6.0382	eckardt	-0.2516
-5.7371	ecmo	-0.2504
-5.7371	eco	-0.2719
-5.5610	ecobuilding	-0.2636
-6.0382	economics	-0.2693
-6.0382	ecosport	-0.2715
-6.0382	eczema	-0.2516
-5.5610	ed	-0.6022
-5.7371	eden	-0.3824
-6.0382	ederson	-0.2722
-6.0382	edgar	-0.2726
-5.5610	edgardo	-0.6022
-5.7371	edge	-0.2516
-6.0382	edinburgh	-0.2726
-6.0382	edinson	-0.2726
-5.4361	edison	-0.2607
-5.7371	edition	-0.2719
-5.1931	edm	-0.2967
-6.0382	eduardo	-0.2726
-6.0382	education	-0.2718
-6.0382	edurne	-0.2678
-6.0382	edward	-0.2516
-5.5610	edwards	-0.2639
-6.0382	edwin	-0.2726
-4.8621	ee	-0.4204
-6.0382	eefnh	-0.2713
-6.0382	eejch	-0.2710
-5.7371	eejn	-0.2482
-5.7371	eekip	-0.2722
-6.0382	eekisp	-0.2715
-4.7160	eem	-0.3868
-4.9590	ees	-0.4192
-5.1931	eesch	-0.2724
-6.0382	ef	-0.2724
-5.7371	efo	-0.3824
-6.0382	eiffel	-0.2675
-5.5610	eisenhower	-0.2659
-6.0382	eivazov	-0.2726
-6.0382	ejc	-0.2675
-5.4361	ejo	-0.3820
-6.0382	ekaterina	-0.2726
-6.0382	ekaterinburg	-0.2516
-4.8077	ekip	-0.2590
-5.0382	el	-0.4592
-6.0382	elam	-0.2726
-6.0382	eldiario	-0.2516
-5.4361	electric	-0.4920
-6.0382	electronic	-0.2726
-5.7371	eli	-0.2703
-6.0382	elijah	-0.2724
-5.3392	elio	-0.2343
-6.0382	elisii	-0.2715
-5.3392	elizabeth	-0.4377
-6.0382	elliot	-0.2726
-2.9069	em	-0.4977
-5.7371	em;	-0.2725
-3.2521	email	-2.1702
-5.7371	emddi	-0.3776
-6.0382	emelie	-0.2726
-5.0382	emery	-0.3171
-5.5610	emily	-0.6020
-6.0382	eminem	-0.2675
-5.5610	emirates	-0.2631
-6.0382	emitajze	-0.2719
-6.0382	emma	-0.2726
-5.1931	emmanuel	-0.5206
-6.0382	emoji	-0.2680
-6.0382	empire	-0.2726
-6.0382	empul	-0.2726
-5.7371	em’	-0.3614
-6.0382	end	-0.2726
-6.0382	ending	-0.2726
-6.0382	engineering	-0.2723
-5.4361	english	-0.2716
-6.0382	enso	-0.2718
-6.0382	ensure	-0.2726
-5.7371	entertain	-0.3824
-5.4361	entertainment	-0.2486
-6.0382	enzyme	-0.2675
-4.6232	eo	-0.4204
-6.0382	eos	-0.2718
-5.7371	epts	-0.2702
-5.3392	equilibrium	-0.2608
-6.0382	ergolift	-0.2516
-4.9242	eric	-1.0854
-5.4361	erik	-0.2651
-6.0382	ern	-0.2709
-5.7371	erna	-0.3824
-6.0382	ernest	-0.2726
-6.0382	ernsting	-0.2711
-6.0382	eros	-0.2703
-6.0382	errol	-0.2726
-6.0382	es	-0.2516
-6.0382	escamoles	-0.2708
-5.7371	escape	-0.3823
-6.0382	escobar	-0.2723
-6.0382	eslyseses	-0.2725
-6.0382	esn	-0.2724
-5.0382	eso	-1.2726
-4.0382	esp	-0.2840
-6.0382	espanyol	-0.2690
-5.5610	estonia	-0.2717
-6.0382	estrogen	-0.2693
-6.0382	etanol	-0.2703
-6.0382	ethan	-0.2726
-5.4361	eu	-0.2507
-5.5610	eun	-0.2497
-5.0382	euro	-0.2424
-5.1351	europa	-0.2726
-6.0382	europe	-0.2726
-5.7371	european	-0.3824
-5.7371	eurozone	-0.3806
-6.0382	eva	-0.2726
-6.0382	event	-0.2694
-5.4361	ever	-0.4726
-5.5610	everest	-0.3403
-5.4361	everton	-0.2458
-6.0382	everyday	-0.2516
-5.7371	everything	-0.2726
-5.7371	everything’s	-0.3824
-5.2600	evn	-0.3146
-5.7371	exchange	-0.3773
-5.0839	exo	-0.2658
-5.7371	exodus	-0.2678
-5.7371	express	-0.3777
-6.0382	extra	-0.2726
-6.0382	eyed	-0.2726
-5.1931	eyeliner	-0.3834
-5.7371	f	-0.3614
-5.5610	fa	-0.6017
-6.0382	fabinho	-0.2726
-6.0382	fabio	-0.2726
-5.5610	fabregas	-0.2671
-6.0382	fabrica	-0.2725
-6.0382	facbook	-0.2693
-4.9968	face	-0.3392
-6.0382	facetime	-0.2516
-6.0382	fadell	-0.2719
-5.7371	fado	-0.2720
-6.0382	fafilm	-0.2720
-6.0382	fagan	-0.2726
-6.0382	fair	-0.2726
-4.8920	fairy	-0.3286
-5.7371	fake	-0.3809
-6.0382	falkner	-0.2694
-5.5610	fallen	-0.6022
-6.0382	family	-0.2726
-3.8768	fan	-0.5703
-5.7371	fancam	-0.2725
-6.0382	fanfest	-0.2719
-6.0382	fangirl	-0.2721
-4.8920	fanpage	-0.3200
-6.0382	fans	-0.2713
-5.7371	fantasy	-0.3806
-6.0382	fanzone	-0.2721
-6.0382	farc	-0.2726
-6.0382	farm	-0.2726
-5.4361	farmiga	-0.2681
-5.7371	fashion	-0.2726
-5.1931	fashionista	-0.2941
-6.0382	fatkulina	-0.2726
-6.0382	favor	-0.2516
-6.0382	faw	-0.2717
-5.4361	fax	-0.4881
-6.0382	fax…	-0.2679
-6.0382	faye	-0.2725
-6.0382	fayel	-0.2693
-6.0382	fb	-0.2516
-4.8621	fc	-0.2606
-6.0382	fda	-0.2720
-5.5610	fdi	-0.2706
-5.5610	fed	-0.2663
-6.0382	federer	-0.2726
-5.7371	feedback	-0.3815
-5.7371	feel	-0.3824
-6.0382	feige	-0.2693
-6.0382	fekir	-0.2703
-6.0382	felipe	-0.2726
-6.0382	felix	-0.2726
-6.0382	fellaini	-0.2680
-6.0382	ferdinand	-0.2723
-5.7371	fergie	-0.3818
-4.1088	ferguson	-0.4543
-6.0382	ferguson…	-0.2725
-6.0382	fernandes	-0.2721
-6.0382	fernandinho	-0.2726
-4.4819	fernando	-1.4218
-4.9968	ferrari	-0.3311
-5.7371	fest	-0.2692
-6.0382	festival	-0.2726
-6.0382	fever	-0.2726
-5.7371	fh	-0.2503
-6.0382	fiat	-0.2726
-6.0382	fidel	-0.2726
-4.3947	fifa	-0.3343
-6.0382	file	-0.2724
-5.5610	filter	-0.2718
-5.7371	financial	-0.3824
-6.0382	fine	-0.2516
-6.0382	finegold	-0.2690
-5.7371	finger	-0.3824
-6.0382	fintech	-0.2723
-6.0382	fiorentina	-0.2675
-5.4361	firmino	-0.2658
-6.0382	first	-0.2726
-6.0382	fischer	-0.2675
-6.0382	fisht	-0.2711
-6.0382	fistful	-0.2726
-5.7371	fit	-0.2675
-6.0382	fitness	-0.2724
-5.7371	five	-0.3824
-5.5610	flash	-0.2708
-6.0382	flashmob	-0.2516
-6.0382	flashmod	-0.2724
-6.0382	flc	-0.2693
-5.7371	flegrei	-0.2717
-6.0382	flex	-0.2726
-5.7371	florence	-0.2726
-5.7371	florentino	-0.3824
-5.3392	flores	-0.2440
-5.1931	florida	-0.2950
-6.0382	fluminense	-0.2516
-6.0382	flynn	-0.2706
-6.0382	flyshortcut	-0.2723
-6.0382	fm	-0.2726
-6.0382	foam	-0.2726
-5.7371	fodacon	-0.2465
-6.0382	folic	-0.2693
-5.7371	follow	-0.2711
-6.0382	follower	-0.2714
-5.2600	fonsi	-0.2705
-5.5610	font	-0.6021
-5.5610	food	-0.3421
-6.0382	foodbike	-0.2726
-6.0382	foody	-0.2723
-5.7371	footage	-0.3800
-5.7371	football	-0.2726
-5.3392	for	-0.3133
-5.7371	forbes	-0.2662
-4.8341	ford	-0.2968
-6.0382	fore	-0.2706
-5.5610	forest	-0.2478
-6.0382	forlan	-0.2714
-5.5610	format	-0.3385
-5.3392	formosa	-0.2898
-5.7371	forstall	-0.2692
-5.7371	fort	-0.3824
-6.0382	fortnite	-0.2708
-6.0382	fortress	-0.2715
-4.8920	fortuner	-0.2736
-5.5610	foster	-0.2675
-6.0382	fotboll	-0.2726
-5.4361	foundation	-0.3187
-6.0382	fountains	-0.2726
-5.4361	four	-0.2510
-5.3392	fpt	-0.2671
-6.0382	francesco	-0.2726
-6.0382	franciscaines	-0.2714
-5.2600	francisco	-0.3034
-5.7371	frank	-0.3824
-6.0382	frans	-0.2726
-6.0382	freckled	-0.2726
-6.0382	fred	-0.2721
-5.5610	freddie	-0.3427
-5.7371	free	-0.3824
-5.4361	freelance	-0.3824
-6.0382	freetime	-0.2516
-5.7371	french	-0.2726
-5.7371	friday	-0.2708
-6.0382	friedman	-0.2711
-6.0382	friedrich	-0.2693
-6.0382	friend	-0.2721
-5.5610	frieslandcampina	-0.6015
-5.4361	from	-0.3823
-6.0382	front	-0.2726
-5.7371	fructose	-0.2656
-5.5610	fs	-0.2662
-6.0382	fuchsia	-0.2716
-5.2600	fukushima	-0.3553
-6.0382	fulbright	-0.2720
-5.5610	fulham	-0.2467
-6.0382	fullerton	-0.2711
-6.0382	fults	-0.2703
-5.5610	furlong	-0.3409
-6.0382	furman	-0.2726
-5.2600	fury	-0.2642
-6.0382	futbol	-0.2726
-6.0382	futebol	-0.2726
-5.7371	futsal	-0.2482
-6.0382	fuv	-0.2516
-6.0382	fuyuzuki	-0.2723
-6.0382	fußball	-0.2726
-4.7371	g	-1.0005
-4.1574	ga	-0.2652
-6.0382	ga;	-0.2720
-4.8341	gaafm	-0.2797
-3.2637	gaafn	-0.8986
-5.7371	gaafu	-0.3809
-4.5468	gaafy	-0.3305
-4.9242	gaajp	-0.3555
-4.8341	gaajt	-0.8352
-4.7594	gaajy	-0.2598
-5.7371	gaal	-0.2715
-4.7829	gaan	-0.2880
-6.0382	gaary	-0.2726
-6.0382	gaasm	-0.2714
-4.0650	gaasp	-0.6357
-4.6957	gaasu	-0.3564
-6.0382	gaasy	-0.2726
-5.3392	gaaxm	-0.3102
-5.3392	gaaxu	-0.3324
-6.0382	gaaxy	-0.2726
-2.9956	gaay	-0.9628
-5.2600	gaàn	-0.2710
-6.0382	gaày	-0.2726
-6.0382	gaáp	-0.2724
-5.5610	gab	-0.3427
-5.4361	gabbana	-0.2436
-6.0382	gabr	-0.2708
-4.4361	gabriel	-1.6834
-4.1037	gaf	-0.3327
-5.7371	gaf!	-0.3614
-6.0382	gaf;	-0.2726
-5.7371	gafi	-0.2722
-6.0382	gafn	-0.2516
-4.6068	gafng	-0.2999
-6.0382	gafnh	-0.2721
-4.8341	gafo	-0.4094
-5.5610	gafu	-0.2661
-6.0382	gafy	-0.2726
-6.0382	gaf…	-0.2693
-6.0382	gaga	-0.2726
-4.6764	gai	-0.3395
-6.0382	gaijin	-0.2714
-5.1931	gaj	-0.5199
-5.7371	gajc	-0.2692
-4.4254	gajch	-0.3093
-6.0382	gajin	-0.2684
-6.0382	gajn	-0.2726
-4.3480	gajo	-0.3462
-4.4149	gajt	-0.4407
-6.0382	gak	-0.2725
-6.0382	galawng	-0.2699
-4.8077	galaxy	-0.8406
-4.8621	gam	-1.1473
-6.0382	gambler	-0.2516
-6.0382	gamcheon	-0.2715
-4.3569	game	-0.4182
-6.0382	gamer	-0.2684
-5.3392	gameshow	-0.2667
-6.0382	gamora	-0.2715
-4.3392	gan	-0.4480
-5.0839	gang	-0.3824
-5.7371	gangnam	-0.3824
-5.4361	ganh	-0.3240
-5.3392	gao	-0.2620
-6.0382	gar	-0.2720
-5.7371	gara	-0.2713
-6.0382	garage	-0.2680
-5.5610	garden	-0.2515
-5.7371	gardens	-0.3821
-5.4361	garen	-0.2588
-5.7371	gareth	-0.2726
-5.1931	garifullina	-0.3041
-5.2600	garrix	-0.2839
-6.0382	gartmann	-0.2516
-5.4361	gary	-0.2725
-6.0382	garzweiler	-0.2712
-4.2388	gas	-0.3494
-4.4047	gasc	-0.5501
-3.2550	gasi	-0.4388
-5.1351	gasn	-0.3411
-4.1461	gasnh	-0.8440
-6.0382	gaso	-0.2726
-5.5610	gasp	-0.3201
-6.0382	gasparrotti	-0.2693
-5.2600	gasy	-0.2743
-6.0382	gates	-0.2516
-6.0382	gatling	-0.2721
-5.7371	gato	-0.2712
-5.7371	gawfm	-0.3819
-6.0382	gawfn	-0.2726
-5.1351	gawjm	-0.4936
-5.1931	gawjng	-1.0884
-3.1649	gawjp	-0.6706
-5.1931	gawjt	-0.5197
-5.1931	gawm	-0.3833
-5.1351	gawng	-0.4764
-6.0382	gawp	-0.2690
-4.7829	gawsm	-0.2773
-3.7853	gawsn	-0.9404
-3.7526	gawsng	-0.3646
-5.1931	gawsp	-0.2961
-4.4700	gawst	-0.3257
-5.5610	gawxng	-0.6020
-6.0382	gaẃm	-0.2726
-5.5610	gaẃn	-0.3426
-5.7371	gaẃng	-0.2516
-4.9968	gaẉp	-0.3184
-4.3222	gax	-0.4050
-5.4361	gaxi	-0.3229
-4.4819	gaxy	-0.4257
-4.5468	gay	-1.1549
-5.2600	gái	-0.3821
-5.7371	gã	-0.2726
-5.0382	gdd	-0.4018
-6.0382	gddkt	-0.2726
-6.0382	gdh	-0.2724
-5.3392	gdp	-0.3363
-6.0382	gdpr	-0.2680
-5.3392	gea	-0.4374
-5.3392	gel	-0.4392
-6.0382	geleximco	-0.2516
-6.0382	gelson	-0.2726
-5.1931	gem	-1.0886
-4.7594	gen	-0.3266
-5.7371	gene	-0.2717
-4.8077	general	-0.2691
-6.0382	genius	-0.2703
-6.0382	genki	-0.2725
-5.7371	geoff	-0.3824
-6.0382	geographic	-0.2717
-5.0382	george	-0.3718
-6.0382	georgetown	-0.2516
-6.0382	georgia	-0.2726
-5.7371	georgieva	-0.3823
-5.3392	georgina	-0.2444
-5.7371	gerald	-0.3824
-5.5610	gerard	-0.6022
-5.7371	german	-0.3614
-6.0382	gerwig	-0.2516
-5.5610	get	-0.3427
-6.0382	ghawar	-0.2690
-5.0382	ghe	-0.2880
-4.7594	ghee	-0.4711
-5.5610	gheef	-0.2675
-5.4361	gheefnh	-0.2447
-6.0382	gheernh	-0.2724
-3.8859	ghees	-0.4869
-6.0382	gheesch	-0.2720
-6.0382	ghef	-0.2711
-6.0382	ghefn	-0.2722
-5.5610	ghej	-0.3423
-5.7371	ghejo	-0.2465
-4.2673	ghen	-0.7109
-6.0382	ghen!	-0.2516
-5.2600	gher	-0.2837
-4.4047	ghes	-0.6465
-5.5610	ghesm	-0.3420
-4.0839	ghesp	-0.4385
-4.5197	ghest	-0.3989
-6.0382	ghex	-0.2516
-6.0382	ghét	-0.2684
-3.5849	ghi	-0.9627
-6.0382	ghibli	-0.2703
-5.4361	ghieefn	-0.2709
-5.7371	ghif	-0.2717
-5.5610	ghifm	-0.2710
-5.3392	ghim	-0.2496
-6.0382	gi	-0.2708
-2.7007	gia	-0.5833
-5.4361	gia;	-0.3019
-6.0382	giaafm	-0.2726
-6.0382	giaafn	-0.2726
-5.7371	giaafy	-0.2514
-6.0382	giaafy!	-0.2516
-5.5610	giaajm	-0.6019
-4.1244	giaajn	-0.4048
-6.0382	giaajn…	-0.2516
-5.4361	giaajp	-0.2973
-4.0211	giaajt	-0.5389
-3.9890	giaasc	-0.9754
-6.0382	giaasc…	-0.2723
-5.3392	giaasm	-0.2693
-5.7371	giaasp	-0.3823
-4.1631	giaasu	-0.4824
-3.6634	giaasy	-0.4892
-5.5610	giaaxm	-0.3424
-4.2600	giaay	-0.6191
-6.0382	giaáy	-0.2726
-4.0559	giaf	-0.3287
-6.0382	giaf;	-0.2725
-5.1351	giafn	-0.4004
-5.7371	giafng	-0.2678
-4.0339	giafnh	-0.6905
-3.8920	giafu	-0.5432
-3.9447	giafy	-0.4271
-3.8313	giai	-2.0716
-6.0382	giajt	-0.2714
-4.4941	giam	-0.3291
-2.9532	gian	-0.5305
-6.0382	gian;	-0.2723
-3.7640	giang	-0.3875
-6.0382	giang;	-0.2693
-6.0382	giangphus	-0.2726
-6.0382	giang…xung	-0.2725
-5.7371	gianh	-0.3614
-6.0382	gianni	-0.2726
-5.7371	gian…	-0.3821
-3.1422	giao	-0.7639
-6.0382	giao;	-0.2724
-6.0382	giaothong	-0.2516
-2.8679	giar	-0.8289
-2.9801	giari	-1.0192
-3.3222	giarm	-0.5559
-3.5524	giarn	-0.6505
-4.1088	giarng	-0.7349
-6.0382	giarng;	-0.2725
-5.5610	giarnh	-0.2503
-5.7371	giar…	-0.2716
-2.9143	gias	-0.6509
-3.5539	giasc	-0.3606
-3.3745	giasm	-2.1591
-4.5910	giasn	-0.8799
-4.8341	giasng	-0.6201
-3.3533	giaso	-0.8794
-4.3392	giasp	-0.4639
-6.0382	giasp;	-0.2516
-6.0382	giawfm	-0.2726
-5.1931	giawfng	-0.5727
-5.3392	giawjc	-0.2655
-6.0382	giawjm	-0.2694
-6.0382	giawjn	-0.2718
-4.4819	giawjt	-0.3414
-6.0382	giawm	-0.2726
-5.1351	giawng	-0.3224
-6.0382	giawst	-0.2725
-5.3392	giax	-0.2710
-5.4361	giaxi	-0.6155
-4.3947	giaxn	-0.3711
-5.7371	giaxy	-0.2726
-5.4361	giày	-0.2724
-5.1931	giá	-0.2720
-5.5610	giác	-0.2726
-5.2600	giám	-0.4692
-5.3392	giáo	-0.3127
-5.3392	giả	-0.2516
-5.0382	giải	-0.3270
-5.5610	giảm	-0.2515
-5.5610	giản	-0.2726
-5.5610	giảng	-0.3426
-4.9242	gieefng	-0.3582
-5.4361	gieeng	-0.3188
-5.5610	gieesm	-0.2516
-5.3392	gieesng	-0.2689
-4.0888	gieest	-0.6862
-5.4361	gieexu	-0.3021
-6.0382	gieèng	-0.2516
-5.7371	giefm	-0.3824
-6.0382	giejo	-0.2726
-4.9590	gieo	-0.4930
-6.0382	gies	-0.2726
-6.0382	giẻ	-0.2726
-2.9572	gif	-0.7222
-5.7371	gif!	-0.3614
-4.4700	gifn	-0.6333
-6.0382	gift	-0.2726
-6.0382	gigi	-0.2726
-5.5610	gil	-0.6020
-6.0382	gilles	-0.2726
-6.0382	gillian	-0.2726
-6.0382	gim	-0.2726
-6.0382	giminez	-0.2723
-6.0382	gin	-0.2724
-6.0382	gio	-0.2725
-5.0839	giof	-0.2683
-4.4819	giofn	-0.3398
-6.0382	gioj	-0.2516
-3.9737	giojng	-0.6744
-4.3947	giojt	-0.7893
-5.7371	gion	-0.3824
-6.0382	gioofng	-0.2726
-5.0382	gioong	-0.4030
-3.5879	gioosng	-0.8370
-5.3392	gioox	-0.2497
-6.0382	gioóng	-0.2722
-5.2600	gior	-0.2693
-6.0382	giorgetto	-0.2726
-5.7371	giorgio	-0.3824
-4.0129	giori	-0.3918
-5.7371	giorn	-0.3614
-3.8077	gios	-0.3734
-6.0382	giosn	-0.2712
-5.7371	giosng	-0.2716
-5.7371	gios…	-0.3614
-4.8621	giow	-0.4132
-3.0878	giowf	-0.4963
-5.3392	giowfi	-0.2478
-6.0382	giowfi!	-0.2726
-6.0382	giowf…	-0.2712
-5.1931	giowr	-0.5201
-6.0382	giows	-0.2726
-2.9851	giowsi	-0.5873
-6.0382	giowsi!	-0.2516
-5.2600	giowxn	-0.2457
-5.3392	gioẁ	-0.4394
-4.6957	gioẃi	-0.4288
-6.0382	gió	-0.2726
-5.4361	giỏi	-0.3225
-5.1931	gir	-0.4076
-4.6232	girl	-0.3079
-5.3392	girlgroup	-0.2646
-5.5610	girls	-0.2705
-6.0382	gis	-0.2726
-6.0382	github	-0.2693
-6.0382	giua	-0.2516
-5.3392	giufm	-0.2451
-6.0382	giugiaro	-0.2516
-5.4361	giuja	-0.4715
-4.5468	giujc	-0.5559
-5.0382	giun	-0.2698
-5.5610	giuoojc	-0.3418
-6.0382	giuri	-0.2516
-6.0382	gius	-0.2726
-5.3392	giuseppe	-0.5220
-3.0952	giusp	-0.6016
-6.0382	giusp!	-0.2516
-5.2600	giuwjt	-0.7193
-4.2186	giuwowfng	-0.3992
-5.5610	giuwowng	-0.3421
-6.0382	giuwowsng	-0.2711
-3.3401	giuwx	-0.6186
-3.1772	giuwxa	-0.5238
-5.2600	giuw̃	-0.3059
-5.5610	giux	-0.2478
-5.7371	giuxa	-0.2657
-4.9968	giúp	-0.3913
-6.0382	givenchy	-0.2516
-5.7371	gizmodo	-0.3824
-4.8341	gì	-0.3197
-6.0382	gìn	-0.2726
-6.0382	glamour	-0.2716
-6.0382	glaser	-0.2720
-5.2600	glasgow	-0.5196
-6.0382	glen	-0.2726
-5.4361	global	-0.2462
-6.0382	glucose	-0.2721
-5.5610	glutathione	-0.2706
-6.0382	gluten	-0.2684
-5.4361	gmo	-0.3789
-4.9968	go	-0.3372
-6.0382	goal	-0.2726
-5.7371	godin	-0.2462
-4.6580	gof	-0.5857
-3.9737	gofn	-0.3761
-3.3264	goji	-0.6569
-4.1191	gojn	-0.4889
-5.1931	gojng	-0.5187
-5.5610	gojt	-0.2709
-5.2600	gold	-0.2844
-5.7371	golden	-0.2726
-6.0382	goldsun	-0.2708
-4.7829	golf	-0.5450
-5.0839	golovin	-0.3239
-4.6957	gom	-0.3209
-5.0382	gomez	-0.2608
-6.0382	gomezjustin	-0.2726
-6.0382	gomezselena	-0.2726
-6.0382	gondo	-0.2694
-5.5610	gone	-0.3426
-6.0382	gong	-0.2726
-5.5610	gongcha	-0.2677
-6.0382	gonzales	-0.2694
-5.5610	gonzalez	-0.2710
-5.5610	goo	-0.3424
-6.0382	good	-0.2726
-5.5610	goof	-0.6022
-3.8423	goofm	-0.4848
-5.1351	goofng	-0.5490
-5.7371	goojc	-0.2726
-5.1351	gooji	-0.3567
-5.5610	goojp	-0.3415
-6.0382	goojt	-0.2716
-5.4361	goon	-0.2621
-5.7371	goong	-0.2674
-5.5610	goor	-0.2719
-3.9310	goosc	-0.4393
-4.3306	goosi	-0.3926
-4.9590	goosm	-0.3424
-4.1244	goox	-0.3472
-5.7371	goox…	-0.2478
-6.0382	goòm	-0.2726
-5.7371	goóc	-0.2726
-6.0382	gopchang	-0.2675
-6.0382	gopro	-0.2726
-5.7371	gorbachev	-0.2654
-5.3392	gordon	-0.3581
-5.2600	goretzka	-0.2446
-5.4361	gori	-0.4933
-6.0382	gorng	-0.2712
-5.7371	gosa	-0.2690
-3.7902	gosc	-0.5251
-4.1191	gosi	-0.3270
-2.9925	gosp	-1.4926
-4.6957	gost	-0.2853
-5.7371	got	-0.3824
-6.0382	gotham	-0.2726
-6.0382	gothenburg	-0.2726
-6.0382	gotic	-0.2719
-6.0382	gotze	-0.2699
-5.3392	gout	-0.3534
-6.0382	govan	-0.2680
-6.0382	govorit	-0.2726
-5.7371	gowf	-0.2724
-4.9590	gowfm	-0.2691
-4.0129	gowji	-0.8785
-5.4361	gowjn	-0.3239
-6.0382	gowjt	-0.2723
-5.1351	gowri	-0.2896
-5.2600	gowsm	-0.2617
-4.0987	gowx	-0.3486
-4.6957	gox	-0.4495
-6.0382	góc	-0.2726
-6.0382	gọi	-0.2726
-6.0382	gpmb	-0.2516
-6.0382	gpp	-0.2722
-5.2600	gps	-0.4016
-5.7371	gq	-0.2726
-4.3222	grab	-0.3099
-5.3392	grabbike	-0.3087
-5.7371	grabcar	-0.2702
-6.0382	grabfood	-0.2675
-6.0382	grabpay	-0.2516
-5.1351	grabtaxi	-0.2446
-6.0382	grady	-0.2703
-6.0382	graham	-0.2725
-5.1931	grand	-0.4349
-6.0382	grap	-0.2726
-6.0382	graphic	-0.2726
-5.5610	graptaxi	-0.2663
-5.7371	grealish	-0.2666
-5.5610	greatest	-0.6022
-5.7371	gree	-0.2695
-5.4361	green	-0.2684
-5.1931	greg	-1.0886
-4.7371	gregg	-0.2953
-5.2600	greta	-0.2465
-4.9968	griezmann	-0.4460
-6.0382	griffin	-0.2721
-6.0382	grimandi	-0.2723
-6.0382	grint	-0.2678
-4.8920	group	-0.3247
-4.9968	grozny	-0.2516
-6.0382	gruber	-0.2724
-6.0382	grunge	-0.2693
-5.7371	gruzia	-0.2664
-4.7371	gs	-0.4098
-6.0382	gst	-0.2712
-6.0382	gth	-0.2516
-4.2673	gtvt	-0.4226
-4.7594	gu	-0.8022
-6.0382	guam	-0.2720
-6.0382	guan	-0.2726
-6.0382	guanabo	-0.2725
-5.7371	guardian	-0.2505
-5.3392	guardiola	-0.2896
-5.7371	guatape	-0.2500
-6.0382	guatemala	-0.2516
-5.7371	gucci	-0.2689
-4.9968	guendogan	-0.2711
-6.0382	guest	-0.2516
-6.0382	guevara	-0.2516
-5.3392	guf	-0.2700
-5.4361	guinea	-0.6154
-5.5610	guinness	-0.2488
-6.0382	guitar	-0.2516
-4.4700	gujc	-0.4388
-6.0382	guk	-0.2726
-6.0382	gulati	-0.2720
-5.5610	gum	-0.2698
-5.7371	gun	-0.2721
-6.0382	gunho	-0.2725
-6.0382	gunners	-0.2679
-5.5610	guoofng	-0.3422
-6.0382	guoojc	-0.2714
-5.7371	guoosc	-0.3824
-5.3392	gurkha	-0.2627
-5.7371	gus	-0.3614
-5.0839	gust	-0.2660
-6.0382	guwahati	-0.2716
-4.9242	guwfng	-0.3240
-5.7371	guwowfm	-0.2680
-6.0382	guwowfm…	-0.2516
-6.0382	guwowfng	-0.2726
-4.9590	guwowjng	-0.3961
-4.9242	guwowm	-0.3705
-3.8077	guwowng	-0.9534
-2.9988	guwri	-1.2092
-5.7371	guw̉i	-0.2709
-4.4149	guxi	-0.6738
-5.4361	guyana	-0.3592
-6.0382	gũi	-0.2726
-5.7371	gwan	-0.2723
-5.5610	gwi	-0.6015
-5.5610	gyllenhaal	-0.2715
-4.8077	gym	-0.3353
-6.0382	gymer	-0.2684
-6.0382	gyu	-0.2726
-6.0382	gyuri	-0.2717
-4.3850	h	-1.2011
-5.1351	ha	-0.2990
-4.6068	haafm	-0.3182
-3.7757	haafu	-1.3560
-5.7371	haafy	-0.2500
-6.0382	haagen	-0.2726
-4.4700	haajn	-0.5127
-6.0382	haajp	-0.2516
-3.4372	haaju	-0.6703
-6.0382	haaju…	-0.2516
-3.6526	haam	-2.2645
-4.0604	haan	-0.4360
-5.7371	haarm	-0.3824
-5.7371	haary	-0.3792
-5.4361	haasn	-0.2675
-6.0382	haasng	-0.2690
-3.6402	haasp	-1.0798
-4.9968	haast	-0.2892
-5.2600	haasu	-0.2824
-6.0382	haau	-0.2720
-5.1351	haaxng	-0.2365
-6.0382	haàu	-0.2723
-5.5610	haáp	-0.6022
-5.3392	haạu	-0.2726
-5.2600	habeco	-0.2740
-6.0382	hachinohe	-0.2516
-5.5610	hack	-0.2477
-6.0382	hacker	-0.2724
-5.7371	hadid	-0.3614
-5.0839	hae	-0.3455
-2.8647	haf	-1.2619
-3.8423	hafi	-0.8428
-4.0514	hafm	-0.4884
-3.5303	hafn	-0.9965
-2.6991	hafng	-0.6558
-5.3392	hafng;	-0.5200
-2.8343	hafnh	-0.7318
-5.7371	hafnh;	-0.2723
-3.8450	hafo	-0.6117
-5.7371	hafu	-0.2711
-5.5610	hag	-0.2642
-6.0382	hagashikawa	-0.2703
-4.8341	hagl	-0.2779
-5.7371	haha	-0.3614
-6.0382	hahaha	-0.2725
-2.7717	hai	-0.6162
-6.0382	hai!	-0.2726
-6.0382	hailey	-0.2726
-3.5988	haj	-0.6270
-5.1931	hajc	-0.2909
-4.7160	hajch	-0.4466
-3.5223	haji	-0.5279
-4.6402	hajm	-0.4267
-3.4449	hajn	-0.6306
-3.9046	hajng	-0.5720
-3.5849	hajnh	-1.0784
-6.0382	hajnh!	-0.2713
-5.0382	hajo	-0.9701
-5.5610	hajp	-0.2457
-3.6508	hajt	-0.8537
-6.0382	halden	-0.2726
-6.0382	hale	-0.2726
-6.0382	halei	-0.2708
-6.0382	haley	-0.2725
-5.7371	halico	-0.2720
-6.0382	halimah	-0.2726
-6.0382	halles	-0.2713
-6.0382	hallow	-0.2516
-5.4361	halloween	-0.2477
-4.6957	ham	-0.5480
-6.0382	hamada	-0.2516
-5.5610	hamas	-0.3214
-6.0382	hambuger	-0.2708
-5.5610	hamburg	-0.2723
-6.0382	hamidi	-0.2516
-5.1931	hamlet	-0.6335
-6.0382	hammond	-0.2726
-5.4361	hampshire	-0.4885
-5.1351	han	-0.2669
-6.0382	hanayo	-0.2711
-6.0382	handara	-0.2678
-4.6764	hang	-0.3957
-5.5610	hanh	-0.3380
-6.0382	hanna	-0.2726
-5.3392	hanoi	-0.5220
-6.0382	hanson	-0.2726
-5.7371	hanway	-0.2707
-6.0382	hanyu	-0.2516
-4.7829	hao	-0.3923
-6.0382	hap	-0.2726
-6.0382	happens!	-0.2726
-5.3392	happy	-0.2894
-6.0382	hapulico	-0.2726
-4.6232	har	-0.5009
-5.5610	hara	-0.2490
-6.0382	hard	-0.2726
-5.5610	harder	-0.6021
-5.7371	hardwell	-0.3817
-5.7371	hardy	-0.2482
-3.4892	hari	-0.5997
-5.4361	harimoto	-0.3611
-6.0382	harish	-0.2675
-6.0382	harley	-0.2721
-6.0382	harm	-0.2716
-5.4361	harman	-0.2650
-3.9310	haro	-0.4870
-5.7371	harper	-0.3820
-6.0382	harrington	-0.2725
-6.0382	harrison	-0.2726
-4.8621	harry	-0.4513
-6.0382	harry’	-0.2516
-4.9242	harvard	-0.2892
-6.0382	harvey	-0.2726
-6.0382	hary	-0.2722
-4.5910	has	-0.9427
-5.4361	hasc	-0.4930
-5.5610	hashtag	-0.3411
-4.3661	hasi	-0.5589
-6.0382	hasina	-0.2716
-6.0382	hasm	-0.2516
-5.0839	hasn	-0.3291
-5.7371	hasng	-0.2516
-4.5910	haso	-1.1635
-3.5170	hast	-0.4193
-6.0382	hasu	-0.2721
-5.7371	hat	-0.2720
-6.0382	hatan	-0.2726
-5.7371	hatang	-0.3778
-5.5610	hatchback	-0.2684
-5.7371	hate	-0.3824
-5.5610	hathaway	-0.2482
-5.5610	havana	-0.3213
-5.2600	hawaii	-0.2475
-5.7371	hawfm	-0.2720
-5.2600	hawfn	-0.5793
-3.8952	hawfng	-0.5254
-6.0382	hawjc	-0.2722
-5.3392	hawking	-0.3077
-5.1351	hawm	-0.8595
-4.5758	hawng	-0.6360
-3.8260	hawrn	-0.5752
-6.0382	hawsawi	-0.2703
-5.4361	hawsc	-0.2709
-4.2121	hawsn	-0.3899
-5.7371	hawsng	-0.3824
-4.8920	hawst	-0.4336
-6.0382	hawxn	-0.2690
-6.0382	hawxng	-0.2720
-6.0382	haw̉n	-0.2726
-4.5067	haxi	-0.3227
-4.7371	haxm	-0.7704
-5.1351	haxn	-0.2939
-3.8052	haxng	-0.5328
-5.0382	haxnh	-0.4269
-6.0382	haxo	-0.2726
-3.2354	haxy	-0.7457
-2.8327	hay	-0.2176
-6.0382	hayao	-0.2726
-5.4361	hazard	-0.3227
-6.0382	hazel	-0.2710
-5.2600	hà	-0.4685
-5.4361	hàn	-0.6157
-4.9968	hàng	-0.2883
-5.1351	hành	-0.3236
-5.4361	hào	-0.2726
-6.0382	hái	-0.2723
-6.0382	háo	-0.2726
-5.5610	hát	-0.2720
-6.0382	hãnh	-0.2516
-5.7371	hãy	-0.2726
-5.7371	hại	-0.2706
-5.5610	hạn	-0.3426
-5.7371	hạng	-0.3824
-5.7371	hạnh	-0.3824
-5.7371	hạt	-0.3814
-5.4361	hbo	-0.2483
-5.1351	hc	-0.6490
-6.0382	hcdd	-0.2516
-3.2854	hcm	-0.7392
-5.4361	hcv	-0.3019
-6.0382	hdbank…	-0.2690
-6.0382	hddmbdd	-0.2726
-5.1931	hddnd	-0.2972
-4.6068	hddqt	-0.3616
-5.2600	hddtv	-0.3037
-4.6957	hddxx	-0.4285
-6.0382	hdr	-0.2693
-5.7371	he	-0.2722
-6.0382	healthline	-0.2716
-5.7371	heart	-0.3824
-6.0382	heartbeat	-0.2516
-6.0382	heather	-0.2675
-6.0382	heaven	-0.2726
-6.0382	heavens	-0.2726
-5.7371	hebrew	-0.3777
-5.4361	hecker	-0.2682
-5.3392	hecta	-0.4388
-6.0382	hectar	-0.2711
-5.2600	hector	-0.7403
-4.8621	hee	-0.3909
-3.7222	heef	-0.5877
-3.1047	heej	-0.8268
-4.8621	heejt	-0.3677
-5.7371	heen	-0.2516
-5.4361	heenh	-0.2704
-6.0382	heer	-0.2726
-5.4361	heern	-0.3187
-6.0382	heernh	-0.2726
-5.0839	heesn	-0.2346
-3.1037	heest	-0.5620
-6.0382	heest’	-0.2516
-4.7594	heex	-0.3623
-5.2600	heè	-0.3426
-5.2600	heét	-0.3858
-5.2600	heẹ	-0.2724
-3.5263	hef	-0.5501
-5.0382	hefn	-0.4294
-5.2600	heidemann	-0.4007
-6.0382	heidi	-0.2726
-5.3392	heineken	-0.2655
-6.0382	heirs	-0.2726
-5.4361	heist	-0.3199
-5.7371	hej	-0.2509
-3.8768	hejn	-0.5604
-4.2057	hejp	-0.4340
-6.0382	helen	-0.2726
-5.7371	helene	-0.2686
-5.7371	hello	-0.3824
-5.7371	helmut	-0.3824
-5.7371	helsinki	-0.2648
-5.7371	hem	-0.2516
-6.0382	hemingway	-0.2726
-6.0382	hemsworth	-0.2723
-5.1931	hen	-0.4224
-5.5610	henderson	-0.2662
-5.4361	henn	-0.3011
-6.0382	henrietta	-0.2726
-5.7371	henry	-0.2516
-4.6068	heo	-0.3204
-6.0382	hep	-0.2723
-5.7371	hereo	-0.3800
-4.8621	herm	-0.2601
-6.0382	hermefs	-0.2710
-5.5610	hermes	-0.3375
-6.0382	hermitage	-0.2711
-4.9968	hernan	-0.2726
-5.4361	hero	-0.4935
-6.0382	heroin	-0.2516
-6.0382	herrera	-0.2690
-5.4361	herventure	-0.2681
-4.7371	hes	-0.7853
-5.2600	heso	-0.4036
-4.6068	hest	-0.3189
-6.0382	heydarian	-0.2724
-5.3392	hè	-0.4391
-5.7371	hẻm	-0.2675
-6.0382	hẻo	-0.2726
-6.0382	hẹn	-0.2726
-5.5610	hẹp	-0.6022
-6.0382	hhoja	-0.2723
-4.1405	hi	-1.3014
-6.0382	hia	-0.2725
-6.0382	hiace	-0.2516
-6.0382	hidden	-0.2726
-6.0382	hide	-0.2726
-6.0382	hiebert	-0.2725
-5.5610	hieefm	-0.6021
-4.3058	hieefn	-0.6404
-2.5800	hieejn	-0.7027
-5.7371	hieejn;	-0.2721
-6.0382	hieejn…	-0.2516
-4.0047	hieejp	-0.7575
-3.0591	hieeju	-0.6161
-6.0382	hieeju!	-0.2516
-5.5610	hieeju;	-0.3421
-5.1931	hieen	-0.4283
-6.0382	hieeng	-0.2678
-3.5210	hieerm	-0.5373
-6.0382	hieerm;	-0.2723
-5.7371	hieerm…	-0.2641
-4.2121	hieern	-0.6469
-3.2451	hieeru	-0.7224
-3.6598	hieesm	-0.9987
-6.0382	hieesm;	-0.2721
-4.0088	hieesn	-0.6864
-4.6580	hieesp	-0.5330
-4.1244	hieesu	-0.4150
-5.5610	hieén	-0.2516
-6.0382	hieẻm	-0.2725
-5.3392	hieẻu	-0.2713
-4.7371	hieẹn	-0.2745
-6.0382	hieẹp	-0.2726
-5.1351	hieẹu	-0.2726
-4.2900	hierro	-0.7208
-5.3392	hif	-0.5010
-2.7964	hifnh	-0.5641
-5.5610	hifnh!	-0.5811
-5.3392	higashikawa	-0.2643
-5.0839	high	-0.4493
-6.0382	highbury	-0.2724
-6.0382	highlands	-0.2726
-5.4361	highlight	-0.2958
-6.0382	higuain	-0.2726
-5.7371	hill	-0.2722
-6.0382	hills	-0.2516
-6.0382	hillsborough	-0.2516
-6.0382	hillwood	-0.2726
-6.0382	hilter	-0.2711
-5.5610	hilton	-0.3216
-5.7371	hilux	-0.2692
-6.0382	him	-0.2726
-6.0382	hin	-0.2726
-6.0382	hindi	-0.2675
-6.0382	hindu	-0.2516
-6.0382	hip	-0.2726
-5.7371	hiphop	-0.2708
-5.5610	hir	-0.2720
-5.5610	hirnh	-0.3192
-6.0382	hiroki	-0.2726
-5.5610	his	-0.3427
-4.9590	hist	-0.7954
-5.7371	history	-0.2481
-4.5910	hit	-0.2748
-6.0382	hitachi	-0.2726
-5.2600	hitler	-0.2818
-4.8077	hiu	-0.3880
-4.6764	hiv	-0.3763
-6.0382	hixnh	-0.2516
-4.6232	hình	-0.4144
-6.0382	hkt	-0.2725
-3.8155	hlv	-0.5309
-5.7371	hmb	-0.2665
-5.7371	hn	-0.2462
-6.0382	hnx	-0.2680
-4.4047	ho	-0.3601
-3.3205	hoa	-0.6148
-4.1297	hoaf	-0.4861
-4.0469	hoafi	-0.5656
-3.1108	hoafn	-1.6637
-3.4201	hoafng	-0.6614
-4.4941	hoafnh	-0.7605
-5.0839	hoaj	-0.2633
-3.5344	hoajch	-0.3484
-4.2253	hoaji	-0.4857
-4.8341	hoajn	-0.3979
-6.0382	hoajnh	-0.2726
-3.1568	hoajt	-1.0785
-6.0382	hoajt…	-0.2712
-3.0997	hoan	-2.1293
-4.0129	hoang	-0.6311
-6.0382	hoanh	-0.2723
-6.0382	hoaprox	-0.2708
-5.4361	hoar	-0.3233
-4.0469	hoarng	-0.6359
-4.0007	hoas	-0.3559
-5.7371	hoasc	-0.3614
-4.8621	hoasn	-0.8405
-6.0382	hoawfng	-0.2718
-3.1875	hoawjc	-0.2327
-6.0382	hoawrn	-0.2722
-6.0382	hoawsc	-0.2711
-6.0382	hoawst	-0.2726
-5.5610	hoaẉc	-0.2690
-4.4149	hoaxn	-0.4780
-4.9242	hoay	-0.3076
-5.1931	hoàn	-0.3849
-5.5610	hoàng	-0.3427
-5.7371	hoạch	-0.2726
-6.0382	hoạn	-0.2726
-5.1351	hoạt	-0.6197
-6.0382	hoa’	-0.2694
-6.0382	hobbes	-0.2678
-5.7371	hoe	-0.2692
-5.7371	hoen	-0.2726
-5.7371	hoest	-0.3778
-4.3058	hof	-0.3856
-3.2167	hofa	-0.5590
-6.0382	hofaneesu	-0.2718
-6.0382	hofaquajt	-0.2715
-5.7371	hofe	-0.2513
-6.0382	hoff	-0.2711
-6.0382	hofm	-0.2724
-4.4471	hofn	-0.7396
-5.4361	hofng	-0.2719
-6.0382	hogan	-0.2719
-4.5197	hoi	-0.3678
-2.7843	hoj	-0.6381
-3.8983	hoja	-0.5408
-2.7102	hojc	-0.6510
-6.0382	hojc;	-0.2723
-6.0382	hoje	-0.2721
-4.8077	hojng	-0.3305
-3.7415	hojp	-0.5424
-6.0382	hokk	-0.2726
-6.0382	hokuryu	-0.2725
-5.7371	holdings	-0.2516
-4.3569	hollywood	-0.3842
-5.7371	holmes	-0.2715
-5.7371	hom	-0.3824
-5.5610	home	-0.2726
-5.4361	homeland	-0.2618
-5.3392	homestay	-0.2603
-5.2600	hon	-0.2793
-4.6764	honda	-0.3679
-6.0382	hondawva	-0.2726
-6.0382	honest	-0.2726
-4.9968	honey	-1.3090
-6.0382	honeycomb	-0.2675
-6.0382	honeywell	-0.2699
-4.8341	hong	-1.2855
-6.0382	hongrui	-0.2516
-6.0382	hongyu	-0.2715
-4.2057	hoo	-0.6345
-6.0382	hood	-0.2675
-6.0382	hoodie	-0.2726
-3.3462	hoof	-0.6099
-3.5582	hoofi	-0.5070
-6.0382	hoofi…	-0.2703
-4.0425	hoofn	-0.3914
-3.7459	hoofng	-0.4040
-6.0382	hoof…	-0.2723
-4.1689	hooi	-0.4652
-3.3735	hooj	-0.4671
-5.5610	hoojc	-0.2690
-2.7868	hooji	-0.5563
-5.4361	hooji;	-0.2714
-5.7371	hooji…	-0.3614
-6.0382	hoojn	-0.2726
-4.1037	hoojp	-0.3515
-5.5610	hoojt	-0.3426
-5.5610	hooligan	-0.2667
-3.5611	hoom	-1.1347
-3.7853	hoon	-0.5777
-4.8341	hoong	-0.3398
-4.5758	hoor	-0.2955
-4.9590	hoori	-0.3440
-6.0382	hoorm	-0.2726
-5.4361	hoorn	-0.6157
-4.6232	hoorng	-0.2931
-4.6764	hoos	-0.3557
-5.0382	hoosc	-0.2719
-4.3569	hoosi	-1.0585
-4.6957	hoost	-0.6241
-6.0382	hoost!	-0.2516
-3.6690	hoox	-2.6417
-4.6232	hooxn	-1.1135
-5.4361	hoò	-0.3029
-5.3392	hoòi	-0.2713
-6.0382	hoòn	-0.2726
-6.0382	hoót	-0.2726
-6.0382	hoõ	-0.2726
-5.4361	hoọ	-0.2710
-4.7829	hoọi	-0.3187
-5.7371	hoọp	-0.2706
-6.0382	hop	-0.2675
-6.0382	hope	-0.2675
-4.1869	hora	-0.4676
-5.3392	horea	-0.2663
-3.3230	hori	-0.3953
-6.0382	horizon	-0.2712
-6.0382	horizonte	-0.2516
-6.0382	horm	-0.2726
-5.3392	hormon	-0.3118
-5.7371	hormone	-0.2719
-6.0382	horn	-0.2516
-3.9775	horng	-0.5332
-6.0382	horng;	-0.2725
-6.0382	horror	-0.2726
-6.0382	horwitz	-0.2711
-5.7371	hos	-0.3824
-3.0972	hosa	-0.4984
-6.0382	hosa;	-0.2726
-4.7829	hosc	-0.4433
-5.5610	hose	-0.2440
-6.0382	hosi	-0.2715
-5.5610	hosm	-0.6022
-5.3392	hosng	-0.3579
-5.2600	host	-0.2430
-5.7371	hostel	-0.2679
-4.1931	hot	-0.6918
-5.7371	hotboy	-0.2680
-5.5610	hotel	-0.2717
-5.5610	hotface	-0.2714
-5.3392	hotgirl	-0.2713
-5.7371	hotmail	-0.3773
-6.0382	houbi	-0.2726
-4.9968	house	-0.6223
-5.5610	houseparty	-0.2464
-5.7371	how	-0.2725
-5.4361	howard	-0.2460
-5.2600	howf	-0.4015
-6.0382	howfi	-0.2516
-5.0382	howfn	-0.2859
-3.7180	howi	-0.3585
-5.7371	howji	-0.2512
-6.0382	howjm	-0.2726
-2.7675	howjp	-0.6954
-6.0382	howjp;	-0.2724
-2.7345	hown	-0.7676
-5.4361	hown!	-0.4698
-4.5197	howr	-0.3199
-5.3392	howri	-0.2652
-5.5610	hows	-0.6022
-6.0382	howsn	-0.2726
-5.2600	howsp	-0.7403
-5.5610	howst	-0.2721
-5.3392	howxi	-0.2494
-6.0382	hoẃn	-0.2726
-6.0382	how̉	-0.2516
-5.1351	hoẉp	-0.3680
-5.3392	hòa	-0.4395
-6.0382	hòa…	-0.2516
-5.3392	hóa	-0.3100
-5.2600	hỏi	-0.4068
-4.5910	họ	-0.3066
-4.2388	học	-0.4775
-6.0382	họp	-0.2726
-5.4361	hpv	-0.3179
-4.9968	hs	-0.2776
-6.0382	hsg	-0.2678
-6.0382	hsi	-0.2718
-5.7371	htc	-0.2703
-5.7371	html	-0.3823
-5.7371	htv	-0.2689
-5.5610	htx	-0.6021
-5.5610	hu	-0.2514
-5.1351	huaan	-0.4300
-3.9890	huaasn	-1.5008
-5.5610	huaán	-0.6022
-6.0382	huang	-0.2726
-5.3392	huawei	-0.4377
-5.5610	hubbard	-0.2651
-5.1351	hublot	-0.2657
-6.0382	huckabee	-0.2726
-6.0382	hud	-0.2725
-5.7371	hudson	-0.3824
-5.2600	huee	-0.3350
-5.7371	hueef	-0.3823
-4.6232	hueej	-0.3439
-5.7371	hueenh	-0.3824
-4.1993	huees	-0.3581
-6.0382	hueesch	-0.2726
-5.3392	huf	-0.5005
-5.3392	hufa	-0.4992
-5.5610	huffman	-0.2677
-5.7371	hufi	-0.3824
-5.3392	hufm	-0.4181
-5.7371	hufn	-0.2694
-3.7617	hufng	-0.4784
-5.7371	hufng…	-0.3614
-6.0382	hugo	-0.2721
-6.0382	huh	-0.2726
-5.7371	huhu	-0.3614
-5.1351	hui	-0.8549
-6.0382	huitlacoche	-0.2713
-6.0382	huj	-0.2723
-5.2600	hujc	-0.3013
-5.0839	huji	-0.3254
-6.0382	hujp	-0.2722
-4.5610	hujt	-0.4388
-5.7371	hull	-0.2664
-5.5610	human	-0.2700
-5.7371	hume	-0.3824
-6.0382	hummels	-0.2719
-6.0382	hummer	-0.2717
-5.1931	hun	-0.5205
-4.2747	hung	-0.6639
-5.7371	hungary	-0.2725
-6.0382	hunter	-0.2726
-5.7371	hunters	-0.2516
-4.0339	huoosng	-0.3650
-5.5610	huow	-0.2719
-5.5610	huppenkothen	-0.2692
-5.0839	hur	-0.3966
-5.7371	huracan	-0.2482
-5.7371	huri	-0.3816
-6.0382	hurraw	-0.2726
-4.0791	hury	-0.5130
-5.4361	hus	-0.2707
-4.8341	husc	-0.4061
-5.5610	husi	-0.2725
-6.0382	husky	-0.2675
-5.5610	husm	-0.3360
-5.3392	husng	-0.3128
-5.5610	husp	-0.2708
-5.2600	hussein	-0.2997
-3.5454	hust	-0.6272
-5.7371	husy	-0.2726
-5.7371	hutchinson	-0.3813
-4.1088	huw	-0.8284
-5.5610	huwf	-0.2516
-5.0839	huwfng	-0.8079
-6.0382	huwj	-0.2724
-5.1931	huwjc	-0.2686
-6.0382	huwju	-0.2724
-4.1297	huwng	-0.4161
-5.7371	huwng…	-0.3800
-5.1351	huwowfng	-0.2472
-3.5895	huwowng	-0.4734
-3.2785	huwowrng	-0.7391
-4.4700	huwowsc	-0.3156
-6.0382	huwowsm	-0.2680
-3.2915	huwowsng	-0.4864
-5.2600	huwowu	-0.2688
-5.4361	huwoẃng	-0.2714
-5.2600	huwow̉ng	-0.3061
-5.7371	huwrng	-0.2509
-3.9968	huwsa	-0.7750
-4.7371	huwsc	-0.2599
-3.8679	huwsng	-0.5345
-4.2186	huwu	-0.3898
-5.4361	huwxng	-0.3030
-3.4516	huwxu	-0.5413
-5.7371	huẃa	-0.2516
-6.0382	huẃc	-0.2726
-5.4361	huẃng	-0.4895
-5.3392	huw̃u	-0.3121
-5.7371	hux	-0.2725
-6.0382	huxm	-0.2715
-3.7878	huy	-0.4816
-4.0514	huyeefn	-0.7645
-3.6764	huyeejn	-0.4230
-5.2600	huyeejt	-0.2619
-4.9590	huyeen	-0.3483
-3.9111	huyeest	-0.5648
-5.7371	huyeexn	-0.2513
-5.5610	huyeẹn	-0.2472
-4.4584	huyfnh	-0.4048
-6.0382	huyme	-0.2708
-4.0514	huynh	-0.3555
-5.0382	huyr	-0.2678
-6.0382	huysch	-0.2713
-5.1931	huyst	-0.5198
-5.7371	hùng	-0.2726
-5.5610	hủy	-0.2726
-6.0382	hưow̉ng	-0.2726
-5.7371	hvg	-0.2709
-5.7371	hvn	-0.3817
-6.0382	hw	-0.2726
-6.0382	hwa	-0.2694
-6.0382	hwan	-0.2724
-4.9968	hwang	-0.2726
-4.0088	hy	-1.3927
-5.7371	hybrid	-0.3819
-5.7371	hyderabad	-0.2513
-6.0382	hydro	-0.2712
-5.1351	hye	-0.5643
-5.4361	hygge	-0.2579
-5.3392	hyo	-0.6806
-5.7371	hys	-0.2673
-5.5610	hyuk	-0.2667
-5.4361	hyun	-0.3030
-5.4361	hyuna	-0.2642
-5.4361	hyundai	-0.3782
-6.0382	hyunseung	-0.2712
-6.0382	h’ree	-0.2516
-4.5067	i	-0.4293
-6.0382	ia	-0.2726
-5.7371	iaapa	-0.2700
-6.0382	iaea	-0.2693
-6.0382	ian	-0.2726
-6.0382	ianthe	-0.2726
-5.5610	iberia	-0.3201
-6.0382	ibrahim	-0.2706
-5.7371	ibrahimovic	-0.2501
-6.0382	ibt	-0.2675
-6.0382	ibuprofen	-0.2723
-4.8920	ic	-0.5129
-6.0382	ice	-0.2693
-5.5610	iceland	-0.2451
-4.8920	icheck	-0.4961
-6.0382	icon	-0.2724
-4.9968	id	-0.3105
-6.0382	ida	-0.2516
-6.0382	idecaf	-0.2711
-4.9590	idol	-0.2811
-6.0382	idolgroup	-0.2705
-6.0382	ieen	-0.2716
-6.0382	ielts	-0.2516
-4.8920	if	-0.3474
-5.7371	ifan	-0.2725
-6.0382	ifeng	-0.2715
-6.0382	ifttt	-0.2690
-6.0382	igor	-0.2726
-4.7594	ii	-0.3476
-5.1931	iii	-0.3569
-5.5610	ijch	-0.2516
-6.0382	ijff	-0.2714
-5.4361	iker	-0.6157
-5.0839	il	-0.3499
-6.0382	ildar	-0.2726
-6.0382	illinois	-0.2722
-5.7371	ilopango	-0.2712
-4.3392	im	-0.7017
-4.9968	imf	-0.4343
-4.2600	in	-0.3179
-5.7371	inbox	-0.2724
-5.1931	inc	-1.0675
-5.3392	incentra	-0.2668
-6.0382	incheon	-0.2720
-6.0382	incom	-0.2725
-5.7371	incredibles	-0.3804
-6.0382	inda	-0.2725
-5.7371	index	-0.2671
-6.0382	india	-0.2724
-6.0382	indices	-0.2703
-5.7371	indie	-0.2491
-6.0382	indiegogo	-0.2693
-4.4819	indonesia	-0.5339
-5.7371	indonesiaindonesiathees	-0.3820
-6.0382	indoraptor	-0.2723
-6.0382	indus	-0.2675
-6.0382	industry	-0.2726
-6.0382	ines	-0.2726
-5.7371	infantino	-0.2725
-5.5610	infinite	-0.2700
-5.5610	infinity	-0.3426
-6.0382	influence	-0.2726
-6.0382	influenzae	-0.2722
-6.0382	infocus#mytourddija	-0.2721
-5.1931	inh	-1.0886
-5.7371	iniesta	-0.2708
